{"type":"LSTM","options":{"inputSize":29,"inputRange":29,"hiddenLayers":[20,20],"outputSize":29,"decayRate":0.999,"smoothEps":1e-8,"regc":0.000001,"clipval":5,"maxPredictionLength":100,"dataFormatter":{"indexTable":{"J":0,"a":1,"n":2,"e":3," ":4,"s":5,"w":6,"D":7,"o":8,"u":9,"g":10,".":11,"S":12,"p":13,"t":14,"d":15,"l":16,"k":17,"i":18,"c":19,"h":20,"r":21,"I":22,"v":23,"f":24,",":25,"y":26,"m":27,"unrecognized":28},"characterTable":{"0":"J","1":"a","2":"n","3":"e","4":" ","5":"s","6":"w","7":"D","8":"o","9":"u","10":"g","11":".","12":"S","13":"p","14":"t","15":"d","16":"l","17":"k","18":"i","19":"c","20":"h","21":"r","22":"I","23":"v","24":"f","25":",","26":"y","27":"m","28":null},"values":["Jane saw Doug.","Doug saw Jane.","Spot saw Doug and Jane looking at each other.","It was love at first sight, and Spot had a frontrow seat. It was a very special moment for all.","Doug loved Jane.","Jane tolerated Doug."],"characters":["J","a","n","e"," ","s","w","D","o","u","g",".","S","p","t","d","l","k","i","c","h","r","I","v","f",",","y","m","unrecognized"],"specialIndexes":[28]}},"input":{"rows":30,"columns":29,"weights":{"0":-1.612635612487793,"1":1.2743481397628784,"2":4.217644691467285,"3":0.1826891303062439,"4":0.5341039299964905,"5":-2.1630687713623047,"6":-1.185265302658081,"7":-1.6065231561660767,"8":0.6766741275787354,"9":1.5635669231414795,"10":0.3827823996543884,"11":-0.7924420833587646,"12":-0.30582717061042786,"13":3.261556386947632,"14":1.5504213571548462,"15":-1.9639642238616943,"16":1.630506992340088,"17":-0.9616995453834534,"18":-1.0408885478973389,"19":-1.151949405670166,"20":2.4391770362854004,"21":-1.1899558305740356,"22":1.452168345451355,"23":-2.284489631652832,"24":2.5999555587768555,"25":-0.34824371337890625,"26":-0.3807869553565979,"27":3.3754079341888428,"28":1.172548770904541,"29":-0.40453624725341797,"30":-2.938655138015747,"31":-1.9556797742843628,"32":-1.2788445949554443,"33":-0.40354329347610474,"34":2.0695290565490723,"35":3.4356987476348877,"36":1.5732495784759521,"37":-3.227229118347168,"38":-1.6788761615753174,"39":-4.081619739532471,"40":0.47859859466552734,"41":-1.0408073663711548,"42":2.019655227661133,"43":-0.9464797377586365,"44":1.9245307445526123,"45":-1.14014732837677,"46":2.0794739723205566,"47":-1.380651593208313,"48":-4.6261420249938965,"49":1.0088952779769897,"50":-0.6491089463233948,"51":1.5637078285217285,"52":2.9819998741149902,"53":0.43819624185562134,"54":-3.1535847187042236,"55":-1.5212022066116333,"56":2.6531758308410645,"57":-3.3745157718658447,"58":-2.2033088207244873,"59":1.1579209566116333,"60":1.0099937915802002,"61":-1.972682237625122,"62":1.213690161705017,"63":-1.0780677795410156,"64":-1.560516119003296,"65":-0.6262943744659424,"66":3.6206343173980713,"67":1.7044181823730469,"68":1.1466028690338135,"69":-3.439976930618286,"70":-0.9902549982070923,"71":-0.40907448530197144,"72":0.7093191146850586,"73":-0.28193920850753784,"74":3.002937078475952,"75":3.686476469039917,"76":-0.8936679363250732,"77":-1.7430601119995117,"78":-5.172515392303467,"79":-1.0009933710098267,"80":-0.017022589221596718,"81":-0.7866072058677673,"82":1.6905380487442017,"83":0.2897094786167145,"84":-2.086888313293457,"85":-1.7464361190795898,"86":4.195563316345215,"87":2.481667995452881,"88":1.1976407766342163,"89":-1.4866870641708374,"90":-0.01982724666595459,"91":0.6857970356941223,"92":0.4715152978897095,"93":0.784801721572876,"94":-0.5861306190490723,"95":-1.460123062133789,"96":-2.179872989654541,"97":1.1464970111846924,"98":-1.1859021186828613,"99":-0.07492582499980927,"100":2.804386854171753,"101":-1.2890501022338867,"102":-0.3691328763961792,"103":-0.6724422574043274,"104":0.7356590628623962,"105":0.525092601776123,"106":-0.16024991869926453,"107":4.285906791687012,"108":-0.20706580579280853,"109":1.2913603782653809,"110":2.5349488258361816,"111":-0.8658521175384521,"112":-1.5176763534545898,"113":1.4564104080200195,"114":1.734031081199646,"115":-0.6665645241737366,"116":2.1726527214050293,"117":1.8809723854064941,"118":-1.9034810066223145,"119":-0.5887206792831421,"120":-1.4285190105438232,"121":0.681851863861084,"122":0.5018907189369202,"123":2.4720475673675537,"124":-2.0453996658325195,"125":-0.07986370474100113,"126":-0.13095395267009735,"127":1.6844279766082764,"128":-2.0891361236572266,"129":-1.9671900272369385,"130":-3.0184144973754883,"131":2.049736976623535,"132":-1.07162606716156,"133":0.8332993388175964,"134":0.9863158464431763,"135":1.357141137123108,"136":-0.9023140668869019,"137":0.5508300065994263,"138":1.0815770626068115,"139":0.010101426392793655,"140":-1.368791103363037,"141":2.8246490955352783,"142":1.467678427696228,"143":-3.69814133644104,"144":2.0218615531921387,"145":-1.2285432815551758,"146":-3.2894651889801025,"147":-0.7616956830024719,"148":-3.8919618129730225,"149":2.011493682861328,"150":0.9217796325683594,"151":-1.917913794517517,"152":-1.8445076942443848,"153":-0.5882177352905273,"154":-4.231537818908691,"155":1.4278600215911865,"156":0.22335383296012878,"157":-1.8604934215545654,"158":-0.8343883156776428,"159":-1.0208625793457031,"160":1.2926161289215088,"161":-0.6765199899673462,"162":3.7932121753692627,"163":-0.09396693855524063,"164":-1.0799020528793335,"165":0.3042260408401489,"166":-2.388976573944092,"167":0.34967538714408875,"168":4.077367782592773,"169":2.4606289863586426,"170":-2.821396589279175,"171":-0.048270806670188904,"172":-2.0240468978881836,"173":0.5783206224441528,"174":-4.286794662475586,"175":0.6846655011177063,"176":4.321381568908691,"177":6.038922309875488,"178":-0.9423211812973022,"179":4.509543418884277,"180":-1.859789490699768,"181":-0.9544289112091064,"182":-0.6877331733703613,"183":2.4807333946228027,"184":-4.1709980964660645,"185":-0.6430357098579407,"186":-0.9450316429138184,"187":-7.125911235809326,"188":1.2206746339797974,"189":-1.635505199432373,"190":4.721481800079346,"191":-1.1909195184707642,"192":1.8615952730178833,"193":3.4279332160949707,"194":-5.561295509338379,"195":2.2522497177124023,"196":-1.1489436626434326,"197":0.26370561122894287,"198":1.4398713111877441,"199":2.140410900115967,"200":-1.671154499053955,"201":-4.001853942871094,"202":1.4471032619476318,"203":-3.6776435375213623,"204":-0.4099302589893341,"205":-1.0712279081344604,"206":1.1802000999450684,"207":-3.5855777263641357,"208":2.0573959350585938,"209":0.17412787675857544,"210":1.2688698768615723,"211":-0.8329387903213501,"212":1.151065468788147,"213":-2.4220988750457764,"214":-0.2885146141052246,"215":3.876471757888794,"216":-4.318985939025879,"217":2.6737277507781982,"218":0.02802189439535141,"219":-0.5209264755249023,"220":-0.8911713361740112,"221":1.4107441902160645,"222":3.0908641815185547,"223":-2.326212167739868,"224":6.2963995933532715,"225":3.593916654586792,"226":-6.388296604156494,"227":-2.5957069396972656,"228":-0.07108893990516663,"229":-0.14291346073150635,"230":1.8645498752593994,"231":-2.824845790863037,"232":-1.6659607887268066,"233":-4.794800758361816,"234":2.016676187515259,"235":3.6984434127807617,"236":1.2560245990753174,"237":-4.111547470092773,"238":-1.8495656251907349,"239":-2.26973819732666,"240":-0.9728507995605469,"241":3.1795835494995117,"242":-1.3870575428009033,"243":-4.217099189758301,"244":1.1592679023742676,"245":-1.7186014652252197,"246":8.327971458435059,"247":-1.9264861345291138,"248":-0.22889071702957153,"249":-1.1347321271896362,"250":0.26766207814216614,"251":0.2399221956729889,"252":-1.001140832901001,"253":2.5934760570526123,"254":0.870373010635376,"255":0.1463341861963272,"256":2.9507768154144287,"257":0.5421801209449768,"258":-1.0500688552856445,"259":1.2520383596420288,"260":-1.325535774230957,"261":1.5262471437454224,"262":-2.978632688522339,"263":-3.0618176460266113,"264":1.0564967393875122,"265":-2.8659563064575195,"266":-1.8874268531799316,"267":4.645514965057373,"268":-1.3030617237091064,"269":-0.9050971865653992,"270":-0.16064868867397308,"271":-3.1375246047973633,"272":2.199549436569214,"273":1.8972220420837402,"274":3.080780506134033,"275":-0.26777946949005127,"276":-0.6575973629951477,"277":1.4733442068099976,"278":-0.8268821239471436,"279":-1.2653735876083374,"280":-0.810373842716217,"281":1.7602158784866333,"282":-1.3687328100204468,"283":-0.03223056346178055,"284":4.147618293762207,"285":0.5015290379524231,"286":-1.0541698932647705,"287":-1.1384798288345337,"288":2.7580630779266357,"289":-4.31183385848999,"290":3.3486807346343994,"291":1.4339159727096558,"292":-1.7915654182434082,"293":0.15991656482219696,"294":1.0751817226409912,"295":0.9285897016525269,"296":-1.0951958894729614,"297":0.7460864186286926,"298":-0.12897837162017822,"299":-1.4959914684295654,"300":2.9844918251037598,"301":-1.989203691482544,"302":-3.166694402694702,"303":-3.11875319480896,"304":-2.723574638366699,"305":0.44204476475715637,"306":-0.08428069949150085,"307":0.6540655493736267,"308":2.937826156616211,"309":3.2877676486968994,"310":-1.7224966287612915,"311":-0.04269813746213913,"312":3.20444655418396,"313":0.4664449095726013,"314":-1.6079566478729248,"315":1.7392085790634155,"316":0.9942994117736816,"317":-1.0754327774047852,"318":1.097054123878479,"319":1.8164169788360596,"320":0.6823967695236206,"321":1.6997292041778564,"322":1.527362585067749,"323":1.051199197769165,"324":-2.7576889991760254,"325":-2.30590558052063,"326":-2.8844754695892334,"327":-2.7325327396392822,"328":1.0842986106872559,"329":2.662365674972534,"330":0.6346128582954407,"331":-0.7789719104766846,"332":0.5356035232543945,"333":-1.5304867029190063,"334":-0.07126880437135696,"335":-1.402961015701294,"336":-3.2974326610565186,"337":5.157210350036621,"338":4.893180847167969,"339":-1.2701091766357422,"340":-0.5115640163421631,"341":1.7636240720748901,"342":-0.8198643922805786,"343":-1.7822250127792358,"344":2.8266360759735107,"345":-1.1223533153533936,"346":-0.14989128708839417,"347":0.30716046690940857,"348":-3.235297441482544,"349":-3.2344255447387695,"350":0.4606035649776459,"351":-2.6808252334594727,"352":4.125561714172363,"353":-1.9850624799728394,"354":-0.42942753434181213,"355":-0.15437091886997223,"356":1.1764906644821167,"357":-0.6929154396057129,"358":1.5694338083267212,"359":-4.034733772277832,"360":1.6882351636886597,"361":-1.2746481895446777,"362":1.2399194240570068,"363":1.0104258060455322,"364":-1.7239279747009277,"365":3.896578073501587,"366":-2.056137800216675,"367":-2.6825742721557617,"368":-0.47619661688804626,"369":3.451334238052368,"370":-0.9544113874435425,"371":0.25467196106910706,"372":1.0812511444091797,"373":-0.3619360029697418,"374":1.2917777299880981,"375":1.7953598499298096,"376":0.6921974420547485,"377":0.849074125289917,"378":2.1725995540618896,"379":4.179052829742432,"380":-3.586982011795044,"381":-2.1414575576782227,"382":-4.955219745635986,"383":-3.6848928928375244,"384":0.9226648211479187,"385":6.864355564117432,"386":1.8262510299682617,"387":5.738337516784668,"388":3.464118719100952,"389":-3.3916022777557373,"390":1.7103261947631836,"391":3.0761876106262207,"392":0.8784990906715393,"393":-1.7608357667922974,"394":0.020674992352724075,"395":-5.46099853515625,"396":0.04252631217241287,"397":-2.8060686588287354,"398":3.1661274433135986,"399":-5.77966833114624,"400":-2.8209388256073,"401":0.7348504066467285,"402":0.7697114944458008,"403":1.4202808141708374,"404":-1.510048747062683,"405":0.3721221685409546,"406":0.5544176697731018,"407":-3.0959131717681885,"408":-1.618044137954712,"409":-3.3052163124084473,"410":-5.275361061096191,"411":0.2554978132247925,"412":0.16896341741085052,"413":-1.1690865755081177,"414":-1.7012664079666138,"415":2.433673620223999,"416":-2.3107662200927734,"417":4.267988681793213,"418":3.6540584564208984,"419":3.743464469909668,"420":-0.8510403633117676,"421":-1.6036241054534912,"422":1.7708308696746826,"423":-0.13291974365711212,"424":0.7050706744194031,"425":-1.3109439611434937,"426":1.5571728944778442,"427":2.5857081413269043,"428":-2.907116413116455,"429":-2.208019495010376,"430":-4.009917259216309,"431":2.0743515491485596,"432":4.509200096130371,"433":2.474644184112549,"434":-1.509408712387085,"435":1.1146137714385986,"436":-0.06100304797291756,"437":-2.515936851501465,"438":3.365802049636841,"439":3.861198902130127,"440":-4.385342597961426,"441":1.1818870306015015,"442":-1.9519926309585571,"443":-2.639389753341675,"444":2.4728775024414062,"445":-1.6482452154159546,"446":-5.065901279449463,"447":-0.6204748749732971,"448":-1.5344974994659424,"449":2.0163707733154297,"450":-3.045804500579834,"451":-0.35454925894737244,"452":-1.0827988386154175,"453":-0.7944980263710022,"454":4.451642990112305,"455":-2.844461441040039,"456":7.719062328338623,"457":-0.4849317967891693,"458":-4.25002908706665,"459":0.5395523905754089,"460":-0.9537845253944397,"461":0.2960951328277588,"462":-2.2236502170562744,"463":2.132256269454956,"464":0.3637121021747589,"465":-2.153857469558716,"466":1.9354383945465088,"467":1.7979058027267456,"468":3.0911340713500977,"469":-4.872379302978516,"470":-3.6432108879089355,"471":1.128660798072815,"472":0.6155844330787659,"473":-1.2759103775024414,"474":2.0300049781799316,"475":-6.286133766174316,"476":-0.42621687054634094,"477":-1.8737612962722778,"478":3.9838955402374268,"479":-0.9898383617401123,"480":-4.3414998054504395,"481":1.4349340200424194,"482":-0.6628373861312866,"483":-1.111909031867981,"484":-1.937300443649292,"485":3.9970505237579346,"486":0.04275103658437729,"487":1.9271968603134155,"488":0.17055250704288483,"489":-0.7330622673034668,"490":-3.795273542404175,"491":0.44873395562171936,"492":-0.7022788524627686,"493":-2.0649144649505615,"494":-2.2438783645629883,"495":-0.9985640048980713,"496":4.40576171875,"497":0.8773714900016785,"498":-1.5601680278778076,"499":-1.194603443145752,"500":-2.2402687072753906,"501":1.2647488117218018,"502":-0.2629675269126892,"503":-2.413266658782959,"504":-1.5343115329742432,"505":3.50044322013855,"506":-4.069815635681152,"507":3.6473312377929688,"508":-3.859813690185547,"509":-0.0271409060806036,"510":0.8860020041465759,"511":0.693108856678009,"512":2.754210948944092,"513":-2.547053098678589,"514":1.961487054824829,"515":-0.15947134792804718,"516":2.0325889587402344,"517":1.2064403295516968,"518":2.991182565689087,"519":-0.47426319122314453,"520":-2.2848713397979736,"521":2.391136646270752,"522":-2.5838050842285156,"523":-4.27912712097168,"524":4.157286643981934,"525":-3.4169750213623047,"526":-10.648931503295898,"527":4.27946662902832,"528":-5.568387985229492,"529":5.223072052001953,"530":5.503304958343506,"531":5.52196741104126,"532":-3.3282651901245117,"533":0.08192314952611923,"534":0.7667453289031982,"535":-1.172885775566101,"536":-3.5949203968048096,"537":-5.397963523864746,"538":8.388961791992188,"539":-7.041473388671875,"540":-4.474121570587158,"541":-3.2417960166931152,"542":-4.172408580780029,"543":-2.0752861499786377,"544":-3.4134433269500732,"545":-9.41592025756836,"546":0.09643669426441193,"547":2.6577446460723877,"548":2.6933748722076416,"549":-6.014714241027832,"550":-3.6856226921081543,"551":-0.40983253717422485,"552":-5.133716106414795,"553":3.59499454498291,"554":1.072636365890503,"555":-0.6094058752059937,"556":-5.701353549957275,"557":-0.2943974435329437,"558":-0.004018500912934542,"559":2.2115070819854736,"560":-1.8586150407791138,"561":-0.2856702506542206,"562":3.9433820247650146,"563":-2.28696870803833,"564":5.562891483306885,"565":-2.31941556930542,"566":1.1591575145721436,"567":2.54518723487854,"568":-1.5734846591949463,"569":-1.9573267698287964,"570":-4.844198226928711,"571":2.2506470680236816,"572":-2.344316244125366,"573":-0.9982380270957947,"574":1.934173822402954,"575":-0.368463933467865,"576":-3.194880247116089,"577":3.250941514968872,"578":1.409070611000061,"579":-1.0907821655273438,"580":0.08753492683172226,"581":8.327790260314941,"582":0.4756622016429901,"583":-1.0634472370147705,"584":-2.9236388206481934,"585":4.394024848937988,"586":2.4605109691619873,"587":1.5061287879943848,"588":-2.05688738822937,"589":-1.840137243270874,"590":-5.243562698364258,"591":1.6281136274337769,"592":6.633513927459717,"593":6.369887828826904,"594":-0.5091783404350281,"595":-0.6927962303161621,"596":-2.528172016143799,"597":1.9855316877365112,"598":0.47042396664619446,"599":2.164547920227051,"600":6.118803024291992,"601":-5.159414291381836,"602":-3.5307583808898926,"603":2.657142400741577,"604":-4.098781108856201,"605":2.937317132949829,"606":0.44823646545410156,"607":3.0235157012939453,"608":-3.2874209880828857,"609":4.27292537689209,"610":4.284226894378662,"611":-3.7599687576293945,"612":-0.3324340879917145,"613":-2.288743019104004,"614":4.6080474853515625,"615":0.9053963422775269,"616":3.757988691329956,"617":-5.180222511291504,"618":-5.94515323638916,"619":2.6002871990203857,"620":-0.6180822253227234,"621":-5.684416770935059,"622":3.731685161590576,"623":-6.240653991699219,"624":3.5424108505249023,"625":-11.72340202331543,"626":-2.3040547370910645,"627":8.815732955932617,"628":4.284948348999023,"629":-0.9043656587600708,"630":-1.6524360179901123,"631":5.785227298736572,"632":-3.375810384750366,"633":-9.207197189331055,"634":2.566833257675171,"635":-1.7669075727462769,"636":1.2870991230010986,"637":-3.239384412765503,"638":0.026275061070919037,"639":5.275384426116943,"640":-0.9224197268486023,"641":-5.403062343597412,"642":0.2817733883857727,"643":4.45809268951416,"644":-0.16896438598632812,"645":3.770494222640991,"646":-3.150263547897339,"647":-1.636040210723877,"648":2.50052547454834,"649":2.24910831451416,"650":-1.5196889638900757,"651":3.128178596496582,"652":-3.5433881282806396,"653":2.430182695388794,"654":-0.985661506652832,"655":1.7878687381744385,"656":4.467701435089111,"657":-1.8013216257095337,"658":0.27330467104911804,"659":-6.550495624542236,"660":-2.207134485244751,"661":-0.6318517923355103,"662":-4.910516738891602,"663":-2.8665292263031006,"664":-1.469700574874878,"665":2.200202226638794,"666":-3.4052999019622803,"667":-3.2470881938934326,"668":-0.695380449295044,"669":-2.2537992000579834,"670":-1.1239519119262695,"671":11.240586280822754,"672":-0.8729877471923828,"673":4.701610088348389,"674":-3.4818830490112305,"675":-3.6574583053588867,"676":-5.250838756561279,"677":-1.6435827016830444,"678":-0.029479727149009705,"679":10.291000366210938,"680":-13.287227630615234,"681":3.8655967712402344,"682":1.021533727645874,"683":-6.001960277557373,"684":-0.0228949673473835,"685":6.3144330978393555,"686":12.773597717285156,"687":4.955885887145996,"688":7.970690727233887,"689":-1.9877183437347412,"690":-2.279031753540039,"691":3.508176803588867,"692":-1.0686544179916382,"693":0.9016624093055725,"694":2.793349027633667,"695":-4.402498245239258,"696":-1.541170358657837,"697":-2.2391743659973145,"698":2.8708810806274414,"699":1.9934051036834717,"700":-0.001140814507380128,"701":-1.7948905229568481,"702":-5.1027140617370605,"703":-1.6007887125015259,"704":0.16070322692394257,"705":7.531307697296143,"706":-4.920938491821289,"707":0.6449081301689148,"708":5.180293560028076,"709":-2.7772536277770996,"710":2.392503023147583,"711":-1.9870259761810303,"712":0.36472874879837036,"713":-4.906764507293701,"714":0.6850890517234802,"715":1.3608343601226807,"716":-4.488266944885254,"717":2.9459643363952637,"718":-4.827021598815918,"719":2.614872694015503,"720":4.915576457977295,"721":5.705697536468506,"722":3.331845283508301,"723":-5.059603214263916,"724":3.848696231842041,"725":0.4947682023048401,"726":4.9813714027404785,"727":1.9486955404281616,"728":0.7019301056861877,"729":1.7137280702590942,"730":12.884602546691895,"731":5.014127731323242,"732":3.893233060836792,"733":-2.034156322479248,"734":2.14921236038208,"735":-5.204215049743652,"736":-4.079342365264893,"737":-2.054434299468994,"738":-6.806806564331055,"739":0.40217119455337524,"740":1.40589439868927,"741":-0.5604822039604187,"742":0.8117210268974304,"743":5.726933002471924,"744":1.3394379615783691,"745":-2.043290138244629,"746":-2.0890631675720215,"747":-4.189620018005371,"748":-0.8992347717285156,"749":-6.878912925720215,"750":-3.9639058113098145,"751":-4.836379528045654,"752":-9.285296440124512,"753":2.905393123626709,"754":3.0791921615600586,"755":2.149226427078247,"756":-4.794550895690918,"757":-2.170280933380127,"758":-4.255465030670166,"759":2.8769006729125977,"760":-4.460188865661621,"761":2.8609654903411865,"762":-6.052321910858154,"763":-2.5255508422851562,"764":-4.549111366271973,"765":-0.6286917924880981,"766":2.484433174133301,"767":-10.65787124633789,"768":-2.81180477142334,"769":6.687936782836914,"770":-0.11247674375772476,"771":2.8204712867736816,"772":3.3169641494750977,"773":1.5831702947616577,"774":-4.641468524932861,"775":8.834794998168945,"776":1.6063610315322876,"777":-2.4003400802612305,"778":-8.733034133911133,"779":-3.8339943885803223,"780":1.892209768295288,"781":-6.564475059509277,"782":9.259537696838379,"783":-4.2781171798706055,"784":-18.8528995513916,"785":-2.577580213546753,"786":5.016456604003906,"787":-4.801987648010254,"788":-1.7336914539337158,"789":0.073953777551651,"790":-2.727447748184204,"791":-4.305360794067383,"792":-1.5031616687774658,"793":-6.670760631561279,"794":5.246218681335449,"795":1.4141284227371216,"796":0.9272950291633606,"797":5.561563014984131,"798":-0.3889075517654419,"799":0.10752267390489578,"800":-3.812323808670044,"801":-7.256719589233398,"802":-6.054190158843994,"803":-2.647676467895508,"804":3.819775104522705,"805":-7.3851399421691895,"806":1.4912344217300415,"807":-1.7967621088027954,"808":-3.612426519393921,"809":9.060050964355469,"810":0.49615928530693054,"811":-0.004217514302581549,"812":-0.3049064874649048,"813":2.281687021255493,"814":-6.0182342529296875,"815":-16.39725112915039,"816":-6.027904987335205,"817":-0.7700771689414978,"818":2.1685736179351807,"819":4.069370269775391,"820":-0.8199135661125183,"821":-6.145806312561035,"822":10.470122337341309,"823":-10.889410972595215,"824":-0.8724591135978699,"825":5.721280097961426,"826":-5.873828887939453,"827":-7.018725395202637,"828":3.3297603130340576,"829":5.725778579711914,"830":1.3456634283065796,"831":-0.9785434007644653,"832":2.83392596244812,"833":4.812294006347656,"834":11.203560829162598,"835":-7.958935260772705,"836":-1.9777398109436035,"837":-5.183333396911621,"838":0.596483588218689,"839":7.981856346130371,"840":-9.59386157989502,"841":-2.5230729579925537,"842":1.6896682977676392,"843":-3.3022265434265137,"844":-6.272785663604736,"845":7.262760639190674,"846":-1.279409646987915,"847":3.9884510040283203,"848":-0.38579222559928894,"849":6.0842742919921875,"850":-2.2495341300964355,"851":-0.695702314376831,"852":2.510636329650879,"853":0.18389420211315155,"854":4.763001441955566,"855":-2.1617844104766846,"856":3.334825038909912,"857":4.697269916534424,"858":3.610847234725952,"859":0.4433126151561737,"860":1.027777910232544,"861":2.1106512546539307,"862":-3.031691789627075,"863":3.579113245010376,"864":-2.3859338760375977,"865":2.1664116382598877,"866":-4.656703948974609,"867":-6.120584011077881,"868":5.882339954376221,"869":-0.8727189302444458}},"hiddenLayers":[{"inputMatrix":{"rows":20,"columns":29,"weights":{"0":-2.043095111846924,"1":-1.5137401819229126,"2":1.2483015060424805,"3":0.4913408160209656,"4":-1.1150883436203003,"5":-0.564818799495697,"6":-0.5102736353874207,"7":0.3542921245098114,"8":0.8020655512809753,"9":-0.026591559872031212,"10":-3.8243863582611084,"11":1.9284660816192627,"12":0.0047113546170294285,"13":1.7194329500198364,"14":2.132491111755371,"15":0.34050846099853516,"16":-0.32114553451538086,"17":-1.6176265478134155,"18":-2.307539224624634,"19":0.5503880977630615,"20":0.0177179966121912,"21":-1.731414556503296,"22":-2.014671802520752,"23":2.3948564529418945,"24":3.1003308296203613,"25":-0.2225905954837799,"26":-3.4196219444274902,"27":-0.8390036821365356,"28":1.2768030166625977,"29":0.1452566683292389,"30":0.4586654603481293,"31":-1.7582156658172607,"32":-0.16717198491096497,"33":2.6304452419281006,"34":0.1360713541507721,"35":0.8364213109016418,"36":0.45785433053970337,"37":-2.6503958702087402,"38":-0.6388505697250366,"39":1.633003830909729,"40":-2.2882649898529053,"41":-0.23278352618217468,"42":-0.4068230092525482,"43":0.5978649258613586,"44":0.773898720741272,"45":-2.1087992191314697,"46":-0.22950896620750427,"47":0.708134114742279,"48":0.9027318358421326,"49":2.2280118465423584,"50":0.5567482113838196,"51":4.019986629486084,"52":0.5015403628349304,"53":2.2097554206848145,"54":-2.47599196434021,"55":-0.8556473851203918,"56":2.7612617015838623,"57":-1.9574424028396606,"58":-2.0352838039398193,"59":-0.43835851550102234,"60":0.7336278557777405,"61":-1.0268739461898804,"62":1.9798818826675415,"63":1.4387751817703247,"64":1.135101556777954,"65":1.818202257156372,"66":0.4031912088394165,"67":-2.060708999633789,"68":1.477532148361206,"69":-2.253420114517212,"70":0.4662884771823883,"71":0.1883603036403656,"72":0.39338165521621704,"73":0.8303256630897522,"74":-3.278563976287842,"75":0.060041144490242004,"76":1.2593181133270264,"77":2.3613266944885254,"78":1.0556949377059937,"79":0.14272767305374146,"80":1.858249306678772,"81":1.012900710105896,"82":-1.0350550413131714,"83":-1.9813984632492065,"84":-2.9942448139190674,"85":3.783585548400879,"86":-3.621246576309204,"87":-0.6670594811439514,"88":2.2733802795410156,"89":0.3105098605155945,"90":-0.8873715400695801,"91":0.5842388868331909,"92":-2.2388992309570312,"93":-2.601142168045044,"94":0.6191256046295166,"95":1.5552425384521484,"96":-1.5961408615112305,"97":0.3046126365661621,"98":-0.7100393176078796,"99":-0.8633994460105896,"100":-4.61655855178833,"101":0.8248410224914551,"102":0.19632960855960846,"103":-0.38213345408439636,"104":4.355447292327881,"105":-1.2687339782714844,"106":0.5742064118385315,"107":0.6159557700157166,"108":2.7765612602233887,"109":1.8105151653289795,"110":1.529257893562317,"111":2.8360087871551514,"112":1.8531030416488647,"113":0.8652284741401672,"114":-0.8264735341072083,"115":1.939879298210144,"116":0.8636858463287354,"117":3.6889731884002686,"118":-2.7881007194519043,"119":0.42670074105262756,"120":1.603651523590088,"121":2.0876340866088867,"122":0.5077886581420898,"123":-1.0562002658843994,"124":0.420589417219162,"125":0.9749014377593994,"126":-1.2917264699935913,"127":-1.6617146730422974,"128":-1.7891005277633667,"129":-2.4507272243499756,"130":-0.7817491292953491,"131":0.017806651070713997,"132":1.7096645832061768,"133":-0.5566585659980774,"134":1.4385685920715332,"135":2.4342434406280518,"136":-0.5051586031913757,"137":0.17708951234817505,"138":0.7743839621543884,"139":-2.6907923221588135,"140":-1.1518608331680298,"141":3.564927816390991,"142":-0.0496966652572155,"143":-1.2776563167572021,"144":1.5490057468414307,"145":-0.6104347109794617,"146":-1.4159321784973145,"147":0.488540917634964,"148":-0.9093392491340637,"149":3.000584363937378,"150":-2.073575496673584,"151":-2.6767005920410156,"152":-1.0268967151641846,"153":2.558943033218384,"154":0.534146249294281,"155":1.4934661388397217,"156":-2.187492847442627,"157":-1.9101053476333618,"158":0.20297273993492126,"159":-0.10570426285266876,"160":-0.41364404559135437,"161":0.7694377899169922,"162":0.8839630484580994,"163":-0.502000093460083,"164":0.47025159001350403,"165":-1.2390533685684204,"166":1.0034459829330444,"167":2.0092363357543945,"168":-0.8951926827430725,"169":1.3254541158676147,"170":1.7481303215026855,"171":-1.3354027271270752,"172":1.037754774093628,"173":-1.2515881061553955,"174":2.313054323196411,"175":5.211239814758301,"176":0.2087121158838272,"177":-0.628123939037323,"178":-2.758188247680664,"179":3.4134292602539062,"180":-0.7980547547340393,"181":2.702589273452759,"182":-2.1975386142730713,"183":-1.3106486797332764,"184":2.566133737564087,"185":1.4593082666397095,"186":-2.7896435260772705,"187":-1.1985509395599365,"188":-1.39769446849823,"189":2.337538719177246,"190":0.20102500915527344,"191":-1.1486741304397583,"192":1.9785621166229248,"193":1.7608692646026611,"194":-0.9010717868804932,"195":1.8460217714309692,"196":-1.0606359243392944,"197":-3.561876058578491,"198":-2.265446424484253,"199":3.4591028690338135,"200":-0.029280582442879677,"201":0.20766711235046387,"202":-0.38642436265945435,"203":-1.264811396598816,"204":-2.392965078353882,"205":1.02225661277771,"206":0.6573213338851929,"207":-1.6217402219772339,"208":0.7038574814796448,"209":0.5648190379142761,"210":0.5714266300201416,"211":0.47374147176742554,"212":0.07157251983880997,"213":-4.698759078979492,"214":-0.9077869653701782,"215":3.089198350906372,"216":-2.5207178592681885,"217":1.394301414489746,"218":-1.0123264789581299,"219":-0.4787828326225281,"220":0.2786974012851715,"221":0.5828161239624023,"222":1.656288504600525,"223":-0.5799959301948547,"224":2.2323496341705322,"225":-1.2289292812347412,"226":0.7411302328109741,"227":0.3499503433704376,"228":0.014890273101627827,"229":-0.5651296377182007,"230":0.08877699077129364,"231":-3.00705623626709,"232":0.69846510887146,"233":-2.287513494491577,"234":-2.089768886566162,"235":-1.389857530593872,"236":-2.3782455921173096,"237":1.64788818359375,"238":1.806373119354248,"239":1.0990359783172607,"240":-1.0674971342086792,"241":-1.457848072052002,"242":-0.674624502658844,"243":2.52458119392395,"244":0.18975891172885895,"245":1.5496879816055298,"246":-1.648054838180542,"247":0.4761402904987335,"248":-0.40910977125167847,"249":0.2933809161186218,"250":-0.7378632426261902,"251":-2.021289587020874,"252":-0.6357134580612183,"253":-2.209596633911133,"254":-2.361729621887207,"255":1.4117059707641602,"256":-1.092468023300171,"257":-0.6530603170394897,"258":0.7969604730606079,"259":-0.005096917040646076,"260":-1.996707797050476,"261":4.1334967613220215,"262":-0.40657973289489746,"263":-0.7197410464286804,"264":2.779287338256836,"265":1.071220874786377,"266":-1.3702994585037231,"267":-0.8414801359176636,"268":-1.7317947149276733,"269":-0.14684605598449707,"270":-0.5503014922142029,"271":1.4419529438018799,"272":-1.6130993366241455,"273":-0.6906185150146484,"274":0.271208792924881,"275":0.2923152446746826,"276":-3.644949436187744,"277":-0.041730623692274094,"278":-2.7609994411468506,"279":2.318319797515869,"280":0.9589245915412903,"281":1.4484233856201172,"282":1.8626179695129395,"283":0.8052830100059509,"284":-0.33924600481987,"285":-1.3355820178985596,"286":-0.7037279009819031,"287":0.5896210670471191,"288":1.7967461347579956,"289":-2.888622760772705,"290":0.4645286500453949,"291":3.0276007652282715,"292":-1.0522863864898682,"293":-1.7941529750823975,"294":1.3339921236038208,"295":1.5449981689453125,"296":2.0469343662261963,"297":1.1119756698608398,"298":0.13280713558197021,"299":-1.1282529830932617,"300":0.5328221917152405,"301":0.015966501086950302,"302":-0.6802534461021423,"303":-0.24926961958408356,"304":0.2949256896972656,"305":4.321310043334961,"306":-0.98884117603302,"307":4.285522937774658,"308":-0.3162533640861511,"309":0.2257588654756546,"310":0.8416185975074768,"311":-0.7477507591247559,"312":-1.1523025035858154,"313":0.24510900676250458,"314":0.7972996234893799,"315":-2.092414617538452,"316":0.9380446076393127,"317":0.15656810998916626,"318":0.25076913833618164,"319":-0.703889012336731,"320":2.369509696960449,"321":0.5952962636947632,"322":2.6399383544921875,"323":0.42922043800354004,"324":2.0276784896850586,"325":3.4739272594451904,"326":-1.3313066959381104,"327":-1.3273227214813232,"328":0.403474897146225,"329":-2.3581900596618652,"330":0.05863093212246895,"331":0.5443275570869446,"332":2.4915566444396973,"333":0.23848548531532288,"334":0.09272940456867218,"335":-0.5248719453811646,"336":-1.2581127882003784,"337":2.095987319946289,"338":1.8712241649627686,"339":3.158315896987915,"340":0.7022725343704224,"341":0.0212129894644022,"342":-3.967714548110962,"343":-1.9534584283828735,"344":-1.5515501499176025,"345":-3.0650110244750977,"346":4.372845649719238,"347":-2.7734153270721436,"348":-1.7582178115844727,"349":1.0176609754562378,"350":1.871817708015442,"351":1.586122751235962,"352":0.544331431388855,"353":0.07698072493076324,"354":-2.870872974395752,"355":-1.3577929735183716,"356":0.20152896642684937,"357":2.147264003753662,"358":-0.26368457078933716,"359":-3.0622024536132812,"360":1.3515809774398804,"361":-1.776747703552246,"362":3.067281484603882,"363":-0.3504519760608673,"364":0.00011561378050828353,"365":-1.2037826776504517,"366":-0.42377418279647827,"367":3.548482894897461,"368":0.42074841260910034,"369":0.5402014851570129,"370":0.38465073704719543,"371":-1.8215296268463135,"372":1.8774588108062744,"373":1.4504501819610596,"374":-1.227070689201355,"375":-0.6161372065544128,"376":2.266129732131958,"377":1.0844061374664307,"378":0.009883787482976913,"379":-1.291881799697876,"380":-0.16327129304409027,"381":-0.7745388746261597,"382":-1.387775182723999,"383":3.732994794845581,"384":0.1554567515850067,"385":-0.7527347803115845,"386":-0.07778974622488022,"387":-0.5378003716468811,"388":-0.3839378356933594,"389":0.06461797654628754,"390":4.166949272155762,"391":-1.4473979473114014,"392":-0.6515354514122009,"393":0.2607838213443756,"394":-0.7885890007019043,"395":-0.782752275466919,"396":-4.071710109710693,"397":2.9845094680786133,"398":0.331770122051239,"399":0.4147586524486542,"400":1.4396934509277344,"401":-1.459477424621582,"402":0.5859118700027466,"403":3.0589356422424316,"404":3.88729190826416,"405":-2.4737839698791504,"406":-1.4010107517242432,"407":-2.69087815284729,"408":-0.7223374843597412,"409":-0.1564757227897644,"410":1.5697537660598755,"411":0.7397761344909668,"412":-0.6360255479812622,"413":-1.4185906648635864,"414":-2.526956796646118,"415":0.9998952150344849,"416":-1.5142931938171387,"417":-0.2031061202287674,"418":-1.3489398956298828,"419":3.796323537826538,"420":-0.8151283860206604,"421":-1.7215808629989624,"422":1.1414778232574463,"423":-1.2010531425476074,"424":1.842146873474121,"425":0.45345544815063477,"426":3.6295509338378906,"427":-4.569645881652832,"428":2.2386362552642822,"429":1.0546845197677612,"430":0.5520429611206055,"431":-0.42779144644737244,"432":-3.1370811462402344,"433":2.688697576522827,"434":-3.8364031314849854,"435":1.191632628440857,"436":-0.8604775071144104,"437":-0.7492392659187317,"438":1.4657951593399048,"439":-0.4257756471633911,"440":-0.693728506565094,"441":3.2095627784729004,"442":-0.3914045989513397,"443":1.5741174221038818,"444":-0.13015899062156677,"445":-1.2121728658676147,"446":-2.889876127243042,"447":1.6240779161453247,"448":2.8472158908843994,"449":0.7689851522445679,"450":-1.3516203165054321,"451":1.1639447212219238,"452":-0.251667320728302,"453":-1.5059045553207397,"454":-2.4583961963653564,"455":2.860567092895508,"456":0.3699295222759247,"457":0.8109938502311707,"458":0.8295878171920776,"459":-0.8402195572853088,"460":-0.23089680075645447,"461":1.6632258892059326,"462":6.0084428787231445,"463":-2.6147682666778564,"464":0.4866846203804016,"465":-1.2366316318511963,"466":1.099283218383789,"467":1.8846769332885742,"468":-0.6094005107879639,"469":-5.482522487640381,"470":-0.01993459276854992,"471":-0.9145520925521851,"472":-0.035667188465595245,"473":2.845588207244873,"474":0.4202098250389099,"475":0.7900161147117615,"476":1.9243743419647217,"477":1.6880390644073486,"478":0.6352150440216064,"479":-1.2742104530334473,"480":-1.3762868642807007,"481":-1.181103229522705,"482":-0.4598281681537628,"483":0.5121801495552063,"484":-0.7921074032783508,"485":2.0535507202148438,"486":-2.4256105422973633,"487":-0.24225154519081116,"488":0.47185319662094116,"489":0.8719778656959534,"490":2.220924139022827,"491":0.8395849466323853,"492":-0.5563955903053284,"493":-0.7007898092269897,"494":-2.838646173477173,"495":-0.746303379535675,"496":3.6063425540924072,"497":-0.3518321216106415,"498":1.8338412046432495,"499":-0.6006012558937073,"500":-0.5433068871498108,"501":-4.329986572265625,"502":2.061290740966797,"503":-4.6092681884765625,"504":0.6119696497917175,"505":1.6521971225738525,"506":-1.2026311159133911,"507":1.0442551374435425,"508":0.24218618869781494,"509":-0.7382725477218628,"510":-2.7389841079711914,"511":2.088926076889038,"512":1.3580970764160156,"513":-0.4436836242675781,"514":0.32861024141311646,"515":1.1495834589004517,"516":-1.6530112028121948,"517":-1.0994007587432861,"518":1.934212565422058,"519":1.9194432497024536,"520":-2.587900400161743,"521":-0.14327068626880646,"522":-2.3293378353118896,"523":-0.6152888536453247,"524":0.08282396197319031,"525":3.2755260467529297,"526":-0.9101821184158325,"527":-0.6873551607131958,"528":1.742832064628601,"529":-4.5436296463012695,"530":-2.0120999813079834,"531":0.5665597915649414,"532":-1.1475917100906372,"533":1.9956294298171997,"534":1.516884207725525,"535":0.7620207071304321,"536":2.864591121673584,"537":-1.7069933414459229,"538":-0.3890231251716614,"539":-1.8709059953689575,"540":1.401697039604187,"541":0.26828932762145996,"542":2.599620819091797,"543":0.8947528600692749,"544":-1.38080894947052,"545":-1.0039305686950684,"546":0.8260893821716309,"547":1.6441055536270142,"548":-0.7654518485069275,"549":1.7321155071258545,"550":-1.0319364070892334,"551":-1.0824565887451172,"552":-0.16898830235004425,"553":1.177368402481079,"554":1.5864511728286743,"555":0.04281105473637581,"556":-1.3354136943817139,"557":-2.168433427810669,"558":-0.22231678664684296,"559":1.9348145723342896,"560":2.221787691116333,"561":-0.17567655444145203,"562":-1.6508890390396118,"563":-1.2646546363830566,"564":-2.439781665802002,"565":2.501539945602417,"566":-1.7563753128051758,"567":-0.5079343914985657,"568":-0.8390638828277588,"569":-0.61627596616745,"570":1.1408281326293945,"571":-1.9402134418487549,"572":1.3719505071640015,"573":1.50057053565979,"574":0.15445737540721893,"575":2.7781643867492676,"576":1.4000043869018555,"577":-1.831823468208313,"578":-1.832972526550293,"579":1.9167418479919434}},"inputHidden":{"rows":20,"columns":20,"weights":{"0":2.8508832454681396,"1":-5.358648300170898,"2":-0.24391116201877594,"3":3.2028164863586426,"4":-1.7055432796478271,"5":3.5484659671783447,"6":0.7118269205093384,"7":-1.797603964805603,"8":-0.02587921731173992,"9":-2.513134717941284,"10":0.5622538924217224,"11":-3.6449379920959473,"12":-4.281482696533203,"13":3.604487180709839,"14":-2.188032865524292,"15":2.4686436653137207,"16":-0.31764304637908936,"17":3.5752856731414795,"18":2.7694482803344727,"19":-1.395166277885437,"20":-1.7299021482467651,"21":-3.4626684188842773,"22":0.858415424823761,"23":-0.9493981599807739,"24":-0.32342472672462463,"25":2.126711368560791,"26":-0.8635023832321167,"27":-0.14844030141830444,"28":2.0472915172576904,"29":0.36215388774871826,"30":-2.8295624256134033,"31":0.1418578326702118,"32":0.28478673100471497,"33":2.365051507949829,"34":-0.5777645111083984,"35":-0.7348862886428833,"36":-1.1037834882736206,"37":2.0553078651428223,"38":-0.8686016201972961,"39":-0.43090182542800903,"40":-2.7240846157073975,"41":-0.19798777997493744,"42":-1.1988435983657837,"43":0.5948725938796997,"44":1.1183860301971436,"45":-0.7511181235313416,"46":-5.3376030921936035,"47":-1.1271710395812988,"48":0.5768603682518005,"49":-0.9555140137672424,"50":-0.3001931309700012,"51":5.910101890563965,"52":2.24942684173584,"53":1.5748199224472046,"54":5.59028434753418,"55":2.667846918106079,"56":-0.002337068784981966,"57":-2.2193357944488525,"58":4.41786527633667,"59":-2.826219320297241,"60":-1.476347804069519,"61":1.5125864744186401,"62":0.341373473405838,"63":-1.0516473054885864,"64":2.3153274059295654,"65":0.11189984530210495,"66":1.6454815864562988,"67":1.0154036283493042,"68":1.1820437908172607,"69":-3.3753349781036377,"70":1.6055148839950562,"71":3.8301045894622803,"72":2.7691268920898438,"73":-0.027239598333835602,"74":2.500152349472046,"75":-3.312554121017456,"76":-1.111169457435608,"77":-2.038405418395996,"78":-0.6169360876083374,"79":-2.664433479309082,"80":-4.338527202606201,"81":-3.1073896884918213,"82":-0.2950696051120758,"83":-1.0032247304916382,"84":1.5313607454299927,"85":-1.1205815076828003,"86":2.6154258251190186,"87":-0.8067073225975037,"88":-4.523218631744385,"89":-0.9800888895988464,"90":0.30580875277519226,"91":0.9962331652641296,"92":-1.2017452716827393,"93":3.0365889072418213,"94":1.6231727600097656,"95":-3.2369587421417236,"96":-2.1432387828826904,"97":0.5989745259284973,"98":1.3864562511444092,"99":0.7345958948135376,"100":2.1929996013641357,"101":1.5648880004882812,"102":-0.584888219833374,"103":0.8137606978416443,"104":-0.2508961856365204,"105":-0.5662275552749634,"106":1.2693524360656738,"107":2.208089590072632,"108":2.3279826641082764,"109":-1.7699178457260132,"110":1.1829242706298828,"111":0.900557279586792,"112":0.31479766964912415,"113":-0.5550925135612488,"114":-0.8602474331855774,"115":2.3811028003692627,"116":-0.4923710227012634,"117":-1.1529266834259033,"118":-1.6654720306396484,"119":1.2163280248641968,"120":1.6974108219146729,"121":-3.7672643661499023,"122":-0.11011563241481781,"123":-1.964795708656311,"124":0.7317094802856445,"125":1.1823478937149048,"126":1.234452486038208,"127":1.0565354824066162,"128":2.7706685066223145,"129":-0.529653012752533,"130":2.14795184135437,"131":-0.8946782350540161,"132":-0.16786888241767883,"133":0.9356696605682373,"134":0.10307324677705765,"135":2.6117007732391357,"136":-1.5483530759811401,"137":0.06864771991968155,"138":-1.1709473133087158,"139":-0.5498247146606445,"140":0.29030656814575195,"141":0.5839079022407532,"142":2.978957176208496,"143":2.0229685306549072,"144":-1.6149355173110962,"145":0.8735656142234802,"146":0.18556809425354004,"147":1.0610302686691284,"148":-0.8041039705276489,"149":1.0524779558181763,"150":0.701058566570282,"151":2.630977153778076,"152":-1.15444016456604,"153":0.1885174661874771,"154":2.0490968227386475,"155":-1.8672306537628174,"156":-0.7791563272476196,"157":-1.181632161140442,"158":0.9499356150627136,"159":-1.641593337059021,"160":1.4199899435043335,"161":1.984014630317688,"162":-0.48878970742225647,"163":-1.1287645101547241,"164":0.6418509483337402,"165":-0.7260395288467407,"166":0.6372660398483276,"167":-0.12383610755205154,"168":1.41757071018219,"169":0.14491289854049683,"170":-1.988455891609192,"171":-1.4140219688415527,"172":1.2000240087509155,"173":1.5154519081115723,"174":1.2691978216171265,"175":-0.2543680667877197,"176":-1.7369810342788696,"177":1.0873757600784302,"178":2.6252849102020264,"179":-1.1645750999450684,"180":-0.598642110824585,"181":-3.5467634201049805,"182":-0.6642811298370361,"183":-2.1178817749023438,"184":3.7859866619110107,"185":-1.3290607929229736,"186":5.370108604431152,"187":-1.5831433534622192,"188":-1.9438517093658447,"189":-3.7949087619781494,"190":-2.038360834121704,"191":1.4480462074279785,"192":-1.2143088579177856,"193":1.5134848356246948,"194":0.5866080522537231,"195":-0.9263889789581299,"196":-1.146738886833191,"197":1.370978832244873,"198":1.403664469718933,"199":0.3118671178817749,"200":-3.8440465927124023,"201":0.507627546787262,"202":1.6946640014648438,"203":0.8646783828735352,"204":-2.1690404415130615,"205":1.181939721107483,"206":-0.3500949740409851,"207":-2.01806378364563,"208":-0.6306727528572083,"209":-0.3783005475997925,"210":1.2242305278778076,"211":0.400324285030365,"212":-0.2748022973537445,"213":1.1017177104949951,"214":0.9749388098716736,"215":1.0721361637115479,"216":-1.8533432483673096,"217":0.10585880279541016,"218":0.7750363945960999,"219":-1.7685400247573853,"220":0.563950777053833,"221":-0.9551669359207153,"222":0.6450514793395996,"223":0.19704577326774597,"224":-1.95955491065979,"225":-0.5745833516120911,"226":0.4084843099117279,"227":-0.2894875705242157,"228":0.18764042854309082,"229":0.11974623799324036,"230":-0.04467971995472908,"231":0.552679181098938,"232":-1.8036625385284424,"233":-0.43674570322036743,"234":0.6544820070266724,"235":1.2726246118545532,"236":-0.5426815748214722,"237":0.9140439033508301,"238":1.533104419708252,"239":1.621641755104065,"240":1.2384870052337646,"241":4.120156764984131,"242":-0.8148758411407471,"243":-3.1838736534118652,"244":1.5146416425704956,"245":3.186946153640747,"246":1.6187896728515625,"247":-0.7612475156784058,"248":0.15782490372657776,"249":1.6140942573547363,"250":0.677933931350708,"251":2.6198055744171143,"252":3.6125242710113525,"253":-4.319371223449707,"254":0.9071527719497681,"255":-1.0038095712661743,"256":2.299722671508789,"257":3.6506972312927246,"258":1.0586777925491333,"259":2.8706226348876953,"260":-1.0216641426086426,"261":-2.4112582206726074,"262":0.22197024524211884,"263":-1.573042869567871,"264":2.3871896266937256,"265":-1.4308043718338013,"266":0.6576666235923767,"267":-0.3008084297180176,"268":-1.1604799032211304,"269":-0.2665146291255951,"270":0.29158487915992737,"271":1.0572940111160278,"272":-1.7037360668182373,"273":0.1869029402732849,"274":-1.712058663368225,"275":0.8157395720481873,"276":-0.08370987325906754,"277":-0.551159679889679,"278":0.8211495280265808,"279":-0.9535163044929504,"280":0.17000021040439606,"281":-1.9833091497421265,"282":0.3796044588088989,"283":1.193013310432434,"284":0.3360925316810608,"285":0.6956033706665039,"286":-0.3220239579677582,"287":-0.7163307666778564,"288":1.6423194408416748,"289":1.1747746467590332,"290":1.4327677488327026,"291":-2.5733046531677246,"292":-0.8789832592010498,"293":-1.5658618211746216,"294":-0.45356735587120056,"295":1.3428949117660522,"296":0.554961621761322,"297":1.992210865020752,"298":-3.06219744682312,"299":1.2207220792770386,"300":3.29569149017334,"301":-2.7607572078704834,"302":-1.49724543094635,"303":-0.5671077370643616,"304":2.6151084899902344,"305":-0.7920762896537781,"306":4.116887092590332,"307":-0.055928029119968414,"308":0.6141571998596191,"309":-1.5046597719192505,"310":2.2609353065490723,"311":-0.594738781452179,"312":-1.0782045125961304,"313":-0.8180156350135803,"314":-0.6983487606048584,"315":-1.6574289798736572,"316":-1.7708016633987427,"317":0.7512801289558411,"318":0.7959468364715576,"319":-1.330608606338501,"320":-2.3062477111816406,"321":-0.43925485014915466,"322":-3.2085607051849365,"323":-0.9224382638931274,"324":1.8103501796722412,"325":-2.5129458904266357,"326":1.7676583528518677,"327":0.7353630065917969,"328":0.0025172745808959007,"329":-1.1194533109664917,"330":2.769256353378296,"331":0.636907160282135,"332":-2.534092903137207,"333":0.19657999277114868,"334":-0.668401300907135,"335":2.069669723510742,"336":1.5936379432678223,"337":0.09688656032085419,"338":-1.0240272283554077,"339":-1.5136451721191406,"340":0.19981801509857178,"341":0.5889269113540649,"342":2.530451774597168,"343":1.3355201482772827,"344":-1.877238154411316,"345":-1.483099102973938,"346":0.08649718016386032,"347":-2.177628755569458,"348":-0.1540926843881607,"349":1.2525994777679443,"350":0.8518309593200684,"351":0.4577843248844147,"352":-0.6166814565658569,"353":-1.736303687095642,"354":-0.1151324063539505,"355":-0.40357735753059387,"356":0.8184267282485962,"357":1.7293492555618286,"358":1.396212100982666,"359":0.5852047801017761,"360":1.159538745880127,"361":-1.0948461294174194,"362":1.082784652709961,"363":0.6844878792762756,"364":0.6572231650352478,"365":-0.20117783546447754,"366":0.8716453313827515,"367":1.0528925657272339,"368":1.4819597005844116,"369":-1.2926632165908813,"370":0.13767582178115845,"371":0.3696509897708893,"372":0.39918583631515503,"373":-1.1647659540176392,"374":0.5048890709877014,"375":-1.2741929292678833,"376":-0.14744333922863007,"377":-2.2387218475341797,"378":-0.22622761130332947,"379":-0.2999061346054077,"380":-0.853398323059082,"381":-0.9136577844619751,"382":-0.5046554207801819,"383":-1.0889360904693604,"384":-0.1418018341064453,"385":0.8417744636535645,"386":-0.3740769326686859,"387":0.5021149516105652,"388":0.2675796449184418,"389":-0.9639575481414795,"390":1.7277145385742188,"391":1.7272146940231323,"392":-1.2382175922393799,"393":-1.2968143224716187,"394":2.024259567260742,"395":-1.3605411052703857,"396":0.4879956543445587,"397":0.32333695888519287,"398":0.5461968183517456,"399":-0.3956961929798126}},"inputBias":{"rows":20,"columns":1,"weights":{"0":-0.9487857818603516,"1":-0.3045191466808319,"2":-0.820753812789917,"3":-1.062085509300232,"4":-0.390159547328949,"5":-0.7757568955421448,"6":-0.2557792067527771,"7":-2.6673824787139893,"8":-0.527080237865448,"9":0.11666563153266907,"10":-0.4930403530597687,"11":-0.32764163613319397,"12":1.6816134452819824,"13":-0.07425802946090698,"14":-0.13138353824615479,"15":-0.013064556755125523,"16":-1.066778302192688,"17":-1.1687651872634888,"18":-0.23187284171581268,"19":-1.5133421421051025}},"forgetMatrix":{"rows":20,"columns":29,"weights":{"0":-0.22185929119586945,"1":-1.703070044517517,"2":0.8276109099388123,"3":0.9989345073699951,"4":-1.1781277656555176,"5":-0.9592317342758179,"6":-0.4846184253692627,"7":0.30619487166404724,"8":1.5557174682617188,"9":0.9969104528427124,"10":-1.9735465049743652,"11":1.2309540510177612,"12":0.5467298626899719,"13":0.5651628971099854,"14":1.6093766689300537,"15":-1.1241286993026733,"16":1.7990069389343262,"17":-0.9295170903205872,"18":-1.0508143901824951,"19":-1.3978774547576904,"20":0.030237412080168724,"21":-0.75996994972229,"22":-1.4807813167572021,"23":1.351938247680664,"24":0.6126380562782288,"25":1.174392819404602,"26":2.3434832096099854,"27":0.5312060117721558,"28":0.5178268551826477,"29":-1.838086485862732,"30":-1.7254923582077026,"31":0.3498867154121399,"32":-0.7735368013381958,"33":0.6199727058410645,"34":-1.540314793586731,"35":2.2942779064178467,"36":-0.8344998359680176,"37":0.08695442974567413,"38":-0.6074668765068054,"39":-0.8591753244400024,"40":-1.805781364440918,"41":0.7988346815109253,"42":2.4799623489379883,"43":0.6575834155082703,"44":0.009641112759709358,"45":0.13510428369045258,"46":-0.6155036687850952,"47":-1.3927258253097534,"48":-1.4557065963745117,"49":2.185877561569214,"50":-2.17405104637146,"51":1.630661964416504,"52":3.009572982788086,"53":0.8962106704711914,"54":-1.3429043292999268,"55":-1.1073755025863647,"56":1.960243821144104,"57":-2.945511817932129,"58":-0.5359650254249573,"59":-2.1066319942474365,"60":-1.9276940822601318,"61":-1.639228343963623,"62":-1.6963279247283936,"63":5.108367443084717,"64":3.854233503341675,"65":1.1423362493515015,"66":-1.8846116065979004,"67":-2.6216559410095215,"68":0.4108338952064514,"69":2.514535903930664,"70":1.0754833221435547,"71":0.15203654766082764,"72":0.11122143268585205,"73":2.35843825340271,"74":-1.0518003702163696,"75":0.8274173140525818,"76":-0.2794117033481598,"77":0.6910330057144165,"78":1.3430012464523315,"79":-0.5668795704841614,"80":0.23015381395816803,"81":1.2768220901489258,"82":-1.212450623512268,"83":-1.0548434257507324,"84":1.0035463571548462,"85":-0.11994092911481857,"86":-2.398277759552002,"87":-0.11049849539995193,"88":-1.4989370107650757,"89":-2.6362688541412354,"90":-2.526258707046509,"91":-2.3842239379882812,"92":0.47581973671913147,"93":-2.561703681945801,"94":-0.6085930466651917,"95":1.9179233312606812,"96":-1.306715726852417,"97":-0.07632593810558319,"98":2.0410027503967285,"99":1.1808059215545654,"100":-3.6075549125671387,"101":-1.83742094039917,"102":1.7277244329452515,"103":1.259283185005188,"104":0.8224393725395203,"105":-2.5306031703948975,"106":-0.35187292098999023,"107":-2.4832780361175537,"108":0.058244410902261734,"109":1.1666765213012695,"110":2.5631465911865234,"111":2.1360690593719482,"112":1.49595046043396,"113":2.5102086067199707,"114":-1.890885829925537,"115":3.406846761703491,"116":-3.783442974090576,"117":-1.310640573501587,"118":0.9226438403129578,"119":-1.0290391445159912,"120":-0.4731687903404236,"121":0.7887377142906189,"122":-1.2282973527908325,"123":-0.8635772466659546,"124":3.7793381214141846,"125":-0.9868097901344299,"126":0.3931025266647339,"127":-0.861881673336029,"128":3.7375617027282715,"129":-0.3888784646987915,"130":1.294974684715271,"131":-1.9630699157714844,"132":1.8092164993286133,"133":0.16415174305438995,"134":-1.7621630430221558,"135":-0.3810942471027374,"136":-1.0325745344161987,"137":-1.7293668985366821,"138":1.1292731761932373,"139":1.948468804359436,"140":2.84592342376709,"141":1.1453311443328857,"142":-1.1142131090164185,"143":0.5585384368896484,"144":-0.024707099422812462,"145":2.3803699016571045,"146":0.6516113877296448,"147":-1.5315985679626465,"148":-0.5554054379463196,"149":-1.5516513586044312,"150":0.3202713429927826,"151":1.3005244731903076,"152":1.83980131149292,"153":-0.7251932621002197,"154":-3.0347321033477783,"155":2.3015198707580566,"156":1.9529482126235962,"157":-0.5077785849571228,"158":1.2298777103424072,"159":-1.4369837045669556,"160":1.3141567707061768,"161":-2.0306501388549805,"162":0.7069726586341858,"163":1.830425500869751,"164":0.4269184470176697,"165":2.3151111602783203,"166":-1.2840297222137451,"167":0.655479907989502,"168":1.693097710609436,"169":-0.8540931344032288,"170":-0.3545297682285309,"171":-0.3922533690929413,"172":1.7815569639205933,"173":-2.6275720596313477,"174":-0.47457748651504517,"175":0.949458122253418,"176":2.4438323974609375,"177":0.9492211937904358,"178":1.7065305709838867,"179":-2.7015044689178467,"180":-2.6507692337036133,"181":-1.642879605293274,"182":-0.25433120131492615,"183":2.1243655681610107,"184":0.75595623254776,"185":-0.3004511594772339,"186":1.0737649202346802,"187":-2.3166987895965576,"188":1.7999556064605713,"189":-1.2443658113479614,"190":0.809070348739624,"191":-0.5855191946029663,"192":-0.6980712413787842,"193":0.7964582443237305,"194":-2.4467267990112305,"195":4.019143104553223,"196":-0.7853730916976929,"197":-2.1294400691986084,"198":1.62471342086792,"199":-0.15643829107284546,"200":-0.4756847321987152,"201":-1.5216593742370605,"202":1.0383598804473877,"203":0.38194602727890015,"204":-1.8345835208892822,"205":-0.3478260934352875,"206":0.1602172553539276,"207":-2.325810194015503,"208":0.5675959587097168,"209":0.5946305990219116,"210":0.6666519045829773,"211":0.7007514238357544,"212":-0.737220823764801,"213":-1.0722615718841553,"214":1.3372886180877686,"215":-0.18238021433353424,"216":1.5668216943740845,"217":-0.6937006711959839,"218":-0.05163128674030304,"219":0.1935683935880661,"220":-0.6567239165306091,"221":-0.6945374011993408,"222":-1.9514704942703247,"223":0.39436987042427063,"224":-1.9758318662643433,"225":-1.2380108833312988,"226":1.403326153755188,"227":-0.3178507089614868,"228":0.8133913278579712,"229":1.3858182430267334,"230":-0.21266089379787445,"231":-1.3499516248703003,"232":-1.7185436487197876,"233":0.09054527431726456,"234":-0.6536933183670044,"235":-0.850475013256073,"236":-0.15200383961200714,"237":0.6826204657554626,"238":-1.9122555255889893,"239":0.6036120057106018,"240":1.3598167896270752,"241":0.4200564920902252,"242":-0.3740979731082916,"243":-1.8836661577224731,"244":0.06369039416313171,"245":-2.139556407928467,"246":0.5274890661239624,"247":0.5963760614395142,"248":0.2551184296607971,"249":0.3199901878833771,"250":-1.1949315071105957,"251":1.21607506275177,"252":-3.1487202644348145,"253":0.9311916828155518,"254":0.8307061195373535,"255":-0.6772539615631104,"256":1.5167577266693115,"257":0.04952003061771393,"258":-0.053838592022657394,"259":-2.1953296661376953,"260":2.0634357929229736,"261":-1.3575716018676758,"262":-0.277218759059906,"263":2.4864516258239746,"264":1.2449613809585571,"265":1.4194307327270508,"266":-4.390385627746582,"267":-0.5793135166168213,"268":-3.5659894943237305,"269":-0.05872010812163353,"270":2.079885959625244,"271":-0.6623502969741821,"272":-1.8339656591415405,"273":0.8383696675300598,"274":-0.2337142378091812,"275":2.0764517784118652,"276":-1.880959391593933,"277":-0.49571168422698975,"278":-1.774875521659851,"279":-0.7515472769737244,"280":0.5898540019989014,"281":-1.0702849626541138,"282":1.4366146326065063,"283":-1.5698093175888062,"284":1.1010240316390991,"285":0.9771217107772827,"286":2.0111520290374756,"287":-0.6153973937034607,"288":2.0636234283447266,"289":1.0430617332458496,"290":1.4445501565933228,"291":0.5651164650917053,"292":-1.0712579488754272,"293":-1.4612666368484497,"294":1.410637378692627,"295":0.7496427297592163,"296":-1.5835524797439575,"297":0.8766643404960632,"298":-1.1031520366668701,"299":-1.2391873598098755,"300":-0.23914788663387299,"301":-1.3415740728378296,"302":-0.582098126411438,"303":-0.8985559344291687,"304":-1.8974542617797852,"305":1.4270299673080444,"306":-1.5396217107772827,"307":0.9307711720466614,"308":0.6217425465583801,"309":0.6046003699302673,"310":-2.0112082958221436,"311":-0.30906882882118225,"312":2.12568736076355,"313":-0.4318358600139618,"314":-0.8633225560188293,"315":-1.7723126411437988,"316":-1.100583791732788,"317":-0.6667913794517517,"318":1.2758749723434448,"319":-0.28510165214538574,"320":2.0620229244232178,"321":1.042281150817871,"322":1.7107750177383423,"323":-0.3942040205001831,"324":-0.2948932349681854,"325":-0.5167837738990784,"326":-0.4450438916683197,"327":-0.7571075558662415,"328":0.5161525011062622,"329":0.570633053779602,"330":1.6896716356277466,"331":0.4992159903049469,"332":-1.7328115701675415,"333":-0.1472008228302002,"334":-0.9859730005264282,"335":1.8859238624572754,"336":-0.8396026492118835,"337":0.8224638104438782,"338":2.0290870666503906,"339":-2.278684616088867,"340":2.0448591709136963,"341":-0.946547269821167,"342":-0.3519667088985443,"343":-1.0217385292053223,"344":1.9561578035354614,"345":1.3216924667358398,"346":-2.637718915939331,"347":3.1591403484344482,"348":-1.2898645401000977,"349":-1.091980218887329,"350":0.9619655609130859,"351":-1.810800313949585,"352":-1.292445182800293,"353":-2.0441133975982666,"354":0.2558176517486572,"355":-1.2524806261062622,"356":0.27786099910736084,"357":1.2718826532363892,"358":2.0343589782714844,"359":0.3917717933654785,"360":-0.8932430148124695,"361":0.6542432904243469,"362":1.4328769445419312,"363":-1.2347668409347534,"364":1.1092575788497925,"365":2.5347793102264404,"366":-3.877257823944092,"367":-2.463373899459839,"368":0.5188993811607361,"369":-0.4628884494304657,"370":-1.5202728509902954,"371":-0.6197471618652344,"372":2.191178560256958,"373":-2.6952784061431885,"374":-0.6778361797332764,"375":1.7690504789352417,"376":-1.526007056236267,"377":-1.6936317682266235,"378":-2.2025299072265625,"379":1.10891592502594,"380":-0.4010506272315979,"381":-2.3804588317871094,"382":-2.2228007316589355,"383":0.44639188051223755,"384":-0.15129296481609344,"385":1.1304821968078613,"386":1.0655790567398071,"387":-2.537442207336426,"388":1.3707218170166016,"389":1.3337372541427612,"390":0.4763987064361572,"391":3.012000560760498,"392":-0.666287899017334,"393":0.9637347459793091,"394":-0.6228930354118347,"395":-2.108999490737915,"396":-0.7286924123764038,"397":-0.13193213939666748,"398":-0.09753219038248062,"399":-1.7303258180618286,"400":1.4155328273773193,"401":2.1226236820220947,"402":1.5494749546051025,"403":-1.011803150177002,"404":0.6146915555000305,"405":-0.9521169066429138,"406":1.0283582210540771,"407":0.222359299659729,"408":-1.5505788326263428,"409":1.218775749206543,"410":-3.7336905002593994,"411":0.6672166585922241,"412":2.9368622303009033,"413":1.0590704679489136,"414":-1.515965223312378,"415":-0.7494899034500122,"416":-0.6656540036201477,"417":1.2061128616333008,"418":-0.9389559030532837,"419":3.1007394790649414,"420":-0.6188642978668213,"421":0.19789397716522217,"422":0.4484671354293823,"423":-1.2248265743255615,"424":0.17341244220733643,"425":-2.0227198600769043,"426":1.358411431312561,"427":-0.5030484199523926,"428":-0.7344642281532288,"429":1.7423338890075684,"430":-1.066149115562439,"431":0.999083399772644,"432":2.22036075592041,"433":0.6867401599884033,"434":-2.935145616531372,"435":0.8243488073348999,"436":0.26509299874305725,"437":-2.3464269638061523,"438":-1.1459070444107056,"439":-0.8870987296104431,"440":0.6002013087272644,"441":0.8488908410072327,"442":-0.21066080033779144,"443":-1.0419858694076538,"444":-1.7541815042495728,"445":1.6430824995040894,"446":1.9392924308776855,"447":1.0345293283462524,"448":1.4545313119888306,"449":-1.4865784645080566,"450":0.4941168427467346,"451":0.12343765795230865,"452":1.1311765909194946,"453":0.699357271194458,"454":-1.6980173587799072,"455":1.0917853116989136,"456":-1.4537442922592163,"457":-0.344068318605423,"458":2.7207324504852295,"459":-1.5930109024047852,"460":-0.9939707517623901,"461":0.15145914256572723,"462":-0.6426557302474976,"463":-0.22345615923404694,"464":0.6689543724060059,"465":-0.3207712173461914,"466":-0.6731920838356018,"467":0.062130406498909,"468":-1.4887959957122803,"469":1.7277793884277344,"470":1.412428617477417,"471":1.6754714250564575,"472":-0.44768330454826355,"473":-0.44588229060173035,"474":-0.8256402611732483,"475":1.5166609287261963,"476":-0.31004488468170166,"477":-0.004606760572642088,"478":-2.185926914215088,"479":0.4861849248409271,"480":1.0785926580429077,"481":0.2958686053752899,"482":0.7216799259185791,"483":0.0718921422958374,"484":-0.20480415225028992,"485":-0.20491455495357513,"486":-0.6147408485412598,"487":0.2167440801858902,"488":-2.130805015563965,"489":2.177335739135742,"490":2.790013074874878,"491":-0.2767165005207062,"492":-0.6499553918838501,"493":-0.3287610411643982,"494":0.18183913826942444,"495":0.5728873610496521,"496":-0.3239020109176636,"497":1.7734371423721313,"498":-0.31236329674720764,"499":-1.3086938858032227,"500":-0.7345371842384338,"501":-0.8736090660095215,"502":0.4464820325374603,"503":0.32053276896476746,"504":-1.5582314729690552,"505":0.05633299797773361,"506":-2.0965464115142822,"507":0.5691958069801331,"508":0.46953660249710083,"509":-0.44703370332717896,"510":0.9783578515052795,"511":0.7762730121612549,"512":1.5362948179244995,"513":-1.7427330017089844,"514":2.2256643772125244,"515":0.3136381208896637,"516":-1.212999939918518,"517":0.02850491739809513,"518":-0.30701586604118347,"519":-0.30951276421546936,"520":-1.6288126707077026,"521":1.02568781375885,"522":0.8882708549499512,"523":0.9512677192687988,"524":1.461031198501587,"525":-0.22770380973815918,"526":-0.7923262119293213,"527":-1.4565140008926392,"528":0.1331615000963211,"529":-0.8772372603416443,"530":0.05570307746529579,"531":0.6106781959533691,"532":0.9572774767875671,"533":1.9739234447479248,"534":-0.6605138778686523,"535":2.2299766540527344,"536":-0.8191571831703186,"537":-2.1158547401428223,"538":-0.04094306379556656,"539":-0.7311123013496399,"540":-0.17738942801952362,"541":-0.9163699746131897,"542":0.5175085663795471,"543":-2.5452632904052734,"544":-1.0695394277572632,"545":-0.045652296394109726,"546":-0.7295920848846436,"547":0.4941529333591461,"548":-0.3568114638328552,"549":1.9005934000015259,"550":-1.4942454099655151,"551":1.415499210357666,"552":-0.16535095870494843,"553":-0.5114604234695435,"554":1.3299140930175781,"555":-1.243406891822815,"556":-1.088244915008545,"557":2.982513904571533,"558":0.3698694109916687,"559":-0.044339969754219055,"560":-0.35590124130249023,"561":-0.7893403172492981,"562":1.3781591653823853,"563":-1.3088924884796143,"564":2.3419206142425537,"565":0.344822496175766,"566":1.1649874448776245,"567":0.5024365782737732,"568":-0.49786272644996643,"569":0.3469856083393097,"570":-2.3259437084198,"571":2.7533442974090576,"572":-0.8763368725776672,"573":-0.09112263470888138,"574":1.4249935150146484,"575":-0.6598300337791443,"576":1.0903743505477905,"577":0.28375759720802307,"578":1.5561143159866333,"579":-1.1126213073730469}},"forgetHidden":{"rows":20,"columns":20,"weights":{"0":0.269327312707901,"1":-0.14031808078289032,"2":-0.3391394317150116,"3":-0.9009815454483032,"4":0.8646836280822754,"5":-0.3482919931411743,"6":0.41143926978111267,"7":0.3501737117767334,"8":4.10621452331543,"9":-0.4233826994895935,"10":1.2459361553192139,"11":-2.0493688583374023,"12":-0.7776463031768799,"13":0.9098863005638123,"14":-0.3821122944355011,"15":2.5473759174346924,"16":-0.6928141713142395,"17":0.3194100856781006,"18":-3.127312660217285,"19":0.8843099474906921,"20":1.161784291267395,"21":-0.7961726784706116,"22":-0.9721089005470276,"23":0.9696152806282043,"24":-1.0655449628829956,"25":-0.35642245411872864,"26":-1.067441463470459,"27":-0.011981151066720486,"28":0.4316069185733795,"29":0.7477604746818542,"30":0.8751313090324402,"31":0.07229048013687134,"32":0.01745404116809368,"33":0.06383829563856125,"34":0.825075089931488,"35":-0.21341001987457275,"36":0.3309263288974762,"37":0.6694660782814026,"38":0.17603246867656708,"39":-0.5206040143966675,"40":-0.7955800294876099,"41":1.5733234882354736,"42":2.2974793910980225,"43":2.472804069519043,"44":-2.941415548324585,"45":1.460767149925232,"46":-5.307939529418945,"47":-0.38170719146728516,"48":0.7856981158256531,"49":-0.4461957812309265,"50":2.4587979316711426,"51":1.1694034337997437,"52":1.9641387462615967,"53":-0.24356642365455627,"54":1.4132291078567505,"55":-0.8109267950057983,"56":1.5149588584899902,"57":-0.48266178369522095,"58":0.34227922558784485,"59":0.8772872686386108,"60":-0.9446243643760681,"61":1.185133457183838,"62":-0.8465459942817688,"63":-0.3936435580253601,"64":1.7860560417175293,"65":1.316776990890503,"66":0.38495129346847534,"67":0.10292568057775497,"68":-0.31772205233573914,"69":-0.48105093836784363,"70":-2.9405324459075928,"71":1.7694891691207886,"72":1.3926299810409546,"73":-0.8718903660774231,"74":-0.45335474610328674,"75":-0.4628952145576477,"76":0.49825653433799744,"77":0.6335551738739014,"78":1.6329830884933472,"79":0.7548180222511292,"80":-0.64361572265625,"81":0.7435128092765808,"82":0.6277894973754883,"83":2.0094153881073,"84":-0.2945183515548706,"85":0.8601403832435608,"86":-1.2317012548446655,"87":-0.03168036416172981,"88":-1.9238418340682983,"89":2.0059292316436768,"90":1.7133582830429077,"91":0.6944568157196045,"92":-2.2818052768707275,"93":-1.2263838052749634,"94":-0.10491922497749329,"95":0.7840424180030823,"96":0.11560092866420746,"97":-1.5430903434753418,"98":-1.2608973979949951,"99":-1.1702938079833984,"100":-0.33180537819862366,"101":0.8283767700195312,"102":-0.05437261983752251,"103":-2.105794906616211,"104":1.8259907960891724,"105":-1.2668181657791138,"106":0.9596656560897827,"107":-0.6532077789306641,"108":0.7441480755805969,"109":-0.48055675625801086,"110":-1.871953010559082,"111":0.2878173887729645,"112":0.3430647850036621,"113":-0.145268976688385,"114":0.6252075433731079,"115":-1.3867454528808594,"116":0.7750052809715271,"117":0.7844798564910889,"118":0.07668442279100418,"119":0.05271638557314873,"120":-0.4673270285129547,"121":-0.6127382516860962,"122":-0.10676643997430801,"123":0.1682947427034378,"124":-2.549846649169922,"125":-0.42354297637939453,"126":0.8630840182304382,"127":-2.503169059753418,"128":-0.5826495885848999,"129":-1.1051414012908936,"130":-1.3865376710891724,"131":-0.13382332026958466,"132":1.9014500379562378,"133":0.919954776763916,"134":-0.43692606687545776,"135":-1.3620612621307373,"136":2.818341016769409,"137":1.4162614345550537,"138":-0.0669158324599266,"139":3.356581211090088,"140":1.0018707513809204,"141":-2.0227818489074707,"142":1.013602614402771,"143":-1.3943790197372437,"144":1.482995629310608,"145":0.40983444452285767,"146":0.08554037660360336,"147":0.2548348307609558,"148":0.28216660022735596,"149":-0.7271746397018433,"150":0.8267399072647095,"151":-1.2277318239212036,"152":-1.129127860069275,"153":0.4525452256202698,"154":-1.275684118270874,"155":1.220620036125183,"156":-2.916889190673828,"157":-0.6852035522460938,"158":0.22339923679828644,"159":0.7501945495605469,"160":-1.1775645017623901,"161":-0.2312481850385666,"162":-0.23646396398544312,"163":0.5743211507797241,"164":0.5658289194107056,"165":-0.42456573247909546,"166":-0.9959009885787964,"167":0.7442564368247986,"168":-1.1585354804992676,"169":0.715224027633667,"170":-0.6612143516540527,"171":1.8920855522155762,"172":0.08761081844568253,"173":0.14279429614543915,"174":1.350511074066162,"175":-0.7130590081214905,"176":1.4938669204711914,"177":-1.0546866655349731,"178":0.5669794082641602,"179":-1.1072412729263306,"180":0.7814970016479492,"181":-0.960906982421875,"182":-0.5696214437484741,"183":1.1946837902069092,"184":-0.3171875774860382,"185":-1.0796866416931152,"186":-0.5666579604148865,"187":-2.0306053161621094,"188":3.5995726585388184,"189":0.18541142344474792,"190":-1.220402479171753,"191":2.1238906383514404,"192":1.2131575345993042,"193":1.329299807548523,"194":0.08750385791063309,"195":-0.6407941579818726,"196":0.09873968362808228,"197":2.257499933242798,"198":1.219149112701416,"199":-0.6130646467208862,"200":0.05266719311475754,"201":1.9285662174224854,"202":1.5604356527328491,"203":1.8506706953048706,"204":-1.5613088607788086,"205":1.4362462759017944,"206":-1.1696414947509766,"207":0.419625461101532,"208":1.275086760520935,"209":2.4282031059265137,"210":-2.3774688243865967,"211":-0.00602123374119401,"212":0.9435096383094788,"213":0.32800737023353577,"214":0.34657979011535645,"215":-0.7091143131256104,"216":0.09764605760574341,"217":-0.9303884506225586,"218":0.718270480632782,"219":-0.6173559427261353,"220":-1.5462719202041626,"221":-0.8317862749099731,"222":-0.1408284455537796,"223":-0.8135259747505188,"224":0.09635300934314728,"225":0.2647676467895508,"226":0.6917248964309692,"227":-0.013634839095175266,"228":1.7780647277832031,"229":2.649921417236328,"230":-2.110044479370117,"231":-2.279789924621582,"232":-2.3807363510131836,"233":-2.2646572589874268,"234":-1.0012539625167847,"235":1.933708906173706,"236":-0.8258866667747498,"237":2.107513904571533,"238":-1.0230070352554321,"239":0.4198313057422638,"240":0.24492695927619934,"241":-1.299960732460022,"242":-0.7877177596092224,"243":-1.4054425954818726,"244":0.503380298614502,"245":-0.17846010625362396,"246":-0.4021984934806824,"247":0.4308912456035614,"248":0.3095632791519165,"249":-0.19492486119270325,"250":1.1886905431747437,"251":0.1537119597196579,"252":1.1122061014175415,"253":-0.47692957520484924,"254":0.541053295135498,"255":-0.3532145917415619,"256":-0.5304840207099915,"257":-0.13672573864459991,"258":0.36853790283203125,"259":2.5652270317077637,"260":-0.2348809838294983,"261":0.22664086520671844,"262":-0.1629025638103485,"263":-0.30292394757270813,"264":0.4668692350387573,"265":-1.0144999027252197,"266":0.23343557119369507,"267":0.7268137335777283,"268":2.1604275703430176,"269":-0.7915923595428467,"270":0.5942282676696777,"271":-0.33410269021987915,"272":1.2650160789489746,"273":0.5907368659973145,"274":0.6581370830535889,"275":3.0074968338012695,"276":0.5082870721817017,"277":-0.23376484215259552,"278":-0.5544432997703552,"279":-0.26811984181404114,"280":0.6646038293838501,"281":-1.0321861505508423,"282":-0.5571462512016296,"283":-0.7719486951828003,"284":-0.8059719800949097,"285":-0.7943564057350159,"286":0.3492196798324585,"287":0.8957972526550293,"288":4.30393648147583,"289":-2.470334768295288,"290":0.29581013321876526,"291":-0.6664628386497498,"292":0.14908123016357422,"293":-1.9644858837127686,"294":-0.6439410448074341,"295":0.1186835989356041,"296":-0.30232471227645874,"297":-1.4492055177688599,"298":-2.73710560798645,"299":0.9898165464401245,"300":1.3719143867492676,"301":-0.023228667676448822,"302":-1.9620720148086548,"303":-0.45249539613723755,"304":0.39790958166122437,"305":-2.1869802474975586,"306":-1.9221588373184204,"307":-0.04362020269036293,"308":-0.9480659365653992,"309":0.5272039175033569,"310":0.6210915446281433,"311":2.1341750621795654,"312":-0.36572131514549255,"313":-1.7109322547912598,"314":1.6181721687316895,"315":0.503420889377594,"316":-0.7186702489852905,"317":0.6755902767181396,"318":-1.4019873142242432,"319":1.7711595296859741,"320":-1.4894390106201172,"321":-2.0511999130249023,"322":-1.3282679319381714,"323":-3.1653826236724854,"324":-0.32976874709129333,"325":1.7022013664245605,"326":1.2111895084381104,"327":-0.2889987826347351,"328":-1.638774037361145,"329":-2.410203456878662,"330":0.5985565781593323,"331":0.48131468892097473,"332":2.3434019088745117,"333":-1.6511874198913574,"334":0.7838546633720398,"335":-2.546095609664917,"336":3.4325082302093506,"337":0.04318232089281082,"338":1.5154943466186523,"339":0.15564841032028198,"340":0.5705537796020508,"341":0.4859103560447693,"342":0.06439053267240524,"343":0.7410308718681335,"344":-1.3863584995269775,"345":-1.2621445655822754,"346":-0.3002510070800781,"347":1.2529354095458984,"348":0.5135838389396667,"349":0.5296727418899536,"350":0.6478391289710999,"351":-0.3833770751953125,"352":1.6414356231689453,"353":0.3793196976184845,"354":-0.22688540816307068,"355":0.14845852553844452,"356":-1.0234375,"357":-0.4093437194824219,"358":-0.5326394438743591,"359":-1.1733219623565674,"360":-1.1210206747055054,"361":-0.227037250995636,"362":-0.5877320766448975,"363":-0.2628406882286072,"364":0.4606216847896576,"365":0.21130092442035675,"366":0.8161466717720032,"367":-0.5607589483261108,"368":-0.7385737299919128,"369":-0.004607435781508684,"370":0.16394507884979248,"371":-0.9192246794700623,"372":-1.5666024684906006,"373":-1.373831033706665,"374":0.4822666347026825,"375":-0.7540137767791748,"376":0.8396347165107727,"377":1.2810367345809937,"378":0.10009845346212387,"379":0.3237968981266022,"380":0.78065425157547,"381":-0.47763073444366455,"382":-0.8091781735420227,"383":-0.23793476819992065,"384":-0.24141255021095276,"385":-0.6067326068878174,"386":0.2767505347728729,"387":1.072082757949829,"388":0.4447285830974579,"389":-0.34471461176872253,"390":0.10122658312320709,"391":-0.5853573083877563,"392":0.2420293688774109,"393":1.2179007530212402,"394":-0.6474428176879883,"395":1.4657930135726929,"396":-0.4944547116756439,"397":0.5997344851493835,"398":-1.5334581136703491,"399":-0.6612093448638916}},"forgetBias":{"rows":20,"columns":1,"weights":{"0":0,"1":0,"2":0,"3":0,"4":0,"5":0,"6":0,"7":0,"8":0,"9":0,"10":0,"11":0,"12":0,"13":0,"14":0,"15":0,"16":0,"17":0,"18":0,"19":0}},"outputMatrix":{"rows":20,"columns":29,"weights":{"0":2.9881978034973145,"1":0.4455878734588623,"2":-1.1976902484893799,"3":0.8141400814056396,"4":-2.292539596557617,"5":-0.674443244934082,"6":4.8957109451293945,"7":2.0751125812530518,"8":-0.7645822763442993,"9":-2.3731284141540527,"10":-0.1387699544429779,"11":1.7894073724746704,"12":0.16527171432971954,"13":2.2804627418518066,"14":-1.876562476158142,"15":0.9698362350463867,"16":-0.5307968258857727,"17":0.3639230728149414,"18":-1.2344298362731934,"19":-1.7269184589385986,"20":1.0827146768569946,"21":0.5168782472610474,"22":0.03743051365017891,"23":1.2136948108673096,"24":-2.6015408039093018,"25":-1.039174199104309,"26":1.0338855981826782,"27":3.334005355834961,"28":-2.204807758331299,"29":-3.8701119422912598,"30":-3.663191795349121,"31":-0.9606543779373169,"32":1.4523380994796753,"33":2.0376951694488525,"34":-1.2157292366027832,"35":1.6783162355422974,"36":-1.539198875427246,"37":-0.8312803506851196,"38":0.833160400390625,"39":-1.182681679725647,"40":0.000817833177279681,"41":1.7104672193527222,"42":-2.662463665008545,"43":2.283963918685913,"44":0.26791271567344666,"45":-1.1819959878921509,"46":0.6858285665512085,"47":-1.2965871095657349,"48":0.7245411276817322,"49":-1.1274768114089966,"50":2.544219732284546,"51":-0.3612670302391052,"52":1.9419479370117188,"53":3.3158435821533203,"54":-1.4503979682922363,"55":-0.5590139031410217,"56":-2.213953971862793,"57":-1.3452938795089722,"58":-1.7619611024856567,"59":-0.39526981115341187,"60":-1.6651699542999268,"61":-2.2194671630859375,"62":0.9319937229156494,"63":4.481089115142822,"64":0.698353111743927,"65":0.8254503011703491,"66":0.21135573089122772,"67":0.260732501745224,"68":-0.2239970862865448,"69":-0.07453756034374237,"70":0.4506460428237915,"71":-2.3894028663635254,"72":-2.1840920448303223,"73":3.842072010040283,"74":0.9475225806236267,"75":2.0844602584838867,"76":0.5661810040473938,"77":0.0015318809309974313,"78":-1.0389324426651,"79":0.33210813999176025,"80":0.954092800617218,"81":-2.24033784866333,"82":-0.09155502170324326,"83":-0.7879690527915955,"84":-1.6267038583755493,"85":-0.9885797500610352,"86":1.1707805395126343,"87":0.16688618063926697,"88":0.9125288128852844,"89":0.14852377772331238,"90":1.459553599357605,"91":1.2197476625442505,"92":-1.4028193950653076,"93":-0.7582499980926514,"94":0.8412882685661316,"95":0.16540902853012085,"96":0.3629930913448334,"97":-0.6497478485107422,"98":-0.6829949021339417,"99":-1.7170476913452148,"100":-2.2635397911071777,"101":2.201148748397827,"102":0.6757131218910217,"103":-2.1894729137420654,"104":0.5809535980224609,"105":-0.1626359522342682,"106":2.813098430633545,"107":-1.9209145307540894,"108":-1.7560187578201294,"109":-0.13768118619918823,"110":2.2658047676086426,"111":1.7462892532348633,"112":0.09926595538854599,"113":-3.6449642181396484,"114":-3.2314229011535645,"115":1.7762027978897095,"116":0.6743162274360657,"117":-1.1713786125183105,"118":0.8244495391845703,"119":1.0967799425125122,"120":4.518923282623291,"121":-1.1399776935577393,"122":-1.830926775932312,"123":-1.7450157403945923,"124":-0.7985959053039551,"125":-0.038390956819057465,"126":0.17993097007274628,"127":-0.731095016002655,"128":-0.11592523008584976,"129":-1.694551706314087,"130":-0.30172199010849,"131":1.1521148681640625,"132":-0.2181030511856079,"133":0.4827789068222046,"134":0.8403840661048889,"135":1.701670527458191,"136":-0.945475161075592,"137":0.8796308636665344,"138":-0.5773621201515198,"139":1.0908254384994507,"140":0.8102689385414124,"141":1.3220685720443726,"142":0.39880865812301636,"143":-3.302978992462158,"144":3.8262763023376465,"145":-0.509012758731842,"146":-0.5072771906852722,"147":-1.0849603414535522,"148":-6.296562671661377,"149":0.45384085178375244,"150":0.12705868482589722,"151":-1.4976601600646973,"152":3.2164249420166016,"153":2.1453635692596436,"154":-0.7673129439353943,"155":1.5924596786499023,"156":-0.936808705329895,"157":-2.9763643741607666,"158":-0.602044939994812,"159":0.17410850524902344,"160":3.1411473751068115,"161":-1.8209089040756226,"162":4.023842811584473,"163":0.195953369140625,"164":-1.3502600193023682,"165":-1.8422346115112305,"166":-0.4925307035446167,"167":1.634026050567627,"168":0.3649061918258667,"169":-0.28293341398239136,"170":1.2300949096679688,"171":-2.5556087493896484,"172":-0.8784052729606628,"173":1.8052489757537842,"174":-0.1155349388718605,"175":1.5854737758636475,"176":-0.10863244533538818,"177":-2.557140827178955,"178":1.0199170112609863,"179":0.35190197825431824,"180":-1.3711543083190918,"181":0.21218934655189514,"182":0.5719525218009949,"183":0.08518770337104797,"184":2.499288558959961,"185":-1.4950162172317505,"186":-0.049775440245866776,"187":-2.852834939956665,"188":-1.4211766719818115,"189":0.3341783881187439,"190":-0.3846327066421509,"191":1.6997177600860596,"192":0.6598299145698547,"193":0.027559608221054077,"194":-3.0756802558898926,"195":2.5663537979125977,"196":0.4408288598060608,"197":-3.5863921642303467,"198":-0.4803396463394165,"199":0.3753690719604492,"200":-0.5651169419288635,"201":-0.10104873031377792,"202":0.9125517010688782,"203":0.05727427080273628,"204":0.7012722492218018,"205":2.598491668701172,"206":3.9985289573669434,"207":1.234392762184143,"208":0.3312457203865051,"209":-0.3494924306869507,"210":1.5811266899108887,"211":0.25026169419288635,"212":1.830012559890747,"213":-1.7955573797225952,"214":-0.5895603895187378,"215":-0.9555104970932007,"216":-1.5454059839248657,"217":4.106286525726318,"218":-2.308462381362915,"219":-0.9645563364028931,"220":-3.9108951091766357,"221":-1.3668153285980225,"222":2.7217676639556885,"223":-1.0291255712509155,"224":1.5198420286178589,"225":-1.1960585117340088,"226":-1.8716490268707275,"227":1.4634994268417358,"228":0.7079905271530151,"229":-1.7960751056671143,"230":-1.070930004119873,"231":-1.2370496988296509,"232":-0.3301328420639038,"233":-1.3004599809646606,"234":2.235713481903076,"235":2.350367546081543,"236":-1.2439757585525513,"237":-3.181530475616455,"238":1.5805038213729858,"239":-3.282532215118408,"240":1.5750219821929932,"241":1.6909937858581543,"242":-1.6877403259277344,"243":0.33107665181159973,"244":-0.12502050399780273,"245":0.9329131841659546,"246":2.1365463733673096,"247":-4.086010932922363,"248":2.1586012840270996,"249":-0.26212331652641296,"250":-4.356670379638672,"251":-2.016820192337036,"252":0.6719244122505188,"253":-1.5848398208618164,"254":-1.9176702499389648,"255":-2.0166144371032715,"256":1.7757738828659058,"257":0.4510911703109741,"258":1.347834825515747,"259":-1.28958261013031,"260":0.615462064743042,"261":2.302471876144409,"262":2.670186996459961,"263":-1.413048505783081,"264":-2.1179425716400146,"265":2.502866268157959,"266":-0.7707597613334656,"267":-1.1936144828796387,"268":1.6694097518920898,"269":-1.8174641132354736,"270":-1.5673847198486328,"271":2.000603437423706,"272":-0.283298134803772,"273":-3.621760606765747,"274":-0.364717572927475,"275":-1.870646357536316,"276":2.952881097793579,"277":-2.4327151775360107,"278":2.1848437786102295,"279":0.10156538337469101,"280":2.043625593185425,"281":-1.0946404933929443,"282":0.9667051434516907,"283":1.077712893486023,"284":-0.15050557255744934,"285":0.17721027135849,"286":-1.247467279434204,"287":-0.13217420876026154,"288":-0.6207998991012573,"289":1.7800726890563965,"290":2.2507262229919434,"291":0.4740874767303467,"292":-1.5405982732772827,"293":-2.660658121109009,"294":1.6618931293487549,"295":3.113678216934204,"296":-1.7979599237442017,"297":1.0662001371383667,"298":-1.7258808612823486,"299":-1.544168472290039,"300":3.525083303451538,"301":-0.4845220744609833,"302":-1.7108490467071533,"303":0.02148967981338501,"304":-2.7330217361450195,"305":2.3280179500579834,"306":-2.3595967292785645,"307":-0.41455554962158203,"308":3.606407880783081,"309":2.0874416828155518,"310":1.1665434837341309,"311":-2.152909517288208,"312":1.1060326099395752,"313":-0.10269693285226822,"314":-3.3311760425567627,"315":0.5010423064231873,"316":1.323960781097412,"317":-2.2243969440460205,"318":0.6432361602783203,"319":1.9458327293395996,"320":2.5356760025024414,"321":-1.4302173852920532,"322":-1.0698561668395996,"323":0.8927194476127625,"324":1.7278069257736206,"325":1.8178930282592773,"326":1.1334336996078491,"327":-1.0049468278884888,"328":-2.013913631439209,"329":0.4017868638038635,"330":0.19266894459724426,"331":-2.5308027267456055,"332":1.5397251844406128,"333":-1.5961525440216064,"334":2.246497631072998,"335":-2.373495578765869,"336":0.2047887146472931,"337":2.018779754638672,"338":1.6535954475402832,"339":2.7415082454681396,"340":-2.3081493377685547,"341":1.8451718091964722,"342":1.252716064453125,"343":0.41872021555900574,"344":-1.0712941884994507,"345":-1.588225245475769,"346":1.5397344827651978,"347":-1.0822964906692505,"348":-0.6576866507530212,"349":-1.3010612726211548,"350":-2.8979392051696777,"351":-1.2070143222808838,"352":1.9462802410125732,"353":-1.7009634971618652,"354":2.2790448665618896,"355":-0.32330310344696045,"356":0.29445257782936096,"357":-0.6031309366226196,"358":-1.3112787008285522,"359":-2.073183059692383,"360":1.3959299325942993,"361":-0.5380944609642029,"362":4.5164361000061035,"363":-0.8513596653938293,"364":-0.4180894196033478,"365":3.527395486831665,"366":-0.8816006183624268,"367":-0.018350565806031227,"368":0.38758382201194763,"369":0.4608490765094757,"370":3.007143259048462,"371":-0.5693945288658142,"372":4.348762512207031,"373":-2.181147575378418,"374":-3.6076512336730957,"375":1.2927764654159546,"376":0.0241929292678833,"377":0.1499871015548706,"378":2.5702462196350098,"379":0.2373684048652649,"380":0.5476715564727783,"381":0.8127931952476501,"382":0.7975989580154419,"383":3.3256139755249023,"384":0.16763365268707275,"385":0.11485538631677628,"386":-0.8665765523910522,"387":0.33993321657180786,"388":0.21399593353271484,"389":0.6151425242424011,"390":3.3670103549957275,"391":-1.0947792530059814,"392":0.5209265947341919,"393":0.48341116309165955,"394":-0.8177650570869446,"395":-0.6855698823928833,"396":0.884323239326477,"397":3.107867479324341,"398":-4.4402265548706055,"399":0.4866905212402344,"400":1.901908040046692,"401":0.8140260577201843,"402":0.6542666554450989,"403":-1.8708891868591309,"404":2.1602065563201904,"405":-1.8813819885253906,"406":-1.0074388980865479,"407":-0.6052404642105103,"408":-2.138263463973999,"409":-0.021207530051469803,"410":1.410095453262329,"411":-0.0821172297000885,"412":0.24840503931045532,"413":-0.8699257969856262,"414":-3.011711359024048,"415":0.31357961893081665,"416":1.8103386163711548,"417":-1.598280668258667,"418":0.23423568904399872,"419":2.605647325515747,"420":0.34198957681655884,"421":-0.3522944450378418,"422":-1.9725127220153809,"423":0.6874821782112122,"424":-0.12675879895687103,"425":0.9041592478752136,"426":2.0098235607147217,"427":-1.2979531288146973,"428":1.8627067804336548,"429":1.0030924081802368,"430":0.9852733612060547,"431":0.43299272656440735,"432":-3.5492002964019775,"433":3.42787766456604,"434":-0.6095234751701355,"435":-0.6933380365371704,"436":-0.6072670221328735,"437":-0.19098563492298126,"438":-3.310415267944336,"439":0.6325439810752869,"440":0.6301395893096924,"441":-0.3078177869319916,"442":-1.7610949277877808,"443":0.7834118604660034,"444":0.9241107106208801,"445":-0.742946445941925,"446":0.5070427656173706,"447":0.39372920989990234,"448":3.3438401222229004,"449":-0.43138453364372253,"450":0.5001040101051331,"451":1.6719413995742798,"452":1.9792143106460571,"453":-1.6819382905960083,"454":-2.6604371070861816,"455":2.2978179454803467,"456":-2.7472405433654785,"457":-0.6581704020500183,"458":0.32980066537857056,"459":-0.40764448046684265,"460":-2.1093976497650146,"461":0.3629572093486786,"462":0.7952289581298828,"463":-0.5215875506401062,"464":-0.923282265663147,"465":1.7283239364624023,"466":0.905336856842041,"467":-1.8393644094467163,"468":2.790043592453003,"469":-0.9483461976051331,"470":0.10810090601444244,"471":2.060431957244873,"472":1.1790053844451904,"473":-0.9680213332176208,"474":2.8459553718566895,"475":-1.9360274076461792,"476":-3.4441609382629395,"477":0.6291074156761169,"478":1.0440512895584106,"479":2.9041614532470703,"480":-2.538712739944458,"481":2.257999897003174,"482":-1.6629276275634766,"483":-2.6819546222686768,"484":1.3978022336959839,"485":-1.0934659242630005,"486":0.39553192257881165,"487":-0.03863788768649101,"488":1.1328771114349365,"489":-1.7857401371002197,"490":-0.10353570431470871,"491":1.2221488952636719,"492":-0.7910625338554382,"493":-2.573795795440674,"494":-1.2652422189712524,"495":2.151207685470581,"496":3.2667155265808105,"497":0.541519820690155,"498":-0.4337500333786011,"499":-0.1921771913766861,"500":-0.41917136311531067,"501":2.570949077606201,"502":1.1806336641311646,"503":-2.420897960662842,"504":-1.22853684425354,"505":1.5934535264968872,"506":-3.8645875453948975,"507":1.6081674098968506,"508":-0.4973229765892029,"509":1.4605722427368164,"510":-2.0434396266937256,"511":-1.0549709796905518,"512":0.42786434292793274,"513":-1.5806766748428345,"514":1.805087685585022,"515":-0.2410346418619156,"516":-1.787009835243225,"517":1.4454680681228638,"518":-1.8666512966156006,"519":0.9228941202163696,"520":-1.7117552757263184,"521":-0.0739164650440216,"522":-2.7259209156036377,"523":0.03937210887670517,"524":0.9626991748809814,"525":-1.06159245967865,"526":-1.404105305671692,"527":3.0627853870391846,"528":-0.1321951150894165,"529":-0.3307695686817169,"530":0.28429096937179565,"531":1.044663429260254,"532":0.17515549063682556,"533":0.8232082724571228,"534":2.176518440246582,"535":-1.0688316822052002,"536":-0.8942394852638245,"537":1.183158040046692,"538":-0.4207090735435486,"539":-1.9634017944335938,"540":2.5137250423431396,"541":1.8745744228363037,"542":-1.4521100521087646,"543":-0.8957734704017639,"544":-3.0928354263305664,"545":-0.06948115676641464,"546":-2.4189248085021973,"547":4.309961318969727,"548":3.4636785984039307,"549":-1.5940061807632446,"550":-0.21875935792922974,"551":-0.9202335476875305,"552":-0.1358024775981903,"553":3.686495065689087,"554":1.4243946075439453,"555":1.5077487230300903,"556":-4.037822246551514,"557":-2.4472930431365967,"558":-2.082481861114502,"559":1.5565285682678223,"560":2.23420786857605,"561":1.366487979888916,"562":-1.4920837879180908,"563":-1.9289131164550781,"564":1.2449406385421753,"565":1.2684886455535889,"566":-1.1622816324234009,"567":1.3925329446792603,"568":-1.6145691871643066,"569":-1.9127566814422607,"570":-0.5267331600189209,"571":-1.7944236993789673,"572":0.9089205861091614,"573":-1.2238494157791138,"574":-1.1177667379379272,"575":0.9354604482650757,"576":1.5880359411239624,"577":0.5524036288261414,"578":0.05685696750879288,"579":2.9253952503204346}},"outputHidden":{"rows":20,"columns":20,"weights":{"0":1.8016719818115234,"1":-1.1391706466674805,"2":-1.5765297412872314,"3":-2.742765426635742,"4":0.69334876537323,"5":-2.2035350799560547,"6":2.188053846359253,"7":-2.395799160003662,"8":-0.3878157436847687,"9":-2.14937162399292,"10":-2.6693315505981445,"11":-0.5063309669494629,"12":1.2508695125579834,"13":-1.7567938566207886,"14":0.6193268895149231,"15":0.20017647743225098,"16":0.9706113338470459,"17":-0.33365997672080994,"18":-1.4984625577926636,"19":1.5537652969360352,"20":-0.07067269086837769,"21":1.1085193157196045,"22":2.350996971130371,"23":0.8423466086387634,"24":-3.164602279663086,"25":2.085033893585205,"26":0.6868495941162109,"27":-1.5356446504592896,"28":-1.6093101501464844,"29":1.769244909286499,"30":1.070988416671753,"31":0.7209293246269226,"32":0.4422987699508667,"33":2.3406012058258057,"34":2.5359549522399902,"35":-1.7104700803756714,"36":1.0376578569412231,"37":-0.19065186381340027,"38":1.411802053451538,"39":-1.2929465770721436,"40":1.8138103485107422,"41":0.6400042772293091,"42":1.7213252782821655,"43":0.4017353355884552,"44":-2.438119888305664,"45":1.0936371088027954,"46":-0.43284714221954346,"47":-0.7072584629058838,"48":0.7920854091644287,"49":4.280054569244385,"50":1.8104394674301147,"51":2.6013832092285156,"52":0.01021327544003725,"53":3.318291187286377,"54":0.18469157814979553,"55":0.5805627703666687,"56":-0.467998743057251,"57":-2.98803973197937,"58":-0.12255959957838058,"59":0.21417158842086792,"60":-1.7543977499008179,"61":1.4760929346084595,"62":2.20951509475708,"63":3.8729116916656494,"64":-1.4507482051849365,"65":0.6363298296928406,"66":-2.4678256511688232,"67":3.0457310676574707,"68":-0.7311339974403381,"69":0.6026676893234253,"70":1.285559892654419,"71":-0.9179731607437134,"72":-0.10260503739118576,"73":1.1006009578704834,"74":2.6174252033233643,"75":-4.075935363769531,"76":0.8034228086471558,"77":-4.444369316101074,"78":0.1638193130493164,"79":-3.1148226261138916,"80":-2.11403751373291,"81":1.2068251371383667,"82":0.4709489345550537,"83":0.07310152053833008,"84":-0.6713087558746338,"85":-1.269158124923706,"86":-1.6765623092651367,"87":1.961032509803772,"88":-1.6813706159591675,"89":4.063083171844482,"90":-3.1324117183685303,"91":3.791368007659912,"92":2.473344564437866,"93":2.497945547103882,"94":1.897390604019165,"95":-1.9491060972213745,"96":0.4214043617248535,"97":-1.7622262239456177,"98":0.626541793346405,"99":-0.5415164232254028,"100":2.4666171073913574,"101":-1.838881015777588,"102":-0.18449155986309052,"103":1.365060567855835,"104":1.5296021699905396,"105":1.6583739519119263,"106":2.200064182281494,"107":-0.17376305162906647,"108":1.8795084953308105,"109":-1.4737995862960815,"110":0.5863344669342041,"111":0.669689953327179,"112":-2.558178424835205,"113":-0.7774768471717834,"114":-1.0214731693267822,"115":0.7322496175765991,"116":-0.5347181558609009,"117":2.3496768474578857,"118":0.3652907609939575,"119":2.0525217056274414,"120":-1.3441267013549805,"121":2.8461267948150635,"122":1.2816194295883179,"123":2.999052047729492,"124":-2.1048197746276855,"125":0.6811639070510864,"126":-1.2196300029754639,"127":0.4770980477333069,"128":-1.2844289541244507,"129":3.0079808235168457,"130":-2.591911554336548,"131":0.4212605953216553,"132":0.9484015107154846,"133":0.6303900480270386,"134":1.023290991783142,"135":0.8432399034500122,"136":-0.8425132632255554,"137":-0.7980380654335022,"138":0.16824519634246826,"139":-0.6212543845176697,"140":-0.2262563854455948,"141":1.559992790222168,"142":2.297760486602783,"143":1.3204760551452637,"144":-3.1909279823303223,"145":-1.5286632776260376,"146":-0.3015283942222595,"147":-0.34550219774246216,"148":1.1129347085952759,"149":1.1962826251983643,"150":-0.14750343561172485,"151":0.2180466502904892,"152":0.11582507193088531,"153":-1.1102726459503174,"154":0.13621218502521515,"155":-1.6805856227874756,"156":0.6904751062393188,"157":1.6484934091567993,"158":0.33737799525260925,"159":2.428300142288208,"160":-1.3515853881835938,"161":-0.7368856072425842,"162":-1.4910252094268799,"163":-1.3760806322097778,"164":1.3188982009887695,"165":-1.8743051290512085,"166":-0.6586171984672546,"167":3.2066283226013184,"168":-0.3889820873737335,"169":-2.146728038787842,"170":-0.746396005153656,"171":1.8407272100448608,"172":0.7872440814971924,"173":-0.19555002450942993,"174":2.144497871398926,"175":-1.1101653575897217,"176":0.1950501799583435,"177":0.7615164518356323,"178":1.2440398931503296,"179":-1.0979959964752197,"180":1.6873172521591187,"181":1.3689464330673218,"182":1.2685712575912476,"183":0.6832605600357056,"184":-0.07219789177179337,"185":0.40936747193336487,"186":-0.7203248143196106,"187":0.4928496778011322,"188":1.1050081253051758,"189":2.923454523086548,"190":-1.3046448230743408,"191":-0.16385939717292786,"192":0.030445367097854614,"193":0.31791651248931885,"194":0.001589493011124432,"195":-1.748813271522522,"196":1.0916906595230103,"197":-2.7735695838928223,"198":-0.9429365396499634,"199":-3.4426000118255615,"200":-0.3476440906524658,"201":1.6963796615600586,"202":-0.028303151950240135,"203":-1.0893468856811523,"204":-0.3141610026359558,"205":-0.12089641392230988,"206":-1.6437028646469116,"207":-0.7448446154594421,"208":-1.8171634674072266,"209":0.005460517946630716,"210":-5.722322940826416,"211":1.2140096426010132,"212":1.828565239906311,"213":-0.24556848406791687,"214":0.9797833561897278,"215":-0.6914910674095154,"216":-0.19598239660263062,"217":0.7770997881889343,"218":2.6882331371307373,"219":1.4972114562988281,"220":-2.688638925552368,"221":0.14356790482997894,"222":1.933701992034912,"223":0.3718184530735016,"224":-3.117248773574829,"225":0.36946728825569153,"226":0.13205523788928986,"227":0.30655544996261597,"228":-1.3464959859848022,"229":1.308997631072998,"230":-1.4099005460739136,"231":-1.3959957361221313,"232":-2.7774229049682617,"233":-0.5313740968704224,"234":-0.6350739002227783,"235":1.0429688692092896,"236":2.3685719966888428,"237":-0.27866262197494507,"238":-0.5089235901832581,"239":-1.0554717779159546,"240":2.922105312347412,"241":-0.9922807216644287,"242":0.5313305854797363,"243":-1.1896830797195435,"244":-1.125083565711975,"245":4.70773983001709,"246":1.880433440208435,"247":-2.728610038757324,"248":2.4376745223999023,"249":0.12543503940105438,"250":-0.2319587618112564,"251":-1.6240391731262207,"252":-0.9238241314888,"253":-3.0859122276306152,"254":-1.5432475805282593,"255":-0.198257178068161,"256":0.6100810766220093,"257":2.8374531269073486,"258":2.3839221000671387,"259":3.742549419403076,"260":0.4717067778110504,"261":-1.8965792655944824,"262":-0.6491950154304504,"263":-0.488673597574234,"264":0.6644706726074219,"265":0.4963146448135376,"266":-1.8637486696243286,"267":1.6610699892044067,"268":-0.5554295182228088,"269":1.558487057685852,"270":0.7941656112670898,"271":-0.20242731273174286,"272":-1.0527476072311401,"273":-4.169144630432129,"274":-0.5238113403320312,"275":1.1787474155426025,"276":-1.4961951971054077,"277":1.7456753253936768,"278":1.4487227201461792,"279":0.3509017825126648,"280":0.49699363112449646,"281":-4.224285125732422,"282":1.2695271968841553,"283":1.7225620746612549,"284":-2.6687679290771484,"285":-0.6942790746688843,"286":-1.788129210472107,"287":-0.8369431495666504,"288":2.9319283962249756,"289":-0.11718082427978516,"290":1.1235305070877075,"291":-1.764777660369873,"292":-2.107463836669922,"293":-2.526766061782837,"294":-1.812345027923584,"295":2.6375157833099365,"296":0.5174009799957275,"297":3.0397725105285645,"298":-3.134921073913574,"299":0.5103934407234192,"300":2.40275502204895,"301":1.0002245903015137,"302":0.21501775085926056,"303":-0.5166961550712585,"304":0.5968202352523804,"305":0.14295080304145813,"306":-1.1607565879821777,"307":3.183199405670166,"308":0.14019958674907684,"309":1.3858058452606201,"310":0.6815463900566101,"311":-0.8242864608764648,"312":2.551175355911255,"313":-0.1412675827741623,"314":-1.7121258974075317,"315":-0.3021317720413208,"316":-2.2349274158477783,"317":-2.1462063789367676,"318":-0.5665283799171448,"319":0.32981517910957336,"320":2.061722993850708,"321":-2.2846131324768066,"322":-3.365457057952881,"323":-1.722730278968811,"324":3.7541463375091553,"325":-1.5605981349945068,"326":1.3515596389770508,"327":-1.5147433280944824,"328":1.8605778217315674,"329":1.2933261394500732,"330":2.338467597961426,"331":2.8289010524749756,"332":-0.2702326476573944,"333":-2.0253543853759766,"334":-1.8171592950820923,"335":0.6037316918373108,"336":-0.3490855395793915,"337":3.168754816055298,"338":-0.5216243267059326,"339":2.1800994873046875,"340":-0.621853768825531,"341":-0.5071820616722107,"342":-0.39279502630233765,"343":-0.40676045417785645,"344":-0.9870570302009583,"345":-1.2839038372039795,"346":0.5869465470314026,"347":-0.5741022825241089,"348":0.18894745409488678,"349":0.18487170338630676,"350":2.3229429721832275,"351":0.6639954447746277,"352":0.5374515652656555,"353":-0.5101898312568665,"354":2.2258613109588623,"355":-0.2045745849609375,"356":1.1122515201568604,"357":-0.7772032618522644,"358":1.067836046218872,"359":-1.2679777145385742,"360":-0.31338027119636536,"361":3.49692440032959,"362":-0.7950946092605591,"363":-0.6735994815826416,"364":0.4260239601135254,"365":-0.5550186038017273,"366":-1.0025171041488647,"367":0.9835287928581238,"368":2.6582000255584717,"369":-1.138773798942566,"370":-2.9538211822509766,"371":0.2822439968585968,"372":1.6654711961746216,"373":-1.0250732898712158,"374":3.116473913192749,"375":1.6973392963409424,"376":-0.7745839357376099,"377":-1.64437997341156,"378":-1.6950006484985352,"379":2.1935250759124756,"380":2.499823808670044,"381":-3.073319435119629,"382":1.9456052780151367,"383":0.23796764016151428,"384":0.34342461824417114,"385":2.266483783721924,"386":-0.45732781291007996,"387":-0.5720576643943787,"388":2.297377586364746,"389":-0.21975818276405334,"390":1.048534631729126,"391":-1.7313445806503296,"392":0.1477077752351761,"393":-0.09589017927646637,"394":-1.9435508251190186,"395":2.533837080001831,"396":-1.699474811553955,"397":2.418107509613037,"398":0.4750095307826996,"399":2.8567028045654297}},"outputBias":{"rows":20,"columns":1,"weights":{"0":-1.9604045152664185,"1":-0.2308909147977829,"2":-1.3540641069412231,"3":-1.5316236019134521,"4":-0.41793349385261536,"5":-2.0596094131469727,"6":-0.34032100439071655,"7":-1.1276540756225586,"8":-1.3882391452789307,"9":0.08496489375829697,"10":0.261726975440979,"11":-0.5758664011955261,"12":0.9674197435379028,"13":-0.21240586042404175,"14":0.04200795292854309,"15":0.13461649417877197,"16":-0.5900530815124512,"17":-0.8423379063606262,"18":0.282897025346756,"19":-1.5782063007354736}},"cellActivationMatrix":{"rows":20,"columns":29,"weights":{"0":-0.14320501685142517,"1":1.1220120191574097,"2":-0.3418256640434265,"3":-0.24427872896194458,"4":1.1695451736450195,"5":3.078202724456787,"6":-1.1046926975250244,"7":-0.24039191007614136,"8":-1.4898236989974976,"9":0.37361323833465576,"10":2.985898017883301,"11":-1.3714027404785156,"12":0.30836981534957886,"13":-0.021700961515307426,"14":-0.6265679597854614,"15":-0.2297968566417694,"16":0.08176945149898529,"17":1.1173051595687866,"18":3.590937614440918,"19":0.4938527047634125,"20":-0.8926582932472229,"21":-0.058370787650346756,"22":0.5601373910903931,"23":-0.20468111336231232,"24":-3.430255651473999,"25":1.0744237899780273,"26":1.5591570138931274,"27":-0.4666070342063904,"28":0.5372574925422668,"29":-0.014058456756174564,"30":-0.8304539918899536,"31":-1.5360448360443115,"32":1.3732187747955322,"33":0.17524322867393494,"34":-3.9735889434814453,"35":0.41607338190078735,"36":-0.06753389537334442,"37":-0.6825652718544006,"38":-0.013725959695875645,"39":-3.19285249710083,"40":-2.2079451084136963,"41":1.2361910343170166,"42":0.29842668771743774,"43":0.12529079616069794,"44":-0.422016441822052,"45":0.3284892737865448,"46":-0.5880186557769775,"47":-1.8263596296310425,"48":-1.2831681966781616,"49":-1.3789316415786743,"50":1.5548205375671387,"51":0.488937646150589,"52":-1.252989649772644,"53":1.3955854177474976,"54":-0.3571721017360687,