{"type":"LSTM","options":{"inputSize":31,"inputRange":31,"hiddenLayers":[20,20],"outputSize":31,"decayRate":0.999,"smoothEps":1e-8,"regc":0.000001,"clipval":5,"maxPredictionLength":100,"dataFormatter":{"indexTable":{"a":0,"n":1,"d":2," ":3,"E":4,"z":5,"r":6,"b":7,"l":8,"e":9,"s":10,"t":11,"h":12,"Y":13,"w":14,",":15,"g":16,"G":17,"o":18,"p":19,"'":20,"A":21,"m":22,"i":23,"f":24,"u":25,"y":26,"c":27,"-":28,".":29,"unrecognized":30},"characterTable":{"0":"a","1":"n","2":"d","3":" ","4":"E","5":"z","6":"r","7":"b","8":"l","9":"e","10":"s","11":"t","12":"h","13":"Y","14":"w","15":",","16":"g","17":"G","18":"o","19":"p","20":"'","21":"A","22":"m","23":"i","24":"f","25":"u","26":"y","27":"c","28":"-","29":".","30":null},"values":["and Ezra blesseth","Yahweh, the great","God, and all","the people answer,","'Amen, Amen,' with","lifting up of","their hands, and","they bow and","do obeisance to","Yahweh -- faces","to the earth."],"characters":["a","n","d"," ","E","z","r","b","l","e","s","t","h","Y","w",",","g","G","o","p","'","A","m","i","f","u","y","c","-",".","unrecognized"],"specialIndexes":[30]}},"input":{"rows":32,"columns":31,"weights":{"0":-1.3088349103927612,"1":-2.1613640785217285,"2":-6.141624927520752,"3":3.6626553535461426,"4":0.9076760411262512,"5":2.075523614883423,"6":-3.863722085952759,"7":-2.7559967041015625,"8":-0.8456966876983643,"9":-2.5578773021698,"10":-0.7146787047386169,"11":-0.6930891871452332,"12":3.8114829063415527,"13":0.6422768235206604,"14":1.985499382019043,"15":-1.2059500217437744,"16":-2.0881686210632324,"17":-3.525285243988037,"18":2.622354745864868,"19":-0.762235164642334,"20":-0.2594450116157532,"21":-2.0886175632476807,"22":-4.982673645019531,"23":-0.1476239711046219,"24":-3.1528193950653076,"25":1.7314985990524292,"26":4.207175254821777,"27":3.58978533744812,"28":0.5351812839508057,"29":3.0101535320281982,"30":6.990103244781494,"31":0.05552181228995323,"32":2.905869722366333,"33":2.5445051193237305,"34":-5.133422374725342,"35":-0.897935152053833,"36":-2.186222791671753,"37":-2.9099905490875244,"38":0.562419056892395,"39":0.6780216097831726,"40":0.341065913438797,"41":0.4561951458454132,"42":-2.095998764038086,"43":-0.09108120203018188,"44":-3.5306575298309326,"45":-0.6661174297332764,"46":-1.5651650428771973,"47":-7.2643280029296875,"48":-0.01538954209536314,"49":-0.5251411199569702,"50":-1.564236044883728,"51":0.6788697838783264,"52":-2.3880934715270996,"53":1.1648659706115723,"54":-3.88779354095459,"55":-0.04833626747131348,"56":-0.76627516746521,"57":2.8417880535125732,"58":-0.27606630325317383,"59":8.519840240478516,"60":-9.54015827178955,"61":0.1544283926486969,"62":-3.9151346683502197,"63":1.0146183967590332,"64":-2.5336694717407227,"65":1.8462774753570557,"66":0.20371420681476593,"67":-5.5370001792907715,"68":-2.478968381881714,"69":-0.060025714337825775,"70":2.7893152236938477,"71":-10.773606300354004,"72":2.73905873298645,"73":2.73337721824646,"74":-2.4460437297821045,"75":-0.16631174087524414,"76":-1.3644737005233765,"77":4.702829837799072,"78":-0.7671348452568054,"79":1.4635487794876099,"80":-8.793317794799805,"81":-5.904433727264404,"82":-1.978877067565918,"83":-0.3291795253753662,"84":0.2680707275867462,"85":1.6367708444595337,"86":-0.9810850024223328,"87":-0.5519540309906006,"88":-4.188019752502441,"89":2.4488394260406494,"90":-2.8609251976013184,"91":9.30402660369873,"92":3.594255208969116,"93":0.12023824453353882,"94":3.2488300800323486,"95":-4.296656131744385,"96":3.7074244022369385,"97":-7.771100044250488,"98":-1.5022486448287964,"99":-0.3637545108795166,"100":3.8223683834075928,"101":5.38750696182251,"102":-1.5941325426101685,"103":-4.803321838378906,"104":1.8941248655319214,"105":2.9834020137786865,"106":-3.9674692153930664,"107":3.8911633491516113,"108":1.088582992553711,"109":1.4487348794937134,"110":4.381828784942627,"111":-0.10671929270029068,"112":0.10814058035612106,"113":-8.152706146240234,"114":2.112616777420044,"115":-1.1029056310653687,"116":-0.04854665696620941,"117":3.7007548809051514,"118":-1.3788626194000244,"119":1.891387939453125,"120":4.544090270996094,"121":9.113533020019531,"122":2.1753861904144287,"123":-1.30084228515625,"124":2.77740216255188,"125":2.4340460300445557,"126":-2.0297276973724365,"127":-3.27117657661438,"128":2.2991726398468018,"129":-2.2224152088165283,"130":-0.8007749319076538,"131":-2.202162742614746,"132":5.14441442489624,"133":-0.3257920742034912,"134":5.966704368591309,"135":-1.6837677955627441,"136":-0.46269863843917847,"137":4.390214443206787,"138":2.4985930919647217,"139":0.8285315632820129,"140":4.06363582611084,"141":3.055375576019287,"142":9.642415046691895,"143":-2.955018997192383,"144":4.113621711730957,"145":-1.3203973770141602,"146":-2.9272043704986572,"147":2.927907943725586,"148":-3.375574827194214,"149":-1.6297616958618164,"150":-1.1757148504257202,"151":4.285423278808594,"152":1.5863087177276611,"153":0.12418258190155029,"154":-0.5535387396812439,"155":5.192326545715332,"156":-1.621901035308838,"157":-0.0032044388353824615,"158":-0.2968772351741791,"159":3.4576876163482666,"160":-5.058938026428223,"161":-4.175543308258057,"162":9.044905662536621,"163":-7.867793083190918,"164":-0.061362020671367645,"165":5.840687274932861,"166":-7.1108832359313965,"167":-3.021376609802246,"168":-1.6962482929229736,"169":-2.1462855339050293,"170":-8.753683090209961,"171":-6.341466426849365,"172":11.618645668029785,"173":1.369015097618103,"174":8.250492095947266,"175":5.728768348693848,"176":-0.6555977463722229,"177":3.86869478225708,"178":0.9097806215286255,"179":2.520188808441162,"180":3.8045876026153564,"181":2.4806149005889893,"182":0.8750059008598328,"183":9.990790367126465,"184":1.4674640893936157,"185":-8.197593688964844,"186":-2.818291425704956,"187":-10.304491996765137,"188":-0.9612064957618713,"189":-2.847803831100464,"190":-5.915795803070068,"191":-3.1229989528656006,"192":7.299487113952637,"193":4.479891300201416,"194":8.647315979003906,"195":6.3689961433410645,"196":-0.45899254083633423,"197":1.6745940446853638,"198":-3.9691717624664307,"199":13.546485900878906,"200":-0.32398441433906555,"201":2.021204710006714,"202":4.388999938964844,"203":9.012068748474121,"204":-8.606070518493652,"205":6.15161657333374,"206":5.580642223358154,"207":-9.49050521850586,"208":-1.3991081714630127,"209":2.331923484802246,"210":12.168015480041504,"211":-2.832892894744873,"212":8.157158851623535,"213":6.729076385498047,"214":-1.2103725671768188,"215":-3.3983874320983887,"216":-5.293064117431641,"217":-8.969045639038086,"218":0.2104334831237793,"219":-0.5622989535331726,"220":5.112022399902344,"221":4.188018321990967,"222":4.31321382522583,"223":-6.868205547332764,"224":9.76648235321045,"225":2.2982945442199707,"226":-2.3509140014648438,"227":-5.2587056159973145,"228":0.5352701544761658,"229":-2.9309723377227783,"230":0.8965994715690613,"231":-3.7968571186065674,"232":-3.7102086544036865,"233":-1.5177481174468994,"234":7.8674750328063965,"235":-0.698053777217865,"236":-3.1706790924072266,"237":-1.6527633666992188,"238":0.39647817611694336,"239":4.676182270050049,"240":-3.267808437347412,"241":-2.3095505237579346,"242":0.12534326314926147,"243":-1.8507475852966309,"244":2.747894048690796,"245":-2.202683210372925,"246":-2.2138671875,"247":1.1803977489471436,"248":8.20971393585205,"249":2.051201581954956,"250":-1.1036750078201294,"251":-4.583680152893066,"252":-9.754927635192871,"253":-0.665526270866394,"254":-2.1309101581573486,"255":1.1217318773269653,"256":3.0154824256896973,"257":-9.31289005279541,"258":-0.1282152235507965,"259":1.9649240970611572,"260":-2.5864269733428955,"261":4.680915355682373,"262":-2.553501844406128,"263":-6.19883918762207,"264":-3.9232614040374756,"265":-10.57636833190918,"266":1.1925163269042969,"267":1.5396840572357178,"268":-3.519915819168091,"269":0.505495548248291,"270":0.9692783355712891,"271":1.0184531211853027,"272":-4.977729320526123,"273":3.9759299755096436,"274":1.790626883506775,"275":-1.2260817289352417,"276":2.909736156463623,"277":-5.890004634857178,"278":3.153822183609009,"279":7.375523090362549,"280":0.7578661441802979,"281":0.3716982901096344,"282":2.234027862548828,"283":-3.3131184577941895,"284":2.1544923782348633,"285":-1.092084527015686,"286":-4.718262195587158,"287":-4.878643035888672,"288":-0.2275838702917099,"289":-5.756345748901367,"290":-1.6473884582519531,"291":0.7837607860565186,"292":6.250843524932861,"293":4.2169647216796875,"294":-1.4272210597991943,"295":0.9802379608154297,"296":-3.7121493816375732,"297":7.911843299865723,"298":5.879851818084717,"299":-0.5718376040458679,"300":4.740909099578857,"301":5.929965496063232,"302":-1.637861728668213,"303":6.54695463180542,"304":-1.6897755861282349,"305":-2.7800166606903076,"306":3.1902260780334473,"307":4.74188232421875,"308":-5.346648216247559,"309":-3.170675754547119,"310":0.16360972821712494,"311":5.524641513824463,"312":4.687469005584717,"313":0.6752585172653198,"314":1.3344833850860596,"315":3.0926105976104736,"316":-8.270153045654297,"317":-3.620973587036133,"318":6.792065143585205,"319":6.09775972366333,"320":-1.6367079019546509,"321":-0.963315486907959,"322":-1.6835027933120728,"323":-3.4264395236968994,"324":-6.643669605255127,"325":-1.4453648328781128,"326":-1.0117515325546265,"327":-3.1058309078216553,"328":2.239926815032959,"329":5.038470268249512,"330":-1.060502290725708,"331":6.281230449676514,"332":5.680338382720947,"333":-4.002124309539795,"334":-0.9744341373443604,"335":-0.43292784690856934,"336":0.2770998775959015,"337":5.637788772583008,"338":-5.398621559143066,"339":-3.4888079166412354,"340":-2.974870443344116,"341":0.5571123361587524,"342":-0.405308336019516,"343":1.1174719333648682,"344":2.5282065868377686,"345":2.661869764328003,"346":1.3068151473999023,"347":-2.4524316787719727,"348":-0.6028777956962585,"349":-0.2520102858543396,"350":-1.6125786304473877,"351":-3.7755894660949707,"352":1.9808911085128784,"353":0.22230182588100433,"354":-3.4168951511383057,"355":-0.6485171914100647,"356":-0.30473747849464417,"357":0.6683467626571655,"358":-6.998976230621338,"359":-1.1035501956939697,"360":7.25694465637207,"361":6.007138729095459,"362":5.053092002868652,"363":-4.354304313659668,"364":-7.363961219787598,"365":-3.531511068344116,"366":5.688475131988525,"367":2.2202939987182617,"368":-0.7520390152931213,"369":-5.277933597564697,"370":0.09397552162408829,"371":-1.9414875507354736,"372":-4.889888286590576,"373":2.7732322216033936,"374":-0.0923868864774704,"375":1.437651515007019,"376":0.16847027838230133,"377":1.155837059020996,"378":-0.643861711025238,"379":1.381699562072754,"380":-2.454702377319336,"381":1.5276964902877808,"382":-0.6970123052597046,"383":-5.495938301086426,"384":4.499618053436279,"385":-8.409419059753418,"386":0.04956356808543205,"387":-0.7394201755523682,"388":-1.7215903997421265,"389":-8.273435592651367,"390":3.512228012084961,"391":-5.879647731781006,"392":-3.4853084087371826,"393":1.2821835279464722,"394":4.549800872802734,"395":1.9110244512557983,"396":-3.429595947265625,"397":0.2735866904258728,"398":0.16973425447940826,"399":4.228096008300781,"400":-5.761403560638428,"401":3.7611656188964844,"402":0.5538158416748047,"403":2.2288527488708496,"404":0.5488997101783752,"405":-0.33982300758361816,"406":-1.1205787658691406,"407":-0.809614896774292,"408":-4.035797119140625,"409":-6.053163528442383,"410":2.8435893058776855,"411":-2.153881788253784,"412":7.587553977966309,"413":4.67186975479126,"414":1.060418725013733,"415":-3.6471123695373535,"416":0.6614267826080322,"417":2.9387996196746826,"418":4.493202209472656,"419":-2.038641929626465,"420":2.1164777278900146,"421":-2.322232484817505,"422":-5.3545145988464355,"423":-1.3244764804840088,"424":-3.495759963989258,"425":-0.49192288517951965,"426":1.5049186944961548,"427":1.34427809715271,"428":7.486912250518799,"429":-3.1158366203308105,"430":-2.4155690670013428,"431":1.087203025817871,"432":-15.674155235290527,"433":-3.091001510620117,"434":-0.5411508679389954,"435":3.419076442718506,"436":3.4149668216705322,"437":-6.208379745483398,"438":-1.1656957864761353,"439":-5.546365261077881,"440":-1.209143042564392,"441":2.655975103378296,"442":7.065514087677002,"443":-7.914416790008545,"444":-0.12030169367790222,"445":9.939412117004395,"446":-0.35436856746673584,"447":10.769247055053711,"448":2.1898179054260254,"449":-4.929630279541016,"450":0.6404733657836914,"451":8.48412799835205,"452":11.704556465148926,"453":-7.941318511962891,"454":0.3426506817340851,"455":-6.526000022888184,"456":-2.1887359619140625,"457":-1.4389234781265259,"458":5.902270317077637,"459":-5.331714153289795,"460":1.6811295747756958,"461":8.159721374511719,"462":1.5457515716552734,"463":5.6426167488098145,"464":10.832423210144043,"465":0.2650793194770813,"466":6.205503463745117,"467":9.999919891357422,"468":2.6986021995544434,"469":5.484615325927734,"470":-1.9074580669403076,"471":1.338057518005371,"472":-3.3254051208496094,"473":1.928173303604126,"474":0.6901418566703796,"475":3.9022300243377686,"476":-1.966181755065918,"477":7.9232258796691895,"478":-3.1322226524353027,"479":2.27961802482605,"480":1.8512324094772339,"481":7.058769702911377,"482":-3.8855037689208984,"483":-5.240358829498291,"484":2.533634901046753,"485":-3.5576400756835938,"486":10.59791088104248,"487":-8.266524314880371,"488":2.7524406909942627,"489":-0.4589802920818329,"490":3.7894704341888428,"491":4.400811195373535,"492":-1.5783418416976929,"493":0.6062777042388916,"494":1.3274450302124023,"495":-1.2902277708053589,"496":-0.8086223602294922,"497":-1.2061526775360107,"498":-4.709836006164551,"499":-3.415268659591675,"500":-2.2890913486480713,"501":-3.34365177154541,"502":3.3358306884765625,"503":7.6092071533203125,"504":9.70449161529541,"505":-5.79613733291626,"506":-0.9425182938575745,"507":6.601280689239502,"508":-4.477261543273926,"509":3.2804477214813232,"510":0.4218946099281311,"511":0.022882811725139618,"512":-2.12229585647583,"513":7.31439733505249,"514":2.6058433055877686,"515":0.5461600422859192,"516":5.312211990356445,"517":-9.519804000854492,"518":2.9711849689483643,"519":-1.0490546226501465,"520":5.00556755065918,"521":-0.3477466404438019,"522":0.567002534866333,"523":-0.05652661621570587,"524":4.4093756675720215,"525":-0.09655453264713287,"526":0.443665087223053,"527":7.649349689483643,"528":1.5748292207717896,"529":0.31527870893478394,"530":0.07236532121896744,"531":3.131531238555908,"532":2.300560235977173,"533":1.4276787042617798,"534":3.1302566528320312,"535":-1.2701752185821533,"536":-0.20926660299301147,"537":2.080695867538452,"538":-4.436122417449951,"539":-3.5081629753112793,"540":5.013925075531006,"541":2.339735269546509,"542":0.8161415457725525,"543":-7.374737739562988,"544":-0.45231884717941284,"545":0.04519802704453468,"546":-2.810443878173828,"547":-6.62370491027832,"548":-9.845292091369629,"549":0.5549383163452148,"550":-2.9374780654907227,"551":4.634237766265869,"552":-4.39371395111084,"553":-1.3983103036880493,"554":7.1453022956848145,"555":-2.9107093811035156,"556":-0.847773015499115,"557":1.9562504291534424,"558":5.037621021270752,"559":6.762413024902344,"560":-1.6534297466278076,"561":-1.0046452283859253,"562":10.420649528503418,"563":-8.065117835998535,"564":5.845846176147461,"565":-19.831762313842773,"566":-5.690402984619141,"567":10.617680549621582,"568":-3.8037073612213135,"569":-10.29076099395752,"570":11.13892650604248,"571":-1.3271230459213257,"572":13.012399673461914,"573":5.487952709197998,"574":7.303422451019287,"575":-3.129086494445801,"576":3.5333292484283447,"577":3.5040054321289062,"578":6.618405342102051,"579":1.3286385536193848,"580":9.029616355895996,"581":-5.772300720214844,"582":11.617411613464355,"583":-5.418132305145264,"584":4.752427101135254,"585":12.096643447875977,"586":2.5351524353027344,"587":10.047107696533203,"588":-4.81945276260376,"589":1.5619621276855469,"590":0.8271399140357971,"591":-4.194927215576172,"592":-1.1556646823883057,"593":-3.2722089290618896,"594":1.9728866815567017,"595":-1.9726539850234985,"596":5.524590492248535,"597":-3.945481300354004,"598":-0.09267522394657135,"599":3.3521296977996826,"600":2.5978987216949463,"601":-3.6911561489105225,"602":-2.1135103702545166,"603":1.264377236366272,"604":-3.1852543354034424,"605":-0.21928642690181732,"606":-1.0731523036956787,"607":-0.48511335253715515,"608":2.0733449459075928,"609":1.2126314640045166,"610":-4.625196933746338,"611":3.0972135066986084,"612":-1.3521043062210083,"613":-2.376054286956787,"614":1.210753083229065,"615":-3.466824769973755,"616":-6.717929840087891,"617":3.778289794921875,"618":-7.7006120681762695,"619":2.252673387527466,"620":0.6005504727363586,"621":-0.7464802265167236,"622":-1.2362505197525024,"623":4.879392623901367,"624":-4.256856918334961,"625":2.0259203910827637,"626":-0.03317734971642494,"627":0.05439086630940437,"628":5.6453537940979,"629":-5.920738220214844,"630":-2.9401354789733887,"631":4.238872051239014,"632":-3.369074821472168,"633":-4.344247341156006,"634":-1.4123971462249756,"635":-2.2767341136932373,"636":1.164211392402649,"637":-3.7426838874816895,"638":3.4827823638916016,"639":-3.6938869953155518,"640":-0.3468116819858551,"641":-1.3908262252807617,"642":-9.930488586425781,"643":0.6191251277923584,"644":-2.731295585632324,"645":8.305959701538086,"646":-4.337776184082031,"647":-8.426711082458496,"648":-2.8821046352386475,"649":-2.950713872909546,"650":-0.1582510620355606,"651":5.439849853515625,"652":5.911673545837402,"653":11.508342742919922,"654":6.389462947845459,"655":-0.8236003518104553,"656":14.568190574645996,"657":-2.007096290588379,"658":-1.7320865392684937,"659":-2.0460152626037598,"660":-4.594078063964844,"661":-10.851484298706055,"662":-5.478205680847168,"663":3.5338966846466064,"664":-9.588163375854492,"665":3.099863052368164,"666":-2.5117714405059814,"667":-7.007258415222168,"668":3.8202056884765625,"669":1.386860966682434,"670":6.036538124084473,"671":-3.7203826904296875,"672":9.27245807647705,"673":-3.2858986854553223,"674":-1.889143705368042,"675":-4.772714138031006,"676":-1.3320248126983643,"677":-0.9558097124099731,"678":3.1486165523529053,"679":7.232357025146484,"680":-5.7628254890441895,"681":-13.43280029296875,"682":6.902743339538574,"683":-0.7832455635070801,"684":9.386434555053711,"685":-2.0969178676605225,"686":1.6626684665679932,"687":-1.9354217052459717,"688":-5.10823917388916,"689":-3.248941659927368,"690":4.490242004394531,"691":8.044215202331543,"692":10.725472450256348,"693":-9.62739372253418,"694":-6.478279113769531,"695":-0.26427847146987915,"696":7.529936790466309,"697":5.873053550720215,"698":-0.4914153814315796,"699":-0.552922785282135,"700":4.060240745544434,"701":1.558708906173706,"702":-6.63623571395874,"703":-1.9886442422866821,"704":1.1815152168273926,"705":6.334361553192139,"706":-1.6417343616485596,"707":-9.598228454589844,"708":1.8091752529144287,"709":10.138897895812988,"710":-2.683818817138672,"711":3.9905929565429688,"712":-10.077393531799316,"713":-3.070683717727661,"714":0.030321646481752396,"715":12.663708686828613,"716":9.970742225646973,"717":1.3117271661758423,"718":4.369452476501465,"719":-3.5686118602752686,"720":1.1959706544876099,"721":-5.122974872589111,"722":6.053732395172119,"723":0.7930423021316528,"724":-5.078040599822998,"725":3.2978105545043945,"726":1.7447837591171265,"727":5.619080066680908,"728":1.987390398979187,"729":4.428776741027832,"730":6.249148368835449,"731":7.734502792358398,"732":-2.83418345451355,"733":-8.390175819396973,"734":-2.465137481689453,"735":-2.86662220954895,"736":1.7260392904281616,"737":-0.229147270321846,"738":2.4590365886688232,"739":3.9623188972473145,"740":-0.9360244870185852,"741":-2.1868367195129395,"742":-2.4917314052581787,"743":-3.73649263381958,"744":-0.38795921206474304,"745":3.0843615531921387,"746":8.465988159179688,"747":1.720586895942688,"748":2.244202136993408,"749":5.272241592407227,"750":5.345345973968506,"751":0.5754016637802124,"752":-2.5940864086151123,"753":-0.08166803419589996,"754":1.4518826007843018,"755":-4.873569011688232,"756":2.6706719398498535,"757":0.12708282470703125,"758":0.9117060303688049,"759":5.1038408279418945,"760":-4.5659613609313965,"761":-1.7323380708694458,"762":2.082990884780884,"763":-0.08470077812671661,"764":-6.267613410949707,"765":1.8373230695724487,"766":8.33076286315918,"767":1.2258632183074951,"768":3.2168002128601074,"769":-10.194571495056152,"770":0.9079921245574951,"771":1.8513959646224976,"772":2.6049771308898926,"773":2.0658211708068848,"774":0.5756450891494751,"775":-5.5149688720703125,"776":-4.916383266448975,"777":-1.4342913627624512,"778":0.2578762173652649,"779":3.873725414276123,"780":3.558032512664795,"781":1.6374744176864624,"782":-0.2041570246219635,"783":2.790931463241577,"784":5.711671352386475,"785":0.16839444637298584,"786":0.6814439296722412,"787":-4.963888168334961,"788":-4.750010967254639,"789":-6.339493274688721,"790":-0.6839603781700134,"791":-2.2340569496154785,"792":0.5852852463722229,"793":-6.495789051055908,"794":0.27722349762916565,"795":0.9885895252227783,"796":-1.8729711771011353,"797":6.762290000915527,"798":-0.417472779750824,"799":1.0112899541854858,"800":0.7995666265487671,"801":8.440641403198242,"802":-3.7271461486816406,"803":-3.953839063644409,"804":0.5125178098678589,"805":-5.394182205200195,"806":-4.976010799407959,"807":4.556232929229736,"808":3.983138084411621,"809":2.0651354789733887,"810":-2.9386181831359863,"811":-0.5340473651885986,"812":7.0971903800964355,"813":0.8954567909240723,"814":3.8902628421783447,"815":-2.979100465774536,"816":-2.7738699913024902,"817":6.642794132232666,"818":-5.343327045440674,"819":-4.515355587005615,"820":-6.99920129776001,"821":-3.7176027297973633,"822":2.148404359817505,"823":-0.9314367771148682,"824":-1.2930728197097778,"825":-8.024497985839844,"826":-1.8053035736083984,"827":5.989091873168945,"828":7.136507511138916,"829":-1.3080559968948364,"830":3.933316230773926,"831":-3.2840158939361572,"832":0.6766698956489563,"833":-1.031068205833435,"834":-11.075329780578613,"835":4.121798038482666,"836":-3.9272525310516357,"837":2.6170198917388916,"838":5.930141925811768,"839":4.302736282348633,"840":0.4343831539154053,"841":5.180750846862793,"842":-1.6626372337341309,"843":-0.23512859642505646,"844":5.252481460571289,"845":-3.642735004425049,"846":6.090399265289307,"847":-0.1688905954360962,"848":0.5082715153694153,"849":0.6120187044143677,"850":4.421639919281006,"851":7.69379186630249,"852":0.3152923882007599,"853":3.6874489784240723,"854":-2.873847484588623,"855":-3.8550450801849365,"856":10.347943305969238,"857":-3.565673589706421,"858":0.7207550406455994,"859":-3.5833487510681152,"860":-7.6102070808410645,"861":7.748518466949463,"862":2.5558571815490723,"863":5.971548557281494,"864":-9.060077667236328,"865":0.8879296183586121,"866":-0.09416153281927109,"867":-1.6364868879318237,"868":-7.1812968254089355,"869":0.9433000683784485,"870":4.7054057121276855,"871":6.079095363616943,"872":-4.581081867218018,"873":4.811857223510742,"874":2.997082471847534,"875":7.086789131164551,"876":4.582699775695801,"877":4.775874137878418,"878":-0.7069441080093384,"879":2.974550247192383,"880":-2.467998743057251,"881":-6.342164039611816,"882":7.72395133972168,"883":-2.647606372833252,"884":3.0146076679229736,"885":-4.089828014373779,"886":-2.31551456451416,"887":8.24182415008545,"888":3.614396095275879,"889":1.1734410524368286,"890":-2.9994924068450928,"891":7.249368667602539,"892":-3.848558187484741,"893":0.04535195976495743,"894":-4.758577346801758,"895":3.205665111541748,"896":3.7184860706329346,"897":-10.134032249450684,"898":-6.681777000427246,"899":-5.4616007804870605,"900":-0.19641678035259247,"901":-0.3836323320865631,"902":-7.123762130737305,"903":-11.746902465820312,"904":-3.657459020614624,"905":2.5784823894500732,"906":3.4943528175354004,"907":0.9669381976127625,"908":1.5640308856964111,"909":6.304862976074219,"910":0.10272390395402908,"911":-4.8785905838012695,"912":1.9429515600204468,"913":-6.816694259643555,"914":3.6015894412994385,"915":-2.3502352237701416,"916":-10.785670280456543,"917":-10.42827320098877,"918":-1.6609559059143066,"919":7.890902519226074,"920":-4.194799423217773,"921":3.8651726245880127,"922":-0.11901950091123581,"923":-18.225570678710938,"924":7.431056499481201,"925":-3.0583109855651855,"926":-10.381254196166992,"927":-3.269014835357666,"928":-1.0849882364273071,"929":-11.158573150634766,"930":-1.3794374465942383,"931":2.268592119216919,"932":4.13435173034668,"933":7.024247646331787,"934":-4.239902019500732,"935":-3.7286534309387207,"936":0.3517321050167084,"937":2.766791820526123,"938":6.17767333984375,"939":-4.247437000274658,"940":0.311994343996048,"941":-2.3886971473693848,"942":5.515809059143066,"943":-6.0201416015625,"944":4.870822906494141,"945":-0.340415358543396,"946":6.396821975708008,"947":3.1767117977142334,"948":3.6770262718200684,"949":-10.7515287399292,"950":-1.0239498615264893,"951":4.082629680633545,"952":-7.961511611938477,"953":1.1301602125167847,"954":5.2842302322387695,"955":2.658144950866699,"956":-0.7337990999221802,"957":-2.4887874126434326,"958":5.256648063659668,"959":-4.856688022613525,"960":-4.415127277374268,"961":0.5552180409431458,"962":1.6173542737960815,"963":-7.291837215423584,"964":-2.5267527103424072,"965":-0.013086109422147274,"966":2.748668670654297,"967":1.318029761314392,"968":-0.5664111375808716,"969":-1.527552604675293,"970":0.635031521320343,"971":0.07759848237037659,"972":0.49931034445762634,"973":-6.31863260269165,"974":4.348361015319824,"975":-1.6720269918441772,"976":-0.6527012586593628,"977":4.191270351409912,"978":3.0721187591552734,"979":-1.9216428995132446,"980":2.9846959114074707,"981":5.815029144287109,"982":-0.6794649958610535,"983":1.825929045677185,"984":-7.661147117614746,"985":-2.0634915828704834,"986":5.779017925262451,"987":-2.0472235679626465,"988":-1.6053292751312256,"989":2.5226407051086426,"990":-0.1944570541381836,"991":-2.1244940757751465}},"hiddenLayers":[{"inputMatrix":{"rows":20,"columns":31,"weights":{"0":-4.529459476470947,"1":0.8390782475471497,"2":-0.4513787031173706,"3":1.7796103954315186,"4":-0.48647522926330566,"5":-3.505199670791626,"6":0.42468130588531494,"7":6.814289093017578,"8":3.3218607902526855,"9":4.4832987785339355,"10":0.36502155661582947,"11":0.6874870657920837,"12":1.086463212966919,"13":2.6114182472229004,"14":2.1353952884674072,"15":6.00609827041626,"16":6.875697135925293,"17":7.501277446746826,"18":-3.3686764240264893,"19":-8.462088584899902,"20":-0.8457952737808228,"21":2.1020843982696533,"22":-5.124524116516113,"23":5.287546634674072,"24":1.9912512302398682,"25":0.009409057907760143,"26":0.4002917408943176,"27":-3.880807876586914,"28":-5.62767219543457,"29":-0.1253734976053238,"30":-4.7173380851745605,"31":0.4943283796310425,"32":-0.5848215818405151,"33":-1.3879419565200806,"34":-1.2581841945648193,"35":-4.0408453941345215,"36":-1.6802619695663452,"37":5.448829174041748,"38":1.4610273838043213,"39":4.228628635406494,"40":2.7919557094573975,"41":3.582204818725586,"42":0.20798854529857635,"43":1.8287655115127563,"44":0.8380613923072815,"45":-4.855599403381348,"46":3.208634376525879,"47":6.023615837097168,"48":3.7115190029144287,"49":-0.022499173879623413,"50":0.5219029784202576,"51":-1.6469318866729736,"52":-2.3182337284088135,"53":-6.2790727615356445,"54":1.0868043899536133,"55":1.2734127044677734,"56":-2.0962390899658203,"57":3.2720491886138916,"58":-4.337586879730225,"59":-3.053987741470337,"60":2.631441593170166,"61":-9.153895378112793,"62":-1.7648272514343262,"63":-2.1222283840179443,"64":-1.0612622499465942,"65":0.102883480489254,"66":-1.5106490850448608,"67":-1.1302359104156494,"68":6.187607765197754,"69":-2.2825348377227783,"70":2.071521759033203,"71":-0.5380229353904724,"72":5.043422698974609,"73":-2.0054244995117188,"74":3.467231512069702,"75":-0.17423824965953827,"76":-6.034684181213379,"77":0.5822609663009644,"78":0.6858472228050232,"79":-0.8768094778060913,"80":-1.140379548072815,"81":-2.9993767738342285,"82":2.9153661727905273,"83":-3.652853488922119,"84":3.3658416271209717,"85":1.9290810823440552,"86":0.23301585018634796,"87":-8.188518524169922,"88":-0.9902945160865784,"89":2.9550578594207764,"90":-4.322061061859131,"91":5.535157680511475,"92":1.1088523864746094,"93":-7.861383438110352,"94":2.631866455078125,"95":2.3892993927001953,"96":-0.11795555055141449,"97":0.7989388108253479,"98":-5.985162734985352,"99":0.7999547719955444,"100":7.165805339813232,"101":0.23438571393489838,"102":-1.2938737869262695,"103":-2.2391815185546875,"104":-0.1245587095618248,"105":-0.0008831178420223296,"106":-0.5121274590492249,"107":3.0540809631347656,"108":-0.3609374761581421,"109":-2.5164926052093506,"110":2.931999683380127,"111":6.3247294425964355,"112":-4.362126350402832,"113":-4.555237293243408,"114":-2.9053869247436523,"115":2.875946521759033,"116":1.4844602346420288,"117":-3.584320545196533,"118":-4.869868278503418,"119":3.8392441272735596,"120":1.1084271669387817,"121":-1.6810977458953857,"122":0.453888863325119,"123":4.020642280578613,"124":-3.0600922107696533,"125":1.125490665435791,"126":3.8730039596557617,"127":1.2582120895385742,"128":-1.38254976272583,"129":1.1308506727218628,"130":-2.0791969299316406,"131":-2.7112553119659424,"132":2.9609501361846924,"133":-0.35425466299057007,"134":-3.1160542964935303,"135":5.674088001251221,"136":1.7933554649353027,"137":-6.3967156410217285,"138":-0.21563662588596344,"139":1.027213215827942,"140":5.630380153656006,"141":1.5656578540802002,"142":7.635919570922852,"143":-4.560299396514893,"144":-5.396247386932373,"145":3.4902379512786865,"146":1.7085037231445312,"147":6.628334999084473,"148":-0.8355473279953003,"149":0.16753123700618744,"150":-0.5288463234901428,"151":5.29864501953125,"152":-1.2140564918518066,"153":0.11644435673952103,"154":4.339115142822266,"155":4.626430988311768,"156":-1.9357306957244873,"157":0.8205901384353638,"158":-2.5651676654815674,"159":1.9812276363372803,"160":1.1269505023956299,"161":3.536903142929077,"162":0.5410696268081665,"163":-1.9262808561325073,"164":-1.1130543947219849,"165":-0.34001415967941284,"166":1.709824800491333,"167":2.7722504138946533,"168":9.03743839263916,"169":5.275064468383789,"170":-3.7933592796325684,"171":0.5834801197052002,"172":0.32823747396469116,"173":0.9173116087913513,"174":3.227050542831421,"175":-0.911328911781311,"176":0.8999335765838623,"177":-0.18674717843532562,"178":1.9227237701416016,"179":2.5189929008483887,"180":-0.5618612170219421,"181":0.8085605502128601,"182":2.992072105407715,"183":7.779275894165039,"184":5.899453163146973,"185":-3.501020908355713,"186":1.039024829864502,"187":-1.906733512878418,"188":-1.3766690492630005,"189":2.4213674068450928,"190":-6.707225799560547,"191":-1.3048495054244995,"192":0.3506043255329132,"193":-2.13919734954834,"194":0.20566856861114502,"195":1.673491358757019,"196":-2.39298152923584,"197":6.293829917907715,"198":-3.117577314376831,"199":-7.406585216522217,"200":-0.7951191067695618,"201":-0.20532925426959991,"202":1.6515836715698242,"203":-0.5847891569137573,"204":1.259783148765564,"205":1.5459296703338623,"206":3.9560179710388184,"207":3.875678539276123,"208":0.1995381861925125,"209":-3.0181288719177246,"210":7.563243389129639,"211":2.3933656215667725,"212":1.529363989830017,"213":-0.6136009693145752,"214":2.8086581230163574,"215":-3.114799976348877,"216":-2.072246789932251,"217":-0.7329915761947632,"218":-3.8629961013793945,"219":0.6642693281173706,"220":0.2195158451795578,"221":3.314650297164917,"222":-1.331552505493164,"223":0.620568037033081,"224":-2.2307567596435547,"225":-2.2465410232543945,"226":-0.9212431311607361,"227":-0.7032833695411682,"228":-0.4455033540725708,"229":1.9008973836898804,"230":-3.4713127613067627,"231":3.1715853214263916,"232":-3.476283073425293,"233":-2.183091163635254,"234":-3.33089542388916,"235":2.7521286010742188,"236":2.7025389671325684,"237":3.51102614402771,"238":3.694596290588379,"239":-0.21644020080566406,"240":0.9591060876846313,"241":-2.1500213146209717,"242":-6.365041255950928,"243":-0.6633607149124146,"244":4.879066467285156,"245":-0.46534669399261475,"246":0.25390684604644775,"247":0.7902029156684875,"248":-6.782538890838623,"249":3.6438181400299072,"250":-2.256620168685913,"251":-5.972431182861328,"252":-5.228442192077637,"253":0.49693790078163147,"254":1.860783576965332,"255":2.966888666152954,"256":8.077969551086426,"257":1.7426716089248657,"258":0.8996119499206543,"259":3.138252019882202,"260":-0.47327539324760437,"261":-5.714879035949707,"262":-3.346384048461914,"263":-1.454128623008728,"264":4.285799980163574,"265":1.2920498847961426,"266":-1.6301630735397339,"267":-3.7686338424682617,"268":2.558891534805298,"269":2.1285688877105713,"270":-1.6290971040725708,"271":4.773514747619629,"272":-1.5742676258087158,"273":2.6938140392303467,"274":0.41680628061294556,"275":2.4169390201568604,"276":-2.2830047607421875,"277":1.4083456993103027,"278":0.7001492381095886,"279":0.38596028089523315,"280":-0.6792982816696167,"281":2.65267014503479,"282":-1.0264689922332764,"283":-5.868406295776367,"284":0.8556552529335022,"285":3.1867263317108154,"286":-1.6431583166122437,"287":-0.6552765369415283,"288":5.717799663543701,"289":-0.09692628681659698,"290":1.8664395809173584,"291":1.323938250541687,"292":-1.5326943397521973,"293":7.133700847625732,"294":3.213514804840088,"295":3.900397300720215,"296":-0.14237381517887115,"297":2.1813886165618896,"298":-0.006749426480382681,"299":2.0653622150421143,"300":-0.29221007227897644,"301":-0.1063176840543747,"302":0.3591652810573578,"303":4.122830867767334,"304":-0.8944151997566223,"305":-0.5461447834968567,"306":-2.812699556350708,"307":4.1193037033081055,"308":-2.741940975189209,"309":-2.9833438396453857,"310":-1.363049864768982,"311":-1.8492283821105957,"312":2.019648313522339,"313":-4.045523643493652,"314":0.857916533946991,"315":-8.248092651367188,"316":1.2121632099151611,"317":-3.002591371536255,"318":-1.4701335430145264,"319":0.12817370891571045,"320":3.4389562606811523,"321":8.509990692138672,"322":0.4981844425201416,"323":-1.585174322128296,"324":1.0109723806381226,"325":2.4979982376098633,"326":1.4093594551086426,"327":-0.28815409541130066,"328":2.2180557250976562,"329":-4.244193077087402,"330":1.5081336498260498,"331":-1.4299087524414062,"332":-2.1795670986175537,"333":7.174192905426025,"334":1.5371944904327393,"335":0.31319305300712585,"336":0.0962979719042778,"337":0.35611286759376526,"338":-2.2111127376556396,"339":1.0849984884262085,"340":-3.1106016635894775,"341":1.639662742614746,"342":-2.2941091060638428,"343":6.855050086975098,"344":3.2493507862091064,"345":3.1327223777770996,"346":4.029456615447998,"347":-2.628053903579712,"348":0.40164387226104736,"349":-7.908540725708008,"350":2.2716619968414307,"351":-4.129077911376953,"352":1.7066699266433716,"353":-5.204351425170898,"354":-8.26752758026123,"355":1.3977444171905518,"356":0.7790961265563965,"357":-5.057867050170898,"358":2.778796434402466,"359":-1.862754225730896,"360":7.425286769866943,"361":-3.176560401916504,"362":-0.790916919708252,"363":2.6500091552734375,"364":2.2751352787017822,"365":4.49744987487793,"366":-0.5354259014129639,"367":2.988255262374878,"368":2.1143901348114014,"369":-0.9566397666931152,"370":-3.781801700592041,"371":3.5581600666046143,"372":-1.2925406694412231,"373":4.353038787841797,"374":3.988022804260254,"375":2.5008609294891357,"376":5.518298625946045,"377":-1.7202242612838745,"378":0.7671266198158264,"379":1.5897769927978516,"380":-2.295076608657837,"381":0.028275737538933754,"382":4.814508438110352,"383":-0.8154659271240234,"384":-1.0403884649276733,"385":-2.1014034748077393,"386":0.18831302225589752,"387":0.3731934726238251,"388":2.2542526721954346,"389":-0.5559842586517334,"390":0.020969392731785774,"391":-5.897055625915527,"392":-1.6864262819290161,"393":2.8027682304382324,"394":-0.7430697679519653,"395":-0.8922860622406006,"396":-2.9089348316192627,"397":0.18708959221839905,"398":-4.591489791870117,"399":-1.9412490129470825,"400":-2.836789608001709,"401":0.17122358083724976,"402":-0.06668442487716675,"403":6.858696937561035,"404":1.7768458127975464,"405":1.664515495300293,"406":0.3775847852230072,"407":4.3584065437316895,"408":1.3784563541412354,"409":-2.4674642086029053,"410":2.8101444244384766,"411":-8.334808349609375,"412":1.9519219398498535,"413":-0.7939730286598206,"414":-3.1344971656799316,"415":-1.4151279926300049,"416":-2.4103939533233643,"417":0.00974239595234394,"418":-0.34187960624694824,"419":-4.783202648162842,"420":3.6784143447875977,"421":-2.723001003265381,"422":1.1967194080352783,"423":-4.000421047210693,"424":1.384036660194397,"425":10.247944831848145,"426":-0.2081896811723709,"427":1.4986491203308105,"428":0.7215725779533386,"429":1.5150134563446045,"430":1.0160073041915894,"431":0.2173847258090973,"432":0.19746942818164825,"433":3.476682662963867,"434":2.4271886348724365,"435":-4.385886192321777,"436":-0.34729665517807007,"437":-1.7250995635986328,"438":-3.9279263019561768,"439":2.353874444961548,"440":-0.44530943036079407,"441":-8.35644817352295,"442":2.5103280544281006,"443":3.7196812629699707,"444":-0.24794520437717438,"445":0.22134719789028168,"446":0.40594586730003357,"447":6.678898334503174,"448":-3.462768316268921,"449":-2.6867082118988037,"450":10.254341125488281,"451":-3.79408597946167,"452":-0.13413642346858978,"453":0.16523732244968414,"454":0.4523235261440277,"455":1.7806947231292725,"456":-5.160569190979004,"457":3.854480504989624,"458":-7.019459247589111,"459":0.10313495993614197,"460":-1.149332046508789,"461":4.64873743057251,"462":-0.03917963430285454,"463":0.39633429050445557,"464":-0.8516654968261719,"465":-2.6068050861358643,"466":-0.803016185760498,"467":3.6636552810668945,"468":-1.840013861656189,"469":3.5330379009246826,"470":-4.742452621459961,"471":2.2771987915039062,"472":0.37484654784202576,"473":-6.2064385414123535,"474":2.2702643871307373,"475":4.427635192871094,"476":-4.672866344451904,"477":5.443642616271973,"478":0.664988100528717,"479":-2.1297287940979004,"480":0.004373564384877682,"481":0.5577605962753296,"482":0.06545694172382355,"483":1.6978293657302856,"484":-0.6215834617614746,"485":-1.8963878154754639,"486":-2.720034599304199,"487":-4.545938491821289,"488":0.6472148299217224,"489":-0.11689463257789612,"490":-2.4329402446746826,"491":0.0967247411608696,"492":0.31944847106933594,"493":-1.3515416383743286,"494":-2.5240237712860107,"495":1.0855711698532104,"496":-2.447190999984741,"497":-2.2181568145751953,"498":1.9409626722335815,"499":-4.067990779876709,"500":-3.5649876594543457,"501":-1.0916029214859009,"502":3.429492712020874,"503":3.5104286670684814,"504":-4.444982051849365,"505":0.323922723531723,"506":-7.900424003601074,"507":8.824206352233887,"508":-2.2168304920196533,"509":3.6677699089050293,"510":-3.062584638595581,"511":-7.87770414352417,"512":-0.4296102225780487,"513":-1.188948154449463,"514":-4.392943382263184,"515":2.769679546356201,"516":-1.3370354175567627,"517":2.067464828491211,"518":2.627829074859619,"519":-2.248753786087036,"520":2.9212496280670166,"521":-2.093205690383911,"522":2.354153871536255,"523":-0.9622794985771179,"524":3.7162444591522217,"525":-0.9939589500427246,"526":-2.6769325733184814,"527":-0.9100924134254456,"528":0.0040998300537467,"529":2.1063740253448486,"530":2.4964282512664795,"531":5.894531726837158,"532":0.5627840161323547,"533":0.7876812815666199,"534":6.020324230194092,"535":4.345487594604492,"536":-1.2442553043365479,"537":0.13382726907730103,"538":-4.839411735534668,"539":1.7164093255996704,"540":-1.9685333967208862,"541":2.9055569171905518,"542":-9.958104133605957,"543":0.44155412912368774,"544":-1.7163236141204834,"545":2.0712568759918213,"546":1.0074621438980103,"547":4.217526435852051,"548":-1.6112313270568848,"549":-0.5116056799888611,"550":0.7182955741882324,"551":1.0077614784240723,"552":-1.2476963996887207,"553":4.444018363952637,"554":2.440563201904297,"555":-3.259807586669922,"556":1.7390803098678589,"557":1.5866764783859253,"558":6.239112377166748,"559":0.2585793733596802,"560":-0.15830108523368835,"561":-2.7350828647613525,"562":-0.029398219659924507,"563":-1.2042641639709473,"564":0.6568008065223694,"565":-9.219100952148438,"566":-0.20835742354393005,"567":0.5937454104423523,"568":-0.11886435002088547,"569":0.7243545651435852,"570":-2.0754482746124268,"571":-2.085653781890869,"572":-4.652709007263184,"573":1.411460280418396,"574":1.4072083234786987,"575":-6.324238300323486,"576":1.0513349771499634,"577":2.3618903160095215,"578":2.5830154418945312,"579":0.043998535722494125,"580":-5.357699871063232,"581":3.508457899093628,"582":-3.7172043323516846,"583":1.3449623584747314,"584":-1.987457513809204,"585":1.5421197414398193,"586":-2.438933849334717,"587":2.608586072921753,"588":2.672919273376465,"589":-4.928926944732666,"590":-1.8690766096115112,"591":1.5461663007736206,"592":3.264136791229248,"593":2.2520925998687744,"594":-2.3179221153259277,"595":9.158308029174805,"596":4.051763534545898,"597":-2.827239751815796,"598":1.0304348468780518,"599":-0.4651618003845215,"600":-1.9357798099517822,"601":0.4790198504924774,"602":1.7016868591308594,"603":-2.58376145362854,"604":1.8236232995986938,"605":-0.39722779393196106,"606":3.9972524642944336,"607":-0.8632378578186035,"608":-6.519578456878662,"609":-0.3625375032424927,"610":-0.1642371118068695,"611":4.630726337432861,"612":-5.0162835121154785,"613":0.924684464931488,"614":4.012798309326172,"615":-0.24305345118045807,"616":-0.3755287230014801,"617":-0.9005656242370605,"618":1.2071088552474976,"619":-2.8053364753723145}},"inputHidden":{"rows":20,"columns":20,"weights":{"0":5.60040807723999,"1":5.32039737701416,"2":-2.8281915187835693,"3":-6.918796539306641,"4":2.339590311050415,"5":10.892481803894043,"6":4.598336219787598,"7":-9.060157775878906,"8":3.2737128734588623,"9":1.3055765628814697,"10":3.459594249725342,"11":13.821157455444336,"12":-5.276134490966797,"13":-5.325256824493408,"14":3.2945146560668945,"15":-12.546478271484375,"16":1.838059663772583,"17":-9.038257598876953,"18":-1.5900911092758179,"19":-6.650629997253418,"20":1.4100325107574463,"21":-12.284195899963379,"22":4.052895545959473,"23":-0.47880205512046814,"24":7.4692301750183105,"25":7.396134853363037,"26":-6.094046592712402,"27":-6.329952716827393,"28":-10.36083698272705,"29":-3.417834997177124,"30":4.068695545196533,"31":-2.304642677307129,"32":9.105467796325684,"33":-1.828279972076416,"34":-2.440419912338257,"35":-14.327035903930664,"36":1.0969102382659912,"37":4.569106101989746,"38":-9.827452659606934,"39":0.06797594577074051,"40":10.037259101867676,"41":8.14068603515625,"42":22.352649688720703,"43":0.24856875836849213,"44":21.27115821838379,"45":-5.245358943939209,"46":-19.51756477355957,"47":17.861597061157227,"48":14.0585355758667,"49":-4.047469615936279,"50":-5.1969780921936035,"51":-4.002910137176514,"52":2.3343019485473633,"53":-11.271310806274414,"54":-3.6529366970062256,"55":16.834291458129883,"56":-6.358987331390381,"57":3.547576665878296,"58":-12.222254753112793,"59":-5.324957370758057,"60":8.410276412963867,"61":4.466510772705078,"62":-0.34004825353622437,"63":8.014636993408203,"64":2.728876829147339,"65":-4.153501033782959,"66":-9.08021068572998,"67":8.979242324829102,"68":-5.8177666664123535,"69":-5.673977851867676,"70":0.24120798707008362,"71":8.631973266601562,"72":3.62921404838562,"73":2.1858413219451904,"74":13.505159378051758,"75":-5.134602069854736,"76":22.408222198486328,"77":5.000514984130859,"78":-10.010355949401855,"79":2.252876043319702,"80":-1.8068249225616455,"81":-11.553387641906738,"82":-1.1659117937088013,"83":10.954994201660156,"84":9.654439926147461,"85":-11.103592872619629,"86":1.7624872922897339,"87":-11.331170082092285,"88":0.198919877409935,"89":5.1197052001953125,"90":0.5069231986999512,"91":13.408940315246582,"92":-8.83076000213623,"93":0.313646525144577,"94":-6.401171684265137,"95":7.689996719360352,"96":-3.3469839096069336,"97":1.3939921855926514,"98":0.7494381070137024,"99":11.347379684448242,"100":13.148477554321289,"101":3.938260793685913,"102":-1.3985755443572998,"103":1.1550405025482178,"104":-2.1421878337860107,"105":2.397498369216919,"106":1.6475145816802979,"107":-5.206230640411377,"108":7.634282112121582,"109":3.4962923526763916,"110":-2.149066209793091,"111":-11.623915672302246,"112":-3.0008444786071777,"113":-2.509772300720215,"114":-12.985085487365723,"115":6.173497676849365,"116":-1.5726388692855835,"117":3.5478599071502686,"118":-10.939802169799805,"119":-5.414993762969971,"120":2.0479421615600586,"121":0.29958927631378174,"122":-3.7851054668426514,"123":3.549926519393921,"124":5.866183280944824,"125":-3.624448299407959,"126":0.5781230330467224,"127":-6.468193054199219,"128":-10.169054985046387,"129":0.18536368012428284,"130":1.7900276184082031,"131":-2.336775064468384,"132":-15.979969024658203,"133":-11.182126998901367,"134":3.706700086593628,"135":7.052828311920166,"136":-8.142760276794434,"137":-10.340852737426758,"138":0.10484150052070618,"139":5.619762897491455,"140":16.987770080566406,"141":11.298248291015625,"142":2.977952241897583,"143":-9.625585556030273,"144":-13.89427661895752,"145":13.443955421447754,"146":14.243823051452637,"147":9.755961418151855,"148":-19.253101348876953,"149":0.3827248513698578,"150":6.310979843139648,"151":-0.3731701076030731,"152":-3.2201526165008545,"153":3.728912591934204,"154":9.989925384521484,"155":1.2604540586471558,"156":15.045668601989746,"157":1.0857219696044922,"158":-4.21829891204834,"159":-0.4273861348628998,"160":-0.8147723078727722,"161":15.484569549560547,"162":-11.463640213012695,"163":4.404470443725586,"164":-1.5678430795669556,"165":11.188650131225586,"166":6.569983005523682,"167":-7.003859996795654,"168":-6.47688102722168,"169":3.1738839149475098,"170":-3.055088520050049,"171":9.684555053710938,"172":-4.317549228668213,"173":8.831367492675781,"174":-10.169517517089844,"175":-4.066992282867432,"176":-5.316708564758301,"177":-16.321083068847656,"178":-10.782943725585938,"179":-9.87933349609375,"180":6.734253406524658,"181":5.889260292053223,"182":5.704431056976318,"183":-7.264901161193848,"184":-1.505226731300354,"185":7.4200310707092285,"186":-5.402390956878662,"187":1.8556290864944458,"188":3.8400344848632812,"189":7.7485246658325195,"190":8.896413803100586,"191":11.481038093566895,"192":9.089726448059082,"193":1.9000656604766846,"194":15.571027755737305,"195":-10.774391174316406,"196":-11.11577033996582,"197":-1.140246868133545,"198":-7.355600833892822,"199":10.080856323242188,"200":-0.5306909084320068,"201":-17.6921443939209,"202":18.488771438598633,"203":7.407955646514893,"204":-0.20510566234588623,"205":-1.713514804840088,"206":11.321358680725098,"207":-1.7808483839035034,"208":3.9448723793029785,"209":-10.259806632995605,"210":-7.240150451660156,"211":7.809944152832031,"212":8.883605003356934,"213":2.755225658416748,"214":9.299960136413574,"215":-3.525792121887207,"216":-1.4319798946380615,"217":-5.111958026885986,"218":-1.5827093124389648,"219":-1.9478703737258911,"220":12.532381057739258,"221":8.484565734863281,"222":2.3744709491729736,"223":10.003923416137695,"224":0.8417852520942688,"225":15.760461807250977,"226":-6.817532062530518,"227":-3.601120948791504,"228":4.8548383712768555,"229":-0.5080667734146118,"230":3.6062192916870117,"231":2.4706146717071533,"232":26.371078491210938,"233":-1.2454962730407715,"234":-11.778661727905273,"235":3.9968621730804443,"236":-8.25706672668457,"237":-3.152644157409668,"238":0.3364717662334442,"239":-7.675677299499512,"240":-2.2602291107177734,"241":1.7316429615020752,"242":-6.6938042640686035,"243":-1.4740792512893677,"244":-3.183945655822754,"245":-1.7536799907684326,"246":-2.69712233543396,"247":1.1660679578781128,"248":3.197277545928955,"249":-5.79866886138916,"250":-3.2821600437164307,"251":-6.502030372619629,"252":0.5234662294387817,"253":-4.651844024658203,"254":-4.122420787811279,"255":-2.2038731575012207,"256":-9.655896186828613,"257":-5.386885166168213,"258":-0.36233875155448914,"259":-6.588027000427246,"260":2.5398473739624023,"261":-0.2899462878704071,"262":0.9084993600845337,"263":8.878643989562988,"264":-12.880163192749023,"265":2.588165044784546,"266":-5.747250556945801,"267":3.2523157596588135,"268":-4.005365371704102,"269":1.032704472541809,"270":-4.3108811378479,"271":4.401338577270508,"272":3.6694092750549316,"273":-1.3683090209960938,"274":3.535722494125366,"275":6.747420310974121,"276":-13.905914306640625,"277":-4.210625171661377,"278":7.4186859130859375,"279":3.6894969940185547,"280":-14.94543743133545,"281":-2.308314085006714,"282":7.696188926696777,"283":-3.9261152744293213,"284":-3.8081374168395996,"285":-3.475687026977539,"286":-3.1235642433166504,"287":-2.6557960510253906,"288":-4.9477105140686035,"289":-1.8827100992202759,"290":1.7493934631347656,"291":-9.766310691833496,"292":6.428337574005127,"293":-3.5740432739257812,"294":-9.693816184997559,"295":2.126694917678833,"296":-2.947516679763794,"297":-14.261512756347656,"298":-4.759149074554443,"299":-11.552860260009766,"300":5.293856620788574,"301":-6.568912029266357,"302":3.4070937633514404,"303":-1.2811942100524902,"304":2.3290183544158936,"305":-4.909435749053955,"306":-5.921716213226318,"307":7.388111591339111,"308":5.695491790771484,"309":5.816225528717041,"310":1.1732498407363892,"311":0.7765991687774658,"312":17.671466827392578,"313":-1.2995132207870483,"314":4.655080318450928,"315":6.833338737487793,"316":-1.6975748538970947,"317":-7.371626853942871,"318":-12.201215744018555,"319":4.766650199890137,"320":1.6266049146652222,"321":-3.5377426147460938,"322":6.076719760894775,"323":-3.178237199783325,"324":0.0053060296922922134,"325":-17.754281997680664,"326":5.067324161529541,"327":4.039284706115723,"328":-3.9933249950408936,"329":4.964226722717285,"330":5.4511919021606445,"331":-17.256248474121094,"332":-0.5841646790504456,"333":-4.275349140167236,"334":-10.357623100280762,"335":-2.61012864112854,"336":2.6890673637390137,"337":-3.7878658771514893,"338":-15.753708839416504,"339":-6.656703948974609,"340":-11.3076753616333,"341":-5.151630878448486,"342":20.844379425048828,"343":-5.94891881942749,"344":2.7357537746429443,"345":34.00041961669922,"346":-5.8051347732543945,"347":-9.328429222106934,"348":-8.94080638885498,"349":-9.394216537475586,"350":7.138799667358398,"351":10.588592529296875,"352":-25.576770782470703,"353":9.216635704040527,"354":2.689189910888672,"355":3.5062906742095947,"356":-16.307788848876953,"357":-5.492581367492676,"358":14.90337085723877,"359":-8.100700378417969,"360":-0.7888513803482056,"361":-1.7146669626235962,"362":7.2222819328308105,"363":-5.848673343658447,"364":0.3064950108528137,"365":-4.521411418914795,"366":-0.3394755721092224,"367":2.605325698852539,"368":-2.554810047149658,"369":-3.613096237182617,"370":-4.681398391723633,"371":1.7537444829940796,"372":3.152548313140869,"373":-1.7618979215621948,"374":-2.4759764671325684,"375":5.651453018188477,"376":-4.2127203941345215,"377":6.477737903594971,"378":-3.6940431594848633,"379":-10.209111213684082,"380":1.4704183340072632,"381":0.7014676928520203,"382":6.308710098266602,"383":-1.5593630075454712,"384":-10.672019958496094,"385":-1.3446506261825562,"386":5.993537902832031,"387":-5.646666526794434,"388":-4.23543643951416,"389":-10.75057315826416,"390":-0.4340464174747467,"391":-0.880123496055603,"392":7.201883792877197,"393":7.629546165466309,"394":0.4357495605945587,"395":-5.580060958862305,"396":-2.6580870151519775,"397":-2.192507028579712,"398":-6.678280353546143,"399":4.530128002166748}},"inputBias":{"rows":20,"columns":1,"weights":{"0":-4.903810024261475,"1":-1.215417504310608,"2":-0.10297659784555435,"3":-0.005956233944743872,"4":-0.12008199840784073,"5":0.7148984670639038,"6":0.9650119543075562,"7":1.0172754526138306,"8":0.779130220413208,"9":-0.3191075325012207,"10":0.8362638354301453,"11":-0.43541979789733887,"12":-0.015348639339208603,"13":3.545454740524292,"14":1.085927128791809,"15":-4.166219711303711,"16":-1.328184962272644,"17":-1.1191096305847168,"18":0.9690679311752319,"19":-0.5720899105072021}},"forgetMatrix":{"rows":20,"columns":31,"weights":{"0":-4.334880352020264,"1":0.8134276270866394,"2":2.0470075607299805,"3":-0.5475980639457703,"4":-0.059784628450870514,"5":1.1728383302688599,"6":0.0387544259428978,"7":1.9073436260223389,"8":-2.062145709991455,"9":2.941101312637329,"10":0.37391796708106995,"11":2.5538971424102783,"12":-1.2793651819229126,"13":-4.608048915863037,"14":-3.6559009552001953,"15":-0.787360668182373,"16":2.30173921585083,"17":-1.876173973083496,"18":-1.1364774703979492,"19":-2.760998010635376,"20":0.5549695491790771,"21":-2.4710705280303955,"22":-1.0008459091186523,"23":3.7405059337615967,"24":-0.4013572931289673,"25":4.07206916809082,"26":-1.356227159500122,"27":-2.2617135047912598,"28":-3.7710940837860107,"29":-0.9532051682472229,"30":2.3560125827789307,"31":-5.971485614776611,"32":-0.8323307037353516,"33":1.5658762454986572,"34":-0.2997974455356598,"35":-1.8596510887145996,"36":-1.8101452589035034,"37":6.977860450744629,"38":2.551121473312378,"39":0.5201432704925537,"40":1.8013502359390259,"41":-3.236651659011841,"42":-1.6043334007263184,"43":0.7820714712142944,"44":-0.9429789185523987,"45":-0.2722392976284027,"46":1.1158971786499023,"47":-0.3460758328437805,"48":1.6594927310943604,"49":1.8817371129989624,"50":1.6400220394134521,"51":-1.5604408979415894,"52":0.5122116208076477,"53":-0.6782486438751221,"54":-0.13787594437599182,"55":1.380608320236206,"56":-3.124154567718506,"57":1.821818232536316,"58":-1.1990877389907837,"59":-0.419905424118042,"60":2.752946615219116,"61":-0.5231835842132568,"62":-2.0192995071411133,"63":-0.7573955655097961,"64":1.8690611124038696,"65":1.5151026248931885,"66":2.495312213897705,"67":-2.0313382148742676,"68":-3.379157066345215,"69":-4.1209001541137695,"70":1.0692086219787598,"71":1.0922456979751587,"72":-0.9676293134689331,"73":-1.8086481094360352,"74":3.0833075046539307,"75":-1.6909137964248657,"76":2.3798587322235107,"77":-1.5383756160736084,"78":-0.4160290062427521,"79":3.1047184467315674,"80":-1.533514380455017,"81":-0.8835957646369934,"82":3.310478448867798,"83":5.706295967102051,"84":-1.9864243268966675,"85":-1.7881380319595337,"86":0.1636473834514618,"87":1.5116314888000488,"88":-0.477399617433548,"89":3.7994484901428223,"90":4.401827335357666,"91":-4.707071304321289,"92":-1.2859724760055542,"93":1.4361389875411987,"94":1.2530498504638672,"95":-5.174766540527344,"96":1.403228521347046,"97":-2.166114091873169,"98":-3.597376823425293,"99":-0.08284876495599747,"100":-5.287724494934082,"101":0.8617019057273865,"102":1.1824908256530762,"103":-0.10245201736688614,"104":-0.4122759699821472,"105":-0.8761289715766907,"106":0.4402987062931061,"107":0.5684337019920349,"108":4.408556938171387,"109":3.2759499549865723,"110":-0.6243321895599365,"111":1.7558594942092896,"112":-0.24557636678218842,"113":-0.8008660078048706,"114":3.5509226322174072,"115":1.7841010093688965,"116":0.9752436280250549,"117":-4.156458854675293,"118":3.8796679973602295,"119":-4.7948150634765625,"120":1.7559751272201538,"121":0.8684759140014648,"122":1.0785350799560547,"123":-1.980751395225525,"124":2.0618927478790283,"125":-1.025949239730835,"126":2.045332193374634,"127":1.3507341146469116,"128":-2.774286985397339,"129":-4.242836952209473,"130":0.08920895308256149,"131":0.7062317728996277,"132":-4.325775146484375,"133":4.201552867889404,"134":-2.0468099117279053,"135":4.858314037322998,"136":1.6246328353881836,"137":3.175673007965088,"138":-0.8665868639945984,"139":5.289684295654297,"140":-2.508471965789795,"141":-3.8630855083465576,"142":-0.1035940945148468,"143":2.064258575439453,"144":-0.27823513746261597,"145":0.16634969413280487,"146":-8.019939422607422,"147":-1.46164071559906,"148":-1.5456881523132324,"149":0.3338044583797455,"150":2.439732074737549,"151":-5.134782791137695,"152":-2.033287286758423,"153":-3.4977774620056152,"154":1.6894274950027466,"155":-0.8438944816589355,"156":-0.24497205018997192,"157":-1.958311915397644,"158":-0.3411780893802643,"159":-0.7189468145370483,"160":2.3621134757995605,"161":-0.2664320170879364,"162":1.2325302362442017,"163":-2.8967864513397217,"164":1.7784266471862793,"165":-0.3218446373939514,"166":1.9364148378372192,"167":0.9156273603439331,"168":-1.3798614740371704,"169":-0.762970507144928,"170":3.4475111961364746,"171":-0.3062971532344818,"172":-3.9304823875427246,"173":-2.6534571647644043,"174":0.6913851499557495,"175":2.895033597946167,"176":-0.2502858340740204,"177":-3.8863275051116943,"178":0.5271303057670593,"179":-1.451225996017456,"180":3.3398067951202393,"181":2.680138111114502,"182":-4.830326557159424,"183":0.5245683789253235,"184":-4.925662994384766,"185":-0.728245735168457,"186":0.23818698525428772,"187":-6.082740783691406,"188":-4.439968109130859,"189":-3.260328769683838,"190":-0.8829956650733948,"191":-1.6105762720108032,"192":3.8191564083099365,"193":-0.7691121697425842,"194":0.9122881293296814,"195":-0.8864212036132812,"196":-2.232705593109131,"197":-0.5791513919830322,"198":-3.3255255222320557,"199":2.9565999507904053,"200":2.75986385345459,"201":-1.773625373840332,"202":0.21180418133735657,"203":0.8224084973335266,"204":0.7341709733009338,"205":1.2253258228302002,"206":0.7045847177505493,"207":-3.3875012397766113,"208":1.230660080909729,"209":-1.7402150630950928,"210":3.109071731567383,"211":-1.1717873811721802,"212":0.4073066711425781,"213":0.6833304762840271,"214":2.722580671310425,"215":-0.19172677397727966,"216":-1.226315975189209,"217":1.7616044282913208,"218":-0.29906871914863586,"219":-2.9690191745758057,"220":-0.2567174434661865,"221":2.0308752059936523,"222":-1.8670653104782104,"223":-1.0405882596969604,"224":0.845356285572052,"225":-2.3271982669830322,"226":1.2245826721191406,"227":0.7227294445037842,"228":-2.2470693588256836,"229":1.6985114812850952,"230":0.9568126797676086,"231":-0.12384605407714844,"232":-0.2977563738822937,"233":-0.6661303639411926,"234":3.553352117538452,"235":-2.233443021774292,"236":-0.32246842980384827,"237":-1.1803697347640991,"238":1.5011721849441528,"239":4.254246711730957,"240":0.14332956075668335,"241":1.127364158630371,"242":1.621337890625,"243":-0.9832048416137695,"244":-0.5771796107292175,"245":3.3588716983795166,"246":-1.8245786428451538,"247":2.4654881954193115,"248":1.0530060529708862,"249":-0.7166033983230591,"250":2.8942902088165283,"251":-2.6404895782470703,"252":-4.574254512786865,"253":1.9097589254379272,"254":1.6967647075653076,"255":0.9804429411888123,"256":-4.934337139129639,"257":3.1497137546539307,"258":-2.220693826675415,"259":-7.150914669036865,"260":2.932175397872925,"261":1.1232258081436157,"262":1.5409742593765259,"263":-0.9991996884346008,"264":2.6364033222198486,"265":-3.7449374198913574,"266":4.353631496429443,"267":-2.721555233001709,"268":1.7527145147323608,"269":0.8953690528869629,"270":-2.1764001846313477,"271":1.2815005779266357,"272":-2.6047873497009277,"273":5.164186000823975,"274":-0.9484319090843201,"275":-1.5658153295516968,"276":0.8472150564193726,"277":-0.8272483944892883,"278":1.2026605606079102,"279":0.906512975692749,"280":-0.536590576171875,"281":0.4009438455104828,"282":-4.622003555297852,"283":3.575575351715088,"284":-1.5841505527496338,"285":-1.6934411525726318,"286":-7.182546138763428,"287":-3.750507354736328,"288":-0.5413781404495239,"289":-0.737938404083252,"290":-2.900117874145508,"291":-0.05485823377966881,"292":-2.9381604194641113,"293":-0.1231231763958931,"294":-2.5927422046661377,"295":0.24116195738315582,"296":0.46568846702575684,"297":3.310668468475342,"298":0.8443698883056641,"299":3.7581262588500977,"300":-0.299282968044281,"301":0.6572182774543762,"302":-4.029552936553955,"303":-0.9242384433746338,"304":0.31662341952323914,"305":-1.2769519090652466,"306":-0.020531781017780304,"307":0.254499614238739,"308":0.28600260615348816,"309":-0.7876294255256653,"310":1.489080786705017,"311":-2.3223681449890137,"312":-0.3267475366592407,"313":0.44427773356437683,"314":-3.095370054244995,"315":-1.5947264432907104,"316":-3.984165668487549,"317":-4.98466682434082,"318":-2.2220547199249268,"319":1.0913467407226562,"320":-1.3394523859024048,"321":4.4412150382995605,"322":-6.051451206207275,"323":0.2783564329147339,"324":-4.053603172302246,"325":0.39308977127075195,"326":2.28653883934021,"327":-2.7757203578948975,"328":0.9818558692932129,"329":-1.0771020650863647,"330":0.43461835384368896,"331":-1.1286756992340088,"332":-0.16208003461360931,"333":-2.988976001739502,"334":-2.0209903717041016,"335":1.8533899784088135,"336":0.7259267568588257,"337":-1.5540649890899658,"338":-0.3696596920490265,"339":-2.3814241886138916,"340":1.3432679176330566,"341":4.6172614097595215,"342":-7.291444778442383,"343":1.5992704629898071,"344":7.356436252593994,"345":2.953199625015259,"346":-0.36704471707344055,"347":3.077623128890991,"348":-2.494734287261963,"349":-2.124173641204834,"350":6.678768634796143,"351":-0.9732877612113953,"352":-1.0755022764205933,"353":0.04541204124689102,"354":-4.091953754425049,"355":-0.04857943207025528,"356":2.2304015159606934,"357":2.477402687072754,"358":4.690260887145996,"359":1.1357600688934326,"360":11.200501441955566,"361":0.8539148569107056,"362":3.570986270904541,"363":3.798957586288452,"364":-0.4688916802406311,"365":0.7858079075813293,"366":-0.765079915523529,"367":-1.6673692464828491,"368":1.9191011190414429,"369":0.9859054684638977,"370":2.722177028656006,"371":-3.1964101791381836,"372":0.8025966286659241,"373":1.131468415260315,"374":2.60455584526062,"375":-1.59610915184021,"376":0.6247827410697937,"377":-1.309273600578308,"378":2.2956321239471436,"379":-0.5571260452270508,"380":-1.059754490852356,"381":-0.49883127212524414,"382":4.901766300201416,"383":0.8117492198944092,"384":3.921569585800171,"385":1.8599987030029297,"386":2.0725183486938477,"387":2.537243127822876,"388":2.3123817443847656,"389":-2.4466967582702637,"390":-0.6362255215644836,"391":-1.779301643371582,"392":-1.75438392162323,"393":2.3545138835906982,"394":-0.4493156373500824,"395":0.8315677046775818,"396":0.8689101934432983,"397":-0.2956658899784088,"398":-0.23637722432613373,"399":2.038647174835205,"400":-3.156081199645996,"401":0.42283689975738525,"402":0.6797219514846802,"403":0.32715699076652527,"404":-3.056502342224121,"405":-0.5052711367607117,"406":-4.161571502685547,"407":-2.2017126083374023,"408":0.10332726687192917,"409":-0.3021225929260254,"410":-2.2329792976379395,"411":-3.8453166484832764,"412":-0.35436737537384033,"413":-0.8389959335327148,"414":-0.6086352467536926,"415":-2.5760135650634766,"416":-2.184622049331665,"417":-2.2792651653289795,"418":1.6790465116500854,"419":-0.2101389467716217,"420":-1.13669753074646,"421":-3.507411241531372,"422":-0.6441837549209595,"423":0.44673338532447815,"424":1.8680118322372437,"425":-1.3728244304656982,"426":-2.0587620735168457,"427":2.7623748779296875,"428":4.643037796020508,"429":5.416818141937256,"430":-8.154143333435059,"431":0.27721527218818665,"432":-0.9712340831756592,"433":5.882976531982422,"434":-6.288514614105225,"435":-4.6176323890686035,"436":-2.894303798675537,"437":-3.1491072177886963,"438":-2.1961545944213867,"439":-4.11970329284668,"440":0.039960913360118866,"441":-0.12199577689170837,"442":2.634093761444092,"443":-0.45161035656929016,"444":5.000698089599609,"445":-0.4344310462474823,"446":-0.3994181156158447,"447":-1.502474308013916,"448":-0.6204327344894409,"449":3.601348876953125,"450":0.27481114864349365,"451":1.8779383897781372,"452":1.455135703086853,"453":-4.378507137298584,"454":1.1892015933990479,"455":-3.8756322860717773,"456":-2.621734142303467,"457":3.078237533569336,"458":-0.25827479362487793,"459":2.1583163738250732,"460":0.21536920964717865,"461":-2.259697675704956,"462":0.7748519778251648,"463":-1.5328677892684937,"464":5.517126560211182,"465":0.9443296194076538,"466":2.351926326751709,"467":-0.6096768379211426,"468":-2.0656182765960693,"469":-5.37710428237915,"470":2.1514763832092285,"471":1.651261568069458,"472":1.4962550401687622,"473":-0.12805607914924622,"474":0.7330030202865601,"475":3.5682477951049805,"476":-3.332453727722168,"477":1.3062349557876587,"478":3.8084959983825684,"479":2.638315439224243,"480":2.0926737785339355,"481":-0.12915381789207458,"482":-0.4622150957584381,"483":-1.7043142318725586,"484":1.1084028482437134,"485":-2.9649927616119385,"486":-0.8997576832771301,"487":-1.0912038087844849,"488":1.4959564208984375,"489":4.882479667663574,"490":0.4304705858230591,"491":2.9098572731018066,"492":-1.198203682899475,"493":3.8175840377807617,"494":-0.6145176887512207,"495":4.774902820587158,"496":0.7742865681648254,"497":0.8369385004043579,"498":3.7875466346740723,"499":-0.4022986888885498,"500":-3.1462364196777344,"501":0.9621077179908752,"502":-1.4620344638824463,"503":-1.530833125114441,"504":-2.6455790996551514,"505":3.5053865909576416,"506":-0.45415404438972473,"507":-2.6433045864105225,"508":-0.2194930464029312,"509":0.46475037932395935,"510":-1.3478546142578125,"511":-1.2879443168640137,"512":-4.477787971496582,"513":-1.5491679906845093,"514":2.2991576194763184,"515":3.057101249694824,"516":-2.9202494621276855,"517":-1.475858211517334,"518":-2.7565927505493164,"519":-2.0260586738586426,"520":-1.468796968460083,"521":2.6797432899475098,"522":0.2589060366153717,"523":-2.948342800140381,"524":1.8364858627319336,"525":-3.2435803413391113,"526":2.5877811908721924,"527":3.427063465118408,"528":-1.5970127582550049,"529":-0.9691733121871948,"530":-2.0730581283569336,"531":-2.9898080825805664,"532":-1.884035348892212,"533":-1.9003543853759766,"534":-0.9206808805465698,"535":-0.7947399020195007,"536":2.807061195373535,"537":-0.6305624842643738,"538":1.1580274105072021,"539":-6.5529985427856445,"540":-0.06396602839231491,"541":1.5610913038253784,"542":2.136582851409912,"543":-3.2337405681610107,"544":2.329620599746704,"545":1.6880500316619873,"546":4.3269219398498535,"547":1.5415970087051392,"548":-2.362123727798462,"549":1.209668755531311,"550":-4.222650051116943,"551":4.89306640625,"552":-0.15685060620307922,"553":-2.8009793758392334,"554":0.729430079460144,"555":4.149360179901123,"556":-3.0543463230133057,"557":0.4429173469543457,"558":4.237046718597412,"559":2.2106008529663086,"560":2.085447311401367,"561":1.090025544166565,"562":4.4983086585998535,"563":0.4850708246231079,"564":-1.777543306350708,"565":-1.885969877243042,"566":-4.1750383377075195,"567":3.0072739124298096,"568":-2.2213993072509766,"569":-2.3405921459198,"570":3.26143479347229,"571":2.0257577896118164,"572":0.006202309392392635,"573":-3.5156426429748535,"574":-5.08378267288208,"575":3.4804248809814453,"576":1.1372580528259277,"577":6.970094680786133,"578":-4.128350257873535,"579":2.683838367462158,"580":-2.0795276165008545,"581":-6.769804000854492,"582":-3.273632764816284,"583":0.07655907422304153,"584":0.10609279572963715,"585":-3.5339300632476807,"586":1.3370009660720825,"587":-0.6007339358329773,"588":2.7074830532073975,"589":-1.4963420629501343,"590":-2.190617084503174,"591":0.022436710074543953,"592":-0.1092006042599678,"593":1.3209612369537354,"594":3.8028604984283447,"595":2.276637554168701,"596":-1.0364532470703125,"597":-4.265634059906006,"598":1.6616469621658325,"599":2.058440923690796,"600":0.2562505900859833,"601":-1.3634227514266968,"602":-0.708839476108551,"603":4.050861835479736,"604":6.723310947418213,"605":-1.3777859210968018,"606":2.895355224609375,"607":-0.4679028391838074,"608":2.888174295425415,"609":-1.3564999103546143,"610":-2.3287699222564697,"611":0.5033982396125793,"612":-0.3112161159515381,"613":1.4853746891021729,"614":-1.9051278829574585,"615":-0.6410466432571411,"616":-0.9270731806755066,"617":-0.6651354432106018,"618":0.2638739049434662,"619":-2.3122146129608154}},"forgetHidden":{"rows":20,"columns":20,"weights":{"0":-3.995016574859619,"1":4.745490074157715,"2":-1.5856410264968872,"3":1.4945111274719238,"4":5.916018009185791,"5":-3.5981085300445557,"6":-0.19813552498817444,"7":1.683097004890442,"8":4.801924228668213,"9":-3.1829962730407715,"10":4.500576972961426,"11":1.5350427627563477,"12":3.2334790229797363,"13":-4.109227180480957,"14":8.16874885559082,"15":7.2655510902404785,"16":-4.206707000732422,"17":-3.445314645767212,"18":8.574416160583496,"19":-3.207141399383545,"20":5.63275671005249,"21":-2.9903767108917236,"22":-1.1993210315704346,"23":-3.9552903175354004,"24":-1.2318311929702759,"25":-0.00030916917603462934,"26":-5.937335968017578,"27":-0.6835331320762634,"28":-0.3003801703453064,"29":-1.892350435256958,"30":0.919854998588562,"31":1.047608733177185,"32":-4.7125959396362305,"33":-3.688694477081299,"34":-6.091765403747559,"35":8.485089302062988,"36":-2.5633792877197266,"37":1.813952922821045,"38":-2.5350966453552246,"39":6.755373001098633,"40":-5.869112491607666,"41":1.2005130052566528,"42":2.597346067428589,"43":-2.1331734657287598,"44":-0.7357443571090698,"45":2.066652536392212,"46":2.2665421962738037,"47":8.459306716918945,"48":4.946793079376221,"49":3.863327980041504,"50":-3.073991537094116,"51":2.4051122665405273,"52":1.6961290836334229,"53":1.6298609972000122,"54":5.540754795074463,"55":-8.601971626281738,"56":-2.851595163345337,"57":2.5039379596710205,"58":-4.297028541564941,"59":-4.184689044952393,"60":-4.58286714553833,"61":-13.617602348327637,"62":-8.489885330200195,"63":4.519201278686523,"64":-1.989385962486267,"65":-5.285614490509033,"66":-1.6828386783599854,"67":-5.538076877593994,"68":12.110893249511719,"69":10.415966987609863,"70":-10.732206344604492,"71":1.3534207344055176,"72":-0.8152199983596802,"73":-12.719401359558105,"74":12.837509155273438,"75":16.600234985351562,"76":9.448541641235352,"77":0.9342689514160156,"78":8.589795112609863,"79":-3.5911715030670166,"80":-0.8413001298904419,"81":-2.0748491287231445,"82":0.42589670419692993,"83":11.570530891418457,"84":-9.94693660736084,"85":-7.475221157073975,"86":9.961087226867676,"87":-1.8401427268981934,"88":6.726583957672119,"89":-4.248519420623779,"90":4.22580099105835,"91":1.1113934516906738,"92":14.570328712463379,"93":-12.492044448852539,"94":-6.435425758361816,"95":0.9626913666725159,"96":-5.55246114730835,"97":-0.949383556842804,"98":16.04473304748535,"99":-3.912285804748535,"100":-5.335002422332764,"101":1.8680262565612793,"102":-0.907345175743103,"103":3.3840231895446777,"104":3.370615243911743,"105":4.72509765625,"106":-4.27888822555542,"107":3.463008165359497,"108":1.0825024843215942,"109":6.861979961395264,"110":-1.0043795108795166,"111":-8.521040916442871,"112":-3.827176332473755,"113":1.1621346473693848,"114":1.680698275566101,"115":0.5871902108192444,"116":-10.60245418548584,"117":2.5886459350585938,"118":13.136059761047363,"119":-1.1480767726898193,"120":5.969910621643066,"121":3.801002025604248,"122":2.244774103164673,"123":0.920203447341919,"124":-4.073051452636719,"125":1.9654138088226318,"126":6.2792558670043945,"127":-4.529499530792236,"128":-2.4277193546295166,"129":-2.147578001022339,"130":-6.032698154449463,"131":1.4963451623916626,"132":0.4150303900241852,"133":11.886978149414062,"134":5.614530563354492,"135":-0.20846055448055267,"136":-4.429490089416504,"137":3.547062873840332,"138":-0.9270506501197815,"139":-2.9748475551605225,"140":-2.3372244834899902,"141":-1.282741904258728,"142":-3.511688232421875,"143":4.134297847747803,"144":4.497010231018066,"145":0.2548394203186035,"146":-4.733643054962158,"147":2.96854567527771,"148":-0.5461764931678772,"149":1.7888556718826294,"150":0.13027535378932953,"151":2.703460693359375,"152":-2.344693422317505,"153":-12.528473854064941,"154":0.7492873668670654,"155":-1.107497215270996,"156":-1.5060685873031616,"157":-1.9505115747451782,"158":-6.089113712310791,"159":-2.119905948638916,"160":0.8128402829170227,"161":1.145836353302002,"162":0.3306300640106201,"163":-11.414835929870605,"164":-0.1230376735329628,"165":-6.985909461975098,"166":2.256617546081543,"167":-4.980617523193359,"168":13.794366836547852,"169":-2.954828977584839,"170":-0.8234100341796875,"171":-1.8536087274551392,"172":7.966324806213379,"173":-6.730898857116699,"174":-1.9568564891815186,"175":-6.962618350982666,"176":-3.62210750579834,"177":-3.345909833908081,"178":-12.639803886413574,"179":3.5254592895507812,"180":1.3008617162704468,"181":5.46333122253418,"182":3.834658145904541,"183":4.233398914337158,"184":2.9320483207702637,"185":-2.5856807231903076,"186":3.3831639289855957,"187":-4.755193710327148,"188":-6.592530250549316,"189":0.7142720222473145,"190":-14.299971580505371,"191":-1.1828402280807495,"192":-8.23676586151123,"193":14.734067916870117,"194":-1.882276177406311,"195":5.366483211517334,"196":-0.2447303682565689,"197":0.3623976707458496,"198":3.740359306335449,"199":1.98348867893219,"200":0.49387702345848083,"201":-2.9751596450805664,"202":-5.004153728485107,"203":3.2780110836029053,"204":-1.174157977104187,"205":0.965804398059845,"206":-0.34816625714302063,"207":5.300326347351074,"208":1.8548834323883057,"209":-2.653602361679077,"210":-5.1303606033325195,"211":2.363170623779297,"212":-3.186149835586548,"213":-2.2331836223602295,"214":7.063442230224609,"215":4.034486770629883,"216":-1.0784950256347656,"217":1.7965186834335327,"218":-0.8142961859703064,"219":2.983319044113159,"220":-2.3379952907562256,"221":-8.905180931091309,"222":18.424942016601562,"223":-8.68875503540039,"224":-10.683051109313965,"225":-6.217300891876221,"226":5.636388778686523,"227":5.878398895263672,"228":2.3656179904937744,"229":-12.956282615661621,"230":-3.628296375274658,"231":-4.187164783477783,"232":-7.055370807647705,"233":-10.812986373901367,"234":12.096999168395996,"235":12.752949714660645,"236":-9.973721504211426,"237":4.307452201843262,"238":-14.836027145385742,"239":9.981710433959961,"240":5.270177364349365,"241":2.6107470989227295,"242":7.626936912536621,"243":2.8539178371429443,"244":5.440989017486572,"245":2.292721748352051,"246":-2.0140573978424072,"247":-0.6832007765769958,"248":-1.2667555809020996,"249":-3.086895227432251,"250":0.24164892733097076,"251":3.0914270877838135,"252":6.2142839431762695,"253":-2.2439041137695312,"254":4.075592994689941,"255":-1.2972588539123535,"256":0.09515649080276489,"257":4.0451250076293945,"258":3.575004816055298,"259":-6.00432014465332,"260":3.9854228496551514,"261":-5.470161437988281,"262":5.50950813293457,"263":10.181110382080078,"264":6.3013596534729,"265":14.571942329406738,"266":-0.8153190612792969,"267":1.494093894958496,"268":5.143913269042969,"269":-12.622998237609863,"270":-9.795289993286133,"271":25.327125549316406,"272":6.604513645172119,"273":2.916290044784546,"274":1.357871174812317,"275":0.18738698959350586,"276":9.294254302978516,"277":6.2432780265808105,"278":-9.186392784118652,"279":-3.0134623050689697,"280":-4.118511199951172,"281":-0.8130878210067749,"282":-6.397306442260742,"283":-5.487615585327148,"284":-16.86046600341797,"285":-0.3140374422073364,"286":-1.4202197790145874,"287":-3.6765995025634766,"288":-7.242753505706787,"289":1.823226809501648,"290":-2.160088300704956,"291":-5.1601386070251465,"292":-7.6266093254089355,"293":9.967103004455566,"294":12.982711791992188,"295":-2.63283634185791,"296":-0.7857505679130554,"297":14.590139389038086,"298":7.141356468200684,"299":-6.09188985824585,"300":-3.695955514907837,"301":-3.700127601623535,"302":7.363159656524658,"303":-6.788102626800537,"304":7.5951642990112305,"305":-6.653783798217773,"306":2.299821138381958,"307":2.3516695499420166,"308":-1.5937379598617554,"309":4.508103847503662,"310":-1.5125564336776733,"311":-4.179759979248047,"312":3.3057141304016113,"313":-1.0532275438308716,"314":-0.33806779980659485,"315":-4.962106227874756,"316":-6.68864107131958,"317":1.4740570783615112,"318":6.1674017906188965,"319":-2.6968348026275635,"320":4.10040283203125,"321":-2.963446617126465,"322":-3.2138099670410156,"323":-0.6227790117263794,"324":3.695906400680542,"325":1.2139555215835571,"326":-4.320295333862305,"327":-4.190064907073975,"328":0.2731897234916687,"329":-2.840942859649658,"330":-2.167330026626587,"331":3.1705703735351562,"332":0.5460981130599976,"333":2.6539649963378906,"334":0.2164851278066635,"335":-2.9150662422180176,"336":-2.353985071182251,"337":-8.737258911132812,"338":-3.309856414794922,"339":-4.328074932098389,"340":-0.3481665849685669,"341":-2.0619466304779053,"342":-2.844550132751465,"343":4.8217339515686035,"344":-14.602399826049805,"345":-9.617462158203125,"346":-1.2582368850708008,"347":-9.420674324035645,"348":13.086529731750488,"349":-9.560956954956055,"350":18.215038299560547,"351":-8.163922309875488,"352":7.364225387573242,"353":-4.487171649932861,"354":1.5571067333221436,"355":-17.114105224609375,"356":-7.521155834197998,"357":-5.614350318908691,"358":2.551072120666504,"359":-15.37086296081543,"360":-10.446906089782715,"361":-3.006707191467285,"362":0.19195391237735748,"363":19.045808792114258,"364":10.017032623291016,"365":-13.254077911376953,"366":4.941687107086182,"367":2.752556800842285,"368":1.5521658658981323,"369":1.3043766021728516,"370":7.958171367645264,"371":1.4902037382125854,"372":-2.404064416885376,"373":-9.287369728088379,"374":-2.572906494140625,"375":18.509008407592773,"376":3.6455516815185547,"377":18.334007263183594,"378":10.206418991088867,"379":14.615299224853516,"380":-2.202528715133667,"381":0.403159499168396,"382":-4.928126335144043,"383":1.3900516033172607,"384":-0.3862668573856354,"385":-6.890604496002197,"386":-5.350343227386475,"387":-1.543036699295044,"388":7.03644323348999,"389":3.0598034858703613,"390":1.207711100578308,"391":-0.5100287795066833,"392":-2.991711139678955,"393":-6.28593635559082,"394":2.875628709793091,"395":-0.9303977489471436,"396":-5.870821475982666,"397":-10.07503604888916,"398":-1.3456034660339355,"399":7.314089298248291}},"forgetBias":{"rows":20,"columns":1,"weights":{"0":0,"1":0,"2":0,"3":0,"4":0,"5":0,"6":0,"7":0,"8":0,"9":0,"10":0,"11":0,"12":0,"13":0,"14":0,"15":0,"16":0,"17":0,"18":0,"19":0}},"outputMatrix":{"rows":20,"columns":31,"weights":{"0":5.83621072769165,"1":3.002349615097046,"2":-0.9568063616752625,"3":-0.18719322979450226,"4":3.6116271018981934,"5":2.358339786529541,"6":2.6036739349365234,"7":-3.9932479858398438,"8":0.5719246864318848,"9":-2.8995308876037598,"10":6.603482723236084,"11":-2.816267490386963,"12":1.479662299156189,"13":-1.264586091041565,"14":5.379729270935059,"15":1.1308537721633911,"16":-3.386493444442749,"17":-1.0997893810272217,"18":-5.656633377075195,"19":6.17106819152832,"20":2.1388940811157227,"21":2.2542219161987305,"22":-1.4693111181259155,"23":2.310720205307007,"24":-5.712609767913818,"25":-5.493524551391602,"26":-0.8179262280464172,"27":-4.774957180023193,"28":0.7295820116996765,"29":0.21356210112571716,"30":2.3723649978637695,"31":7.072141647338867,"32":-2.86555552482605,"33":1.4595528841018677,"34":-5.628405570983887,"35":-2.72721529006958,"36":-0.8329768180847168,"37":-1.3469748497009277,"38":-0.5861632227897644,"39":-3.8597805500030518,"40":1.3141517639160156,"41":-5.63346529006958,"42":0.3645496964454651,"43":1.7079648971557617,"44":-3.097679853439331,"45":2.755333185195923,"46":0.8905563950538635,"47":-0.7935985922813416,"48":-2.472571849822998,"49":-1.073011875152588,"50":3.413726568222046,"51":-0.795024037361145,"52":0.4822835326194763,"53":-4.765855312347412,"54":-1.7914631366729736,"55":3.063737630844116,"56":-4.198942184448242,"57":4.297224998474121,"58":2.403151273727417,"59":-1.2474448680877686,"60":5.353625297546387,"61":-1.935458779335022,"62":0.5503953695297241,"63":1.488746166229248,"64":2.2659223079681396,"65":-0.24369704723358154,"66":-6.4877400398254395,"67":2.654144525527954,"68":1.4419399499893188,"69":4.578344345092773,"70":-4.3218913078308105,"71":2.3973183631896973,"72":2.552537202835083,"73":-4.26427698135376,"74":-3.317991256713867,"75":0.7835694551467896,"76":8.16507339477539,"77":6.835511207580566,"78":-2.310987949371338,"79":-4.470355033874512,"80":-1.1445906162261963,"81":2.2866013050079346,"82":-3.1376616954803467,"83":2.641662120819092,"84":-0.916816771030426,"85":-0.04465308040380478,"86":2.2803707122802734,"87":-2.7620232105255127,"88":-2.4495198726654053,"89":1.84974205493927,"90":2.9693782329559326,"91":-0.6690667867660522,"92":-4.192864894866943,"93":2.377673625946045,"94":-3.2054502964019775,"95":-3.089223623275757,"96":1.0241717100143433,"97":-2.519658327102661,"98":-1.229765772819519,"99":-4.185047149658203,"100":-0.4566212594509125,"101":-0.33079737424850464,"102":-1.5332680940628052,"103":1.2305079698562622,"104":4.273377418518066,"105":-3.569208860397339,"106":1.8609867095947266,"107":1.7820795774459839,"108":10.895021438598633,"109":-7.337255001068115,"110":-0.09614383429288864,"111":0.9782652854919434,"112":2.46128249168396,"113":-4.630247592926025,"114":0.2354348599910736,"115":3.7255985736846924,"116":1.3661456108093262,"117":3.814094066619873,"118":-1.6519488096237183,"119":2.4579436779022217,"120":1.8392775058746338,"121":2.4963927268981934,"122":1.0024770498275757,"123":2.4561049938201904,"124":0.4943348467350006,"125":11.976325035095215,"126":-0.35916441679000854,"127":3.4513986110687256,"128":3.2156314849853516,"129":-2.68582820892334,"130":-2.7241039276123047,"131":8.143721580505371,"132":6.706602096557617,"133":-1.5546270608901978,"134":-0.678777813911438,"135":1.1020842790603638,"136":-2.8306987285614014,"137":3.488175868988037,"138":-1.7105603218078613,"139":6.380390167236328,"140":6.058921813964844,"141":6.872471809387207,"142":-0.6219128966331482,"143":-4.683252334594727,"144":0.2949087917804718,"145":1.501153826713562,"146":-3.626124620437622,"147":-4.461262226104736,"148":2.5260870456695557,"149":1.2675892114639282,"150":1.9740869998931885,"151":-0.5968129634857178,"152":-5.293766498565674,"153":0.7062638401985168,"154":-1.7474682331085205,"155":3.1196188926696777,"156":-1.5330477952957153,"157":-1.8104381561279297,"158":-4.028115272521973,"159":-2.1509456634521484,"160":3.113922357559204,"161":5.4451165199279785,"162":-1.804251790046692,"163":5.661079406738281,"164":-3.519331455230713,"165":-2.0502915382385254,"166":-0.4396643340587616,"167":-1.3616254329681396,"168":-0.9077352285385132,"169":-3.234093189239502,"170":-7.447692394256592,"171":3.833012104034424,"172":4.618144512176514,"173":1.2109636068344116,"174":5.139614582061768,"175":0.8717107176780701,"176":2.1366219520568848,"177":5.250479221343994,"178":0.25299587845802307,"179":-0.9023849368095398,"180":-6.761612415313721,"181":5.424718856811523,"182":1.735868215560913,"183":3.8712456226348877,"184":6.8864264488220215,"185":-4.889216423034668,"186":-2.7312228679656982,"187":-1.7937484979629517,"188":-1.2494779825210571,"189":4.188292026519775,"190":-4.309139251708984,"191":4.095210075378418,"192":1.155263066291809,"193":3.6208248138427734,"194":0.7428461909294128,"195":-1.0519654750823975,"196":-0.8194795846939087,"197":0.6334825754165649,"198":-0.44384312629699707,"199":-4.578191757202148,"200":-1.1290357112884521,"201":4.166469097137451,"202":2.0320630073547363,"203":2.060309886932373,"204":0.2058670073747635,"205":-1.6902321577072144,"206":-3.310424327850342,"207":-7.559319972991943,"208":-2.152573585510254,"209":4.720444679260254,"210":2.743607521057129,"211":-0.7673542499542236,"212":-2.966555595397949,"213":-3.9361116886138916,"214":-6.060826778411865,"215":-0.4297367036342621,"216":2.504073143005371,"217":-5.271450042724609,"218":-7.680935382843018,"219":-0.8229838609695435,"220":-1.6152044534683228,"221":-4.804071426391602,"222":1.2944670915603638,"223":4.263566970825195,"224":-4.500619888305664,"225":-8.117437362670898,"226":-4.081818580627441,"227":-4.599356651306152,"228":-1.347280740737915,"229":-1.3781856298446655,"230":7.556017875671387,"231":4.0506463050842285,"232":2.776880979537964,"233":2.0699820518493652,"234":-0.9593838453292847,"235":-0.3759050667285919,"236":2.0057919025421143,"237":0.6540404558181763,"238":0.22858881950378418,"239":-3.068873643875122,"240":-2.6725287437438965,"241":2.4297380447387695,"242":3.0500705242156982,"243":3.2020492553710938,"244":-0.5328994989395142,"245":-0.31215161085128784,"246":-1.0159074068069458,"247":1.2578656673431396,"248":-0.2349606454372406,"249":2.6590614318847656,"250":0.12339939922094345,"251":3.1788594722747803,"252":-4.554485321044922,"253":-1.34525728225708,"254":-2.7698123455047607,"255":-5.423095703125,"256":2.548109769821167,"257":1.401349663734436,"258":1.987134337425232,"259":0.09625453501939774,"260":5.936197280883789,"261":0.26866263151168823,"262":-1.365710735321045,"263":10.19555950164795,"264":5.813587188720703,"265":-5.079137802124023,"266":-0.10945425182580948,"267":-6.168362140655518,"268":-2.220735549926758,"269":1.2809433937072754,"270":2.3676834106445312,"271":1.3023658990859985,"272":4.363066673278809,"273":-9.385425567626953,"274":-2.5095925331115723,"275":4.2982048988342285,"276":-0.5024350881576538,"277":7.578912258148193,"278":2.7906103134155273,"279":4.911384582519531,"280":-5.510735034942627,"281":0.2892330288887024,"282":4.060309410095215,"283":-0.574553370475769,"284":2.165627956390381,"285":6.771020889282227,"286":-0.9176316857337952,"287":-4.332944393157959,"288":-4.601658821105957,"289":-1.9425625801086426,"290":-0.11396980285644531,"291":5.0764875411987305,"292":3.1738452911376953,"293":2.951120376586914,"294":2.1510040760040283,"295":-1.0681899785995483,"296":2.435988426208496,"297":-0.070214182138443,"298":2.869833469390869,"299":-5.7236151695251465,"300":2.8288228511810303,"301":-1.3315216302871704,"302":3.854243755340576,"303":5.27590274810791,"304":1.9767647981643677,"305":4.224376201629639,"306":-1.116178274154663,"307":4.8882927894592285,"308":3.020385265350342,"309":-2.058340072631836,"310":7.028456211090088,"311":1.049933910369873,"312":-1.682949423789978,"313":-2.872483968734741,"314":3.0602920055389404,"315":-4.7069172859191895,"316":2.4732086658477783,"317":-3.1582350730895996,"318":-3.3272831439971924,"319":0.5272282361984253,"320":1.5887831449508667,"321":1.163727879524231,"322":1.824668049812317,"323":6.179660320281982,"324":7.254915714263916,"325":1.472503900527954,"326":6.279922962188721,"327":1.3640649318695068,"328":0.3778328001499176,"329":-0.3544033467769623,"330":0.7493640780448914,"331":4.702375888824463,"332":-2.2958619594573975,"333":2.967998743057251,"334":-0.46118098497390747,"335":-2.640040159225464,"336":0.0303936880081892,"337":0.9829414486885071,"338":3.0319817066192627,"339":-0.004042609594762325,"340":-9.824247360229492,"341":-3.098461389541626,"342":1.8768872022628784,"343":-3.299332618713379,"344":-0.9585803747177124,"345":4.514226913452148,"346":4.172396183013916,"347":-6.469799518585205,"348":-1.2510942220687866,"349":2.052304983139038,"350":-2.03157377243042,"351":2.330687999725342,"352":2.252687692642212,"353":-1.2348796129226685,"354":-3.298476219177246,"355":-2.3835482597351074,"356":-4.1289520263671875,"357":-1.3259432315826416,"358":2.616424560546875,"359":-2.454892635345459,"360":5.144116401672363,"361":4.112151145935059,"362":-1.7178102731704712,"363":1.220699429512024,"364":2.4218695163726807,"365":-2.111845016479492,"366":3.710987091064453,"367":-1.5933644771575928,"368":-1.1704009771347046,"369":3.2930383682250977,"370":-3.8055641651153564,"371":2.085638999938965,"372":-7.120936870574951,"373":-0.8090416193008423,"374":3.046753168106079,"375":-2.224566698074341,"376":3.0037553310394287,"377":-5.194405555725098,"378":5.652742385864258,"379":5.863222599029541,"380":0.48709288239479065,"381":-5.519712448120117,"382":-4.552248477935791,"383":1.0889209508895874,"384":5.066762447357178,"385":-5.07354736328125,"386":-0.1108839213848114,"387":-3.355436086654663,"388":-1.1120823621749878,"389":2.3914873600006104,"390":1.3259714841842651,"391":-8.274734497070312,"392":0.7329579591751099,"393":5.53602409362793,"394":0.9193950295448303,"395":-3.916537284851074,"396":1.2212740182876587,"397":-3.944498062133789,"398":4.111170291900635,"399":2.532038927078247,"400":0.5470500588417053,"401":8.494173049926758,"402":5.551527500152588,"403":2.50456166267395,"404":1.3560668230056763,"405":1.4478459358215332,"406":-1.4505833387374878,"407":8.132351875305176,"408":-4.737546443939209,"409":-1.383455753326416,"410":2.244724750518799,"411":-4.9933881759643555,"412":5.677335739135742,"413":1.3883562088012695,"414":2.507256507873535,"415":-5.776988983154297,"416":2.757688283920288,"417":-0.06318856030702591,"418":0.35455602407455444,"419":-8.394064903259277,"420":4.34263277053833,"421":6.9395904541015625,"422":3.5092885494232178,"423":-3.8492910861968994,"424":-4.719448089599609,"425":5.511846542358398,"426":2.151723623275757,"427":1.8959673643112183,"428":-6.880204677581787,"429":0.22703216969966888,"430":-2.8611111640930176,"431":-2.706960439682007,"432":-5.639899730682373,"433":1.6486408710479736,"434":-0.6647191643714905,"435":4.1934614181518555,"436":-0.1777978241443634,"437":-5.746912956237793,"438":5.627017498016357,"439":0.48254597187042236,"440":5.5620198249816895,"441":-0.734843909740448,"442":5.557271957397461,"443":2.05056095123291,"444":-2.045841693878174,"445":-2.476207733154297,"446":2.2213375568389893,"447":-0.04231419786810875,"448":-2.794341802597046,"449":-6.077695846557617,"450":16.033475875854492,"451":-4.042306423187256,"452":-5.1725616455078125,"453":4.253884792327881,"454":7.0837907791137695,"455":4.110659122467041,"456":-7.073477268218994,"457":-0.9449981451034546,"458":3.3829801082611084,"459":1.4591375589370728,"460":0.7651076316833496,"461":-4.597564697265625,"462":-5.076860427856445,"463":1.7128664255142212,"464":-6.251009941101074,"465":-3.2556517124176025,"466":-1.7801597118377686,"467":0.2208736687898636,"468":2.714785575866699,"469":1.872345209121704,"470":5.604113578796387,"471":3.8422651290893555,"472":6.317831993103027,"473":-6.674574851989746,"474":0.8750200867652893,"475":-1.77153742313385,"476":-0.557904064655304,"477":-6.607272148132324,"478":1.2953928709030151,"479":2.673462390899658,"480":1.726080060005188,"481":-1.7644625902175903,"482":-0.1282893568277359,"483":5.826047420501709,"484":5.005843639373779,"485":-0.18657547235488892,"486":0.38261905312538147,"487":7.50105094909668,"488":-6.7840471267700195,"489":0.8539282083511353,"490":3.696744918823242,"491":0.8592820763587952,"492":3.3384957313537598,"493":-2.9235188961029053,"494":3.1316728591918945,"495":-4.84272575378418,"496":7.713962554931641,"497":5.0819807052612305,"498":-9.301136016845703,"499":0.9550900459289551,"500":2.689269781112671,"501":-4.689542770385742,"502":-1.1669729948043823,"503":6.2794389724731445,"504":-0.5766509771347046,"505":0.8508105874061584,"506":-1.5216634273529053,"507":-1.6622258424758911,"508":-4.094537258148193,"509":4.401259422302246,"510":4.51135778427124,"511":-0.3669114112854004,"512":0.712943434715271,"513":2.9596409797668457,"514":-3.437488079071045,"515":-2.6096553802490234,"516":-0.5874255895614624,"517":-1.085918664932251,"518":2.368788719177246,"519":-5.526294231414795,"520":3.754136800765991,"521":3.1103928089141846,"522":-1.701406717300415,"523":1.1017974615097046,"524":4.015059947967529,"525":-3.2315866947174072,"526":1.0699653625488281,"527":-5.144084453582764,"528":0.3337799906730652,"529":-1.5314816236495972,"530":-0.45248639583587646,"531":8.915959358215332,"532":-1.971671223640442,"533":2.5848398208618164,"534":-5.072239398956299,"535":-5.144310474395752,"536":3.7730915546417236,"537":5.938874244689941,"538":-0.8407145142555237,"539":5.4346113204956055,"540":0.6049684286117554,"541":-1.8350582122802734,"542":4.9014573097229,"543":4.405771255493164,"544":-4.769681453704834,"545":0.5463279485702515,"546":-0.9775175452232361,"547":2.2904531955718994,"548":-2.1194138526916504,"549":-4.117133617401123,"550":-2.0013427734375,"551":-4.931915760040283,"552":5.440861225128174,"553":-1.6134485006332397,"554":-4.162999153137207,"555":-2.1496474742889404,"556":1.958549976348877,"557":-0.9935991764068604,"558":3.00494384765625,"559":-1.1903417110443115,"560":4.377130508422852,"561":2.0298349857330322,"562":3.6936633586883545,"563":-0.9946621060371399,"564":2.6368892192840576,"565":-6.744283199310303,"566":6.143442630767822,"567":0.9134693145751953,"568":-2.830909013748169,"569":-3.3318381309509277,"570":-3.3825831413269043,"571":-4.692570686340332,"572":-5.856730937957764,"573":-3.961991310119629,"574":2.5398166179656982,"575":1.5261327028274536,"576":-1.1346619129180908,"577":4.484005928039551,"578":3.8379032611846924,"579":-1.282758116722107,"580":-8.727526664733887,"581":9.75872802734375,"582":-0.8398167490959167,"583":1.6119276285171509,"584":0.5172504782676697,"585":0.2972627580165863,"586":-4.677896976470947,"587":-1.935167670249939,"588":-8.088958740234375,"589":1.219831943511963,"590":-6.621938705444336,"591":7.097710609436035,"592":-3.7539305686950684,"593":-5.995492458343506,"594":1.3402235507965088,"595":4.847742080688477,"596":-7.212341785430908,"597":2.2501423358917236,"598":-1.7655558586120605,"599":-3.5163819789886475,"600":-0.3705030381679535,"601":2.0389671325683594,"602":-3.9433748722076416,"603":-5.754490375518799,"604":-1.538366436958313,"605":1.8486404418945312,"606":0.15347012877464294,"607":0.21215245127677917,"608":-8.261517524719238,"609":-1.1277050971984863,"610":0.4388703405857086,"611":1.9668158292770386,"612":0.18485476076602936,"613":-1.2540985345840454,"614":4.385921001434326,"615":6.913381576538086,"616":-3.6805264949798584,"617":-4.4580254554748535,"618":-2.5884690284729004,"619":-2.2845990657806396}},"outputHidden":{"rows":20,"columns":20,"weights":{"0":1.7133148908615112,"1":-9.582850456237793,"2":2.272181510925293,"3":8.16058349609375,"4":-5.948813438415527,"5":-1.985026240348816,"6":-2.0881567001342773,"7":9.259783744812012,"8":-5.940997123718262,"9":-0.1391754299402237,"10":13.207170486450195,"11":5.954867839813232,"12":1.2231543064117432,"13":-4.394082069396973,"14":-2.4534108638763428,"15":8.650333404541016,"16":-10.825579643249512,"17":2.916478157043457,"18":-2.7894980907440186,"19":-2.360250234603882,"20":0.19959378242492676,"21":-3.315983772277832,"22":-7.101626396179199,"23":8.756428718566895,"24":3.5260708332061768,"25":7.338023662567139,"26":1.4041117429733276,"27":5.260015964508057,"28":-11.246800422668457,"29":10.558459281921387,"30":18.016345977783203,"31":6.341672420501709,"32":-0.13297034800052643,"33":11.773714065551758,"34":5.655989646911621,"35":-5.741908073425293,"36":-3.534766912460327,"37":-4.697064399719238,"38":3.501110792160034,"39":-6.036754608154297,"40":-9.607528686523438,"41":-5.357753276824951,"42":-1.4345558881759644,"43":-0.571321964263916,"44":0.5174281597137451,"45":-9.566155433654785,"46":32.86280059814453,"47":-4.7524261474609375,"48":2.3666954040527344,"49":6.754650592803955,"50":24.58645248413086,"51":13.719383239746094,"52":9.65640926361084,"53":1.5381706953048706,"54":0.19461838901042938,"55":-10.449161529541016,"56":8.566071510314941,"57":0.08346652239561081,"58":13.540261268615723,"59":11.246402740478516,"60":-0.16918787360191345,"61":-18.363815307617188,"62":21.355857849121094,"63":-2.025470733642578,"64":3.6809089183807373,"65":6.477901935577393,"66":2.4781723022460938,"67":-9.965327262878418,"68":-4.801812171936035,"69":-12.854485511779785,"70":10.469276428222656,"71":8.761463165283203,"72":0.4742303192615509,"73":17.03701400756836,"74":13.054047584533691,"75":-8.007755279541016,"76":-18.62474250793457,"77":-16.341150283813477,"78":-5.049750804901123,"79":7.839727401733398,"80":0.9999202489852905,"81":-21.98439598083496,"82":5.405961513519287,"83":-8.205292701721191,"84":14.637343406677246,"85":-2.4894165992736816,"86":13.451435089111328,"87":-8.167315483093262,"88":-19.512834548950195,"89":14.813802719116211,"90":12.237838745117188,"91":-3.0836219787597656,"92":-13.197368621826172,"93":24.188949584960938,"94":32.55800247192383,"95":3.5291781425476074,"96":-9.45594596862793,"97":-18.221050262451172,"98":-2.469424247741699,"99":5.7469162940979,"100":-8.912338256835938,"101":-4.8427629470825195,"102":-5.755067348480225,"103":-5.149188995361328,"104":-3.874478578567505,"105":-5.925504684448242,"106":1.995972752571106,"107":7.292821407318115,"108":3.6655843257904053,"109":-4.428849697113037,"110":2.625411033630371,"111":6.111623287200928,"112":-3.291837692260742,"113":0.08629470318555832,"114":0.8429882526397705,"115":11.237756729125977,"116":0.7056628465652466,"117":5.431689262390137,"118":-7.5698442459106445,"119":-14.019234657287598,"120":-3.762303113937378,"121":1.3930916786193848,"122":-12.79129695892334,"123":13.657795906066895,"124":-2.890202045440674,"125":-12.31312084197998,"126":-1.0989521741867065,"127":-16.787574768066406,"128":-0.6040629148483276,"129":-13.20134449005127,"130":-0.5503865480422974,"131":3.5585684776306152,"132":-15.55960464477539,"133":-7.892186641693115,"134":-20.991859436035156,"135":-4.9198079109191895,"136":-3.007880926132202,"137":6.591241836547852,"138":-18.234045028686523,"139":-10.595215797424316,"140":5.242713928222656,"141":8.721542358398438,"142":10.42380428314209,"143":-11.222268104553223,"144":-0.9851970076560974,"145":2.175259590148926,"146":6.800839900970459,"147":1.6623244285583496,"148":2.430363178253174,"149":2.3612453937530518,"150":-12.849507331848145,"151":13.404830932617188,"152":-14.63609790802002,"153":-5.3564839363098145,"154":1.0104953050613403,"155":4.621230125427246,"156":-3.5945990085601807,"157":3.9727554321289062,"158":9.2167329788208,"159":5.2687249183654785,"160":-9.321839332580566,"161":-13.910392761230469,"162":4.12541389465332,"163":-8.08852767944336,"164":14.857049942016602,"165":20.131338119506836,"166":-12.790740013122559,"167":-4.339019775390625,"168":5.810284614562988,"169":0.8000618815422058,"170":-17.238235473632812,"171":-13.275521278381348,"172":-16.986032485961914,"173":14.026208877563477,"174":-33.041324615478516,"175":7.535820484161377,"176":2.8155531883239746,"177":2.7207579612731934,"178":14.131608009338379,"179":3.681039571762085,"180":2.2391278743743896,"181":2.2375495433807373,"182":4.291554927825928,"183":-10.019746780395508,"184":-1.514999270439148,"185":-15.77856731414795,"186":15.4403657913208,"187":-16.478044509887695,"188":4.665804862976074,"189":-1.2791708707809448,"190":-7.863543510437012,"191":10.74586296081543,"192":-5.786057472229004,"193":5.112905502319336,"194":1.8743059635162354,"195":-12.761701583862305,"196":-6.035776615142822,"197":6.968940734863281,"198":14.307005882263184,"199":-21.517065048217773,"200":6.887678623199463,"201":10.215757369995117,"202":-7.286187171936035,"203":-1.2837320566177368,"204":-12.605842590332031,"205":-2.6526036262512207,"206":3.765714645385742,"207":-4.782309055328369,"208":-24.941600799560547,"209":-6.341310977935791,"210":20.73626136779785,"211":6.078948497772217,"212":0.977980375289917,"213":8.422367095947266,"214":7.091042518615723,"215":10.184663772583008,"216":7.940587997436523,"217":-14.298080444335938,"218":-3.9222986698150635,"219":26.212270736694336,"220":-8.979294776916504,"221":10.600866317749023,"222":-10.601123809814453,"223":7.279407024383545,"224":-13.370562553405762,"225":15.413888931274414,"226":-12.85689640045166,"227":-5.886977195739746,"228":-1.5574051141738892,"229":12.702855110168457,"230":-6.849367141723633,"231":-13.680413246154785,"232":4.121781826019287,"233":5.233200550079346,"234":-0.48416969180107117,"235":-9.918987274169922,"236":2.816466808319092,"237":-14.788269996643066,"238":-10.246175765991211,"239":-4.361740589141846,"240":-1.8480770587921143,"241":-8.345582008361816,"242":0.9576367735862732,"243":-1.7877644300460815,"244":1.3690991401672363,"245":-5.142908573150635,"246":-0.8823387026786804,"247":0.42215803265571594,"248":3.2559726238250732,"249":6.646674156188965,"250":7.462549686431885,"251":2.110954523086548,"252":13.852965354919434,"253":3.0767552852630615,"254":2.3473987579345703,"255":11.833234786987305,"256":-1.0695102214813232,"257":2.9513134956359863,"258":13.809396743774414,"259":-8.311943054199219,"260":16.347116470336914,"261":1.667813777923584,"262":-15.247234344482422,"263":0.16904443502426147,"264":25.576004028320312,"265":-8.886005401611328,"266":-10.220010757446289,"267":-2.5501372814178467,"268":1.9540307521820068,"269":-9.310394287109375,"270":0.6894208788871765,"271":9.453975677490234,"272":13.449965476989746,"273":3.0988218784332275,"274":4.490453243255615,"275":4.934619426727295,"276":2.143941640853882,"277":-12.213738441467285,