{"type":"LSTM","options":{"inputSize":31,"inputRange":31,"hiddenLayers":[20,20],"outputSize":31,"decayRate":0.999,"smoothEps":1e-8,"regc":0.000001,"clipval":5,"maxPredictionLength":100,"dataFormatter":{"indexTable":{"a":0,"n":1,"d":2," ":3,"E":4,"z":5,"r":6,"b":7,"l":8,"e":9,"s":10,"t":11,"h":12,"Y":13,"w":14,",":15,"g":16,"G":17,"o":18,"p":19,"'":20,"A":21,"m":22,"i":23,"f":24,"u":25,"y":26,"c":27,"-":28,".":29,"unrecognized":30},"characterTable":{"0":"a","1":"n","2":"d","3":" ","4":"E","5":"z","6":"r","7":"b","8":"l","9":"e","10":"s","11":"t","12":"h","13":"Y","14":"w","15":",","16":"g","17":"G","18":"o","19":"p","20":"'","21":"A","22":"m","23":"i","24":"f","25":"u","26":"y","27":"c","28":"-","29":".","30":null},"values":["and Ezra blesseth","Yahweh, the great","God, and all","the people answer,","'Amen, Amen,' with","lifting up of","their hands, and","they bow and","do obeisance to","Yahweh -- faces","to the earth."],"characters":["a","n","d"," ","E","z","r","b","l","e","s","t","h","Y","w",",","g","G","o","p","'","A","m","i","f","u","y","c","-",".","unrecognized"],"specialIndexes":[30]}},"input":{"rows":32,"columns":31,"weights":{"0":1.366319179534912,"1":-1.534118413925171,"2":1.973506212234497,"3":3.291473865509033,"4":4.5447797775268555,"5":2.730219602584839,"6":-0.08310916274785995,"7":-5.0861358642578125,"8":1.3459148406982422,"9":1.5995692014694214,"10":4.3653669357299805,"11":-1.713944435119629,"12":-4.269496440887451,"13":-2.9351558685302734,"14":-0.9713871479034424,"15":-0.7189367413520813,"16":-1.3176443576812744,"17":3.142547130584717,"18":7.71811580657959,"19":0.5044978857040405,"20":-2.9672935009002686,"21":0.992486834526062,"22":-0.29678207635879517,"23":-4.0103535652160645,"24":-1.9397422075271606,"25":2.8474574089050293,"26":1.1852184534072876,"27":-2.8689332008361816,"28":1.567172646522522,"29":-1.1252434253692627,"30":0.8787153959274292,"31":-3.017145872116089,"32":5.368630409240723,"33":0.01851741410791874,"34":4.052346229553223,"35":-1.6491785049438477,"36":-1.6064070463180542,"37":-1.2454493045806885,"38":-6.960379123687744,"39":-0.14245207607746124,"40":2.5326883792877197,"41":3.4758286476135254,"42":-7.026470184326172,"43":3.239500045776367,"44":0.21779866516590118,"45":0.19507978856563568,"46":-2.7056305408477783,"47":0.6880266666412354,"48":5.947473526000977,"49":-0.5360801219940186,"50":-0.4019399583339691,"51":-3.802393913269043,"52":8.276241302490234,"53":-2.1683483123779297,"54":8.40050220489502,"55":4.4214043617248535,"56":0.7490686774253845,"57":-0.7566942572593689,"58":-1.0819294452667236,"59":5.599020957946777,"60":1.5857741832733154,"61":-0.12030128389596939,"62":-3.5640525817871094,"63":0.7154993414878845,"64":-3.094297170639038,"65":2.826977252960205,"66":-3.1221354007720947,"67":-6.198948860168457,"68":1.9431461095809937,"69":-1.124710202217102,"70":-3.8819353580474854,"71":-1.080375075340271,"72":-5.739010810852051,"73":-2.322892189025879,"74":0.7898592352867126,"75":1.0275264978408813,"76":6.457876682281494,"77":0.19544729590415955,"78":4.270112991333008,"79":2.3838515281677246,"80":1.750292181968689,"81":-2.9759483337402344,"82":2.333003520965576,"83":2.7076685428619385,"84":-8.832484245300293,"85":0.6532911658287048,"86":0.9994102716445923,"87":1.8247860670089722,"88":-1.7458139657974243,"89":3.556156873703003,"90":-3.250284194946289,"91":-0.2117205262184143,"92":0.3988068401813507,"93":-3.785008430480957,"94":0.054485589265823364,"95":0.7315273880958557,"96":0.3458254337310791,"97":3.251988410949707,"98":-3.273287057876587,"99":-4.798397064208984,"100":4.014291286468506,"101":-1.8174190521240234,"102":-2.9442389011383057,"103":-0.3454793393611908,"104":-0.613196849822998,"105":-2.057264804840088,"106":1.2598086595535278,"107":2.5814692974090576,"108":-0.0022574563045054674,"109":-7.1480937004089355,"110":0.4650562107563019,"111":-2.8123207092285156,"112":3.235368490219116,"113":-5.614587306976318,"114":9.537034034729004,"115":5.347594738006592,"116":0.33890819549560547,"117":5.158825874328613,"118":-10.498411178588867,"119":1.4830378293991089,"120":0.3917677104473114,"121":0.0074470569379627705,"122":5.688655853271484,"123":0.9692947864532471,"124":-0.37727171182632446,"125":5.553768634796143,"126":-1.7541186809539795,"127":1.9464497566223145,"128":-0.3392971456050873,"129":-5.30941915512085,"130":-0.36335691809654236,"131":-3.4844884872436523,"132":0.7941426038742065,"133":1.0010383129119873,"134":-2.107034206390381,"135":-2.4971764087677,"136":1.7793537378311157,"137":1.2989659309387207,"138":0.060451690107584,"139":-0.3994641602039337,"140":-4.684875011444092,"141":-1.0297974348068237,"142":-0.27214518189430237,"143":-0.21079899370670319,"144":-3.9985976219177246,"145":0.2972344160079956,"146":-9.027644157409668,"147":7.397939682006836,"148":4.568624973297119,"149":0.34951895475387573,"150":-2.2000527381896973,"151":1.6932412385940552,"152":-5.96868896484375,"153":1.6703462600708008,"154":-4.747707843780518,"155":0.26415160298347473,"156":26.14683723449707,"157":-23.03119659423828,"158":20.53192901611328,"159":-5.400786876678467,"160":-8.474225997924805,"161":-32.7778205871582,"162":7.8635573387146,"163":-4.856027603149414,"164":-0.0627710148692131,"165":-5.7827558517456055,"166":11.839583396911621,"167":-24.549442291259766,"168":11.927733421325684,"169":-5.416049003601074,"170":2.029529094696045,"171":-5.644562244415283,"172":10.186174392700195,"173":2.300255298614502,"174":-10.909303665161133,"175":-23.135644912719727,"176":15.320395469665527,"177":-7.610720157623291,"178":21.781217575073242,"179":10.274243354797363,"180":-9.227160453796387,"181":-1.185144305229187,"182":14.774077415466309,"183":13.780126571655273,"184":6.657130718231201,"185":-29.014877319335938,"186":0.987852156162262,"187":-5.861467361450195,"188":2.91021728515625,"189":10.682621002197266,"190":1.4742941856384277,"191":-4.002618789672852,"192":13.06005573272705,"193":3.240318775177002,"194":-1.6396950483322144,"195":-10.026823043823242,"196":-2.852705240249634,"197":3.578120231628418,"198":1.6576257944107056,"199":-9.216360092163086,"200":-6.069945812225342,"201":1.769780158996582,"202":0.7691458463668823,"203":6.336842060089111,"204":-5.909994602203369,"205":2.79105281829834,"206":0.6164234280586243,"207":1.196790099143982,"208":2.7500574588775635,"209":7.929110527038574,"210":5.091489791870117,"211":-0.041885316371917725,"212":0.023078905418515205,"213":-1.8222041130065918,"214":-9.9772367477417,"215":4.098341464996338,"216":9.7085542678833,"217":1.6124181747436523,"218":-13.651214599609375,"219":1.9330707788467407,"220":-9.231186866760254,"221":0.5941674709320068,"222":4.651614189147949,"223":-2.6688597202301025,"224":-2.1231086254119873,"225":0.6841147541999817,"226":-0.5775625109672546,"227":-0.13423915207386017,"228":-4.16856575012207,"229":-4.389647483825684,"230":-1.1931511163711548,"231":1.5690029859542847,"232":2.0771584510803223,"233":1.4217809438705444,"234":2.480008602142334,"235":3.0722506046295166,"236":-1.6943649053573608,"237":-4.955766201019287,"238":-1.7612006664276123,"239":0.17377682030200958,"240":-0.5847619771957397,"241":0.589503288269043,"242":3.4360480308532715,"243":3.3425838947296143,"244":-6.390752792358398,"245":5.279248237609863,"246":1.3585208654403687,"247":-5.590385437011719,"248":-1.6598018407821655,"249":11.4700345993042,"250":-0.42563396692276,"251":4.2220377922058105,"252":-3.3422353267669678,"253":16.188932418823242,"254":-0.7475120425224304,"255":-0.7119414210319519,"256":-0.2315535545349121,"257":2.7159156799316406,"258":-5.469193458557129,"259":-4.728367805480957,"260":-1.8231250047683716,"261":0.45494359731674194,"262":-0.7150324583053589,"263":4.010012149810791,"264":-2.4670910835266113,"265":5.55409049987793,"266":6.181771278381348,"267":-4.549529552459717,"268":-12.474759101867676,"269":-0.22478479146957397,"270":-18.519908905029297,"271":2.7298526763916016,"272":-1.3360395431518555,"273":6.5682196617126465,"274":-7.9539384841918945,"275":-0.443102091550827,"276":3.0486812591552734,"277":-10.155191421508789,"278":-0.2000608742237091,"279":-5.603847980499268,"280":-8.734278678894043,"281":-10.613255500793457,"282":8.595020294189453,"283":0.46501487493515015,"284":1.1480711698532104,"285":-2.610410690307617,"286":0.9424349665641785,"287":5.9855475425720215,"288":0.7565603256225586,"289":-9.036619186401367,"290":2.879455804824829,"291":17.78406524658203,"292":9.286574363708496,"293":0.8397207856178284,"294":-0.9654392600059509,"295":-0.5153968930244446,"296":-16.462238311767578,"297":-8.675590515136719,"298":-1.8091931343078613,"299":1.50383460521698,"300":-2.9252660274505615,"301":8.48749828338623,"302":-3.6348893642425537,"303":5.6643781661987305,"304":-2.3752474784851074,"305":-10.00415325164795,"306":8.5086669921875,"307":0.988908052444458,"308":-1.7654492855072021,"309":0.9004859924316406,"310":-0.8229552507400513,"311":1.3248679637908936,"312":-1.756731390953064,"313":-1.2374142408370972,"314":-9.458431243896484,"315":3.870312213897705,"316":-5.099196910858154,"317":-4.525651931762695,"318":0.5999288558959961,"319":3.0354602336883545,"320":0.8602921366691589,"321":14.964198112487793,"322":0.9114388227462769,"323":-2.7501182556152344,"324":1.9089480638504028,"325":-3.7245020866394043,"326":1.9996421337127686,"327":-0.5801077485084534,"328":0.24498769640922546,"329":-1.9165624380111694,"330":5.439032077789307,"331":1.3055747747421265,"332":-0.43228763341903687,"333":7.421257019042969,"334":3.904693841934204,"335":3.690391778945923,"336":2.4688496589660645,"337":1.7998660802841187,"338":-1.4643383026123047,"339":-7.081576347351074,"340":-1.9126440286636353,"341":7.4901862144470215,"342":2.6821768283843994,"343":-9.103752136230469,"344":0.9908876419067383,"345":5.319877624511719,"346":1.296410083770752,"347":-2.171788454055786,"348":-8.878582000732422,"349":-3.108381748199463,"350":-0.5685697793960571,"351":-1.3743640184402466,"352":4.03927755355835,"353":-1.2521015405654907,"354":-9.564008712768555,"355":-1.496755838394165,"356":2.120556116104126,"357":3.045494556427002,"358":-2.6820943355560303,"359":-2.5381081104278564,"360":-4.007017135620117,"361":-5.1664042472839355,"362":-6.128440856933594,"363":6.9949259757995605,"364":-8.769235610961914,"365":-1.505811333656311,"366":1.6456012725830078,"367":-1.0533040761947632,"368":-4.095881462097168,"369":-3.132103204727173,"370":3.1919069290161133,"371":-0.044326942414045334,"372":-7.5413713455200195,"373":-8.22932243347168,"374":5.664754390716553,"375":5.7194719314575195,"376":3.8569436073303223,"377":-5.775245666503906,"378":11.00809383392334,"379":2.456824779510498,"380":4.082345485687256,"381":-3.022887706756592,"382":1.5031684637069702,"383":3.2408668994903564,"384":4.166037082672119,"385":-3.8084487915039062,"386":6.452325344085693,"387":-1.1271597146987915,"388":4.47937536239624,"389":4.236895561218262,"390":-1.0842392444610596,"391":2.2714152336120605,"392":-2.5335693359375,"393":6.438217639923096,"394":-2.689208984375,"395":6.367534160614014,"396":-2.076199769973755,"397":1.6219582557678223,"398":4.683868885040283,"399":-5.259857654571533,"400":-5.76143217086792,"401":-3.836806058883667,"402":2.121352434158325,"403":1.9750332832336426,"404":5.425646781921387,"405":-2.4364705085754395,"406":1.9177236557006836,"407":-9.795835494995117,"408":9.0261869430542,"409":0.9581034183502197,"410":-1.2520395517349243,"411":5.374316215515137,"412":-0.11681651324033737,"413":5.274979114532471,"414":0.6542317867279053,"415":1.4584190845489502,"416":-5.003175735473633,"417":-3.06463885307312,"418":0.7864798903465271,"419":1.042872428894043,"420":0.9715405702590942,"421":-0.35729658603668213,"422":-1.7652100324630737,"423":-2.0086588859558105,"424":-4.704545497894287,"425":-6.591567516326904,"426":-2.8556935787200928,"427":0.6982674598693848,"428":4.350218772888184,"429":-3.5280818939208984,"430":-4.205861568450928,"431":-4.496551990509033,"432":1.1211767196655273,"433":3.520765542984009,"434":3.6340901851654053,"435":-2.910356044769287,"436":15.617509841918945,"437":7.570941925048828,"438":-3.8253285884857178,"439":-5.941450119018555,"440":-2.2228469848632812,"441":-25.542388916015625,"442":-13.566106796264648,"443":-2.826956033706665,"444":-7.100467205047607,"445":-4.7069830894470215,"446":-10.173666954040527,"447":-2.6662356853485107,"448":13.979001998901367,"449":1.3735122680664062,"450":5.08800745010376,"451":-5.558593273162842,"452":-4.198263645172119,"453":7.022040367126465,"454":-5.949596881866455,"455":5.699556350708008,"456":-13.782306671142578,"457":7.079474449157715,"458":1.5928661823272705,"459":-1.8186824321746826,"460":4.950116157531738,"461":-14.473062515258789,"462":-7.550571441650391,"463":3.846601963043213,"464":15.008766174316406,"465":-5.891441345214844,"466":-0.4815498888492584,"467":-1.4932433366775513,"468":-3.750760078430176,"469":12.023958206176758,"470":-1.1894066333770752,"471":3.628737688064575,"472":6.431417942047119,"473":8.262960433959961,"474":-1.5058133602142334,"475":-1.3685777187347412,"476":-12.298611640930176,"477":6.424107074737549,"478":5.624329566955566,"479":-4.533146381378174,"480":3.1214802265167236,"481":1.7374775409698486,"482":-1.5119898319244385,"483":-10.239381790161133,"484":-7.57013463973999,"485":-5.689594268798828,"486":0.08375611156225204,"487":3.9634206295013428,"488":2.265111207962036,"489":-1.2722406387329102,"490":-8.414973258972168,"491":-4.123445510864258,"492":1.5926932096481323,"493":-9.091678619384766,"494":-0.06591532379388809,"495":-2.033921003341675,"496":-2.0363669395446777,"497":8.08112621307373,"498":-1.0401098728179932,"499":6.44648551940918,"500":-9.121113777160645,"501":-6.443082332611084,"502":6.304947376251221,"503":-4.7048258781433105,"504":2.837773084640503,"505":-5.355079650878906,"506":10.457300186157227,"507":-4.290994167327881,"508":-5.383522987365723,"509":-4.353549003601074,"510":-0.7319697737693787,"511":-3.304260492324829,"512":-1.3614076375961304,"513":-0.10383246839046478,"514":2.9823694229125977,"515":-3.9043309688568115,"516":3.775614023208618,"517":2.9243905544281006,"518":3.1593382358551025,"519":-3.8932769298553467,"520":3.5068647861480713,"521":-4.548089504241943,"522":-6.08709192276001,"523":-3.29850697517395,"524":-3.5304603576660156,"525":2.0485777854919434,"526":-2.2617247104644775,"527":0.512510359287262,"528":-1.3864555358886719,"529":5.282589912414551,"530":6.356015682220459,"531":-2.55426287651062,"532":5.70753812789917,"533":11.545543670654297,"534":8.482488632202148,"535":-3.236731767654419,"536":-6.61688756942749,"537":-8.852381706237793,"538":0.6735106706619263,"539":7.2168803215026855,"540":-3.5819151401519775,"541":1.3864833116531372,"542":1.650144100189209,"543":6.747172832489014,"544":-8.137600898742676,"545":4.359704494476318,"546":-2.5644781589508057,"547":-8.118300437927246,"548":-0.9331408143043518,"549":0.2691494822502136,"550":-4.926450252532959,"551":3.3978219032287598,"552":-1.8911291360855103,"553":8.128961563110352,"554":4.38540506362915,"555":-2.7456207275390625,"556":-4.673063278198242,"557":2.591121196746826,"558":46.24752426147461,"559":13.06282901763916,"560":24.79598045349121,"561":-31.816604614257812,"562":-9.08111572265625,"563":-17.53980255126953,"564":34.70269775390625,"565":-0.9707137942314148,"566":1.3772053718566895,"567":18.48072624206543,"568":11.144086837768555,"569":-8.596606254577637,"570":32.63154220581055,"571":-64.53763580322266,"572":16.106246948242188,"573":-42.8277473449707,"574":8.44742488861084,"575":-48.35315704345703,"576":25.35796356201172,"577":-9.822524070739746,"578":-10.654220581054688,"579":-34.43659973144531,"580":-3.9435875415802,"581":-24.689504623413086,"582":7.207475185394287,"583":-11.442729949951172,"584":-6.868831157684326,"585":11.456330299377441,"586":10.029245376586914,"587":-15.987520217895508,"588":-16.071626663208008,"589":-7.661839485168457,"590":-6.930724143981934,"591":-0.6743272542953491,"592":-0.26661068201065063,"593":2.8381595611572266,"594":-2.2034878730773926,"595":0.45333874225616455,"596":-2.2294013500213623,"597":-4.730218887329102,"598":1.3220397233963013,"599":-0.860228955745697,"600":5.861435890197754,"601":-0.43379852175712585,"602":-1.2817282676696777,"603":2.303821563720703,"604":0.10291033238172531,"605":3.782538652420044,"606":-0.45681437849998474,"607":1.5386288166046143,"608":2.136486768722534,"609":-1.8292776346206665,"610":0.6663038730621338,"611":-4.521213531494141,"612":9.56192398071289,"613":-3.6863889694213867,"614":5.511200428009033,"615":0.9525920152664185,"616":-6.868331432342529,"617":5.536223411560059,"618":-1.8621323108673096,"619":-2.525491237640381,"620":10.491907119750977,"621":0.5366348624229431,"622":3.8959832191467285,"623":-2.904356002807617,"624":-0.34150800108909607,"625":4.105026721954346,"626":-9.303662300109863,"627":-10.439387321472168,"628":-8.180192947387695,"629":7.6997551918029785,"630":-11.968040466308594,"631":-8.929519653320312,"632":0.8600000143051147,"633":0.1568988561630249,"634":8.649186134338379,"635":-1.0174721479415894,"636":10.087387084960938,"637":-7.493931293487549,"638":5.249392032623291,"639":-1.9036892652511597,"640":3.991328001022339,"641":1.9184784889221191,"642":-6.094645023345947,"643":-12.19093132019043,"644":-9.478038787841797,"645":-0.9185135960578918,"646":1.6978473663330078,"647":-6.856356143951416,"648":-3.2405142784118652,"649":-10.682987213134766,"650":6.736844539642334,"651":-9.005558967590332,"652":-6.738945960998535,"653":24.086456298828125,"654":2.23331880569458,"655":13.603856086730957,"656":1.4544384479522705,"657":2.9520263671875,"658":-12.174951553344727,"659":-3.4775876998901367,"660":-4.850766181945801,"661":5.262680530548096,"662":12.556144714355469,"663":10.874232292175293,"664":-9.990031242370605,"665":13.426920890808105,"666":-14.663947105407715,"667":-10.423608779907227,"668":-1.4825009107589722,"669":3.928571939468384,"670":12.062812805175781,"671":16.601238250732422,"672":3.443413257598877,"673":-1.841740608215332,"674":8.809810638427734,"675":-9.156262397766113,"676":-2.3754944801330566,"677":-5.3437819480896,"678":-6.7218499183654785,"679":-18.222410202026367,"680":23.59514617919922,"681":-12.023399353027344,"682":-1.7997243404388428,"683":3.106837034225464,"684":-5.070265769958496,"685":-5.986034393310547,"686":-7.556403636932373,"687":-9.335474967956543,"688":-10.964731216430664,"689":-10.730955123901367,"690":-5.712401866912842,"691":6.78178596496582,"692":-2.0478880405426025,"693":-7.661428451538086,"694":1.7786142826080322,"695":0.5271295309066772,"696":-17.206695556640625,"697":2.5092639923095703,"698":13.674826622009277,"699":0.012596256099641323,"700":1.4388200044631958,"701":6.682880401611328,"702":-2.7423925399780273,"703":2.420848846435547,"704":0.41487687826156616,"705":-17.158781051635742,"706":3.4216949939727783,"707":-2.971754312515259,"708":-2.8460378646850586,"709":1.5380165576934814,"710":-4.931443691253662,"711":3.9958465099334717,"712":-6.688388824462891,"713":-3.093658447265625,"714":4.603414058685303,"715":3.400317668914795,"716":-3.3283464908599854,"717":-5.123795986175537,"718":-3.445892333984375,"719":-0.07911517471075058,"720":-7.16277551651001,"721":-0.7751795649528503,"722":0.43977370858192444,"723":-12.490242004394531,"724":2.893341541290283,"725":-2.7479708194732666,"726":7.335506916046143,"727":9.261781692504883,"728":8.839533805847168,"729":-1.7723853588104248,"730":4.226003170013428,"731":-7.107959747314453,"732":-6.4909467697143555,"733":-4.684963703155518,"734":10.08191204071045,"735":-3.3547732830047607,"736":4.809332370758057,"737":-6.218080043792725,"738":2.100903272628784,"739":3.1090242862701416,"740":3.9007601737976074,"741":9.469655990600586,"742":0.0057770065031945705,"743":0.5885300040245056,"744":-0.730303168296814,"745":0.15265744924545288,"746":6.945556163787842,"747":1.1416043043136597,"748":1.2873425483703613,"749":9.29062271118164,"750":3.8699069023132324,"751":5.692723751068115,"752":-1.3173375129699707,"753":-6.178800106048584,"754":-3.1699342727661133,"755":3.3526768684387207,"756":-1.0188922882080078,"757":-13.534077644348145,"758":-1.6451483964920044,"759":3.201798915863037,"760":4.39892053604126,"761":1.159186601638794,"762":4.589197635650635,"763":1.7708590030670166,"764":-2.224276065826416,"765":2.310898542404175,"766":-1.1169596910476685,"767":-2.3177549839019775,"768":-1.4625204801559448,"769":1.6511529684066772,"770":-3.500487804412842,"771":-9.171178817749023,"772":1.0806355476379395,"773":-0.2803138494491577,"774":5.035588264465332,"775":4.933565616607666,"776":-9.789250373840332,"777":0.6914284825325012,"778":9.071332931518555,"779":-2.0927584171295166,"780":7.399651527404785,"781":2.1059417724609375,"782":5.024321556091309,"783":1.808781623840332,"784":-1.6987520456314087,"785":12.591226577758789,"786":-2.010716438293457,"787":-5.299003601074219,"788":1.3971834182739258,"789":-2.8869528770446777,"790":0.19004003703594208,"791":-5.242768287658691,"792":12.371731758117676,"793":-0.5913826823234558,"794":10.016308784484863,"795":-11.61314868927002,"796":-0.43008700013160706,"797":3.58732008934021,"798":6.797642707824707,"799":-8.33285903930664,"800":3.1072356700897217,"801":-10.258134841918945,"802":-1.4946023225784302,"803":-5.719554424285889,"804":1.283376932144165,"805":1.8226194381713867,"806":0.6822527050971985,"807":2.913331985473633,"808":-1.6405460834503174,"809":-3.2708919048309326,"810":-12.353927612304688,"811":3.1512985229492188,"812":-6.096982479095459,"813":-6.012176990509033,"814":-4.039220809936523,"815":2.134348154067993,"816":10.718988418579102,"817":1.2705270051956177,"818":0.8039863109588623,"819":-1.6103265285491943,"820":-1.8335444927215576,"821":-5.835562705993652,"822":5.637826442718506,"823":6.519672870635986,"824":7.930080890655518,"825":-0.9020705819129944,"826":0.30480486154556274,"827":-13.55783462524414,"828":-3.689556121826172,"829":-1.637973666191101,"830":2.4835870265960693,"831":4.60013484954834,"832":2.32045841217041,"833":-5.420727252960205,"834":-11.790627479553223,"835":4.185304164886475,"836":0.08966420590877533,"837":0.9672614932060242,"838":0.4997272193431854,"839":4.461409091949463,"840":-2.3594741821289062,"841":11.549337387084961,"842":-5.517431735992432,"843":1.5041478872299194,"844":-4.44574499130249,"845":11.563165664672852,"846":-13.670381546020508,"847":-11.531011581420898,"848":-1.4625109434127808,"849":-2.3669240474700928,"850":-1.8619959354400635,"851":-0.7665345072746277,"852":-9.189520835876465,"853":-2.7543814182281494,"854":0.5933114290237427,"855":-10.017677307128906,"856":-0.1945013403892517,"857":-15.698699951171875,"858":7.315608024597168,"859":5.71968412399292,"860":3.282749652862549,"861":3.336975336074829,"862":-2.0171608924865723,"863":-10.069043159484863,"864":4.101806163787842,"865":4.805164813995361,"866":-6.3238725662231445,"867":-6.19780969619751,"868":0.6846452951431274,"869":1.3466664552688599,"870":-13.724461555480957,"871":-5.909172058105469,"872":1.2426953315734863,"873":-3.5788280963897705,"874":-0.41144371032714844,"875":-2.882784843444824,"876":0.5287380218505859,"877":16.59009552001953,"878":2.270287036895752,"879":-14.136127471923828,"880":-5.272500514984131,"881":2.558380126953125,"882":6.607989311218262,"883":-5.975309371948242,"884":5.282323360443115,"885":-1.5525877475738525,"886":6.053035259246826,"887":-0.31982335448265076,"888":1.862737774848938,"889":-4.911416053771973,"890":-1.7707247734069824,"891":6.7777204513549805,"892":2.2792792320251465,"893":-1.4015699625015259,"894":6.79072904586792,"895":-7.93014669418335,"896":-1.629097819328308,"897":-1.036718726158142,"898":12.169219017028809,"899":-15.445210456848145,"900":7.562236785888672,"901":1.3085590600967407,"902":0.4944761395454407,"903":-14.465124130249023,"904":1.1521848440170288,"905":-3.277170181274414,"906":0.9799942374229431,"907":-2.96108078956604,"908":-1.6765716075897217,"909":5.78649377822876,"910":-8.172284126281738,"911":-3.9796876907348633,"912":18.124897003173828,"913":7.426059722900391,"914":12.733414649963379,"915":-7.588150978088379,"916":-1.0700253248214722,"917":-1.488417625427246,"918":7.002479076385498,"919":25.126672744750977,"920":-11.77583122253418,"921":2.2667236328125,"922":-8.264200210571289,"923":-11.17096996307373,"924":-7.085031986236572,"925":8.578794479370117,"926":1.7147451639175415,"927":-13.934462547302246,"928":-1.1841514110565186,"929":-5.401766300201416,"930":1.2162636518478394,"931":8.337481498718262,"932":-1.582808256149292,"933":-12.295903205871582,"934":16.898767471313477,"935":-12.397961616516113,"936":-0.8643587827682495,"937":-3.492481231689453,"938":3.8942461013793945,"939":-0.13603058457374573,"940":3.2858591079711914,"941":-15.068914413452148,"942":12.017399787902832,"943":8.246896743774414,"944":5.718983173370361,"945":-4.689502716064453,"946":-1.721482515335083,"947":0.725997269153595,"948":6.727880954742432,"949":-19.1754207611084,"950":18.29640007019043,"951":-9.956402778625488,"952":6.7016072273254395,"953":15.378735542297363,"954":-7.267040252685547,"955":6.102869033813477,"956":7.413753032684326,"957":4.476902008056641,"958":1.7833678722381592,"959":-6.863438129425049,"960":-3.1950039863586426,"961":-3.8744733333587646,"962":8.768253326416016,"963":1.4290000200271606,"964":-1.209578275680542,"965":4.119788646697998,"966":5.586956977844238,"967":3.0290653705596924,"968":4.551202774047852,"969":-1.564750075340271,"970":3.2485761642456055,"971":0.977790892124176,"972":-2.090738534927368,"973":-3.2381644248962402,"974":1.1496983766555786,"975":-1.4859625101089478,"976":3.121372699737549,"977":-1.8702073097229004,"978":2.7846243381500244,"979":6.248871803283691,"980":1.8674145936965942,"981":2.0209598541259766,"982":-0.2899690568447113,"983":-3.1504502296447754,"984":-3.6407220363616943,"985":-5.304530620574951,"986":5.433237552642822,"987":6.489916801452637,"988":-2.786440134048462,"989":5.055213928222656,"990":-8.88028621673584,"991":6.848171234130859}},"hiddenLayers":[{"inputMatrix":{"rows":20,"columns":31,"weights":{"0":1.330324649810791,"1":6.443580150604248,"2":-4.296557426452637,"3":1.4059782028198242,"4":0.7352033853530884,"5":2.282644033432007,"6":3.422260284423828,"7":-3.611466407775879,"8":-5.33950662612915,"9":3.9378020763397217,"10":1.3860489130020142,"11":-0.6284455060958862,"12":0.26711615920066833,"13":-4.88045597076416,"14":3.2997641563415527,"15":0.7532679438591003,"16":-1.5824366807937622,"17":-1.492934226989746,"18":4.793554782867432,"19":-0.6464402675628662,"20":-0.22319883108139038,"21":-1.2411365509033203,"22":0.8771262168884277,"23":-1.0298585891723633,"24":0.7432827949523926,"25":0.927943229675293,"26":2.312502384185791,"27":0.7220979332923889,"28":-3.8132317066192627,"29":1.0033352375030518,"30":4.330796718597412,"31":-0.9631884098052979,"32":2.5637500286102295,"33":3.6410512924194336,"34":-4.487154960632324,"35":0.3954039514064789,"36":-2.644448757171631,"37":-3.244579553604126,"38":0.15806283056735992,"39":-1.7667334079742432,"40":3.1846933364868164,"41":0.27578386664390564,"42":-3.924454927444458,"43":-0.8070893883705139,"44":0.9350164532661438,"45":2.6875991821289062,"46":-3.565763235092163,"47":-2.802645444869995,"48":1.2136965990066528,"49":1.9246007204055786,"50":-0.5293101072311401,"51":-3.535513162612915,"52":2.4244303703308105,"53":-0.5029281973838806,"54":-3.676250457763672,"55":-0.33594992756843567,"56":-4.201419353485107,"57":-0.5096383094787598,"58":-0.1320679634809494,"59":-2.3804333209991455,"60":1.4691541194915771,"61":-0.40994977951049805,"62":-4.577746868133545,"63":1.1772162914276123,"64":-1.596183180809021,"65":-5.191413402557373,"66":-6.1137776374816895,"67":1.273884654045105,"68":-1.674207329750061,"69":-4.280983924865723,"70":-0.8318145275115967,"71":-5.225980758666992,"72":0.7770787477493286,"73":2.967489004135132,"74":-3.4563138484954834,"75":3.823179006576538,"76":1.1100234985351562,"77":3.6056439876556396,"78":-0.6419917345046997,"79":-1.7423654794692993,"80":0.6727313995361328,"81":1.1731234788894653,"82":-2.4433557987213135,"83":-1.5969198942184448,"84":0.35308173298835754,"85":1.638692855834961,"86":3.6675660610198975,"87":-3.4895191192626953,"88":-4.95607328414917,"89":-0.3486385941505432,"90":0.9655724763870239,"91":-1.5798062086105347,"92":-2.533670425415039,"93":2.703152656555176,"94":2.4686174392700195,"95":-0.12109331041574478,"96":2.6217892169952393,"97":2.444629192352295,"98":2.8170671463012695,"99":2.9517760276794434,"100":0.4740516245365143,"101":1.841722011566162,"102":-0.03238725662231445,"103":-1.2952561378479004,"104":-4.471868515014648,"105":1.6049528121948242,"106":-2.5825307369232178,"107":1.7712063789367676,"108":-0.34736016392707825,"109":-0.8483478426933289,"110":2.8482184410095215,"111":2.848454475402832,"112":2.452803373336792,"113":1.3792634010314941,"114":1.2283811569213867,"115":-3.8220739364624023,"116":1.536117434501648,"117":1.3779329061508179,"118":1.3237812519073486,"119":-0.41427356004714966,"120":1.600646734237671,"121":0.9186679720878601,"122":-1.6479487419128418,"123":4.037903785705566,"124":-1.1941620111465454,"125":1.7221627235412598,"126":-2.757835865020752,"127":-3.206829309463501,"128":-5.658037185668945,"129":1.7270824909210205,"130":-0.46480944752693176,"131":-3.342310905456543,"132":-2.9289920330047607,"133":-3.4695260524749756,"134":3.5135555267333984,"135":-5.7536821365356445,"136":-2.2959601879119873,"137":3.548043966293335,"138":3.108759641647339,"139":-1.1012752056121826,"140":-4.007732391357422,"141":1.168274164199829,"142":0.5377851128578186,"143":-1.0904006958007812,"144":-1.76084566116333,"145":-1.7806932926177979,"146":1.1806221008300781,"147":-0.3002679944038391,"148":-1.1455410718917847,"149":2.2273075580596924,"150":-1.3782033920288086,"151":5.034852981567383,"152":4.337889671325684,"153":0.381083220243454,"154":0.1746796816587448,"155":6.545700550079346,"156":-2.4643666744232178,"157":2.6254873275756836,"158":1.521506905555725,"159":-4.522828578948975,"160":-1.051906943321228,"161":-10.039262771606445,"162":0.3028327524662018,"163":2.7728381156921387,"164":5.427430152893066,"165":-0.5744524002075195,"166":-1.690393328666687,"167":5.43767786026001,"168":-0.36103928089141846,"169":1.122710108757019,"170":0.27262622117996216,"171":-2.268482208251953,"172":-1.295833706855774,"173":0.8299577236175537,"174":-0.2421492040157318,"175":-3.7292919158935547,"176":-5.487396717071533,"177":-1.4294935464859009,"178":0.6220629215240479,"179":1.985137701034546,"180":1.6372125148773193,"181":5.578332901000977,"182":-0.9944460391998291,"183":-1.329805612564087,"184":3.0809011459350586,"185":0.004044750705361366,"186":4.470636367797852,"187":7.397502899169922,"188":-0.5790449976921082,"189":2.7440454959869385,"190":2.3242080211639404,"191":2.0946919918060303,"192":0.9128538966178894,"193":8.270284652709961,"194":2.0314831733703613,"195":5.644090175628662,"196":1.8006477355957031,"197":-6.917324066162109,"198":4.21189546585083,"199":-5.467744827270508,"200":-3.0151584148406982,"201":-3.1825132369995117,"202":-1.7340606451034546,"203":-3.5260119438171387,"204":-4.890578746795654,"205":3.1939589977264404,"206":-7.033491611480713,"207":1.7282055616378784,"208":1.0559014081954956,"209":-3.8136532306671143,"210":2.3811328411102295,"211":3.700747013092041,"212":-3.9359350204467773,"213":-3.58328914642334,"214":-2.921597480773926,"215":-3.084487199783325,"216":1.4986580610275269,"217":7.135678291320801,"218":1.240383267402649,"219":6.448866367340088,"220":0.6988568305969238,"221":7.995499134063721,"222":-3.187037944793701,"223":3.226860761642456,"224":-2.914804220199585,"225":2.247828960418701,"226":-7.724481582641602,"227":0.32101550698280334,"228":0.36028552055358887,"229":-0.27140703797340393,"230":-3.669442892074585,"231":-10.404236793518066,"232":3.8603286743164062,"233":0.8194064497947693,"234":2.2506186962127686,"235":-3.0604424476623535,"236":3.536372184753418,"237":-0.4392336308956146,"238":-5.751856327056885,"239":-2.8299989700317383,"240":-3.784517765045166,"241":2.683713436126709,"242":-4.719142913818359,"243":1.3180030584335327,"244":0.32268640398979187,"245":0.3199765086174011,"246":-8.306228637695312,"247":-1.7842429876327515,"248":-2.2314324378967285,"249":1.1769617795944214,"250":5.0549635887146,"251":-0.35648253560066223,"252":0.43601271510124207,"253":1.2863757610321045,"254":-7.787330627441406,"255":0.4595154821872711,"256":0.9063660502433777,"257":5.34340763092041,"258":-1.5380645990371704,"259":3.0400047302246094,"260":0.5141959190368652,"261":2.980015277862549,"262":8.497603416442871,"263":-3.1017603874206543,"264":1.4291905164718628,"265":1.9585936069488525,"266":2.5841081142425537,"267":3.88547945022583,"268":2.8664391040802,"269":5.033321380615234,"270":-4.8102006912231445,"271":4.497767448425293,"272":-1.1105546951293945,"273":0.07197538018226624,"274":2.3236467838287354,"275":-2.4806761741638184,"276":-0.20964902639389038,"277":4.321796417236328,"278":10.14444351196289,"279":8.478981018066406,"280":1.3766803741455078,"281":-1.7701982259750366,"282":-8.36320972442627,"283":-0.5566755533218384,"284":3.0014452934265137,"285":3.795335292816162,"286":-4.349381446838379,"287":-4.2969069480896,"288":-0.2459162324666977,"289":-3.6580147743225098,"290":-13.484597206115723,"291":-0.539214551448822,"292":-4.224873065948486,"293":-4.404008865356445,"294":-3.11083984375,"295":-6.423111438751221,"296":-1.2390769720077515,"297":3.6375815868377686,"298":-3.7292020320892334,"299":-4.244177341461182,"300":-4.02736759185791,"301":3.5241355895996094,"302":-1.024375319480896,"303":1.6231952905654907,"304":2.49006724357605,"305":-1.8323369026184082,"306":6.835953235626221,"307":1.327486276626587,"308":-14.882406234741211,"309":-0.7551230788230896,"310":5.8117828369140625,"311":-2.2555205821990967,"312":4.839299201965332,"313":4.4634857177734375,"314":4.259180545806885,"315":0.16607676446437836,"316":-0.9226126670837402,"317":-1.4944621324539185,"318":-0.13599811494350433,"319":-0.5040543079376221,"320":-0.2822030782699585,"321":-3.973811388015747,"322":2.998739242553711,"323":-10.178811073303223,"324":-6.350686073303223,"325":-0.6994869709014893,"326":2.6962714195251465,"327":3.5751757621765137,"328":2.7489452362060547,"329":-0.2428612858057022,"330":-0.6731306910514832,"331":-1.4032601118087769,"332":-3.342576026916504,"333":3.375725030899048,"334":2.6484713554382324,"335":2.7641234397888184,"336":4.434789180755615,"337":-2.076483726501465,"338":0.6695876121520996,"339":-3.973029375076294,"340":2.385171890258789,"341":-6.5248589515686035,"342":4.225743293762207,"343":-5.489536762237549,"344":-0.6106275916099548,"345":-0.49873027205467224,"346":-1.9202187061309814,"347":-0.13282150030136108,"348":0.8180755972862244,"349":2.5773651599884033,"350":1.4185574054718018,"351":2.562551259994507,"352":-0.41953569650650024,"353":-0.8421814441680908,"354":6.879306793212891,"355":2.4263343811035156,"356":3.8837780952453613,"357":-1.2034283876419067,"358":0.26266589760780334,"359":-0.6634681820869446,"360":-2.1700758934020996,"361":-0.8988925218582153,"362":-1.2783608436584473,"363":0.3576793670654297,"364":2.9217450618743896,"365":4.1777472496032715,"366":2.430710792541504,"367":-0.14943209290504456,"368":-0.5290277004241943,"369":-0.031030192971229553,"370":1.0023378133773804,"371":2.900125026702881,"372":-2.1934971809387207,"373":-0.06258700788021088,"374":-1.150742530822754,"375":-1.0126607418060303,"376":-0.41499507427215576,"377":2.6403305530548096,"378":-3.812044858932495,"379":-1.2545374631881714,"380":0.673502504825592,"381":2.222618818283081,"382":2.170743942260742,"383":-0.7729743123054504,"384":-0.29644179344177246,"385":-0.6726898550987244,"386":0.023233581334352493,"387":-0.2419785112142563,"388":-0.9698507189750671,"389":-1.3645206689834595,"390":-6.956274509429932,"391":-1.94619619846344,"392":3.846358299255371,"393":-0.4770539402961731,"394":1.0038713216781616,"395":2.987982749938965,"396":-1.780739426612854,"397":-0.4835033714771271,"398":-1.0963833332061768,"399":-0.24800065159797668,"400":1.3196009397506714,"401":-6.734030723571777,"402":0.4625445008277893,"403":0.1339796781539917,"404":0.47266337275505066,"405":-3.4468319416046143,"406":4.648990631103516,"407":-0.6408476233482361,"408":0.712524950504303,"409":0.8190510869026184,"410":0.13713577389717102,"411":-0.3760439455509186,"412":2.0914971828460693,"413":-2.238213539123535,"414":5.796815395355225,"415":-0.7117834687232971,"416":-1.1309974193572998,"417":0.07841058075428009,"418":1.3477829694747925,"419":-4.113134860992432,"420":-1.0017375946044922,"421":0.6846072673797607,"422":0.22642013430595398,"423":0.7910988330841064,"424":-0.8195152878761292,"425":-1.398949146270752,"426":-0.6734182834625244,"427":0.5327162146568298,"428":-0.5674876570701599,"429":-2.3892412185668945,"430":-1.3907678127288818,"431":-2.7906947135925293,"432":3.523794412612915,"433":-0.43184003233909607,"434":-0.8771239519119263,"435":0.14286519587039948,"436":-2.207930564880371,"437":0.3783967196941376,"438":4.8648681640625,"439":7.237848281860352,"440":-1.0817952156066895,"441":0.2352021038532257,"442":5.950967311859131,"443":-2.6360437870025635,"444":-2.91390323638916,"445":-4.324065685272217,"446":-0.615630030632019,"447":0.6248188614845276,"448":-0.12482427805662155,"449":-0.8766980767250061,"450":-1.5961554050445557,"451":4.273359775543213,"452":-2.6723618507385254,"453":-0.5499187707901001,"454":-10.268094062805176,"455":-3.5671615600585938,"456":-1.784965991973877,"457":3.5636754035949707,"458":5.1642680168151855,"459":0.7197261452674866,"460":0.7158654928207397,"461":0.020692816004157066,"462":0.30778026580810547,"463":0.17941126227378845,"464":1.7057729959487915,"465":2.719526529312134,"466":-1.0928237438201904,"467":1.5621757507324219,"468":-1.8892675638198853,"469":2.5824148654937744,"470":3.2496562004089355,"471":0.9408295154571533,"472":1.6089863777160645,"473":1.6003546714782715,"474":2.136181116104126,"475":2.7006289958953857,"476":2.4753365516662598,"477":2.7408158779144287,"478":1.1807926893234253,"479":-0.8613302707672119,"480":-2.192657709121704,"481":-2.9609525203704834,"482":0.07367359101772308,"483":3.4254672527313232,"484":2.518928050994873,"485":2.7539658546447754,"486":-1.018386721611023,"487":2.8763186931610107,"488":3.1890079975128174,"489":-0.875352680683136,"490":-0.16558460891246796,"491":1.0471588373184204,"492":4.4955949783325195,"493":6.55839204788208,"494":1.087681531906128,"495":-3.2208759784698486,"496":-2.835402011871338,"497":-1.948445439338684,"498":0.37696367502212524,"499":2.13728928565979,"500":-2.1478934288024902,"501":-3.062985420227051,"502":0.9469901323318481,"503":0.4657502770423889,"504":-0.9163193106651306,"505":1.6684744358062744,"506":-6.601814270019531,"507":-4.670708179473877,"508":1.6549235582351685,"509":1.8746311664581299,"510":0.26593017578125,"511":3.4042234420776367,"512":-3.4906537532806396,"513":-1.517391324043274,"514":-4.148544788360596,"515":-6.130678653717041,"516":-6.430166244506836,"517":3.1031744480133057,"518":-3.269547462463379,"519":7.594618797302246,"520":2.4805352687835693,"521":2.8885488510131836,"522":1.343248963356018,"523":1.3369992971420288,"524":-0.9066155552864075,"525":0.0020631260704249144,"526":4.443922996520996,"527":-1.8497965335845947,"528":6.09169340133667,"529":2.373490333557129,"530":0.49116405844688416,"531":-0.9474914073944092,"532":-5.146509170532227,"533":2.111217498779297,"534":3.3534696102142334,"535":1.4473074674606323,"536":0.4118348956108093,"537":1.8037269115447998,"538":1.068287968635559,"539":-0.08198533952236176,"540":0.02170148491859436,"541":0.8821553587913513,"542":-3.782287836074829,"543":-6.370746612548828,"544":3.5397586822509766,"545":3.595991611480713,"546":-0.8100594878196716,"547":-0.6919617652893066,"548":6.0135178565979,"549":1.7697094678878784,"550":2.9193100929260254,"551":-2.425373077392578,"552":2.508025884628296,"553":-3.0814309120178223,"554":2.8009376525878906,"555":3.9295430183410645,"556":1.2542458772659302,"557":3.7615418434143066,"558":9.062017440795898,"559":-0.09702800959348679,"560":-4.910621643066406,"561":3.378415107727051,"562":1.6038521528244019,"563":-5.2451276779174805,"564":0.7578223943710327,"565":-0.5915750861167908,"566":0.10995350033044815,"567":-2.2408173084259033,"568":-0.9798380732536316,"569":0.9761636853218079,"570":-3.1068928241729736,"571":-0.05210393667221069,"572":-2.4758312702178955,"573":0.032582081854343414,"574":0.17234644293785095,"575":-3.505812883377075,"576":2.6986842155456543,"577":-1.87847900390625,"578":-2.7454771995544434,"579":-0.762056291103363,"580":4.720245361328125,"581":0.1547703742980957,"582":3.409616708755493,"583":-1.014432430267334,"584":-2.5715765953063965,"585":2.5874249935150146,"586":-2.0285770893096924,"587":1.8768688440322876,"588":4.547260284423828,"589":-4.679883003234863,"590":0.971904456615448,"591":0.0637068971991539,"592":2.780217170715332,"593":2.56880259513855,"594":1.3605165481567383,"595":5.110662460327148,"596":-0.011844753287732601,"597":-0.22985288500785828,"598":3.5117249488830566,"599":3.416208505630493,"600":-0.8288760185241699,"601":-0.06694991886615753,"602":-0.628360390663147,"603":2.92986798286438,"604":-2.1885249614715576,"605":1.7837152481079102,"606":-0.7905347347259521,"607":3.2179067134857178,"608":5.06362771987915,"609":2.7733187675476074,"610":3.6204335689544678,"611":-1.055535912513733,"612":5.690413475036621,"613":-1.0980952978134155,"614":1.1039965152740479,"615":-1.3837575912475586,"616":-1.1940703392028809,"617":1.2454328536987305,"618":1.8619248867034912,"619":-0.6701054573059082}},"inputHidden":{"rows":20,"columns":20,"weights":{"0":-0.4334946274757385,"1":-2.847153902053833,"2":9.420951843261719,"3":-0.6892797946929932,"4":10.822635650634766,"5":-0.7065795660018921,"6":-1.2093333005905151,"7":-6.398839950561523,"8":5.793849468231201,"9":1.5870420932769775,"10":-1.336006999015808,"11":1.3616582155227661,"12":-4.738700866699219,"13":-6.0183939933776855,"14":-2.654454469680786,"15":-6.5905280113220215,"16":-0.8093382716178894,"17":-7.249048709869385,"18":-2.250311851501465,"19":-8.30380916595459,"20":-2.931570291519165,"21":-8.80545425415039,"22":13.11982250213623,"23":-2.1109278202056885,"24":0.12478654831647873,"25":6.377967834472656,"26":7.351162910461426,"27":-15.464876174926758,"28":-11.673497200012207,"29":5.649321556091309,"30":-11.207887649536133,"31":0.16843551397323608,"32":12.545063972473145,"33":-6.454631805419922,"34":0.5868901014328003,"35":-5.257726669311523,"36":8.570292472839355,"37":-11.863509178161621,"38":9.261837005615234,"39":-11.914308547973633,"40":-4.597109317779541,"41":-4.8206892013549805,"42":-0.39543285965919495,"43":3.3820056915283203,"44":-1.7699068784713745,"45":4.211137771606445,"46":-3.1937003135681152,"47":4.571888446807861,"48":11.29154109954834,"49":4.757658004760742,"50":-1.606156587600708,"51":7.0910258293151855,"52":2.4811229705810547,"53":-1.233514666557312,"54":3.1333446502685547,"55":-2.0724074840545654,"56":-5.445274353027344,"57":5.655043125152588,"58":18.253536224365234,"59":-11.98493480682373,"60":5.6983160972595215,"61":-4.230132102966309,"62":-3.842076539993286,"63":-1.1347101926803589,"64":-0.4670439660549164,"65":-3.581066608428955,"66":-2.847841501235962,"67":-5.495895862579346,"68":-6.304265975952148,"69":3.0859744548797607,"70":6.572053909301758,"71":2.344271421432495,"72":2.26712965965271,"73":4.208257675170898,"74":-2.995018482208252,"75":1.8404204845428467,"76":-4.397608757019043,"77":1.4435447454452515,"78":-5.275740623474121,"79":3.5345327854156494,"80":3.826726198196411,"81":1.2025963068008423,"82":-1.7427043914794922,"83":1.613242268562317,"84":3.6512606143951416,"85":0.4454266130924225,"86":-1.1640511751174927,"87":-7.265066623687744,"88":1.6320134401321411,"89":-2.824603319168091,"90":-4.2377777099609375,"91":-3.633432626724243,"92":6.731363296508789,"93":9.696868896484375,"94":-1.160995364189148,"95":-4.314608097076416,"96":7.813547134399414,"97":3.5330824851989746,"98":-4.6777143478393555,"99":-4.88331937789917,"100":-0.6398845314979553,"101":-9.124903678894043,"102":-3.570399284362793,"103":-6.274278163909912,"104":2.9437806606292725,"105":-7.35679817199707,"106":-1.5295555591583252,"107":-10.931497573852539,"108":-4.598967552185059,"109":-10.477251052856445,"110":-10.104947090148926,"111":-0.6261070966720581,"112":8.871437072753906,"113":-0.23701731860637665,"114":0.35667625069618225,"115":0.3305535614490509,"116":-6.839658260345459,"117":-3.1756350994110107,"118":-8.056442260742188,"119":0.4735041558742523,"120":-4.638442039489746,"121":-6.277520179748535,"122":-7.293388843536377,"123":0.7688261866569519,"124":-5.551835060119629,"125":3.5915980339050293,"126":-0.32189619541168213,"127":-4.780681610107422,"128":4.47113561630249,"129":-4.942457675933838,"130":12.980854034423828,"131":0.343588262796402,"132":2.144477128982544,"133":14.062284469604492,"134":3.5091428756713867,"135":-3.047501802444458,"136":-3.7327373027801514,"137":-0.6550073027610779,"138":-5.038584232330322,"139":2.7527506351470947,"140":4.125307559967041,"141":8.012847900390625,"142":-7.012474060058594,"143":-0.7925586700439453,"144":3.778089761734009,"145":2.5335042476654053,"146":-2.3633551597595215,"147":2.006636142730713,"148":2.541637420654297,"149":5.549934387207031,"150":-6.154825687408447,"151":-3.999969959259033,"152":-8.083330154418945,"153":-4.632938385009766,"154":7.3115105628967285,"155":-1.7409608364105225,"156":-1.5091164112091064,"157":-7.509864807128906,"158":-3.154141664505005,"159":3.4371538162231445,"160":-4.8956074714660645,"161":-6.51106595993042,"162":6.429203033447266,"163":11.625077247619629,"164":13.490215301513672,"165":5.46205472946167,"166":-3.3236708641052246,"167":-12.30121898651123,"168":-17.888511657714844,"169":-2.2347829341888428,"170":-4.622252464294434,"171":-8.525554656982422,"172":0.25284239649772644,"173":-2.1121256351470947,"174":0.13140615820884705,"175":-2.223395824432373,"176":0.2173626720905304,"177":-9.595694541931152,"178":2.979710102081299,"179":1.1124869585037231,"180":6.516199111938477,"181":3.5359246730804443,"182":2.1320276260375977,"183":-22.71290397644043,"184":7.193901538848877,"185":-15.915485382080078,"186":-11.738789558410645,"187":2.021498203277588,"188":1.734309196472168,"189":13.0626220703125,"190":-7.0232977867126465,"191":-0.14809082448482513,"192":-2.4821829795837402,"193":-1.7626590728759766,"194":-12.174670219421387,"195":3.1958329677581787,"196":-2.222928047180176,"197":8.413308143615723,"198":-9.848954200744629,"199":-12.501358032226562,"200":6.452436447143555,"201":-3.9382317066192627,"202":1.1653859615325928,"203":8.638002395629883,"204":7.414656162261963,"205":-3.529174566268921,"206":17.023836135864258,"207":-0.1422632336616516,"208":4.880946636199951,"209":-6.281895160675049,"210":-3.2474005222320557,"211":1.1008094549179077,"212":11.29482650756836,"213":3.526108503341675,"214":-0.5847364664077759,"215":-9.40159797668457,"216":0.8531134724617004,"217":0.033169977366924286,"218":-11.627134323120117,"219":-7.695990562438965,"220":0.20828181505203247,"221":-2.1399645805358887,"222":3.8534631729125977,"223":2.6889004707336426,"224":-3.163482666015625,"225":-2.784564256668091,"226":6.9246721267700195,"227":3.79072904586792,"228":-8.351365089416504,"229":-4.141312122344971,"230":-3.377249002456665,"231":-3.3085873126983643,"232":-1.599457859992981,"233":-3.6279473304748535,"234":-1.4410688877105713,"235":-3.189690113067627,"236":-0.6888501644134521,"237":-3.1136598587036133,"238":-2.821836471557617,"239":-1.1604703664779663,"240":-2.744568109512329,"241":-8.8356351852417,"242":11.35886001586914,"243":-5.679943084716797,"244":-1.34633207321167,"245":-4.952547073364258,"246":1.1056158542633057,"247":-12.706801414489746,"248":-2.7006657123565674,"249":16.12786293029785,"250":-2.02595591545105,"251":8.35112190246582,"252":-6.261162281036377,"253":2.361769914627075,"254":2.803187131881714,"255":-5.915302753448486,"256":-1.461126685142517,"257":8.063346862792969,"258":0.6360883116722107,"259":-9.486491203308105,"260":2.1273183822631836,"261":-0.8842501044273376,"262":1.7279062271118164,"263":-1.1984672546386719,"264":-5.308311462402344,"265":5.13253116607666,"266":-10.2461519241333,"267":11.397171974182129,"268":4.45097541809082,"269":-11.725698471069336,"270":-3.225177526473999,"271":15.594335556030273,"272":-0.7503758072853088,"273":-8.443089485168457,"274":-1.443461298942566,"275":18.090421676635742,"276":4.185781478881836,"277":-1.9890573024749756,"278":1.0013794898986816,"279":6.943610191345215,"280":-3.2604072093963623,"281":5.918199062347412,"282":1.108669638633728,"283":-6.160942554473877,"284":-4.460376262664795,"285":16.934993743896484,"286":-11.593985557556152,"287":-11.848881721496582,"288":1.349888563156128,"289":19.899145126342773,"290":2.7492165565490723,"291":-10.414786338806152,"292":-6.455972194671631,"293":-10.42830753326416,"294":-8.694562911987305,"295":6.86452579498291,"296":7.81779670715332,"297":-11.015724182128906,"298":-2.3997514247894287,"299":2.3915183544158936,"300":-1.3217272758483887,"301":-1.4034817218780518,"302":-5.16293478012085,"303":3.2698583602905273,"304":5.278477668762207,"305":12.068085670471191,"306":3.8779168128967285,"307":-18.32727813720703,"308":0.33418962359428406,"309":12.930109977722168,"310":1.77287757396698,"311":8.644865036010742,"312":-0.14952106773853302,"313":-6.630871295928955,"314":-3.292668342590332,"315":2.797403335571289,"316":-9.384185791015625,"317":22.888547897338867,"318":-2.4163577556610107,"319":5.553237438201904,"320":12.06700325012207,"321":6.697005271911621,"322":0.774450421333313,"323":5.465183734893799,"324":13.9000244140625,"325":-8.485888481140137,"326":-6.5980448722839355,"327":16.55364990234375,"328":1.8952833414077759,"329":13.958391189575195,"330":6.34686803817749,"331":-9.317246437072754,"332":4.196381568908691,"333":4.8405351638793945,"334":-2.434476375579834,"335":5.521524906158447,"336":9.219841003417969,"337":3.674990653991699,"338":-13.31018352508545,"339":0.2582186162471771,"340":-3.7937300205230713,"341":9.91497802734375,"342":-1.8991671800613403,"343":-3.1104605197906494,"344":9.846821784973145,"345":-2.859842300415039,"346":-4.032376766204834,"347":-5.551388263702393,"348":-4.034270286560059,"349":-0.10633116215467453,"350":-0.1074184775352478,"351":-0.0015399956610053778,"352":-2.8763632774353027,"353":-1.690534234046936,"354":-1.6153672933578491,"355":6.579219818115234,"356":4.939353942871094,"357":5.8496928215026855,"358":-0.737607479095459,"359":4.191938877105713,"360":-3.5240845680236816,"361":-10.313364028930664,"362":4.166686534881592,"363":0.5334378480911255,"364":6.673333168029785,"365":1.7624690532684326,"366":15.548494338989258,"367":-9.630849838256836,"368":22.3837890625,"369":-15.6697359085083,"370":0.2738707363605499,"371":10.16627025604248,"372":-15.42418098449707,"373":-28.593536376953125,"374":22.5551815032959,"375":-3.680776596069336,"376":-9.628500938415527,"377":-11.362146377563477,"378":3.334263324737549,"379":13.284456253051758,"380":5.8725409507751465,"381":-3.3604328632354736,"382":4.930895805358887,"383":12.76001262664795,"384":-4.3409953117370605,"385":-1.8730747699737549,"386":5.9899821281433105,"387":8.439785957336426,"388":-2.8158137798309326,"389":-15.105613708496094,"390":-7.207708358764648,"391":-17.01154327392578,"392":-12.267829895019531,"393":-13.83213996887207,"394":-3.655735731124878,"395":-0.33027854561805725,"396":6.999513626098633,"397":-16.095163345336914,"398":6.8157196044921875,"399":-26.619144439697266}},"inputBias":{"rows":20,"columns":1,"weights":{"0":-2.8581907749176025,"1":-0.024223696440458298,"2":-0.07092513144016266,"3":-0.7525799870491028,"4":-0.19549374282360077,"5":6.5675835609436035,"6":0.20530812442302704,"7":-0.7211637496948242,"8":1.1852246522903442,"9":0.3317564129829407,"10":0.4629462957382202,"11":-1.8883051872253418,"12":1.5375326871871948,"13":-2.717369794845581,"14":0.03704562410712242,"15":-0.20300643146038055,"16":-0.19139282405376434,"17":0.3233563303947449,"18":0.988217294216156,"19":-0.7196225523948669}},"forgetMatrix":{"rows":20,"columns":31,"weights":{"0":2.1004762649536133,"1":4.579470634460449,"2":0.28887221217155457,"3":2.8378868103027344,"4":-0.8985589742660522,"5":4.479269027709961,"6":1.9114043712615967,"7":-0.21540197730064392,"8":7.871278762817383,"9":-2.5007119178771973,"10":0.6191434264183044,"11":-2.8201825618743896,"12":2.1876144409179688,"13":-3.8971261978149414,"14":-1.8044432401657104,"15":-2.8258683681488037,"16":-2.6683757305145264,"17":-1.41765296459198,"18":-1.4439678192138672,"19":3.434222459793091,"20":-0.7795360684394836,"21":1.0673819780349731,"22":-0.0420493483543396,"23":0.26924511790275574,"24":4.74299955368042,"25":1.6188050508499146,"26":-2.258762836456299,"27":1.6592551469802856,"28":3.8482534885406494,"29":-5.280095100402832,"30":-3.880258321762085,"31":-1.3470076322555542,"32":-0.8694135546684265,"33":2.5800747871398926,"34":-2.833439588546753,"35":-1.0893915891647339,"36":1.3232531547546387,"37":-1.7098968029022217,"38":-0.6942709684371948,"39":-1.9822877645492554,"40":1.07786226272583,"41":1.192865252494812,"42":-4.674719333648682,"43":-0.4912153482437134,"44":1.732688307762146,"45":0.4830852448940277,"46":0.09019751846790314,"47":-0.3875800669193268,"48":3.3371503353118896,"49":-1.3073796033859253,"50":0.9423807263374329,"51":-0.2081652283668518,"52":-1.827872633934021,"53":1.1837265491485596,"54":0.6209350824356079,"55":-0.5753747224807739,"56":0.6646351218223572,"57":1.4147840738296509,"58":-0.8172760605812073,"59":0.0241542961448431,"60":-1.3826242685317993,"61":0.132590651512146,"62":1.4540867805480957,"63":2.028858184814453,"64":-1.7051576375961304,"65":-1.5064455270767212,"66":-1.660336971282959,"67":2.314767360687256,"68":-2.296053409576416,"69":-3.501028299331665,"70":2.458980083465576,"71":3.0358638763427734,"72":2.231341600418091,"73":2.9765303134918213,"74":1.3349324464797974,"75":1.2390601634979248,"76":0.4024870991706848,"77":2.6411406993865967,"78":2.592583656311035,"79":2.389909267425537,"80":1.228357195854187,"81":4.193172931671143,"82":-3.2460145950317383,"83":-1.7581099271774292,"84":0.5461422801017761,"85":-0.7016569972038269,"86":-4.8772292137146,"87":1.5630669593811035,"88":3.4425878524780273,"89":-0.07362958788871765,"90":0.3706681430339813,"91":-0.5624789595603943,"92":0.5421085357666016,"93":-0.7924606204032898,"94":-0.09343626350164413,"95":-1.371461033821106,"96":0.5266063213348389,"97":3.2518651485443115,"98":-1.698528528213501,"99":2.259134531021118,"100":0.15409643948078156,"101":0.3166680932044983,"102":-0.3720337450504303,"103":1.4314173460006714,"104":3.832019090652466,"105":-0.6391338109970093,"106":-1.1600470542907715,"107":0.07056106626987457,"108":2.4206902980804443,"109":1.2766023874282837,"110":-2.6372480392456055,"111":2.1876256465911865,"112":3.3364737033843994,"113":2.960681915283203,"114":2.288327693939209,"115":1.3671152591705322,"116":-3.6006665229797363,"117":-2.574460029602051,"118":-2.920701503753662,"119":-0.7962722778320312,"120":-1.1920300722122192,"121":1.4508076906204224,"122":1.254534363746643,"123":-2.173776626586914,"124":0.6377875208854675,"125":3.3983922004699707,"126":-0.3834606409072876,"127":0.7128021121025085,"128":-5.521139144897461,"129":5.511803150177002,"130":-0.452302485704422,"131":0.25697192549705505,"132":-0.12284950166940689,"133":0.22662770748138428,"134":1.4392889738082886,"135":-0.7151485085487366,"136":-1.5044564008712769,"137":5.120771408081055,"138":4.614197254180908,"139":-2.242321014404297,"140":1.4092212915420532,"141":-3.330767869949341,"142":4.244207859039307,"143":-2.610042095184326,"144":0.2977781891822815,"145":2.259866237640381,"146":0.6750191450119019,"147":0.41654476523399353,"148":0.7810430526733398,"149":0.015556619502604008,"150":-1.3804610967636108,"151":-0.649544894695282,"152":0.8982053399085999,"153":4.84575891494751,"154":2.2339911460876465,"155":-1.0790271759033203,"156":1.1793239116668701,"157":-2.9368228912353516,"158":-3.107923984527588,"159":-3.4016425609588623,"160":0.011813207529485226,"161":-4.619802474975586,"162":-2.4730234146118164,"163":-0.44691866636276245,"164":-1.2928640842437744,"165":-0.6387808918952942,"166":0.26309752464294434,"167":-0.8698592185974121,"168":2.824431896209717,"169":0.25677794218063354,"170":2.2443196773529053,"171":4.55446720123291,"172":-5.042562007904053,"173":-0.21394392848014832,"174":1.2017595767974854,"175":3.292219400405884,"176":3.0010690689086914,"177":-2.44199275970459,"178":-3.0583906173706055,"179":-2.5956244468688965,"180":-2.0085551738739014,"181":-0.5447853803634644,"182":-1.5689018964767456,"183":0.7798842191696167,"184":-0.7976241707801819,"185":1.7164700031280518,"186":1.657691478729248,"187":-0.872650682926178,"188":1.7405320405960083,"189":1.2668012380599976,"190":1.282109022140503,"191":1.685870885848999,"192":1.80629563331604,"193":1.396791696548462,"194":3.8216967582702637,"195":-11.096267700195312,"196":-2.1219840049743652,"197":1.1455210447311401,"198":-2.7866363525390625,"199":1.3821606636047363,"200":-2.370439052581787,"201":0.0021048840135335922,"202":-0.23740194737911224,"203":0.11545812338590622,"204":-3.050898313522339,"205":1.3306782245635986,"206":0.8411411046981812,"207":0.04412178322672844,"208":2.1305031776428223,"209":3.9326789379119873,"210":2.566523551940918,"211":-0.9666731357574463,"212":-4.14084005355835,"213":3.5615944862365723,"214":-1.847968339920044,"215":0.8222452402114868,"216":-1.7605472803115845,"217":0.034744806587696075,"218":2.27443528175354,"219":0.7577065229415894,"220":-3.7908143997192383,"221":-1.7263325452804565,"222":0.14425252377986908,"223":0.014743698760867119,"224":-5.169981479644775,"225":-0.2111990600824356,"226":2.2985641956329346,"227":4.796952247619629,"228":1.6573799848556519,"229":1.5522326231002808,"230":2.346811056137085,"231":0.48657870292663574,"232":0.30187341570854187,"233":5.343044281005859,"234":0.8628777265548706,"235":0.30243194103240967,"236":2.034303665161133,"237":1.3160173892974854,"238":-1.8798695802688599,"239":1.3696950674057007,"240":-1.8696693181991577,"241":0.253827303647995,"242":-4.139632701873779,"243":0.029461972415447235,"244":-2.563680648803711,"245":-1.4024040699005127,"246":0.1489153653383255,"247":0.8049659132957458,"248":0.12543578445911407,"249":0.14208337664604187,"250":-3.484429121017456,"251":1.3066233396530151,"252":-1.3035171031951904,"253":5.106748580932617,"254":-0.4434368312358856,"255":2.8394758701324463,"256":2.387805700302124,"257":4.30767297744751,"258":-0.789718747138977,"259":-4.950594425201416,"260":2.190349817276001,"261":2.7225866317749023,"262":-0.42382392287254333,"263":-1.6520169973373413,"264":-2.9835848808288574,"265":1.8545249700546265,"266":-0.3357914090156555,"267":-2.7821028232574463,"268":-1.2722268104553223,"269":-1.65455162525177,"270":-2.8376643657684326,"271":4.9806013107299805,"272":0.6345980763435364,"273":3.668795347213745,"274":0.5086218118667603,"275":-1.0056498050689697,"276":-1.2243876457214355,"277":-0.018321974202990532,"278":-3.2546379566192627,"279":3.313316822052002,"280":2.674729585647583,"281":-1.6467301845550537,"282":-2.2255687713623047,"283":7.239780426025391,"284":1.3165255784988403,"285":-1.6644563674926758,"286":-3.0326805114746094,"287":-1.1284328699111938,"288":1.381101369857788,"289":0.20795747637748718,"290":1.6630603075027466,"291":0.03148277848958969,"292":-2.206223726272583,"293":-1.8130933046340942,"294":-0.005591027904301882,"295":1.9771056175231934,"296":-4.1756911277771,"297":0.3553956151008606,"298":-0.434978723526001,"299":-0.6417509317398071,"300":0.049946725368499756,"301":3.332704544067383,"302":-4.77513313293457,"303":0.9348761439323425,"304":0.07500077039003372,"305":-3.8182859420776367,"306":-1.4772177934646606,"307":-1.0434356927871704,"308":1.0081796646118164,"309":2.451937198638916,"310":0.8193562030792236,"311":-2.664721965789795,"312":-1.5783103704452515,"313":0.3749155104160309,"314":-0.3018660545349121,"315":-0.14270439743995667,"316":-2.561927080154419,"317":-4.338573932647705,"318":-3.1362574100494385,"319":-1.4343597888946533,"320":-0.6412441730499268,"321":1.6107404232025146,"322":-0.7345520257949829,"323":0.25683847069740295,"324":1.9208022356033325,"325":4.540403366088867,"326":0.5863432288169861,"327":-1.536410927772522,"328":1.2238550186157227,"329":-3.3819820880889893,"330":-2.9372611045837402,"331":2.015286445617676,"332":-1.89193856716156,"333":1.9287910461425781,"334":1.5616382360458374,"335":-0.7398819327354431,"336":-0.7260331511497498,"337":3.3282063007354736,"338":2.4987540245056152,"339":0.9946214556694031,"340":0.5766103863716125,"341":3.815544366836548,"342":1.1576259136199951,"343":-1.9834975004196167,"344":2.456373691558838,"345":1.0322389602661133,"346":-1.8689745664596558,"347":1.5117957592010498,"348":1.8288804292678833,"349":0.02752034366130829,"350":1.2506195306777954,"351":2.0484306812286377,"352":1.1218541860580444,"353":1.1229844093322754,"354":-2.59515380859375,"355":0.17031259834766388,"356":2.0242745876312256,"357":-1.6851264238357544,"358":0.8917903304100037,"359":0.663345992565155,"360":0.4272308349609375,"361":3.7444725036621094,"362":-1.0033092498779297,"363":1.8047466278076172,"364":-3.334510564804077,"365":-3.7800755500793457,"366":-2.268691301345825,"367":-4.8707356452941895,"368":-1.242659568786621,"369":0.8954377770423889,"370":-0.627973735332489,"371":3.6766157150268555,"372":-1.2944620847702026,"373":8.035784721374512,"374":-0.36919647455215454,"375":-2.335488796234131,"376":0.09477269649505615,"377":3.216754198074341,"378":1.804868459701538,"379":-0.5381802320480347,"380":-3.9438316822052,"381":-1.6232893466949463,"382":0.9884140491485596,"383":2.5191166400909424,"384":-2.091165542602539,"385":-1.3088284730911255,"386":-1.5737236738204956,"387":-1.0121407508850098,"388":-0.6359505653381348,"389":-1.0100817680358887,"390":1.6762210130691528,"391":-3.0583715438842773,"392":1.6077111959457397,"393":1.8392056226730347,"394":-0.7122206687927246,"395":-0.05642818659543991,"396":0.2432512491941452,"397":1.0123021602630615,"398":0.4768715500831604,"399":2.728402853012085,"400":-2.1782708168029785,"401":1.2714080810546875,"402":-0.6099735498428345,"403":-7.136144638061523,"404":-4.0054144859313965,"405":0.5037267804145813,"406":1.9550038576126099,"407":-0.9701496362686157,"408":-3.636240243911743,"409":-0.3507959246635437,"410":1.3875385522842407,"411":2.720489978790283,"412":-2.0401902198791504,"413":-2.1157729625701904,"414":-1.0687103271484375,"415":1.3071751594543457,"416":1.6585800647735596,"417":-0.5952677130699158,"418":-0.5041342973709106,"419":-0.2513900697231293,"420":0.8129763007164001,"421":-4.382666110992432,"422":-1.9572628736495972,"423":2.600576877593994,"424":-0.5130038857460022,"425":-1.8344144821166992,"426":0.8527543544769287,"427":-7.703909873962402,"428":0.2681644856929779,"429":0.2259330153465271,"430":1.2683738470077515,"431":-2.563551187515259,"432":0.2069050818681717,"433":-0.08377349376678467,"434":-2.2530391216278076,"435":1.403887152671814,"436":-1.3442710638046265,"437":-2.1781294345855713,"438":-2.1275854110717773,"439":0.7241180539131165,"440":-4.0454792976379395,"441":-2.113308906555176,"442":-1.2810081243515015,"443":0.8939302563667297,"444":-0.3337860405445099,"445":4.600973129272461,"446":-3.956594467163086,"447":1.3335570096969604,"448":-2.3158586025238037,"449":-0.2267177700996399,"450":2.692128896713257,"451":-3.4661645889282227,"452":-2.717855215072632,"453":-0.6005433201789856,"454":0.6587167382240295,"455":-0.96885746717453,"456":5.116866588592529,"457":-1.3856110572814941,"458":0.8388174772262573,"459":-0.7948339581489563,"460":-5.308990955352783,"461":0.0385807529091835,"462":-0.913714587688446,"463":4.359025955200195,"464":-1.0360620021820068,"465":0.9519211053848267,"466":-0.19370122253894806,"467":-0.9699499607086182,"468":-1.0236645936965942,"469":-2.3520331382751465,"470":0.5327775478363037,"471":-1.3904331922531128,"472":0.5444799065589905,"473":-1.9261934757232666,"474":-1.6389636993408203,"475":1.808834195137024,"476":1.6932730674743652,"477":-1.0850027799606323,"478":1.6309006214141846,"479":-0.5837604403495789,"480":-1.0766568183898926,"481":1.33589768409729,"482":0.9296241998672485,"483":-0.8807163834571838,"484":-2.369032621383667,"485":4.926235675811768,"486":1.823687195777893,"487":-0.65846186876297,"488":-6.771915435791016,"489":1.5448299646377563,"490":-0.9275084137916565,"491":-3.182788610458374,"492":0.07928847521543503,"493":-2.406700611114502,"494":-2.6118342876434326,"495":3.3110785484313965,"496":-1.9182770252227783,"497":-0.8530128002166748,"498":1.5521166324615479,"499":3.1742141246795654,"500":0.8070957660675049,"501":0.6378335356712341,"502":-4.705630779266357,"503":-1.598458170890808,"504":-2.854349374771118,"505":1.2005358934402466,"506":-2.8263182640075684,"507":-4.921221733093262,"508":4.796082496643066,"509":-4.452282905578613,"510":-3.6288790702819824,"511":-0.10208674520254135,"512":0.3026958703994751,"513":0.6619598269462585,"514":0.6366779804229736,"515":-0.7201042771339417,"516":1.7691903114318848,"517":1.8191814422607422,"518":-0.8089907765388489,"519":-3.5779857635498047,"520":-1.5230079889297485,"521":0.6427786946296692,"522":3.154505729675293,"523":-2.0218405723571777,"524":0.00955754891037941,"525":-2.5179526805877686,"526":-2.3568873405456543,"527":-0.057318590581417084,"528":-0.04273869842290878,"529":-1.231372594833374,"530":-1.3599393367767334,"531":0.6117593050003052,"532":-1.0210881233215332,"533":1.0766401290893555,"534":-4.8196635246276855,"535":3.571117639541626,"536":1.5776010751724243,"537":3.4353835582733154,"538":-0.7084697484970093,"539":-1.8884128332138062,"540":-3.0788230895996094,"541":-0.18093565106391907,"542":1.6830836534500122,"543":-0.2609494626522064,"544":3.3190999031066895,"545":-3.4934885501861572,"546":2.867002487182617,"547":6.128299713134766,"548":-3.461817741394043,"549":4.582062721252441,"550":-4.805150032043457,"551":1.7913610935211182,"552":1.0149049758911133,"553":6.269765377044678,"554":2.604400873184204,"555":3.5528218746185303,"556":-1.4467442035675049,"557":-0.9698430895805359,"558":2.477525234222412,"559":-3.3195202350616455,"560":4.026237964630127,"561":2.008161783218384,"562":0.2813888490200043,"563":1.5971946716308594,"564":5.73288631439209,"565":2.5813848972320557,"566":4.819361686706543,"567":-0.5841463208198547,"568":1.3212165832519531,"569":-3.7695937156677246,"570":1.9972078800201416,"571":-1.7661503553390503,"572":0.4062208831310272,"573":-3.315932035446167,"574":-0.14815157651901245,"575":3.543505907058716,"576":-0.44736480712890625,"577":3.867208480834961,"578":-5.819446563720703,"579":2.5200037956237793,"580":-2.3655362129211426,"581":0.374191015958786,"582":3.377232551574707,"583":1.2677092552185059,"584":4.646721363067627,"585":1.7009971141815186,"586":1.0017759799957275,"587":-2.2632319927215576,"588":0.9813845753669739,"589":1.157731533050537,"590":-3.6542611122131348,"591":3.9555158615112305,"592":1.0039255619049072,"593":-2.2363805770874023,"594":0.03653408959507942,"595":1.153023362159729,"596":-0.9041724801063538,"597":-8.436247825622559,"598":2.925689458847046,"599":2.494077205657959,"600":-3.4224462509155273,"601":-1.422924280166626,"602":-2.195652723312378,"603":-0.610640287399292,"604":0.6482610106468201,"605":-4.073589324951172,"606":2.593458652496338,"607":1.0843786001205444,"608":2.1737964153289795,"609":3.4489033222198486,"610":0.3535826504230499,"611":-1.437431812286377,"612":5.230649471282959,"613":1.2693287134170532,"614":-0.5314339399337769,"615":3.2424745559692383,"616":-4.24605655670166,"617":-1.5198779106140137,"618":-2.5247137546539307,"619":-0.18464547395706177}},"forgetHidden":{"rows":20,"columns":20,"weights":{"0":-6.542305946350098,"1":0.8457987308502197,"2":-3.3151402473449707,"3":0.8790354132652283,"4":-4.155107021331787,"5":-0.5613329410552979,"6":4.892792701721191,"7":5.089190483093262,"8":2.331240177154541,"9":-4.448871612548828,"10":0.6592172384262085,"11":-0.19104111194610596,"12":-0.5405706167221069,"13":-6.9775285720825195,"14":2.776582956314087,"15":-1.7642658948898315,"16":-2.2695913314819336,"17":-5.553805828094482,"18":0.7437896132469177,"19":1.7222872972488403,"20":8.15671157836914,"21":6.284745693206787,"22":0.851376473903656,"23":-1.11835777759552,"24":-3.258269786834717,"25":2.321949005126953,"26":-0.7413269281387329,"27":1.559959053993225,"28":-2.1844639778137207,"29":0.2987683117389679,"30":2.939561605453491,"31":0.976043701171875,"32":-0.09990200400352478,"33":-1.8208357095718384,"34":0.22763478755950928,"35":-2.4067037105560303,"36":-2.1168901920318604,"37":-1.1649348735809326,"38":-1.0155686140060425,"39":-0.8333922028541565,"40":3.6480813026428223,"41":4.135491847991943,"42":0.603967547416687,"43":-4.780049800872803,"44":1.3544466495513916,"45":-3.490809202194214,"46":4.060521602630615,"47":2.5180392265319824,"48":0.019690219312906265,"49":-1.922551155090332,"50":4.960276126861572,"51":1.9313889741897583,"52":2.879807233810425,"53":-3.539207935333252,"54":1.2415043115615845,"55":2.3021697998046875,"56":5.712911128997803,"57":3.7640318870544434,"58":2.4395501613616943,"59":1.7589322328567505,"60":-4.2157721519470215,"61":0.4929642677307129,"62":-3.468522071838379,"63":-4.821636199951172,"64":2.416072368621826,"65":-0.6876888275146484,"66":1.8420166969299316,"67":0.7754496335983276,"68":1.9006283283233643,"69":2.5014572143554688,"70":-1.7447413206100464,"71":-1.1491903066635132,"72":0.29711687564849854,"73":0.33230358362197876,"74":1.1330405473709106,"75":-0.054093558341264725,"76":-1.106309413909912,"77":3.7429487705230713,"78":-2.3495752811431885,"79":-1.232238531112671,"80":-0.8021887540817261,"81":-5.622419357299805,"82":0.49214261770248413,"83":5.958845615386963,"84":-1.863232970237732,"85":0.30562835931777954,"86":0.15276183187961578,"87":4.437626361846924,"88":-5.1272430419921875,"89":-2.9292755126953125,"90":8.235369682312012,"91":0.24469231069087982,"92":-7.067720413208008,"93":-2.6575794219970703,"94":4.320327281951904,"95":2.939074754714966,"96":5.896753787994385,"97":-3.9977805614471436,"98":4.838633060455322,"99":2.9708199501037598,"100":3.214923143386841,"101":3.364582061767578,"102":-8.85407829284668,"103":2.673189878463745,"104":-10.282325744628906,"105":0.024044374004006386,"106":-2.2678773403167725,"107":0.5613998770713806,"108":-4.76017427444458,"109":-6.527698516845703,"110":4.937922954559326,"111":-5.440920829772949,"112":-3.0440785884857178,"113":1.6143311262130737,"114":1.9813872575759888,"115":3.6235365867614746,"116":1.624611258506775,"117":1.9513225555419922,"118":5.826622486114502,"119":0.47263237833976746,"120":1.070793867111206,"121":-13.150429725646973,"122":-2.080134153366089,"123":-8.358223915100098,"124":-6.2752203941345215,"125":-4.652736186981201,"126":14.584741592407227,"127":-0.7344421148300171,"128":15.42159366607666,"129":-2.6719980239868164,"130":-22.158248901367188,"131":0.7142482995986938,"132":-12.550027847290039,"133":16.358850479125977,"134":-3.1316184997558594,"135":14.34084701538086,"136":10.743841171264648,"137":-8.834108352661133,"138":0.18096692860126495,"139":-1.6193238496780396,"140":-5.250688552856445,"141":1.834058165550232,"142":-0.5305230617523193,"143":0.49572858214378357,"144":3.295947313308716,"145":1.3293793201446533,"146":-0.7392246723175049,"147":-0.1420624703168869,"148":-2.942164897918701,"149":-0.946293294429779,"150":2.5084993839263916,"151":0.723362147808075,"152":0.9604663848876953,"153":0.8237053155899048,"154":2.894160032272339,"155":1.1104367971420288,"156":1.0983315706253052,"157":-0.830962598323822,"158":1.615846872329712,"159":-0.6777051091194153,"160":-7.647775173187256,"161":2.8097572326660156,"162":1.9038615226745605,"163":8.573868751525879,"164":2.5542118549346924,"165":5.084838390350342,"166":1.250342845916748,"167":-5.51254940032959,"168":-0.09723126143217087,"169":-0.9811478853225708,"170":-4.516404628753662,"171":-18.518573760986328,"172":-18.83321189880371,"173":-12.41740608215332,"174":-0.9211580157279968,"175":-0.2807562053203583,"176":11.159019470214844,"177":-6.912972450256348,"178":-3.6296675205230713,"179":3.1056649684906006,"180":-7.99885368347168,"181":-18.2007999420166,"182":-1.770044207572937,"183":5.589763164520264,"184":-3.305352210998535,"185":0.5866491794586182,"186":-0.32909438014030457,"187":-1.8214775323867798,"188":6.967864036560059,"189":4.107639312744141,"190":-0.04654374718666077,"191":3.319701671600342,"192":5.2349934577941895,"193":-2.4351415634155273,"194":0.08624549210071564,"195":-2.343400478363037,"196":6.401191711425781,"197":-9.630492210388184,"198":-2.137188196182251,"199":6.518459320068359,"200":-0.0671689435839653,"201":4.043400287628174,"202":-0.6301799416542053,"203":0.13720236718654633,"204":0.6871442198753357,"205":-0.016818100586533546,"206":6.825051307678223,"207":-2.5656960010528564,"208":7.029613494873047,"209":0.06370145827531815,"210":6.603763103485107,"211":-2.5785439014434814,"212":2.5105559825897217,"213":-4.848452091217041,"214":1.2356042861938477,"215":-1.38370680809021,"216":-1.1268640756607056,"217":2.526197910308838,"218":-5.430934906005859,"219":4.185638427734375,"220":2.9907093048095703,"221":-1.851588249206543,"222":1.3257079124450684,"223":2.19437313079834,"224":-2.714694023132324,"225":-0.16637204587459564,"226":-1.3153414726257324,"227":0.45070016384124756,"228":4.414550304412842,"229":2.387294292449951,"230":4.053248882293701,"231":4.148635387420654,"232":-8.336094856262207,"233":-2.67708158493042,"234":-4.285438537597656,"235":-2.098543167114258,"236":-5.184502601623535,"237":-6.397462368011475,"238":1.400053858757019,"239":-0.6378408074378967,"240":22.121232986450195,"241":-2.5259737968444824,"242":4.3379435539245605,"243":-2.621741533279419,"244":19.952199935913086,"245":-0.973228394985199,"246":5.292950630187988,"247":-1.6919736862182617,"248":4.214961051940918,"249":2.097386360168457,"250":0.2408146858215332,"251":10.922401428222656,"252":4.860243797302246,"253":1.5299654006958008,"254":11.925121307373047,"255":-1.076735019683838,"256":-4.211440563201904,"257":-1.1615049839019775,"258":8.896711349487305,"259":0.8390026688575745,"260":3.3624353408813477,"261":4.306293964385986,"262":1.0072822570800781,"263":1.5947163105010986,"264":3.660386323928833,"265":6.097461223602295,"266":6.668943405151367,"267":-3.781383514404297,"268":-8.082419395446777,"269":-1.434431552886963,"270":4.680496692657471,"271":9.269174575805664,"272":4.294405460357666,"273":3.706514358520508,"274":10.337416648864746,"275":-7.634598731994629,"276":-5.913592338562012,"277":1.6859437227249146,"278":-3.3471615314483643,"279":-3.394434690475464,"280":-0.40371716022491455,"281":4.3418731689453125,"282":7.2625579833984375,"283":-1.5487114191055298,"284":5.542045593261719,"285":-1.8035435676574707,"286":1.750037431716919,"287":1.728472352027893,"288":-6.3768310546875,"289":-2.5815608501434326,"290":-2.929880380630493,"291":-5.040264129638672,"292":-4.7056565284729,"293":-2.490154981613159,"294":-1.4998486042022705,"295":-3.9524948596954346,"296":-1.1315369606018066,"297":-1.6678401231765747,"298":2.092886447906494,"299":-5.717681884765625,"300":-4.226388454437256,"301":1.0412099361419678,"302":0.8620501756668091,"303":-3.1463520526885986,"304":1.9709428548812866,"305":0.3824014663696289,"306":-0.8061721324920654,"307":2.063091516494751,"308":-2.3329269886016846,"309":1.8969608545303345,"310":-3.924145221710205,"311":2.5719122886657715,"312":-0.9271364212036133,"313":1.0656245946884155,"314":-2.1061830520629883,"315":-1.032019853591919,"316":1.4483698606491089,"317":-1.786421298980713,"318":0.972747802734375,"319":2.044616222381592,"320":4.7191162109375,"321":1.7625341415405273,"322":-1.4086750745773315,"323":15.62401294708252,"324":-9.250383377075195,"325":-7.087784290313721,"326":-7.8906755447387695,"327":-15.449691772460938,"328":14.374868392944336,"329":6.247099876403809,"330":-8.493778228759766,"331":6.685741424560547,"332":4.8495402336120605,"333":6.8640336990356445,"334":-7.868743896484375,"335":-1.4743596315383911,"336":-4.592589378356934,"337":-3.0085718631744385,"338":-2.4782655239105225,"339":-1.1272284984588623,"340":-4.238503456115723,"341":-7.667447090148926,"342":1.6982003450393677,"343":-1.391417145729065,"344":-8.724936485290527,"345":2.2045466899871826,"346":2.5725767612457275,"347":1.1151789426803589,"348":7.675012111663818,"349":4.770291805267334,"350":13.310458183288574,"351":-6.332475662231445,"352":3.830268383026123,"353":-8.942513465881348,"354":-2.327629804611206,"355":-2.9801530838012695,"356":-7.6489787101745605,"357":7.1188507080078125,"358":-1.6338878870010376,"359":-9.86396312713623,"360":-8.694587707519531,"361":-1.5213388204574585,"362":9.894996643066406,"363":-4.048967361450195,"364":-2.40273118019104,"365":-4.2623162269592285,"366":7.316749095916748,"367":-2.069356679916382,"368":-2.264049530029297,"369":5.785251140594482,"370":-7.538148403167725,"371":-6.408072471618652,"372":-7.585334777832031,"373":4.059085845947266,"374":7.39394474029541,"375":1.581488013267517,"376":-0.5608439445495605,"377":-4.778433799743652,"378":-6.464805603027344,"379":2.6793627738952637,"380":1.0953422784805298,"381":0.12309390306472778,"382":-3.5076537132263184,"383":2.684950351715088,"384":7.400322437286377,"385":-18.83173370361328,"386":-11.791138648986816,"387":8.028006553649902,"388":11.326823234558105,"389":18.1036319732666,"390":-9.445440292358398,"391":-6.910979747772217,"392":-10.924735069274902,"393":-5.08876895904541,"394":-11.84616756439209,"395":4.754262924194336,"396":-20.94780731201172,"397":-5.676065921783447,"398":10.13635540008545,"399":10.148294448852539}},"forgetBias":{"rows":20,"columns":1,"weights":{"0":0,"1":0,"2":0,"3":0,"4":0,"5":0,"6":0,"7":0,"8":0,"9":0,"10":0,"11":0,"12":0,"13":0,"14":0,"15":0,"16":0,"17":0,"18":0,"19":0}},"outputMatrix":{"rows":20,"columns":31,"weights":{"0":2.7207186222076416,"1":-0.8756619691848755,"2":1.8821167945861816,"3":-1.3250195980072021,"4":1.8278595209121704,"5":0.9344386458396912,"6":-1.7589097023010254,"7":-0.40424874424934387,"8":-0.4142993092536926,"9":2.5799782276153564,"10":-0.18461453914642334,"11":0.4637434184551239,"12":0.6666970252990723,"13":0.13085702061653137,"14":0.7405882477760315,"15":0.4038313329219818,"16":1.336039662361145,"17":-0.3629950284957886,"18":0.9717953205108643,"19":0.5856008529663086,"20":-3.434579849243164,"21":-2.8542091846466064,"22":1.5813404321670532,"23":-1.5243501663208008,"24":0.47530511021614075,"25":0.09958043694496155,"26":1.159180998802185,"27":-3.511676788330078,"28":-0.10560471564531326,"29":-0.7123008966445923,"30":0.22393184900283813,"31":5.5513997077941895,"32":1.7087081670761108,"33":-5.4669952392578125,"34":1.2743499279022217,"35":-0.9845839738845825,"36":0.24230964481830597,"37":-1.0014225244522095,"38":-1.251367211341858,"39":3.976255178451538,"40":-1.6527762413024902,"41":2.8627805709838867,"42":4.1945013999938965,"43":2.2622199058532715,"44":1.5889356136322021,"45":-3.580087184906006,"46":2.0997276306152344,"47":1.0961718559265137,"48":-0.10687657445669174,"49":0.21375614404678345,"50":3.22314715385437,"51":2.7620420455932617,"52":-2.794203042984009,"53":0.6597689986228943,"54":-1.6490596532821655,"55":-1.444066047668457,"56":-1.3520421981811523,"57":0.7168505191802979,"58":0.70164555311203,"59":-1.2281173467636108,"60":1.450312614440918,"61":0.13167329132556915,"62":2.8784284591674805,"63":-0.16021597385406494,"64":-0.8817773461341858,"65":1.3161158561706543,"66":2.0175046920776367,"67":-1.5371720790863037,"68":2.3585572242736816,"69":1.94731605052948,"70":-1.1325840950012207,"71":-0.5443936586380005,"72":0.42606714367866516,"73":-2.1441586017608643,"74":-4.561756610870361,"75":-3.7825140953063965,"76":-2.67684268951416,"77":1.9906872510910034,"78":-1.4971890449523926,"79":-3.1551687717437744,"80":1.7979551553726196,"81":-1.8702000379562378,"82":1.4167418479919434,"83":0.4220851957798004,"84":3.5018441677093506,"85":-4.279926776885986,"86":-1.9265334606170654,"87":-2.5208420753479004,"88":-2.896556854248047,"89":-0.09461873024702072,"90":-2.8366758823394775,"91":1.7696702480316162,"92":1.1539362668991089,"93":1.2183904647827148,"94":-2.5304806232452393,"95":-2.765549421310425,"96":2.177260398864746,"97":-3.0643348693847656,"98":2.2254843711853027,"99":-2.0472803115844727,"100":-2.3729794025421143,"101":-0.6570681929588318,"102":6.231105804443359,"103":3.9470317363739014,"104":2.068972110748291,"105":1.1594016551971436,"106":-0.1619468778371811,"107":0.6296064853668213,"108":2.1366617679595947,"109":-0.831627607345581,"110":0.5927448868751526,"111":-2.630035877227783,"112":0.6897441744804382,"113":-0.325502872467041,"114":-3.4198861122131348,"115":-0.29062020778656006,"116":1.5377434492111206,"117":-7.659201145172119,"118":-3.653093099594116,"119":4.788249492645264,"120":-5.6062116622924805,"121":1.6221199035644531,"122":8.2506685256958,"123":1.0553481578826904,"124":-4.756439208984375,"125":-1.7502859830856323,"126":1.6175251007080078,"127":-9.999919891357422,"128":-4.80220890045166,"129":-1.0601451396942139,"130":-7.240425109863281,"131":-5.08802604675293,"132":-1.5303975343704224,"133":-1.9681252241134644,"134":-0.2979261875152588,"135":1.6569548845291138,"136":-2.311227321624756,"137":0.3771810233592987,"138":1.3086758852005005,"139":2.1702685356140137,"140":4.281423568725586,"141":2.623500108718872,"142":-0.4162333905696869,"143":1.6098653078079224,"144":5.710410118103027,"145":-0.9319522380828857,"146":3.694748640060425,"147":0.5369601249694824,"148":-3.2047088146209717,"149":3.7996201515197754,"150":5.351800441741943,"151":-0.22687843441963196,"152":-3.175387144088745,"153":2.1936562061309814,"154":-2.644922971725464,"155":-2.4192233085632324,"156":0.4269774556159973,"157":3.4030418395996094,"158":-2.086948871612549,"159":3.8044536113739014,"160":-3.922746419906616,"161":2.004467725753784,"162":2.997910976409912,"163":3.368540048599243,"164":-2.2100956439971924,"165":-0.42447102069854736,"166":-1.8236364126205444,"167":-2.2438833713531494,"168":-8.1992826461792,"169":2.757760524749756,"170":-7.8890604972839355,"171":1.0565917491912842,"172":4.332976818084717,"173":-2.3375344276428223,"174":-0.7547985315322876,"175":3.0597305297851562,"176":-0.7813937067985535,"177":-5.6219801902771,"178":0.5346423387527466,"179":0.2058658003807068,"180":-6.653347492218018,"181":-0.7225047945976257,"182":-0.1371951550245285,"183":0.16094164550304413,"184":3.1812515258789062,"185":5.404270172119141,"186":-2.496655225753784,"187":-0.9746133685112,"188":3.55418062210083,"189":-1.176445484161377,"190":-1.516659140586853,"191":-0.11638403683900833,"192":4.382570743560791,"193":0.9347219467163086,"194":2.181674003601074,"195":-0.07004796713590622,"196":1.1511558294296265,"197":-1.7090978622436523,"198":-1.009468913078308,"199":-5.172159671783447,"200":-2.1201252937316895,"201":-0.7926978468894958,"202":-7.025855541229248,"203":6.8511433601379395,"204":-0.31465286016464233,"205":5.1044745445251465,"206":1.7306201457977295,"207":-0.8385252952575684,"208":-2.7551605701446533,"209":5.6398024559021,"210":-1.8954054117202759,"211":0.48511427640914917,"212":2.260104179382324,"213":-0.02342841774225235,"214":2.3667030334472656,"215":-5.156479835510254,"216":-3.8136370182037354,"217":-0.7961378693580627,"218":3.085167407989502,"219":-3.2182960510253906,"220":0.5469133853912354,"221":-3.812894582748413,"222":-0.2790326774120331,"223":-6.421926975250244,"224":-1.6931040287017822,"225":2.9071614742279053,"226":3.615889310836792,"227":-0.6427872776985168,"228":3.9495058059692383,"229":-2.2061376571655273,"230":-0.3863808512687683,"231":-2.5779805183410645,"232":0.8583261966705322,"233":0.017005302011966705,"234":-0.31598448753356934,"235":-3.9281628131866455,"236":0.8086699843406677,"237":-2.3798933029174805,"238":-3.4708669185638428,"239":-2.600304365158081,"240":3.8317348957061768,"241":-0.1064058244228363,"242":2.8761487007141113,"243":0.37183234095573425,"244":4.2241902351379395,"245":-2.319295644760132,"246":4.48384428024292,"247":1.7575372457504272,"248":-0.8862388730049133,"249":-0.19196459650993347,"250":-2.8725597858428955,"251":-1.2863945960998535,"252":0.8767826557159424,"253":6.129136085510254,"254":-3.3504717350006104,"255":-2.5656392574310303,"256":5.425665378570557,"257":1.6965765953063965,"258":5.376241207122803,"259":0.14070510864257812,"260":-4.050850868225098,"261":-3.263026475906372,"262":1.5620355606079102,"263":-2.9918441772460938,"264":8.281789779663086,"265":-2.3547966480255127,"266":0.3543468117713928,"267":0.8444922566413879,"268":-0.8726964592933655,"269":-1.1136358976364136,"270":8.039847373962402,"271":1.919891595840454,"272":5.182514667510986,"273":-1.1209945678710938,"274":-4.977844715118408,"275":0.5914786458015442,"276":-2.2585361003875732,"277":9.289098739624023,"278":0.5718479156494141,"279":3.6080498695373535,"280":1.0191148519515991,"281":-2.326460599899292,"282":2.869525671005249,"283":-2.5800390243530273,"284":-5.696200847625732,"285":3.357322931289673,"286":0.34131547808647156,"287":2.1621313095092773,"288":-2.5716354846954346,"289":4.260400772094727,"290":3.6575276851654053,"291":0.1738504320383072,"292":-0.11495500057935715,"293":-2.5491886138916016,"294":-4.365550994873047,"295":-3.0638742446899414,"296":1.203949213027954,"297":-0.5281532406806946,"298":2.0521953105926514,"299":-0.30486130714416504,"300":1.7559486627578735,"301":-0.2585703730583191,"302":1.0468677282333374,"303":3.6867668628692627,"304":-0.15144097805023193,"305":-2.3555305004119873,"306":4.043381214141846,"307":0.791886568069458,"308":4.773904800415039,"309":-2.221123456954956,"310":-3.8211073875427246,"311":-0.04646645113825798,"312":-4.144196510314941,"313":-3.854116201400757,"314":1.9984866380691528,"315":1.0608831644058228,"316":6.105390548706055,"317":4.782629013061523,"318":-2.7585983276367188,"319":7.681527614593506,"320":-0.4444855749607086,"321":2.547624111175537,"322":0.9394837021827698,"323":1.758912205696106,"324":-6.009865760803223,"325":-2.99873685836792,"326":-5.42451810836792,"327":-2.030656576156616,"328":3.1629512310028076,"329":1.5739555358886719,"330":2.6756036281585693,"331":0.29462552070617676,"332":-0.9553290009498596,"333":-0.5064339637756348,"334":0.4422982931137085,"335":1.2540382146835327,"336":-0.1672508418560028,"337":-4.404666900634766,"338":-2.532170057296753,"339":-0.03596190735697746,"340":-1.7657887935638428,"341":4.023474216461182,"342":0.42889678478240967,"343":-1.7193228006362915,"344":-1.9008814096450806,"345":1.8763349056243896,"346":-0.6672781705856323,"347":-0.33931174874305725,"348":-0.6132609844207764,"349":-1.0418230295181274,"350":-3.514263391494751,"351":1.0903961658477783,"352":-2.238220691680908,"353":-0.18950727581977844,"354":-0.8903371095657349,"355":0.8662702441215515,"356":3.6193668842315674,"357":1.7579371929168701,"358":-0.603458046913147,"359":-0.7831038236618042,"360":-2.406128406524658,"361":-0.6841355562210083,"362":-3.078857183456421,"363":-0.8965516090393066,"364":0.12959696352481842,"365":-1.2013440132141113,"366":0.19091135263442993,"367":-4.7699666023254395,"368":1.5061461925506592,"369":-2.359091281890869,"370":0.45665818452835083,"371":-0.7664523124694824,"372":-1.286002516746521,"373":-1.3307005167007446,"374":-1.4533592462539673,"375":1.0342779159545898,"376":0.09755633771419525,"377":-4.800839424133301,"378":1.6018567085266113,"379":1.907575011253357,"380":-0.9067926406860352,"381":-4.791691303253174,"382":3.386244535446167,"383":-0.6690815091133118,"384":0.4369778335094452,"385":-1.9938024282455444,"386":-3.555048942565918,"387":4.246768951416016,"388":3.3270819187164307,"389":-1.423801064491272,"390":-3.9102847576141357,"391":-0.5920150279998779,"392":3.9417054653167725,"393":0.8832159638404846,"394":-0.41486603021621704,"395":0.4525645077228546,"396":0.9249586462974548,"397":0.5156815052032471,"398":-1.935715675354004,"399":-0.8957932591438293,"400":-9.401422500610352,"401":-0.7291130423545837,"402":3.815068006515503,"403":-3.4731383323669434,"404":0.1994733214378357,"405":-3.92018461227417,"406":-1.0002089738845825,"407":-1.6279672384262085,"408":0.8681170344352722,"409":-1.956347942352295,"410":-1.9928239583969116,"411":-4.410133361816406,"412":2.2203471660614014,"413":0.9946779608726501,"414":0.1610964983701706,"415":-1.9405735731124878,"416":1.3115977048873901,"417":2.322617292404175,"418":-1.080861210823059,"419":0.39261001348495483,"420":3.643134355545044,"421":-1.5006425380706787,"422":-0.2716546654701233,"423":7.225998401641846,"424":2.334596872329712,"425":3.503809928894043,"426":-5.092220783233643,"427":-5.287501335144043,"428":2.8102571964263916,"429":2.239025115966797,"430":-8.751232147216797,"431":5.527364730834961,"432":-3.781822443008423,"433":0.7424468994140625,"434":2.4353973865509033,"435":5.201003074645996,"436":-1.3567936420440674,"437":1.2478342056274414,"438":1.5436863899230957,"439":-2.6332547664642334,"440":0.3500302731990814,"441":2.5056586265563965,"442":2.172633647918701,"443":0.00981003325432539,"444":-3.145780086517334,"445":-0.019791455939412117,"446":-1.6305006742477417,"447":1.1188229322433472,"448":-0.43541792035102844,"449":-5.851885795593262,"450":-2.7362172603607178,"451":0.13816514611244202,"452":2.1508355140686035,"453":1.1849980354309082,"454":4.040431499481201,"455":-0.0705791488289833,"456":0.9489150047302246,"457":-3.1500515937805176,"458":3.0003809928894043,"459":-1.5924482345581055,"460":-2.0204246044158936,"461":0.012566273100674152,"462":-7.930751323699951,"463":7.0887451171875,"464":1.7735854387283325,"465":0.48658275604248047,"466":-0.37429890036582947,"467":2.8700504302978516,"468":-0.4507039189338684,"469":-0.6990939378738403,"470":-3.8542959690093994,"471":3.5888960361480713,"472":0.6965957880020142,"473":2.7418909072875977,"474":-4.416621208190918,"475":-0.5976974368095398,"476":-7.829307556152344,"477":3.374032974243164,"478":-1.3314512968063354,"479":1.3921431303024292,"480":-5.250704765319824,"481":-1.734420895576477,"482":-3.5253376960754395,"483":2.8835275173187256,"484":-2.3504467010498047,"485":5.2371392250061035,"486":3.812345027923584,"487":1.2533149719238281,"488":1.8865954875946045,"489":0.10500036925077438,"490":-1.9172099828720093,"491":1.100672960281372,"492":2.366971492767334,"493":-2.933128833770752,"494":-3.494593858718872,"495":-0.8938917517662048,"496":7.465337753295898,"497":1.546652913093567,"498":-1.05718195438385,"499":7.144434928894043,"500":-0.13034625351428986,"501":-0.2391362339258194,"502":-3.959228038787842,"503":-1.4944441318511963,"504":-2.41438627243042,"505":-1.011627435684204,"506":-2.7379345893859863,"507":4.994481086730957,"508":-3.227489948272705,"509":-2.176079273223877,"510":4.237292766571045,"511":1.5012162923812866,"512":-3.1287992000579834,"513":3.929422616958618,"514":-4.488531112670898,"515":4.465980052947998,"516":-4.533249855041504,"517":1.2758982181549072,"518":-4.224635601043701,"519":7.4358015060424805,"520":2.1313183307647705,"521":6.464321136474609,"522":-2.5180041790008545,"523":-0.2833150327205658,"524":-2.3470945358276367,"525":0.342781662940979,"526":1.7585148811340332,"527":0.9438077807426453,"528":1.323848843574524,"529":-6.704162120819092,"530":-0.08849932253360748,"531":7.086132526397705,"532":1.0636382102966309,"533":-8.664483070373535,"534":0.43918877840042114,"535":-2.219738245010376,"536":2.7192070484161377,"537":-3.499840497970581,"538":0.21349449455738068,"539":0.6617037653923035,"540":1.036410927772522,"541":-0.3449047803878784,"542":3.745271921157837,"543":1.8321503400802612,"544":1.8379738330841064,"545":-0.5636932849884033,"546":-6.9089202880859375,"547":0.5111309885978699,"548":0.04626424238085747,"549":-3.247767210006714,"550":-5.65200138092041,"551":-3.4646711349487305,"552":1.52263605594635,"553":-5.52604866027832,"554":5.266002655029297,"555":-2.529409408569336,"556":-1.8603148460388184,"557":2.5133817195892334,"558":3.6441235542297363,"559":-5.757045745849609,"560":1.2449114322662354,"561":1.2202738523483276,"562":2.5850279331207275,"563":2.8784849643707275,"564":-4.951949119567871,"565":-0.3960760235786438,"566":2.637798309326172,"567":-0.21486926078796387,"568":1.9976587295532227,"569":4.32709264755249,"570":2.008953094482422,"571":-1.8362114429473877,"572":-2.2148630619049072,"573":1.8535001277923584,"574":5.926117420196533,"575":0.4953633248806,"576":-5.210753440856934,"577":2.2686538696289062,"578":-5.239943027496338,"579":0.8725194931030273,"580":0.24999935925006866,"581":1.1174525022506714,"582":5.170521259307861,"583":-1.6773813962936401,"584":1.1722511053085327,"585":0.21227949857711792,"586":-3.3233449459075928,"587":4.901169300079346,"588":4.773491382598877,"589":3.0454680919647217,"590":-1.796635627746582,"591":-2.186476707458496,"592":-2.2887163162231445,"593":2.9797089099884033,"594":1.122744083404541,"595":3.3191027641296387,"596":-0.7392377257347107,"597":3.739492177963257,"598":5.663745403289795,"599":5.789392471313477,"600":1.5995017290115356,"601":-1.8341528177261353,"602":-4.899947166442871,"603":-2.8356966972351074,"604":-2.6120223999023438,"605":4.3159050941467285,"606":1.3391107320785522,"607":5.4440999031066895,"608":4.656732559204102,"609":0.4166753590106964,"610":1.3748321533203125,"611":1.837011694908142,"612":2.084415912628174,"613":3.283726692199707,"614":0.8367451429367065,"615":0.4847555160522461,"616":-5.758096694946289,"617":1.6554776430130005,"618":2.50970458984375,"619":0.3695388436317444}},"outputHidden":{"rows":20,"columns":20,"weights":{"0":2.4225306510925293,"1":3.8046112060546875,"2":5.034595966339111,"3":1.5935673713684082,"4":-8.365466117858887,"5":-18.086252212524414,"6":5.753382682800293,"7":-16.31728172302246,"8":14.43094539642334,"9":6.78014612197876,"10":-10.157255172729492,"11":5.537179470062256,"12":5.664987564086914,"13":-26.913732528686523,"14":-8.036578178405762,"15":16.019529342651367,"16":15.644598007202148,"17":-10.379878997802734,"18":9.647168159484863,"19":-2.1238608360290527,"20":-4.1353302001953125,"21":-4.209978103637695,"22":-3.0047945976257324,"23":3.684384822845459,"24":9.237893104553223,"25":4.040542125701904,"26":-2.4134554862976074,"27":-3.3169312477111816,"28":-7.048724174499512,"29":5.084738731384277,"30":-4.058570384979248,"31":-0.412856787443161,"32":2.6506056785583496,"33":-3.018882989883423,"34":-2.893493890762329,"35":-4.110546112060547,"36":-8.858908653259277,"37":-1.8773256540298462,"38":1.5162451267242432,"39":-10.652742385864258,"40":-17.477563858032227,"41":-1.1182479858398438,"42":18.20795440673828,"43":-17.94839859008789,"44":-8.342092514038086,"45":8.720635414123535,"46":16.12898826599121,"47":1.8147313594818115,"48":-6.504788398742676,"49":-9.016424179077148,"50":2.416111707687378,"51":-8.476276397705078,"52":2.301938533782959,"53":-18.810726165771484,"54":3.365779161453247,"55":5.494783401489258,"56":-2.8980376720428467,"57":-13.992658615112305,"58":0.9103984832763672,"59":6.222609519958496,"60":-3.623589277267456,"61":-26.028732299804688,"62":-5.475282669067383,"63":-2.1388819217681885,"64":6.725600719451904,"65":15.379315376281738,"66":-6.620112895965576,"67":12.818350791931152,"68":2.8519132137298584,"69":4.2314534187316895,"70":0.5907199382781982,"71":7.533649921417236,"72":4.597733974456787,"73":3.524832248687744,"74":14.409296989440918,"75":-4.245707988739014,"76":-0.11405055969953537,"77":-7.41366720199585,"78":1.1541978120803833,"79":-12.306131362915039,"80":3.508111000061035,"81":-12.512277603149414,"82":-21.87569236755371,"83":-0.8490760326385498,"84":-9.00448989868164,"85":5.491484642028809,"86":-2.3803555965423584,"87":-7.243409633636475,"88":-24.129898071289062,"89":-16.09161376953125,"90":-10.470439910888672,"91":2.2205276489257812,"92":11.568011283874512,"93":-9.041139602661133,"94":-0.626534640789032,"95":-2.9091663360595703,"96":-5.646708965301514,"97":-16.45062828063965,"98":1.2538323402404785,"99":-17.415889739990234,"100":7.9502482414245605,"101":-3.9313950538635254,"102":-4.935276985168457,"103":-9.740777015686035,"104":-8.79242992401123,"105":6.4072723388671875,"106":-3.2268788814544678,"107":7.814414024353027,"108":4.905531406402588,"109":-6.149834632873535,"110":-11.08318042755127,"111":-3.827345609664917,"112":0.4512783885002136,"113":-13.137126922607422,"114":13.919438362121582,"115":-1.682305097579956,"116":2.694702386856079,"117":-6.358412742614746,"118":-3.0345237255096436,"119":10.580010414123535,"120":3.9279894828796387,"121":-6.283535957336426,"122":-4.915673732757568,"123":-8.979729652404785,"124":3.978632926940918,"125":-0.3958287835121155,"126":-12.856977462768555,"127":-4.104714393615723,"128":-7.9376397132873535,"129":7.48062801361084,"130":0.7939372062683105,"131":-6.457092761993408,"132":12.714599609375,"133":6.100697994232178,"134":-3.444330930709839,"135":-1.1171894073486328,"136":0.8868973851203918,"137":3.0353214740753174,"138":10.179298400878906,"139":-0.2638991177082062,"140":3.0343477725982666,"141":10.138296127319336,"142":0.22464866936206818,"143":-2.6952192783355713,"144":5.174065589904785,"145":6.698002338409424,"146":3.1187045574188232,"147":3.1388394832611084,"148":-4.987135410308838,"149":-4.975893020629883,"150":2.1188290119171143,"151":-1.4707218408584595,"152":-3.7000133991241455,"153":0.059953443706035614,"154":-4.578065872192383,"155":3.7487401962280273,"156":-1.0827434062957764,"157":2.2976038455963135,"158":1.5033222436904907,"159":1.5054118633270264,"160":1.0971335172653198,"161":3.984893798828125,"162":2.1899771690368652,"163":3.6495494842529297,"164":7.164651393890381,"165":-3.553330659866333,"166":1.0101193189620972,"167":-6.4275007247924805,"168":8.861998558044434,"169":-3.789957284927368,"170":4.762584209442139,"171":6.429882049560547,"172":6.517630100250244,"173":-2.54211688041687,"174":-1.8087934255599976,"175":-12.096896171569824,"176":-0.923856258392334,"177":3.665602922439575,"178":-3.037893533706665,"179":7.464030742645264,"180":8.831450462341309,"181":-5.139691352844238,"182":-3.5986969470977783,"183":-6.333498954772949,"184":4.0490803718566895,"185":-1.6218271255493164,"186":5.765995025634766,"187":0.17339862883090973,"188":-10.288614273071289,"189":-0.718793511390686,"190":10.977773666381836,"191":-3.4137492179870605,"192":11.397263526916504,"193":-0.5482732653617859,"194":2.8439438343048096,"195":14.532859802246094,"196":-2.7247560024261475,"197":-7.903936386108398,"198":4.711848735809326,"199":-5.379249095916748,"200":1.0845447778701782,"201":-5.32159423828125,"202":-10.44792366027832,"203":3.782953977584839,"204":1.6592042446136475,"205":-0.8238953948020935,"206":-1.1404980421066284,"207":7.891800403594971,"208":-5.070808410644531,"209":4.77068567276001,"210":8.799534797668457,"211":-10.091933250427246,"212":-1.575031042098999,"213":-5.851963520050049,"214":1.4146623611450195,"215":-0.5173068046569824,"216":1.6110061407089233,"217":-4.543806076049805,"218":3.663501739501953,"219":3.216611623764038,"220":-11.324365615844727,"221":1.202868938446045,"222":-0.8109114170074463,"223":7.807982444763184,"224":8.434845924377441,"225":18.84939956665039,"226":1.9785277843475342,"227":11.344334602355957,"228":-13.819047927856445,"229":12.547218322753906,"230":-14.574226379394531,"231":-3.156111001968384,"232":4.5374650955200195,"233":-6.710140228271484,"234":-9.991939544677734,"235":0.8601654767990112,"236":-11.63573169708252,"237":2.3173649311065674,"238":-7.4269938468933105,"239":-22.393035888671875,"240":8.45539665222168,"241":-22.507747650146484,"242":-11.940254211425781,"243":-18.868528366088867,"244":11.512307167053223,"245":-10.657645225524902,"246":-17.779756546020508,"247":10.148416519165039,"248":-8.862373352050781,"249":1.323991060256958,"250":15.778059005737305,"251":-11.254352569580078,"252":6.918806552886963,"253":6.435665607452393,"254":-16.789337158203125,"255":-7.073058128356934,"256":6.38527774810791,"257":-9.115812301635742,"258":-6.049715518951416,"259":6.229698181152344,"260":-10.033576965332031,"261":2.688004732131958,"262":-4.160901069641113,"263":4.962961673736572,"264":-6.362178325653076,"265":-5.25618314743042,"266":-8.910135269165039,"267":0.06953415274620056,"268":-4.0167083740234375,"269":-4.7173027992248535,"270":2.8108181953430176,"271":-0.8971509337425232,"272":-1.790228247642517,"273":13.813240051269531,"274":-9.213838577270508,