{"type":"LSTM","options":{"inputSize":31,"inputRange":31,"hiddenLayers":[20,20],"outputSize":31,"decayRate":0.999,"smoothEps":1e-8,"regc":0.000001,"clipval":5,"maxPredictionLength":100,"dataFormatter":{"indexTable":{"a":0,"n":1,"d":2," ":3,"E":4,"z":5,"r":6,"b":7,"l":8,"e":9,"s":10,"t":11,"h":12,"Y":13,"w":14,",":15,"g":16,"G":17,"o":18,"p":19,"'":20,"A":21,"m":22,"i":23,"f":24,"u":25,"y":26,"c":27,"-":28,".":29,"unrecognized":30},"characterTable":{"0":"a","1":"n","2":"d","3":" ","4":"E","5":"z","6":"r","7":"b","8":"l","9":"e","10":"s","11":"t","12":"h","13":"Y","14":"w","15":",","16":"g","17":"G","18":"o","19":"p","20":"'","21":"A","22":"m","23":"i","24":"f","25":"u","26":"y","27":"c","28":"-","29":".","30":null},"values":["and Ezra blesseth","Yahweh, the great","God, and all","the people answer,","'Amen, Amen,' with","lifting up of","their hands, and","they bow and","do obeisance to","Yahweh -- faces","to the earth."],"characters":["a","n","d"," ","E","z","r","b","l","e","s","t","h","Y","w",",","g","G","o","p","'","A","m","i","f","u","y","c","-",".","unrecognized"],"specialIndexes":[30]}},"input":{"rows":32,"columns":31,"weights":{"0":1.2186180353164673,"1":-1.7155252695083618,"2":2.1928675174713135,"3":4.1312713623046875,"4":3.94053316116333,"5":2.299241781234741,"6":-0.26266130805015564,"7":-5.140037536621094,"8":1.0665634870529175,"9":2.7656586170196533,"10":4.036037445068359,"11":-1.4612618684768677,"12":-4.085988521575928,"13":-2.0277554988861084,"14":0.31119340658187866,"15":-0.09420260041952133,"16":-1.538222312927246,"17":3.3992042541503906,"18":8.684507369995117,"19":0.10238175094127655,"20":-2.9719386100769043,"21":2.0318069458007812,"22":-0.7128264307975769,"23":-3.5929694175720215,"24":-2.766770124435425,"25":2.7760660648345947,"26":1.6308599710464478,"27":-2.6801977157592773,"28":1.627145767211914,"29":-1.6396564245224,"30":1.6860183477401733,"31":-5.941225528717041,"32":6.49390172958374,"33":-0.7807177901268005,"34":4.885899066925049,"35":-4.332736968994141,"36":-0.8728506565093994,"37":-2.8583121299743652,"38":-7.964414119720459,"39":-0.5338236689567566,"40":2.315584897994995,"41":3.055392265319824,"42":-4.731166362762451,"43":1.2347460985183716,"44":0.7385148406028748,"45":2.496706247329712,"46":-5.868227958679199,"47":2.5443952083587646,"48":4.738112926483154,"49":-1.6126289367675781,"50":-3.796590566635132,"51":-3.749420404434204,"52":9.786242485046387,"53":-2.6608479022979736,"54":5.702526569366455,"55":4.349095344543457,"56":1.124714732170105,"57":-0.28726351261138916,"58":-1.2517081499099731,"59":3.9707555770874023,"60":0.5127919912338257,"61":-3.6636552810668945,"62":-4.706507682800293,"63":-2.0991623401641846,"64":0.11819776147603989,"65":6.5872368812561035,"66":-4.067301273345947,"67":-4.196034908294678,"68":1.031482219696045,"69":-0.3709357678890228,"70":-0.3993152976036072,"71":0.77879399061203,"72":-6.744288921356201,"73":0.5876179337501526,"74":1.660478115081787,"75":1.0888190269470215,"76":5.212000846862793,"77":-1.393707513809204,"78":4.334262371063232,"79":4.365494251251221,"80":0.06808040291070938,"81":-0.5002029538154602,"82":3.3775899410247803,"83":5.883430004119873,"84":-6.590445041656494,"85":-1.0189974308013916,"86":1.5295426845550537,"87":0.8678414821624756,"88":1.3047676086425781,"89":0.19352637231349945,"90":-0.16060246527194977,"91":-4.3608574867248535,"92":3.1937739849090576,"93":-5.344597339630127,"94":-0.8010329604148865,"95":1.238774061203003,"96":-1.1241720914840698,"97":1.7944122552871704,"98":-2.5828816890716553,"99":-4.711745262145996,"100":5.102142810821533,"101":-1.179205298423767,"102":-2.9686670303344727,"103":0.10780064761638641,"104":-2.142468214035034,"105":-0.9647315144538879,"106":0.5115871429443359,"107":2.138481616973877,"108":0.9433392882347107,"109":-5.7186126708984375,"110":1.2172948122024536,"111":-5.056378364562988,"112":4.0010199546813965,"113":-4.810360431671143,"114":9.14876651763916,"115":3.071363925933838,"116":0.026663940399885178,"117":4.581213474273682,"118":-8.680285453796387,"119":1.3828749656677246,"120":-0.5480017066001892,"121":-0.5304996371269226,"122":4.580921173095703,"123":1.283052682876587,"124":-1.089259386062622,"125":3.4528446197509766,"126":-3.1104648113250732,"127":0.38035649061203003,"128":-1.8959012031555176,"129":-2.851109743118286,"130":-0.7395747900009155,"131":-2.497739315032959,"132":-0.4991201162338257,"133":2.449334144592285,"134":-2.023836135864258,"135":-3.1997885704040527,"136":0.7646993398666382,"137":2.37510085105896,"138":0.5601409673690796,"139":-1.4422025680541992,"140":-5.306220054626465,"141":-1.641418218612671,"142":1.7799116373062134,"143":-1.6214599609375,"144":-1.401774525642395,"145":1.6501734256744385,"146":-7.659682750701904,"147":8.16804313659668,"148":2.6277780532836914,"149":2.6912882328033447,"150":-3.123420238494873,"151":0.4037509560585022,"152":-5.323177337646484,"153":2.095475912094116,"154":-3.672966718673706,"155":-1.9073487520217896,"156":27.444799423217773,"157":-22.80303382873535,"158":18.05699920654297,"159":-6.5626373291015625,"160":-9.052712440490723,"161":-33.062870025634766,"162":9.942445755004883,"163":-5.496884346008301,"164":2.940990447998047,"165":-8.364575386047363,"166":12.19654655456543,"167":-24.910951614379883,"168":14.660073280334473,"169":-2.4120311737060547,"170":-0.7420889735221863,"171":-5.075847148895264,"172":12.694929122924805,"173":4.12232780456543,"174":-10.937030792236328,"175":-20.78605842590332,"176":14.968338966369629,"177":-10.679723739624023,"178":21.340791702270508,"179":8.813430786132812,"180":-7.743432998657227,"181":-1.624218463897705,"182":11.806394577026367,"183":13.940672874450684,"184":7.339226722717285,"185":-27.7552433013916,"186":0.9732896089553833,"187":-5.775636672973633,"188":2.8673019409179688,"189":10.525264739990234,"190":1.452836513519287,"191":-3.941985607147217,"192":12.860841751098633,"193":3.19227933883667,"194":-1.6146610975265503,"195":-9.882567405700684,"196":-2.8097898960113525,"197":3.5244760513305664,"198":1.6325918436050415,"199":-9.073308944702148,"200":-5.976962566375732,"201":1.7429580688476562,"202":0.7575229406356812,"203":6.243858814239502,"204":-5.824163913726807,"205":2.7481374740600586,"206":0.6074827313423157,"207":1.1789087057113647,"208":2.710031270980835,"209":7.811063766479492,"210":5.012811660766602,"211":-0.04127064347267151,"212":0.022743629291653633,"213":-1.795382022857666,"214":-9.834185600280762,"215":4.03609561920166,"216":9.565503120422363,"217":1.1911756992340088,"218":-14.471895217895508,"219":2.0132341384887695,"220":-9.474530220031738,"221":-0.10699843615293503,"222":4.405392646789551,"223":-3.116535186767578,"224":-2.6626250743865967,"225":1.2356398105621338,"226":0.4092666804790497,"227":-0.012543712742626667,"228":-3.2702271938323975,"229":-4.159056663513184,"230":-0.5755313634872437,"231":2.1316187381744385,"232":1.077688455581665,"233":2.2738146781921387,"234":2.3446342945098877,"235":2.206249237060547,"236":-1.7916417121887207,"237":-5.593296527862549,"238":-1.9048418998718262,"239":0.41683632135391235,"240":-0.5779944658279419,"241":0.961543083190918,"242":3.833906650543213,"243":3.9558136463165283,"244":-5.821634769439697,"245":5.173882961273193,"246":1.0093209743499756,"247":-6.551608562469482,"248":-1.0092926025390625,"249":10.725080490112305,"250":-0.12786342203617096,"251":4.051438808441162,"252":-2.7650160789489746,"253":15.533004760742188,"254":-0.6931196451187134,"255":-1.2937833070755005,"256":-0.11780818551778793,"257":2.1988797187805176,"258":-6.036496162414551,"259":-5.957374572753906,"260":-1.7745033502578735,"261":-0.0762886106967926,"262":-0.6952861547470093,"263":4.511097431182861,"264":-3.4185569286346436,"265":5.908248424530029,"266":5.483351230621338,"267":-4.278731822967529,"268":-13.160300254821777,"269":-0.10287151485681534,"270":-17.583988189697266,"271":2.6046316623687744,"272":-1.7657501697540283,"273":5.838766098022461,"274":-6.328618049621582,"275":-0.08140987902879715,"276":1.9334566593170166,"277":-10.075294494628906,"278":-0.5544115304946899,"279":-7.408821105957031,"280":-6.582111835479736,"281":-10.626117706298828,"282":10.335166931152344,"283":-0.6059413552284241,"284":0.9207121133804321,"285":-2.9988150596618652,"286":-0.4630946218967438,"287":5.692343711853027,"288":0.26509881019592285,"289":-10.129298210144043,"290":2.688981771469116,"291":12.6563138961792,"292":8.956915855407715,"293":1.275282382965088,"294":-0.5060408711433411,"295":-0.48478904366493225,"296":-14.170343399047852,"297":-8.532197952270508,"298":-2.110722541809082,"299":0.021601492539048195,"300":-4.772611618041992,"301":8.80134391784668,"302":-8.088159561157227,"303":4.373937129974365,"304":-2.3537604808807373,"305":-10.948634147644043,"306":8.908639907836914,"307":0.7770445346832275,"308":-1.941353678703308,"309":0.7504479885101318,"310":-8.372977256774902,"311":-0.07696814090013504,"312":3.0818252563476562,"313":5.349257469177246,"314":-2.9063706398010254,"315":1.1506630182266235,"316":2.445890426635742,"317":1.4915533065795898,"318":-4.034737586975098,"319":2.730696439743042,"320":4.038891792297363,"321":4.621872901916504,"322":4.11994743347168,"323":1.7988263368606567,"324":3.7356748580932617,"325":-1.2587559223175049,"326":-0.3337514400482178,"327":2.8755927085876465,"328":-0.548857569694519,"329":6.106191635131836,"330":5.135077476501465,"331":8.361809730529785,"332":-3.5859932899475098,"333":15.494328498840332,"334":-3.230337381362915,"335":-1.8018944263458252,"336":-0.9489137530326843,"337":-3.697611093521118,"338":2.4492318630218506,"339":0.7397803664207458,"340":-0.7627481818199158,"341":7.433132171630859,"342":2.8440868854522705,"343":-7.824646949768066,"344":1.1360915899276733,"345":6.011186122894287,"346":0.29093244671821594,"347":-2.1088311672210693,"348":-7.868741989135742,"349":-4.184743881225586,"350":-0.6664130091667175,"351":-1.283976435661316,"352":4.101166725158691,"353":-1.7363741397857666,"354":-8.502527236938477,"355":-0.6709827184677124,"356":1.3025497198104858,"357":3.143049955368042,"358":-1.5631791353225708,"359":-1.9448060989379883,"360":-3.647702217102051,"361":-6.069557189941406,"362":-4.854851722717285,"363":6.214277744293213,"364":-9.711057662963867,"365":-1.274753451347351,"366":1.6391100883483887,"367":-0.6916468143463135,"368":-3.891662120819092,"369":-4.219703197479248,"370":3.6863722801208496,"371":-0.9364684820175171,"372":-8.269840240478516,"373":-8.918678283691406,"374":6.442684650421143,"375":6.578209400177002,"376":4.604274272918701,"377":-4.848090648651123,"378":9.866606712341309,"379":1.5534876585006714,"380":3.1387734413146973,"381":-2.240220546722412,"382":0.6391063928604126,"383":2.2019171714782715,"384":5.063451290130615,"385":-4.7891740798950195,"386":5.353885173797607,"387":-0.2681959271430969,"388":5.307895660400391,"389":4.987796783447266,"390":-1.8974506855010986,"391":1.3774210214614868,"392":-2.6217262744903564,"393":5.55916690826416,"394":-3.4981436729431152,"395":5.262539386749268,"396":-2.899905204772949,"397":2.463151454925537,"398":5.555563926696777,"399":-6.134965896606445,"400":-4.871876239776611,"401":-4.695268630981445,"402":1.5720237493515015,"403":5.1252031326293945,"404":-0.25027310848236084,"405":2.009876251220703,"406":0.17562079429626465,"407":-8.121973991394043,"408":5.330777645111084,"409":5.000171184539795,"410":-1.4842151403427124,"411":3.262554168701172,"412":-0.6830206513404846,"413":4.435539245605469,"414":-0.19449622929096222,"415":0.03172857686877251,"416":-3.121312141418457,"417":-1.8054815530776978,"418":-0.4642556309700012,"419":0.29141533374786377,"420":-0.09730120003223419,"421":0.6588518023490906,"422":1.8565945625305176,"423":-5.224961757659912,"424":-6.541872978210449,"425":0.1264956146478653,"426":-1.826288104057312,"427":5.655277729034424,"428":0.10124098509550095,"429":2.521230697631836,"430":-6.647103309631348,"431":-1.5056096315383911,"432":1.3508740663528442,"433":1.4372109174728394,"434":3.5804460048675537,"435":-2.867440700531006,"436":15.388628005981445,"437":7.456501007080078,"438":-3.7681081295013428,"439":-5.855619430541992,"440":-2.1906604766845703,"441":-25.170455932617188,"442":-13.365835189819336,"443":-2.784040689468384,"444":-6.993178844451904,"445":-4.635457515716553,"446":-10.016310691833496,"447":-2.626896619796753,"448":13.768681526184082,"449":1.3536255359649658,"450":5.009329319000244,"451":-5.473667621612549,"452":-4.133890628814697,"453":6.914752006530762,"454":-5.863766193389893,"455":5.613725662231445,"456":-13.582035064697266,"457":6.972186088562012,"458":1.5696203708648682,"459":-1.7918603420257568,"460":4.8785905838012695,"461":-14.258485794067383,"462":-7.436130523681641,"463":3.789381504058838,"464":14.780013084411621,"465":-5.402322292327881,"466":0.8233675360679626,"467":-3.603595018386841,"468":-3.100674629211426,"469":11.110760688781738,"470":-1.4060802459716797,"471":2.8013930320739746,"472":5.506429672241211,"473":9.346065521240234,"474":-0.06282347440719604,"475":-1.0131397247314453,"476":-11.221732139587402,"477":5.799294948577881,"478":4.636319637298584,"479":-5.93782901763916,"480":3.742504596710205,"481":1.2310808897018433,"482":-1.9226329326629639,"483":-10.919966697692871,"484":-8.394323348999023,"485":-5.054194450378418,"486":-1.550968885421753,"487":4.73380184173584,"488":2.709770679473877,"489":-0.9975331425666809,"490":-8.857739448547363,"491":-5.654900550842285,"492":1.4758293628692627,"493":-8.991874694824219,"494":-0.27027663588523865,"495":-0.24649444222450256,"496":-2.4643115997314453,"497":7.790306568145752,"498":0.1720290184020996,"499":6.784628391265869,"500":-7.846540451049805,"501":-5.307390213012695,"502":9.025120735168457,"503":-3.6326704025268555,"504":3.122157573699951,"505":-5.719573020935059,"506":11.181114196777344,"507":-6.015567302703857,"508":-3.45316481590271,"509":-5.735463619232178,"510":-2.7047433853149414,"511":-0.9862162470817566,"512":-3.764906406402588,"513":-1.6839975118637085,"514":1.5786868333816528,"515":-1.6768537759780884,"516":3.761634349822998,"517":-0.13106179237365723,"518":2.287032127380371,"519":0.14203034341335297,"520":3.1578385829925537,"521":-7.478243350982666,"522":-8.510645866394043,"523":-2.7225046157836914,"524":-2.5899336338043213,"525":1.7368594408035278,"526":-1.3450169563293457,"527":1.3365027904510498,"528":-1.2556352615356445,"529":5.209041118621826,"530":7.696704864501953,"531":-3.5697638988494873,"532":3.770103931427002,"533":11.027256965637207,"534":8.639922142028809,"535":-2.0621109008789062,"536":-6.6166863441467285,"537":-7.79959774017334,"538":-0.4542545676231384,"539":6.881671905517578,"540":-4.456192493438721,"541":1.624633550643921,"542":2.937967300415039,"543":6.532101154327393,"544":-8.081969261169434,"545":5.170042037963867,"546":-3.5559041500091553,"547":-8.384333610534668,"548":-1.311591386795044,"549":0.1185631975531578,"550":-4.396347522735596,"551":1.015541672706604,"552":-2.460482120513916,"553":7.646566390991211,"554":4.830322742462158,"555":-2.9252912998199463,"556":-4.508955001831055,"557":3.235032081604004,"558":44.03681182861328,"559":12.952420234680176,"560":22.884702682495117,"561":-32.82209777832031,"562":-7.750979423522949,"563":-16.33422088623047,"564":35.75053787231445,"565":0.5493047833442688,"566":-0.15128527581691742,"567":19.764144897460938,"568":9.68287467956543,"569":-7.165835857391357,"570":33.395511627197266,"571":-62.1169319152832,"572":14.355942726135254,"573":-43.643898010253906,"574":6.802980899810791,"575":-48.95587921142578,"576":26.470691680908203,"577":-8.49504280090332,"578":-9.009252548217773,"579":-32.911800384521484,"580":-4.9122314453125,"581":-25.33606719970703,"582":8.494723320007324,"583":-10.163938522338867,"584":-7.3630218505859375,"585":9.90040111541748,"586":8.390495300292969,"587":-15.135957717895508,"588":-16.954607009887695,"589":-7.823453903198242,"590":-7.67972993850708,"591":-0.7420280575752258,"592":0.05868193134665489,"593":3.508434295654297,"594":-2.7913973331451416,"595":0.07419385761022568,"596":-2.2083475589752197,"597":-5.54195499420166,"598":2.4627556800842285,"599":-0.16555698215961456,"600":4.597855091094971,"601":0.13292966783046722,"602":-0.8185796737670898,"603":0.026296090334653854,"604":0.2912207543849945,"605":3.7697064876556396,"606":-0.3323328495025635,"607":1.2852777242660522,"608":0.8114407658576965,"609":-2.9216105937957764,"610":0.6042398810386658,"611":-4.443476676940918,"612":9.50058650970459,"613":-3.2442831993103027,"614":5.204774856567383,"615":2.010152578353882,"616":-8.856486320495605,"617":4.128982067108154,"618":-1.4741952419281006,"619":-2.7802319526672363,"620":10.05096435546875,"621":-0.5201103091239929,"622":2.884526491165161,"623":-1.4271489381790161,"624":-0.7268980145454407,"625":4.418073654174805,"626":-8.827397346496582,"627":-11.653776168823242,"628":-6.370617389678955,"629":9.119918823242188,"630":-10.526382446289062,"631":-7.297887325286865,"632":0.5874037742614746,"633":-1.582495927810669,"634":9.681167602539062,"635":-0.006338467355817556,"636":10.005938529968262,"637":-7.738495826721191,"638":5.1978068351745605,"639":-0.24690578877925873,"640":6.243875026702881,"641":1.8516172170639038,"642":-3.997227191925049,"643":-12.953068733215332,"644":-10.051612854003906,"645":-1.6785383224487305,"646":2.9793589115142822,"647":-8.21737003326416,"648":-1.4514578580856323,"649":-9.844561576843262,"650":6.532489776611328,"651":-6.595030784606934,"652":-4.371237754821777,"653":22.435510635375977,"654":3.8188047409057617,"655":15.022224426269531,"656":1.9513019323349,"657":6.187855243682861,"658":-10.515002250671387,"659":-1.0212119817733765,"660":-5.187413215637207,"661":3.455127000808716,"662":10.825634956359863,"663":12.56371784210205,"664":-12.869173049926758,"665":12.619647026062012,"666":-16.388160705566406,"667":-12.480225563049316,"668":-1.1996328830718994,"669":6.395506858825684,"670":12.83364200592041,"671":17.781879425048828,"672":3.667917251586914,"673":-5.8250603675842285,"674":13.069099426269531,"675":-5.664223670959473,"676":0.36166781187057495,"677":-6.581622123718262,"678":-4.607433319091797,"679":-18.83369255065918,"680":21.586374282836914,"681":-9.662412643432617,"682":-1.772902250289917,"683":3.060345411300659,"684":-4.992969512939453,"685":-5.8982367515563965,"686":-7.441962718963623,"687":-9.192423820495605,"688":-10.807374954223633,"689":-10.573598861694336,"690":-5.626571178436279,"691":6.681650161743164,"692":-2.0169076919555664,"693":-7.546987533569336,"694":1.7517921924591064,"695":0.5190829038619995,"696":-16.949203491210938,"697":2.4729676246643066,"698":13.474555015563965,"699":0.01241297647356987,"700":1.4173623323440552,"701":6.582744598388672,"702":-2.703005075454712,"703":2.3850860595703125,"704":0.40861839056015015,"705":-16.901288986206055,"706":3.37162709236145,"707":-2.9288389682769775,"708":-2.8031225204467773,"709":1.514770746231079,"710":-4.859918117523193,"711":3.9350497722625732,"712":-6.588253021240234,"713":-1.8629168272018433,"714":6.4411516189575195,"715":2.194279909133911,"716":-2.0404436588287354,"717":-3.762629747390747,"718":-2.255488634109497,"719":-1.3502146005630493,"720":-6.427051544189453,"721":-1.581645131111145,"722":1.4768602848052979,"723":-12.790304183959961,"724":4.4338884353637695,"725":-3.5790579319000244,"726":5.703738689422607,"727":7.039459705352783,"728":9.772428512573242,"729":0.18181902170181274,"730":5.128129482269287,"731":-7.144982814788818,"732":-7.873457908630371,"733":-3.456393003463745,"734":8.719137191772461,"735":-4.478687763214111,"736":3.149867534637451,"737":-6.779376983642578,"738":3.9622013568878174,"739":1.3702983856201172,"740":5.404077529907227,"741":7.630981922149658,"742":-2.237206220626831,"743":1.8552123308181763,"744":-1.2324504852294922,"745":2.1782991886138916,"746":7.419888019561768,"747":-0.019069796428084373,"748":0.8814536333084106,"749":9.244661331176758,"750":0.46847185492515564,"751":4.927140712738037,"752":-0.9194808006286621,"753":-5.3711090087890625,"754":-2.170285224914551,"755":1.7970556020736694,"756":-0.24141108989715576,"757":-12.81602954864502,"758":-0.26922184228897095,"759":3.184128761291504,"760":5.157942771911621,"761":0.4857453405857086,"762":3.6102213859558105,"763":1.462597131729126,"764":-0.3124723732471466,"765":2.2133800983428955,"766":-2.7931361198425293,"767":0.17980800569057465,"768":-2.319471836090088,"769":0.6090092062950134,"770":-4.227859973907471,"771":-9.583069801330566,"772":0.48070552945137024,"773":-0.7917736172676086,"774":5.946951389312744,"775":4.382209300994873,"776":-11.166089057922363,"777":0.7112910747528076,"778":7.985391616821289,"779":-2.5858874320983887,"780":6.330398082733154,"781":3.6553568840026855,"782":3.942523717880249,"783":0.39402854442596436,"784":-2.803161859512329,"785":10.975282669067383,"786":-3.452152729034424,"787":-5.122852325439453,"788":2.443209171295166,"789":-2.6426281929016113,"790":-0.25692543387413025,"791":-6.667989730834961,"792":12.004166603088379,"793":-1.613024115562439,"794":10.499545097351074,"795":-11.9524564743042,"796":0.17901837825775146,"797":4.133462429046631,"798":7.6947455406188965,"799":-6.646961212158203,"800":2.335122585296631,"801":-9.801236152648926,"802":-1.5931696891784668,"803":-5.312585830688477,"804":1.5579588413238525,"805":0.6282042264938354,"806":0.8672958016395569,"807":2.8327853679656982,"808":-1.696677327156067,"809":-2.8788328170776367,"810":-11.023962020874023,"811":2.2342190742492676,"812":-6.461543560028076,"813":-5.821102619171143,"814":-6.300534248352051,"815":2.6112260818481445,"816":9.267860412597656,"817":2.088482618331909,"818":1.2315574884414673,"819":-0.8438711166381836,"820":-1.7015243768692017,"821":-5.9186015129089355,"822":6.204960346221924,"823":7.215017795562744,"824":8.085755348205566,"825":-0.05449123680591583,"826":-0.5379932522773743,"827":-12.736727714538574,"828":-4.571681499481201,"829":-1.6975955963134766,"830":2.4792888164520264,"831":5.3591461181640625,"832":1.6313083171844482,"833":-5.608266830444336,"834":-12.527263641357422,"835":4.519535541534424,"836":0.370307594537735,"837":-1.6287187337875366,"838":-0.3893040418624878,"839":5.088646411895752,"840":-2.6787333488464355,"841":11.095025062561035,"842":-4.86962366104126,"843":2.8337790966033936,"844":-4.271012783050537,"845":11.845726013183594,"846":-13.67105484008789,"847":-10.658669471740723,"848":-0.7662839293479919,"849":-1.3480191230773926,"850":-1.4108697175979614,"851":0.09932990372180939,"852":-9.94059944152832,"853":-3.3931825160980225,"854":0.7394465804100037,"855":-9.448265075683594,"856":0.41780567169189453,"857":-15.518837928771973,"858":6.161027908325195,"859":6.109513759613037,"860":4.175776481628418,"861":3.6908934116363525,"862":-2.2544610500335693,"863":-8.685742378234863,"864":3.6935369968414307,"865":5.726197242736816,"866":-5.719073295593262,"867":-6.810222625732422,"868":0.24418781697750092,"869":2.207261323928833,"870":-12.971118927001953,"871":-5.008085250854492,"872":2.085880756378174,"873":-2.5667076110839844,"874":0.0066207405179739,"875":-2.8934757709503174,"876":1.7227423191070557,"877":17.53757667541504,"878":2.000474214553833,"879":-14.160798072814941,"880":-4.994670867919922,"881":2.074496269226074,"882":6.84433650970459,"883":-7.454397201538086,"884":2.9702863693237305,"885":-1.9395874738693237,"886":7.062730312347412,"887":-0.2693861722946167,"888":0.4135746955871582,"889":-6.040358066558838,"890":-3.169729471206665,"891":6.030365943908691,"892":1.8358572721481323,"893":-2.21433162689209,"894":6.679271697998047,"895":-7.682584285736084,"896":-0.6677901744842529,"897":-0.16815489530563354,"898":11.466287612915039,"899":-14.46311092376709,"900":7.718961715698242,"901":1.0673537254333496,"902":-0.643876850605011,"903":-13.871541023254395,"904":2.6153485774993896,"905":-4.0487380027771,"906":0.8996357917785645,"907":-3.731043577194214,"908":-2.4533822536468506,"909":7.0335774421691895,"910":-8.364657402038574,"911":-2.253316640853882,"912":19.131153106689453,"913":9.258772850036621,"914":12.246729850769043,"915":-6.5418620109558105,"916":0.34195026755332947,"917":-1.3007782697677612,"918":5.631511211395264,"919":26.058507919311523,"920":-12.111714363098145,"921":1.3077878952026367,"922":-8.112895965576172,"923":-12.157135009765625,"924":-6.587493896484375,"925":7.332169532775879,"926":1.9226895570755005,"927":-13.078217506408691,"928":-2.4811370372772217,"929":-6.389876365661621,"930":0.2617083489894867,"931":12.1347017288208,"932":-5.519482612609863,"933":-8.479612350463867,"934":15.610577583312988,"935":-11.567830085754395,"936":0.0649317279458046,"937":-0.16744880378246307,"938":4.500565052032471,"939":-1.546791434288025,"940":6.57524299621582,"941":-11.679756164550781,"942":11.384607315063477,"943":4.575966835021973,"944":5.93130350112915,"945":-5.171223163604736,"946":-2.5791139602661133,"947":0.13792480528354645,"948":11.750548362731934,"949":-22.458702087402344,"950":22.175310134887695,"951":-8.976836204528809,"952":3.4061038494110107,"953":16.056344985961914,"954":-10.861957550048828,"955":15.828704833984375,"956":4.297800540924072,"957":5.684800624847412,"958":-1.0019361972808838,"959":-6.05940580368042,"960":1.7270725965499878,"961":-4.433671474456787,"962":8.971352577209473,"963":0.1851029396057129,"964":0.2011382281780243,"965":2.031064987182617,"966":8.832480430603027,"967":0.3189454674720764,"968":1.841392159461975,"969":0.7658130526542664,"970":2.7369189262390137,"971":2.110374689102173,"972":0.20200443267822266,"973":-3.796987295150757,"974":0.41787585616111755,"975":-0.7766031622886658,"976":0.3933568298816681,"977":0.8180112838745117,"978":2.0983383655548096,"979":4.80349063873291,"980":-0.21563392877578735,"981":4.244463920593262,"982":1.0973175764083862,"983":-5.666099548339844,"984":-2.827338933944702,"985":-3.705159902572632,"986":7.941615581512451,"987":6.240743160247803,"988":-0.5942167639732361,"989":3.845959424972534,"990":-8.811781883239746,"991":4.1527605056762695}},"hiddenLayers":[{"inputMatrix":{"rows":20,"columns":31,"weights":{"0":1.6187973022460938,"1":6.1300129890441895,"2":-4.0828328132629395,"3":1.0433707237243652,"4":1.0660823583602905,"5":2.5038387775421143,"6":3.6181020736694336,"7":-3.143778085708618,"8":-5.3322553634643555,"9":3.5864555835723877,"10":1.2033891677856445,"11":-0.39872419834136963,"12":0.1955455094575882,"13":-5.060333728790283,"14":2.949760913848877,"15":1.0903652906417847,"16":-1.687542200088501,"17":-1.7162392139434814,"18":4.90850305557251,"19":-0.3861984312534332,"20":-0.14154735207557678,"21":-1.548026204109192,"22":1.1254392862319946,"23":-1.3893282413482666,"24":0.48479849100112915,"25":0.9262912273406982,"26":2.0635006427764893,"27":0.5300594568252563,"28":-3.9034831523895264,"29":1.0988086462020874,"30":4.565189838409424,"31":-0.2802133858203888,"32":2.282309055328369,"33":2.831373929977417,"34":-5.268570899963379,"35":1.2696115970611572,"36":-2.485668182373047,"37":-4.637118339538574,"38":-0.16236509382724762,"39":-3.1508681774139404,"40":3.990804433822632,"41":-0.6811619997024536,"42":-2.825530529022217,"43":-0.39629215002059937,"44":0.7567121982574463,"45":3.152892589569092,"46":-3.284388542175293,"47":-1.9628009796142578,"48":1.5795562267303467,"49":1.5957133769989014,"50":-0.7128423452377319,"51":-3.8723065853118896,"52":1.7882566452026367,"53":-0.4832817316055298,"54":-4.002054691314697,"55":-1.2301408052444458,"56":-3.5159218311309814,"57":0.051263950765132904,"58":0.08981551975011826,"59":-2.2268857955932617,"60":1.4664274454116821,"61":-0.6832150220870972,"62":-4.2335710525512695,"63":1.0724085569381714,"64":-1.4978177547454834,"65":-5.438403606414795,"66":-6.348245143890381,"67":1.3385921716690063,"68":-1.608826994895935,"69":-4.281270503997803,"70":-0.5465702414512634,"71":-5.16369104385376,"72":0.7810503244400024,"73":2.7101058959960938,"74":-3.104525566101074,"75":3.425276517868042,"76":1.1176728010177612,"77":3.494112730026245,"78":-0.5739924907684326,"79":-2.3881795406341553,"80":0.6351606845855713,"81":0.6813625693321228,"82":-2.03924822807312,"83":-1.7948859930038452,"84":0.5144641399383545,"85":1.5290956497192383,"86":3.8671481609344482,"87":-3.76877760887146,"88":-4.726279258728027,"89":-0.5210145711898804,"90":0.718482255935669,"91":-1.4327523708343506,"92":-2.5293610095977783,"93":2.3948280811309814,"94":0.8518471717834473,"95":-1.5462894439697266,"96":0.13779015839099884,"97":4.16813325881958,"98":1.2395472526550293,"99":4.272208213806152,"100":-0.9987973570823669,"101":1.4782570600509644,"102":-1.5900921821594238,"103":-2.47776460647583,"104":-4.253725528717041,"105":0.7219483256340027,"106":-1.8265138864517212,"107":0.9832807183265686,"108":2.4599368572235107,"109":-1.4835739135742188,"110":0.9472885131835938,"111":2.4338080883026123,"112":2.1069602966308594,"113":-0.15460175275802612,"114":-0.08089632540941238,"115":-3.951348066329956,"116":1.7906339168548584,"117":1.157142162322998,"118":1.8373461961746216,"119":0.6330004334449768,"120":1.1153228282928467,"121":0.07505267858505249,"122":-2.3636531829833984,"123":3.7631664276123047,"124":-1.431079626083374,"125":1.4453610181808472,"126":-3.2043137550354004,"127":-3.033459186553955,"128":-5.645838737487793,"129":1.4431222677230835,"130":0.027764884755015373,"131":-3.413487672805786,"132":-3.401360034942627,"133":-3.8717565536499023,"134":3.360187530517578,"135":-6.334778308868408,"136":-1.9060873985290527,"137":3.9117727279663086,"138":3.134305000305176,"139":-1.396148920059204,"140":-3.751202344894409,"141":1.3971505165100098,"142":0.9553120732307434,"143":-1.4334856271743774,"144":-1.4763519763946533,"145":-1.523766279220581,"146":1.0879309177398682,"147":0.8360029458999634,"148":-0.8717278242111206,"149":2.5808615684509277,"150":-1.7463719844818115,"151":5.177371501922607,"152":3.895667552947998,"153":0.1639588624238968,"154":0.4701177477836609,"155":7.66486930847168,"156":-2.3090920448303223,"157":1.9300144910812378,"158":0.5844504237174988,"159":-5.0274271965026855,"160":-0.0674290657043457,"161":-8.736802101135254,"162":0.26962849497795105,"163":3.349118232727051,"164":5.408714294433594,"165":-0.7423056960105896,"166":-0.9954505562782288,"167":6.1964898109436035,"168":-1.0213998556137085,"169":0.3744421601295471,"170":0.3231651186943054,"171":-1.674247145652771,"172":-2.917921781539917,"173":1.4696767330169678,"174":-0.6634151935577393,"175":-2.807631731033325,"176":-6.671170234680176,"177":-1.7232286930084229,"178":-0.17156609892845154,"179":0.9066553115844727,"180":1.8333741426467896,"181":5.161493301391602,"182":-0.3438662588596344,"183":-1.3035918474197388,"184":2.088749647140503,"185":-0.6546582579612732,"186":3.8373260498046875,"187":7.933016777038574,"188":-1.0711703300476074,"189":2.4065146446228027,"190":1.7429088354110718,"191":1.5672798156738281,"192":0.8356670141220093,"193":8.314387321472168,"194":1.572906732559204,"195":5.252299785614014,"196":1.391371488571167,"197":-6.575786590576172,"198":4.599170684814453,"199":-4.896844387054443,"200":-2.6219749450683594,"201":-3.260753631591797,"202":-1.3252156972885132,"203":-3.812638521194458,"204":-5.194007396697998,"205":3.0925405025482178,"206":-6.629417419433594,"207":1.56322181224823,"208":0.9498911499977112,"209":-3.0863285064697266,"210":2.925886631011963,"211":3.2993733882904053,"212":-4.340696334838867,"213":-3.1402087211608887,"214":-3.2901699542999268,"215":-2.558251142501831,"216":1.0043280124664307,"217":5.353085517883301,"218":2.264242172241211,"219":4.518989562988281,"220":0.35972416400909424,"221":6.761037349700928,"222":-4.955192565917969,"223":2.0310797691345215,"224":-3.930367946624756,"225":1.9537569284439087,"226":-6.843755722045898,"227":0.03678714483976364,"228":-0.23308806121349335,"229":0.9573701620101929,"230":-2.229625940322876,"231":-8.62696361541748,"232":1.5091890096664429,"233":-0.776299774646759,"234":0.4998149573802948,"235":-3.3734853267669678,"236":2.5947511196136475,"237":-0.7316162586212158,"238":-3.941483497619629,"239":-4.466663360595703,"240":-1.762282133102417,"241":4.132911205291748,"242":-3.4502415657043457,"243":0.22441746294498444,"244":0.24174189567565918,"245":-1.8287508487701416,"246":-5.530313014984131,"247":-2.951748847961426,"248":0.11680623888969421,"249":-0.3175205886363983,"250":3.9310686588287354,"251":1.7617055177688599,"252":-1.4042913913726807,"253":0.3615241050720215,"254":-9.88897705078125,"255":-0.4386204779148102,"256":2.6174046993255615,"257":6.180886745452881,"258":-0.17984190583229065,"259":1.1435716152191162,"260":2.0020365715026855,"261":3.529803514480591,"262":10.064838409423828,"263":-3.9704782962799072,"264":0.4292518198490143,"265":-0.9215243458747864,"266":1.341793417930603,"267":0.37042537331581116,"268":4.389720916748047,"269":3.1420223712921143,"270":-2.8914976119995117,"271":4.7241291999816895,"272":0.3741903305053711,"273":-1.974987506866455,"274":3.570600748062134,"275":-1.6236186027526855,"276":-2.180366277694702,"277":5.744562149047852,"278":8.44943904876709,"279":9.303779602050781,"280":0.8795890212059021,"281":-2.1971919536590576,"282":-7.319403171539307,"283":-1.7111581563949585,"284":3.4663238525390625,"285":5.043242454528809,"286":-4.067076683044434,"287":-4.159635543823242,"288":-1.4299980401992798,"289":-2.6442487239837646,"290":-13.96968936920166,"291":-1.3457649946212769,"292":-3.6786861419677734,"293":-5.212125778198242,"294":-2.8384852409362793,"295":-6.930336952209473,"296":-0.3445279598236084,"297":3.7884488105773926,"298":-3.6205599308013916,"299":-4.7517547607421875,"300":-3.867619514465332,"301":3.6934125423431396,"302":-0.5769839882850647,"303":1.3451528549194336,"304":3.6054866313934326,"305":-2.6753759384155273,"306":5.950296401977539,"307":0.5427045226097107,"308":-13.582499504089355,"309":-0.6328728795051575,"310":6.787194728851318,"311":-1.0995272397994995,"312":4.193112850189209,"313":5.256953239440918,"314":3.194700002670288,"315":-0.6141335964202881,"316":-0.47559884190559387,"317":-1.347981572151184,"318":0.24888542294502258,"319":0.07712956517934799,"320":-2.2397568225860596,"321":-5.969213008880615,"322":3.930448532104492,"323":-7.213688373565674,"324":-7.290846347808838,"325":-1.6170039176940918,"326":0.4445272982120514,"327":2.7403066158294678,"328":3.1891376972198486,"329":-1.4535882472991943,"330":-1.2556893825531006,"331":0.7541463375091553,"332":-3.738340377807617,"333":2.9977729320526123,"334":3.5219221115112305,"335":2.9906227588653564,"336":2.3238890171051025,"337":-1.315162181854248,"338":-0.41616642475128174,"339":-1.7208263874053955,"340":2.543217182159424,"341":-6.436639785766602,"342":3.2318294048309326,"343":-4.713395118713379,"344":-1.4099094867706299,"345":0.4891526997089386,"346":-1.9842323064804077,"347":-0.8839238286018372,"348":1.7596861124038696,"349":1.7841236591339111,"350":2.2030463218688965,"351":1.5598671436309814,"352":-0.31463199853897095,"353":-0.6617367267608643,"354":7.644832611083984,"355":3.1147801876068115,"356":4.181384563446045,"357":-1.2210410833358765,"358":0.32646888494491577,"359":-1.033280611038208,"360":-1.2421785593032837,"361":-0.964405357837677,"362":-1.0246959924697876,"363":0.4750322997570038,"364":3.735515832901001,"365":3.2063968181610107,"366":2.3513736724853516,"367":0.6680554151535034,"368":0.3246117830276489,"369":0.9281003475189209,"370":0.07128091901540756,"371":2.8965046405792236,"372":-1.334396481513977,"373":0.4150400757789612,"374":-1.1804413795471191,"375":-1.1748249530792236,"376":-1.8934255838394165,"377":3.900852680206299,"378":-2.669938564300537,"379":-1.2872263193130493,"380":1.7372814416885376,"381":2.3510847091674805,"382":2.9889941215515137,"383":-0.3066070079803467,"384":0.20951515436172485,"385":-1.7010502815246582,"386":-0.5557683110237122,"387":0.6470689177513123,"388":-0.34999880194664,"389":-2.217015266418457,"390":-5.3751444816589355,"391":-1.296635389328003,"392":3.582575798034668,"393":-1.7851217985153198,"394":0.290771484375,"395":2.8539178371429443,"396":-0.6659290194511414,"397":-0.34592628479003906,"398":-0.8396288752555847,"399":-1.5199024677276611,"400":1.5461171865463257,"401":-6.245328426361084,"402":1.181627631187439,"403":1.9586663246154785,"404":1.130908727645874,"405":-2.8080031871795654,"406":6.27756404876709,"407":-1.4438897371292114,"408":1.5283735990524292,"409":-1.4138659238815308,"410":0.609744668006897,"411":1.2889336347579956,"412":1.5956474542617798,"413":-0.8684856295585632,"414":5.400314807891846,"415":1.521540641784668,"416":-1.360830545425415,"417":1.4104876518249512,"418":1.3792270421981812,"419":-4.86075496673584,"420":-2.6457948684692383,"421":0.27688130736351013,"422":-0.10254316031932831,"423":2.9163687229156494,"424":-2.0228967666625977,"425":-0.0713854730129242,"426":-0.09190292656421661,"427":0.611615002155304,"428":-2.459533929824829,"429":-2.9793739318847656,"430":-1.6343837976455688,"431":-3.912989854812622,"432":5.046456336975098,"433":-0.4435124695301056,"434":-0.5288252830505371,"435":0.30111658573150635,"436":-2.2183961868286133,"437":0.786385178565979,"438":5.007230281829834,"439":6.874701976776123,"440":-1.1821755170822144,"441":0.4328874349594116,"442":5.906394958496094,"443":-2.9427242279052734,"444":-3.3068058490753174,"445":-4.229638576507568,"446":-0.6686619520187378,"447":0.4037250876426697,"448":0.34412944316864014,"449":-0.24600476026535034,"450":-1.618271827697754,"451":3.5653421878814697,"452":-3.192047119140625,"453":-0.25602665543556213,"454":-10.493219375610352,"455":-3.5290615558624268,"456":-1.3871374130249023,"457":3.735635757446289,"458":4.786876201629639,"459":0.4871836304664612,"460":0.1206442192196846,"461":-0.21579526364803314,"462":0.3933620750904083,"463":0.2860869765281677,"464":1.3519859313964844,"465":3.3837637901306152,"466":-0.8739314079284668,"467":1.2690184116363525,"468":-2.015235662460327,"469":1.4806396961212158,"470":2.01072359085083,"471":0.8340104818344116,"472":1.3697359561920166,"473":1.734492540359497,"474":2.2632319927215576,"475":2.88992977142334,"476":2.016942024230957,"477":2.5862441062927246,"478":0.4462112784385681,"479":-1.5361042022705078,"480":-2.3711507320404053,"481":-1.766486644744873,"482":-0.05335122346878052,"483":2.6974380016326904,"484":2.1110427379608154,"485":1.7627968788146973,"486":-0.7742995023727417,"487":2.089789867401123,"488":3.3585214614868164,"489":-1.4369477033615112,"490":1.7346583604812622,"491":0.527664303779602,"492":3.454700469970703,"493":6.296980857849121,"494":2.2554492950439453,"495":-3.275275230407715,"496":-2.2189199924468994,"497":-2.0223066806793213,"498":1.0150196552276611,"499":3.1377434730529785,"500":-2.4488484859466553,"501":-2.517909049987793,"502":1.933039903640747,"503":1.6732749938964844,"504":-1.2076466083526611,"505":1.4123502969741821,"506":-6.082788467407227,"507":-4.315608024597168,"508":1.55640709400177,"509":1.804250955581665,"510":-0.09493739902973175,"511":3.1849770545959473,"512":-3.7082717418670654,"513":-0.16242800652980804,"514":-4.099003791809082,"515":-4.839513778686523,"516":-6.517180919647217,"517":3.005768299102783,"518":-2.9201154708862305,"519":7.671360492706299,"520":1.2625051736831665,"521":2.183394193649292,"522":0.11116351932287216,"523":0.5311336517333984,"524":-0.4857502281665802,"525":0.8294585943222046,"526":4.205280303955078,"527":-1.8816248178482056,"528":6.703012466430664,"529":2.5520739555358887,"530":0.15492157638072968,"531":-1.019356369972229,"532":-4.155531406402588,"533":1.929543375968933,"534":3.332104444503784,"535":1.4534351825714111,"536":0.2136673927307129,"537":1.7141339778900146,"538":1.9471547603607178,"539":0.23675444722175598,"540":-0.821294367313385,"541":0.8274540305137634,"542":-3.6014273166656494,"543":-5.627511024475098,"544":4.457230567932129,"545":3.431980848312378,"546":-0.8837929964065552,"547":-0.5864622592926025,"548":6.836976528167725,"549":1.4871315956115723,"550":3.549818754196167,"551":-2.42919921875,"552":3.2433667182922363,"553":-3.1703624725341797,"554":2.9714744091033936,"555":3.7968451976776123,"556":0.4832901954650879,"557":3.5572447776794434,"558":8.57252025604248,"559":-0.5521648526191711,"560":-3.8169972896575928,"561":3.0876660346984863,"562":1.8104685544967651,"563":-5.0735907554626465,"564":0.4905374050140381,"565":0.046212196350097656,"566":0.20586736500263214,"567":-1.5912483930587769,"568":-0.7974827885627747,"569":0.16735786199569702,"570":-2.727327346801758,"571":0.4241997003555298,"572":-2.3604729175567627,"573":1.333727240562439,"574":0.1346830576658249,"575":-2.2823216915130615,"576":3.1955337524414062,"577":-1.37633216381073,"578":-2.4951741695404053,"579":-0.8738428950309753,"580":4.6958794593811035,"581":-0.08708623796701431,"582":2.120711088180542,"583":-1.4543352127075195,"584":-2.0219738483428955,"585":2.2958850860595703,"586":-1.7970730066299438,"587":1.7823145389556885,"588":4.424881458282471,"589":-1.5079866647720337,"590":1.176169991493225,"591":0.1604764312505722,"592":0.32088297605514526,"593":7.115545749664307,"594":-1.5213570594787598,"595":7.897629737854004,"596":1.0450754165649414,"597":0.5045991539955139,"598":-1.1098383665084839,"599":0.1861458122730255,"600":-8.403613090515137,"601":-0.22513774037361145,"602":2.3791463375091553,"603":-3.8877151012420654,"604":0.7145377397537231,"605":-3.06084942817688,"606":3.119288682937622,"607":0.6412622928619385,"608":1.8897453546524048,"609":-2.1420867443084717,"610":1.4905240535736084,"611":-1.4519981145858765,"612":0.3264971375465393,"613":0.4822385311126709,"614":-0.534053385257721,"615":-0.7176066040992737,"616":-2.5983283519744873,"617":3.459402084350586,"618":1.4678517580032349,"619":2.4081907272338867}},"inputHidden":{"rows":20,"columns":20,"weights":{"0":-0.51361083984375,"1":-2.8796603679656982,"2":9.250222206115723,"3":-0.6513994932174683,"4":13.920592308044434,"5":-0.695878267288208,"6":-1.1982717514038086,"7":-6.323246955871582,"8":5.708012580871582,"9":1.5985713005065918,"10":-1.323137640953064,"11":1.338843584060669,"12":-4.707479000091553,"13":-6.003503799438477,"14":-2.3143210411071777,"15":-6.494099140167236,"16":-0.7801758646965027,"17":-7.158408164978027,"18":-2.309983015060425,"19":-8.160385131835938,"20":-3.395418405532837,"21":-8.530364036560059,"22":13.149471282958984,"23":-1.4682421684265137,"24":0.9287418723106384,"25":6.284962177276611,"26":7.5764384269714355,"27":-16.37942886352539,"28":-12.498578071594238,"29":5.366297721862793,"30":-10.920353889465332,"31":-0.24175554513931274,"32":13.070633888244629,"33":-7.032562255859375,"34":1.4533907175064087,"35":-5.4919209480285645,"36":8.693614959716797,"37":-12.203947067260742,"38":8.175440788269043,"39":-11.073587417602539,"40":-6.980034828186035,"41":-4.627023220062256,"42":-0.42132657766342163,"43":1.7421867847442627,"44":-1.8769820928573608,"45":3.440321683883667,"46":-1.3753613233566284,"47":3.931727647781372,"48":13.861132621765137,"49":5.661745071411133,"50":-2.986131191253662,"51":7.135189056396484,"52":1.6343662738800049,"53":-0.5843673944473267,"54":3.260129451751709,"55":-2.3224539756774902,"56":-4.211691856384277,"57":3.0820534229278564,"58":18.536277770996094,"59":-12.688077926635742,"60":5.702696323394775,"61":-9.13365364074707,"62":-2.7014541625976562,"63":-1.3301572799682617,"64":7.190171241760254,"65":-2.697671413421631,"66":-1.3341633081436157,"67":-11.479202270507812,"68":-4.464748382568359,"69":-0.6018866896629333,"70":7.300652503967285,"71":-8.451571464538574,"72":-0.4493715763092041,"73":5.38266658782959,"74":-5.75125789642334,"75":1.4801863431930542,"76":-4.057826519012451,"77":0.852708101272583,"78":-3.7387990951538086,"79":3.3439648151397705,"80":0.9059497714042664,"81":4.076900959014893,"82":-1.720765233039856,"83":1.9486520290374756,"84":0.7284361720085144,"85":0.43872106075286865,"86":-1.509297251701355,"87":-8.590876579284668,"88":1.548732042312622,"89":-3.727022409439087,"90":-6.163545608520508,"91":-4.09769868850708,"92":7.438050270080566,"93":10.701165199279785,"94":-3.495640993118286,"95":-4.244065284729004,"96":8.157120704650879,"97":0.9756752252578735,"98":-4.752205848693848,"99":-5.149160861968994,"100":-0.2552673816680908,"101":-9.221138954162598,"102":-3.543983221054077,"103":-6.204195976257324,"104":2.9027392864227295,"105":-7.248250961303711,"106":-1.6957805156707764,"107":-10.502150535583496,"108":-5.096774101257324,"109":-10.346187591552734,"110":-9.912732124328613,"111":-1.1041570901870728,"112":9.300167083740234,"113":-0.17207695543766022,"114":-0.0826256051659584,"115":0.014365722425282001,"116":-7.852393627166748,"117":-2.7626965045928955,"118":-8.220846176147461,"119":0.11886753886938095,"120":-4.567102432250977,"121":-6.167287826538086,"122":-7.1789984703063965,"123":0.7571354508399963,"124":-5.433252811431885,"125":3.5379536151885986,"126":-0.3169792890548706,"127":-4.709155559539795,"128":4.406949043273926,"129":-4.870931148529053,"130":12.787298202514648,"131":0.32331883907318115,"132":2.0947072505950928,"133":13.83067798614502,"134":3.4460952281951904,"135":-2.9998624324798584,"136":-3.6576929092407227,"137":-0.6691334843635559,"138":-4.96586799621582,"139":2.712251663208008,"140":3.518472909927368,"141":4.609287261962891,"142":-16.853422164916992,"143":-1.9546712636947632,"144":6.523165225982666,"145":8.537168502807617,"146":-4.239048957824707,"147":-2.1594560146331787,"148":7.461768627166748,"149":5.290370464324951,"150":-5.394350528717041,"151":-5.793753147125244,"152":-6.127215385437012,"153":-2.940026044845581,"154":8.499058723449707,"155":-9.396716117858887,"156":-6.552803993225098,"157":-8.876728057861328,"158":-7.006950378417969,"159":4.643238067626953,"160":-3.5518195629119873,"161":-6.1786370277404785,"162":-1.2646355628967285,"163":10.680680274963379,"164":9.885784149169922,"165":6.870821475982666,"166":-6.768795013427734,"167":-9.307844161987305,"168":-20.246868133544922,"169":-0.30276209115982056,"170":-3.754863977432251,"171":-9.642504692077637,"172":-1.7900152206420898,"173":-4.327339172363281,"174":-2.662731885910034,"175":-11.515067100524902,"176":-6.79204797744751,"177":-8.705731391906738,"178":3.0575757026672363,"179":4.575408935546875,"180":6.242021560668945,"181":4.4843668937683105,"182":2.4107916355133057,"183":-20.5224666595459,"184":7.0888495445251465,"185":-14.160258293151855,"186":-12.136137962341309,"187":5.858304500579834,"188":2.8214313983917236,"189":12.262900352478027,"190":-6.187279224395752,"191":-1.2517277002334595,"192":-2.894315004348755,"193":0.2881840765476227,"194":-11.909995079040527,"195":3.154858112335205,"196":-2.535475969314575,"197":7.82526159286499,"198":-8.971399307250977,"199":-11.109320640563965,"200":5.908159255981445,"201":-3.6542975902557373,"202":14.513750076293945,"203":8.740612030029297,"204":7.524384021759033,"205":2.1527533531188965,"206":15.158976554870605,"207":4.139829635620117,"208":5.223922252655029,"209":-4.9420928955078125,"210":-7.758636951446533,"211":-10.123697280883789,"212":14.711333274841309,"213":5.099390506744385,"214":3.4605917930603027,"215":-7.1248040199279785,"216":2.2047359943389893,"217":1.0893688201904297,"218":-10.98800277709961,"219":-6.121913433074951,"220":-0.11180605739355087,"221":-2.099398374557495,"222":4.06829833984375,"223":2.8177549839019775,"224":-2.805938243865967,"225":-2.7416625022888184,"226":7.234373092651367,"227":4.122818470001221,"228":-8.681007385253906,"229":-3.53826904296875,"230":-3.923240900039673,"231":-2.8421883583068848,"232":-1.5962107181549072,"233":-3.8774211406707764,"234":-1.765210509300232,"235":-3.1453676223754883,"236":-1.0373506546020508,"237":-2.799018621444702,"238":-2.4667208194732666,"239":-1.1215007305145264,"240":-4.723899841308594,"241":-10.756332397460938,"242":11.611715316772461,"243":-5.2839765548706055,"244":-2.377281665802002,"245":-6.207963466644287,"246":5.174109935760498,"247":-17.54600715637207,"248":-6.223747253417969,"249":14.783851623535156,"250":-4.125003814697266,"251":8.520650863647461,"252":-6.470526695251465,"253":2.371394634246826,"254":2.6801931858062744,"255":-4.702164649963379,"256":-3.2287206649780273,"257":8.976728439331055,"258":1.662915587425232,"259":-6.813965797424316,"260":4.7605390548706055,"261":-4.035227298736572,"262":1.6928377151489258,"263":-0.3559703528881073,"264":-5.5439133644104,"265":4.508847713470459,"266":-10.83262825012207,"267":10.142613410949707,"268":4.603471279144287,"269":-12.556929588317871,"270":-2.947129249572754,"271":15.248716354370117,"272":0.6544874310493469,"273":-10.794337272644043,"274":-2.114851474761963,"275":17.397600173950195,"276":3.228891134262085,"277":-1.0208089351654053,"278":-0.30890992283821106,"279":7.476524353027344,"280":-3.6347415447235107,"281":6.08897590637207,"282":1.0925763845443726,"283":-6.093482494354248,"284":-4.900168418884277,"285":16.677501678466797,"286":-12.31411075592041,"287":-12.113061904907227,"288":1.096981167793274,"289":19.860994338989258,"290":2.058295488357544,"291":-10.201831817626953,"292":-6.080727577209473,"293":-10.336308479309082,"294":-8.648161888122559,"295":6.770140647888184,"296":7.519443988800049,"297":-11.255965232849121,"298":-2.065359115600586,"299":2.1632542610168457,"300":-0.2259834259748459,"301":-1.6720904111862183,"302":-3.126638889312744,"303":5.319615364074707,"304":2.4185986518859863,"305":12.532035827636719,"306":3.7989888191223145,"307":-18.456050872802734,"308":0.6136673092842102,"309":12.872570037841797,"310":1.1309236288070679,"311":8.334858894348145,"312":-2.017340660095215,"313":-4.528926849365234,"314":-1.9598321914672852,"315":5.513906002044678,"316":-13.81729793548584,"317":24.05549430847168,"318":-2.8976051807403564,"319":7.729584217071533,"320":10.758831024169922,"321":6.115693092346191,"322":0.864033579826355,"323":5.282919883728027,"324":13.721648216247559,"325":-8.306060791015625,"326":-5.450387001037598,"327":16.068910598754883,"328":2.090151071548462,"329":13.35827922821045,"330":5.8848371505737305,"331":-9.984516143798828,"332":4.060883045196533,"333":4.7445149421691895,"334":-2.348965883255005,"335":5.420945167541504,"336":9.7507905960083,"337":3.443206548690796,"338":-12.757081985473633,"339":0.6769365072250366,"340":-3.84694504737854,"341":9.771926879882812,"342":-1.8257657289505005,"343":-2.750333309173584,"344":9.987905502319336,"345":-2.7614521980285645,"346":-4.573915481567383,"347":-5.211120128631592,"348":-4.026523113250732,"349":0.42694512009620667,"350":-0.6052765846252441,"351":-0.0013795767445117235,"352":-2.3235156536102295,"353":-1.6545692682266235,"354":-1.1046267747879028,"355":6.766355514526367,"356":5.290245532989502,"357":5.760035037994385,"358":-0.8324803113937378,"359":4.295548915863037,"360":-3.742288589477539,"361":-8.47709846496582,"362":4.056398391723633,"363":0.22831156849861145,"364":5.140475749969482,"365":1.7380881309509277,"366":17.15020179748535,"367":-9.492058753967285,"368":21.033456802368164,"369":-17.0115966796875,"370":-0.6031904816627502,"371":10.535125732421875,"372":-15.934056282043457,"373":-29.711727142333984,"374":21.75419044494629,"375":-3.5958411693573,"376":-7.580539226531982,"377":-10.614506721496582,"378":3.3210463523864746,"379":13.627836227416992,"380":3.024564504623413,"381":-5.294503211975098,"382":-1.077067494392395,"383":16.87883758544922,"384":2.190354347229004,"385":-0.151170551776886,"386":6.714959621429443,"387":10.609265327453613,"388":1.5445762872695923,"389":-11.22076416015625,"390":-9.242597579956055,"391":-17.825448989868164,"392":-8.275144577026367,"393":-8.117533683776855,"394":-1.2526923418045044,"395":-1.5537744760513306,"396":2.997410774230957,"397":-13.540348052978516,"398":1.3790810108184814,"399":-22.933094024658203}},"inputBias":{"rows":20,"columns":1,"weights":{"0":-2.8152754306793213,"1":-0.02386048063635826,"2":-0.06990483403205872,"3":-0.741272509098053,"4":-0.19258801639080048,"5":6.379755020141602,"6":-0.16393817961215973,"7":-0.7104349136352539,"8":2.448042392730713,"9":0.32683902978897095,"10":0.45617762207984924,"11":-1.8596949577331543,"12":1.5142868757247925,"13":-2.786379814147949,"14":0.036486830562353134,"15":-0.19996921718120575,"16":-0.18848709762096405,"17":0.31843894720077515,"18":0.9736269116401672,"19":-0.6762934327125549}},"forgetMatrix":{"rows":20,"columns":31,"weights":{"0":1.997520923614502,"1":4.518054485321045,"2":0.18258170783519745,"3":2.705176591873169,"4":-0.8568567633628845,"5":4.402637004852295,"6":1.931738018989563,"7":-0.16867519915103912,"8":7.804705619812012,"9":-2.475573778152466,"10":0.6101176738739014,"11":-2.810990810394287,"12":2.209679126739502,"13":-3.7874321937561035,"14":-1.8539878129959106,"15":-2.695894241333008,"16":-2.5850236415863037,"17":-1.495457649230957,"18":-1.46733558177948,"19":3.3307807445526123,"20":-0.814400851726532,"21":0.991523027420044,"22":0.036285772919654846,"23":0.3735237121582031,"24":4.590960502624512,"25":1.5503461360931396,"26":-2.306415557861328,"27":1.6607072353363037,"28":3.753304958343506,"29":-5.27501106262207,"30":-3.8433079719543457,"31":-1.5347234010696411,"32":-1.51642906665802,"33":2.5104763507843018,"34":-2.7611083984375,"35":-0.7424799203872681,"36":1.0922260284423828,"37":-2.5574960708618164,"38":-0.6602789163589478,"39":-2.8325271606445312,"40":1.4570506811141968,"41":1.0020002126693726,"42":-4.282227516174316,"43":-0.5311098694801331,"44":1.828732967376709,"45":1.226685881614685,"46":0.022095153108239174,"47":-1.0446795225143433,"48":3.8583502769470215,"49":-1.1038765907287598,"50":0.9376068711280823,"51":0.7131540775299072,"52":-0.8994689583778381,"53":1.07422935962677,"54":0.6928642988204956,"55":-0.7578938603401184,"56":0.9525446891784668,"57":1.3834561109542847,"58":-0.5580069422721863,"59":0.7930678725242615,"60":-1.4632294178009033,"61":0.014508487656712532,"62":1.4656953811645508,"63":1.9342092275619507,"64":-1.9249217510223389,"65":-1.4745330810546875,"66":-1.6699810028076172,"67":1.9676393270492554,"68":-2.318300247192383,"69":-3.612957239151001,"70":2.459367513656616,"71":3.1999592781066895,"72":2.264896869659424,"73":2.879936695098877,"74":1.3256629705429077,"75":1.6462123394012451,"76":0.425275057554245,"77":2.475893020629883,"78":2.3828537464141846,"79":2.341522455215454,"80":1.0963999032974243,"81":4.087601661682129,"82":-3.184105396270752,"83":-1.7906361818313599,"84":0.6103376746177673,"85":-0.6763633489608765,"86":-4.71757173538208,"87":1.515624761581421,"88":3.5321567058563232,"89":0.23873291909694672,"90":0.34564727544784546,"91":-0.5022018551826477,"92":0.3506791889667511,"93":-0.6836283802986145,"94":0.2232024371623993,"95":-1.3209120035171509,"96":0.1457248479127884,"97":3.3161849975585938,"98":-1.548218846321106,"99":1.6243207454681396,"100":-0.4485773742198944,"101":-0.2668445408344269,"102":0.2500396966934204,"103":1.479252815246582,"104":3.1728127002716064,"105":-0.7738889455795288,"106":-1.1990700960159302,"107":0.7315698862075806,"108":2.230055332183838,"109":1.8088338375091553,"110":-3.363175392150879,"111":2.776386022567749,"112":3.31327223777771,"113":2.872255325317383,"114":2.3921687602996826,"115":0.7291572690010071,"116":-4.035231113433838,"117":-3.3174662590026855,"118":-2.883960723876953,"119":-0.4679504632949829,"120":-1.5742576122283936,"121":1.4647009372711182,"122":0.6619001030921936,"123":-2.125011920928955,"124":0.3410812318325043,"125":3.1619043350219727,"126":-0.5345337390899658,"127":1.0932421684265137,"128":-5.772096633911133,"129":5.097825050354004,"130":-0.08219128847122192,"131":0.18503054976463318,"132":-0.39782989025115967,"133":0.03336125612258911,"134":1.0887529850006104,"135":-0.8597001433372498,"136":-1.135496735572815,"137":5.273691177368164,"138":4.841178894042969,"139":-2.422480821609497,"140":1.740765929222107,"141":-2.9897892475128174,"142":4.49757194519043,"143":-2.879464864730835,"144":0.6837943196296692,"145":2.4900050163269043,"146":0.3103979229927063,"147":0.5650054216384888,"148":1.0341198444366455,"149":0.30170944333076477,"150":-1.318907380104065,"151":-0.28216975927352905,"152":0.5458385944366455,"153":4.427481651306152,"154":2.5531630516052246,"155":-1.6275924444198608,"156":0.8024491667747498,"157":-2.1602399349212646,"158":-2.7961642742156982,"159":-2.797766923904419,"160":0.9263523817062378,"161":-3.7239277362823486,"162":-1.7297416925430298,"163":-0.9531016945838928,"164":-1.6461058855056763,"165":-1.031670331954956,"166":1.428017258644104,"167":-1.2966358661651611,"168":1.8960766792297363,"169":0.025877539068460464,"170":2.8279523849487305,"171":5.047541618347168,"172":-4.919848918914795,"173":0.5854700803756714,"174":2.2424778938293457,"175":3.414456367492676,"176":3.214667320251465,"177":-2.8366403579711914,"178":-2.982377290725708,"179":-3.6193439960479736,"180":-1.7632728815078735,"181":-0.9354701638221741,"182":-2.3443074226379395,"183":1.1122314929962158,"184":-1.2603460550308228,"185":1.7780122756958008,"186":1.3094035387039185,"187":-2.0057852268218994,"188":2.7857930660247803,"189":1.2988157272338867,"190":3.1081769466400146,"191":1.3103761672973633,"192":2.737537384033203,"193":2.410865068435669,"194":4.15278434753418,"195":-12.42720890045166,"196":-2.151925563812256,"197":1.2346529960632324,"198":-3.0152978897094727,"199":0.693878173828125,"200":-2.2151236534118652,"201":0.1502307504415512,"202":0.06375760585069656,"203":0.5543841123580933,"204":-4.324539661407471,"205":2.299152374267578,"206":0.40751904249191284,"207":-0.42008325457572937,"208":2.465804100036621,"209":3.211226463317871,"210":1.522492527961731,"211":-1.5237245559692383,"212":-3.3511407375335693,"213":2.563028573989868,"214":-1.8659894466400146,"215":0.13681581616401672,"216":-0.743602991104126,"217":-0.0689653605222702,"218":1.5235304832458496,"219":1.1483334302902222,"220":-4.312891483306885,"221":-0.9131242632865906,"222":0.8893125653266907,"223":1.1531940698623657,"224":-3.8975069522857666,"225":-0.9794759750366211,"226":2.159128427505493,"227":4.106732368469238,"228":3.0467801094055176,"229":0.8432555198669434,"230":1.6217684745788574,"231":0.7106524109840393,"232":0.830083966255188,"233":5.393710613250732,"234":0.3927801847457886,"235":1.993999719619751,"236":3.2497658729553223,"237":2.0383520126342773,"238":-2.2438597679138184,"239":1.298339605331421,"240":-1.8272894620895386,"241":-1.264614462852478,"242":-4.8972697257995605,"243":0.7534048557281494,"244":-2.8935303688049316,"245":-1.4429726600646973,"246":-0.7621713876724243,"247":0.35358500480651855,"248":0.9530248045921326,"249":-0.26092255115509033,"250":-3.188477039337158,"251":0.5509410500526428,"252":0.14622096717357635,"253":3.981220245361328,"254":0.28800663352012634,"255":3.18760347366333,"256":2.639815330505371,"257":3.034933090209961,"258":-1.8995332717895508,"259":-6.760838985443115,"260":1.7974321842193604,"261":3.2680211067199707,"262":-1.3476169109344482,"263":-1.1695196628570557,"264":-3.7668075561523438,"265":1.6774190664291382,"266":-0.538842499256134,"267":-2.758998394012451,"268":-2.9638562202453613,"269":-2.638514757156372,"270":-2.285978317260742,"271":2.7887022495269775,"272":0.6625699996948242,"273":3.042037010192871,"274":0.21356889605522156,"275":-0.9549429416656494,"276":-0.9797285795211792,"277":0.4010668098926544,"278":-3.041863441467285,"279":3.3122918605804443,"280":2.97263503074646,"281":-1.4273121356964111,"282":-1.5067472457885742,"283":6.9597649574279785,"284":1.912144660949707,"285":-0.8099730610847473,"286":-3.7414190769195557,"287":-0.6627525687217712,"288":0.9665849804878235,"289":0.7509878873825073,"290":2.358161687850952,"291":0.8323938250541687,"292":-3.152486801147461,"293":-1.9838093519210815,"294":-0.33157113194465637,"295":2.086329460144043,"296":-4.508516311645508,"297":0.920654296875,"298":-0.3296888470649719,"299":-0.5303478837013245,"300":-0.4002276062965393,"301":2.2808573246002197,"302":-4.587762355804443,"303":0.35502317547798157,"304":0.6783082485198975,"305":-5.003436088562012,"306":-2.1358511447906494,"307":-1.440523624420166,"308":1.2420929670333862,"309":2.025449275970459,"310":0.9893190264701843,"311":-2.826678514480591,"312":-1.8247402906417847,"313":0.1977923959493637,"314":-0.09640038013458252,"315":-0.34237709641456604,"316":-2.801173210144043,"317":-4.549798965454102,"318":-2.7761576175689697,"319":-1.6457438468933105,"320":-0.8024795055389404,"321":1.4541993141174316,"322":-1.0552223920822144,"323":-0.036010779440402985,"324":1.6730713844299316,"325":4.6595869064331055,"326":0.5494992733001709,"327":-1.8329246044158936,"328":1.059356451034546,"329":-3.578964948654175,"330":-3.061293363571167,"331":1.7982577085494995,"332":-1.5643246173858643,"333":1.8482270240783691,"334":1.7879053354263306,"335":-0.4997035562992096,"336":-0.5111387372016907,"337":3.550774335861206,"338":2.186394214630127,"339":0.6945508718490601,"340":0.7569102644920349,"341":4.022659778594971,"342":1.5191766023635864,"343":-2.0001909732818604,"344":2.295807361602783,"345":0.5771846771240234,"346":-1.6483579874038696,"347":2.421092987060547,"348":1.9495961666107178,"349":0.6551033854484558,"350":0.5299326181411743,"351":2.0780727863311768,"352":0.8558564186096191,"353":1.2963014841079712,"354":-2.644120454788208,"355":-0.2736088037490845,"356":2.2693936824798584,"357":-1.1378957033157349,"358":0.5278000235557556,"359":0.5618767738342285,"360":0.38061168789863586,"361":2.875706195831299,"362":-1.876269817352295,"363":1.9026219844818115,"364":-3.3062663078308105,"365":-3.5268373489379883,"366":-2.4001669883728027,"367":-4.8650994300842285,"368":-1.396217703819275,"369":0.36605164408683777,"370":-0.7018247246742249,"371":3.5060267448425293,"372":-0.8276803493499756,"373":7.71554708480835,"374":0.5686012506484985,"375":-2.256833553314209,"376":0.7404448986053467,"377":3.7339258193969727,"378":1.4776190519332886,"379":-0.4513969123363495,"380":-3.696784257888794,"381":-2.075077772140503,"382":0.9741281867027283,"383":3.0224266052246094,"384":-2.7485711574554443,"385":-1.612438440322876,"386":-1.9264800548553467,"387":-0.32006725668907166,"388":-0.7458495497703552,"389":-2.536961555480957,"390":1.435377836227417,"391":-2.226517677307129,"392":0.23968423902988434,"393":1.2764537334442139,"394":-0.06675899773836136,"395":-0.6555156111717224,"396":0.6349636316299438,"397":0.6396335959434509,"398":1.1949959993362427,"399":2.591827869415283,"400":-2.272346258163452,"401":2.0287201404571533,"402":-0.24333897233009338,"403":-7.291268348693848,"404":-3.576782464981079,"405":1.134873628616333,"406":2.0805423259735107,"407":-0.6131405830383301,"408":-4.8417816162109375,"409":0.003667606972157955,"410":1.144218921661377,"411":2.5722806453704834,"412":-2.060025930404663,"413":-1.9937028884887695,"414":-2.5180232524871826,"415":2.5367777347564697,"416":2.603318452835083,"417":-0.797356128692627,"418":-0.6515260934829712,"419":-0.4370439052581787,"420":1.921157717704773,"421":-5.141611099243164,"422":-2.48026180267334,"423":1.1941279172897339,"424":-0.19501401484012604,"425":-2.059962272644043,"426":0.931562066078186,"427":-6.897372722625732,"428":-0.24089090526103973,"429":-0.20989663898944855,"430":0.298282265663147,"431":-1.8630297183990479,"432":2.0009124279022217,"433":0.5598915815353394,"434":-2.6705284118652344,"435":1.2422244548797607,"436":-1.5514922142028809,"437":-2.1309897899627686,"438":-2.2841949462890625,"439":0.3456224203109741,"440":-4.045702934265137,"441":-2.1533987522125244,"442":-1.0800755023956299,"443":0.9595144391059875,"444":-0.322540819644928,"445":4.396644592285156,"446":-3.989562511444092,"447":1.1314115524291992,"448":-2.4519615173339844,"449":-0.616801381111145,"450":2.1405224800109863,"451":-3.7987771034240723,"452":-2.7657175064086914,"453":-1.0186008214950562,"454":1.352620005607605,"455":-0.4910685122013092,"456":5.435900688171387,"457":-1.3930065631866455,"458":0.8865182399749756,"459":-1.1973073482513428,"460":-4.932244300842285,"461":-0.08067697286605835,"462":-0.7821888327598572,"463":4.202035427093506,"464":-1.5254113674163818,"465":0.933459997177124,"466":-0.18949207663536072,"467":-0.9296741485595703,"468":-1.006106972694397,"469":-2.3120131492614746,"470":0.5556373596191406,"471":-1.3566433191299438,"472":0.5578655004501343,"473":-1.9022997617721558,"474":-1.6356391906738281,"475":1.7703965902328491,"476":1.6778864860534668,"477":-1.0723872184753418,"478":1.5636197328567505,"479":-0.5805968046188354,"480":-1.0513893365859985,"481":1.3314498662948608,"482":0.9187543988227844,"483":-0.8516988158226013,"484":-2.3265600204467773,"485":4.8493123054504395,"486":1.8061295747756958,"487":-0.6523668766021729,"488":-6.679954528808594,"489":1.516676902770996,"490":-0.9073972105979919,"491":-3.148395299911499,"492":0.04739941284060478,"493":-2.367121696472168,"494":-2.5753421783447266,"495":3.2765421867370605,"496":-1.1897350549697876,"497":-0.7242205142974854,"498":0.5784122347831726,"499":3.4932308197021484,"500":0.42021340131759644,"501":0.9687392115592957,"502":-4.216214179992676,"503":-1.4528253078460693,"504":-1.8724572658538818,"505":-0.11493699252605438,"506":-1.0088601112365723,"507":-4.257501602172852,"508":4.0060200691223145,"509":-5.9482903480529785,"510":-4.519362926483154,"511":1.095644474029541,"512":2.389052391052246,"513":0.5291212201118469,"514":-0.8961817026138306,"515":-1.3257290124893188,"516":-0.27340519428253174,"517":-0.2842852473258972,"518":-1.4624700546264648,"519":-4.752903938293457,"520":-1.5994536876678467,"521":1.716586709022522,"522":3.3994648456573486,"523":-3.8660755157470703,"524":0.29982587695121765,"525":-2.8144686222076416,"526":0.24824076890945435,"527":-1.2960219383239746,"528":2.9356558322906494,"529":-0.574613094329834,"530":-0.6731457710266113,"531":-0.5287712812423706,"532":1.1404377222061157,"533":1.181358814239502,"534":-4.877791881561279,"535":2.134730339050293,"536":2.218308925628662,"537":4.741761684417725,"538":1.8978347778320312,"539":-2.1489076614379883,"540":-5.352468013763428,"541":-0.35522571206092834,"542":1.2552926540374756,"543":1.6814488172531128,"544":4.422507286071777,"545":-2.250431537628174,"546":4.47904109954834,"547":6.981368541717529,"548":-2.1648128032684326,"549":0.4644238352775574,"550":-2.61739444732666,"551":0.4560754895210266,"552":2.1610360145568848,"553":3.4911348819732666,"554":0.3951539993286133,"555":3.860440254211426,"556":-0.9691835641860962,"557":-0.5471509695053101,"558":2.3809938430786133,"559":-3.921306610107422,"560":4.698109149932861,"561":0.5915672183036804,"562":0.578210711479187,"563":1.814694881439209,"564":6.2791361808776855,"565":3.296895742416382,"566":5.036224842071533,"567":-0.9203186631202698,"568":2.193427324295044,"569":-3.836655616760254,"570":1.6660797595977783,"571":-1.873537302017212,"572":0.3480331003665924,"573":-2.919755220413208,"574":0.18572799861431122,"575":4.00269889831543,"576":-0.6372982263565063,"577":3.736344814300537,"578":-5.514493465423584,"579":2.1609983444213867,"580":-1.5274567604064941,"581":-0.0612829215824604,"582":3.0257925987243652,"583":1.0324383974075317,"584":5.1048078536987305,"585":0.4916030466556549,"586":1.170047402381897,"587":-2.7534778118133545,"588":1.656657099723816,"589":0.7396458387374878,"590":-2.746744394302368,"591":4.069614410400391,"592":1.7464609146118164,"593":-2.1921706199645996,"594":0.6906900405883789,"595":1.9502180814743042,"596":-1.0837429761886597,"597":-8.27511215209961,"598":2.3278965950012207,"599":2.6760447025299072,"600":-2.9533112049102783,"601":-2.574186086654663,"602":-2.7308661937713623,"603":-1.4249866008758545,"604":0.7541322112083435,"605":-3.5987861156463623,"606":2.5967600345611572,"607":1.5788041353225708,"608":2.755918025970459,"609":3.0012576580047607,"610":0.7319627404212952,"611":-2.1171159744262695,"612":4.532477855682373,"613":1.3325986862182617,"614":0.11648324877023697,"615":2.7666842937469482,"616":-5.086925506591797,"617":-1.2476242780685425,"618":-2.8563873767852783,"619":0.37191376090049744}},"forgetHidden":{"rows":20,"columns":20,"weights":{"0":-6.5411810874938965,"1":0.7598989009857178,"2":-3.2650723457336426,"3":0.8656246662139893,"4":-4.0907511711120605,"5":-0.5532863140106201,"6":4.858325481414795,"7":4.934091567993164,"8":2.295492649078369,"9":-4.3845109939575195,"10":0.6493697166442871,"11":-0.12588700652122498,"12":-0.532523512840271,"13":-6.944180011749268,"14":2.757042646408081,"15":-1.7374669313430786,"16":-2.2198610305786133,"17":-5.530849933624268,"18":0.6596331596374512,"19":1.6601732969284058,"20":8.379650115966797,"21":6.837194442749023,"22":0.838859498500824,"23":-1.1022645235061646,"24":-3.2089481353759766,"25":2.2861862182617188,"26":-0.7305980920791626,"27":2.1750731468200684,"28":-2.1522774696350098,"29":0.2942979633808136,"30":2.89664626121521,"31":0.929587721824646,"32":0.16607561707496643,"33":-1.448065161705017,"34":-0.3123900592327118,"35":-2.370940923690796,"36":-2.4185895919799805,"37":-0.8138274550437927,"38":-0.953913688659668,"39":-0.8208752274513245,"40":3.5944371223449707,"41":4.0711188316345215,"42":0.6245583891868591,"43":-4.708524703979492,"44":1.3347771167755127,"45":-3.4384918212890625,"46":3.9736135005950928,"47":2.482045888900757,"48":0.019540591165423393,"49":-1.8666020631790161,"50":4.8611016273498535,"51":1.8752943277359009,"52":2.8368916511535645,"53":-3.4855635166168213,"54":1.2507240772247314,"55":2.2664072513580322,"56":5.599909782409668,"57":3.734424352645874,"58":2.403571128845215,"59":1.7321101427078247,"60":-4.274531841278076,"61":0.4857620298862457,"62":-3.510411500930786,"63":-4.036725044250488,"64":2.380309581756592,"65":-0.3544156551361084,"66":1.6064211130142212,"67":0.8584316968917847,"68":2.2198472023010254,"69":2.8403241634368896,"70":-1.3977727890014648,"71":-0.8205467462539673,"72":0.38550907373428345,"73":0.6400001645088196,"74":1.204171895980835,"75":-0.05330612137913704,"76":-1.7403669357299805,"77":3.3880417346954346,"78":-2.707937717437744,"79":-0.4563386142253876,"80":-1.0439069271087646,"81":-5.2846293449401855,"82":0.49076056480407715,"83":5.8730149269104,"84":-2.0780727863311768,"85":0.30115801095962524,"86":0.1447100043296814,"87":4.134947776794434,"88":-4.796625137329102,"89":-2.8815829753875732,"90":7.850069522857666,"91":0.23531049489974976,"92":-6.920720100402832,"93":-2.364459991455078,"94":4.026398181915283,"95":2.8961594104766846,"96":6.032709121704102,"97":-4.162098407745361,"98":4.7670159339904785,"99":2.9278271198272705,"100":3.2317278385162354,"101":3.31451416015625,"102":-9.062722206115723,"103":2.8519582748413086,"104":-10.125011444091797,"105":-0.3304300606250763,"106":-2.2355642318725586,"107":0.881600558757782,"108":-4.843759536743164,"109":-6.083652496337891,"110":4.70078706741333,"111":-5.648663520812988,"112":-2.6531505584716797,"113":1.590727686882019,"114":1.8408913612365723,"115":3.5700523853302,"116":1.6139241456985474,"117":1.74405837059021,"118":5.416964530944824,"119":0.627394437789917,"120":-2.4580323696136475,"121":-11.722193717956543,"122":-0.8535816669464111,"123":-8.300203323364258,"124":-6.182237148284912,"125":-4.465468406677246,"126":13.32093334197998,"127":0.4600277245044708,"128":14.002795219421387,"129":-2.0368547439575195,"130":-23.121366500854492,"131":-0.5032591223716736,"132":-11.619227409362793,"133":15.805570602416992,"134":-3.2034881114959717,"135":12.398371696472168,"136":10.524311065673828,"137":-8.133073806762695,"138":-0.12024129182100296,"139":-2.0173490047454834,"140":-5.090575218200684,"141":1.442537784576416,"142":-0.3661494553089142,"143":0.34814512729644775,"144":3.245840311050415,"145":1.518365502357483,"146":-0.3374043405056,"147":0.1638300120830536,"148":-3.101834297180176,"149":-0.7375996708869934,"150":2.72428035736084,"151":-0.394022673368454,"152":0.9305304288864136,"153":0.7166225910186768,"154":3.2940621376037598,"155":1.1033926010131836,"156":-0.8614315986633301,"157":-0.8878231644630432,"158":1.9192023277282715,"159":1.1103664636611938,"160":-7.292365550994873,"161":2.7668466567993164,"162":1.879130482673645,"163":8.217205047607422,"164":2.6399919986724854,"165":4.770577907562256,"166":1.230891466140747,"167":-5.359864234924316,"168":-0.36903712153434753,"169":-0.9640907645225525,"170":-4.734425067901611,"171":-18.232471466064453,"172":-18.545944213867188,"173":-12.254863739013672,"174":-0.9236721992492676,"175":-0.2872410714626312,"176":10.983098030090332,"177":-6.714757919311523,"178":-3.5814661979675293,"179":2.8007593154907227,"180":-7.876293659210205,"181":-17.92843246459961,"182":-1.7346372604370117,"183":5.881706714630127,"184":-3.255284309387207,"185":0.28027674555778503,"186":-0.6647987961769104,"187":-1.8970295190811157,"188":6.863789081573486,"189":4.431530475616455,"190":-0.12430956214666367,"191":2.6380248069763184,"192":5.161015510559082,"193":-2.3980698585510254,"194":0.16917474567890167,"195":-2.5281968116760254,"196":5.878550052642822,"197":-9.724063873291016,"198":-2.8239147663116455,"199":6.799380302429199,"200":-0.5708947777748108,"201":3.98534893989563,"202":-0.6208413243293762,"203":0.41027116775512695,"204":0.67713862657547,"205":0.25851428508758545,"206":7.347058296203613,"207":-2.5263545513153076,"208":7.196990966796875,"209":0.061954379081726074,"210":6.329351902008057,"211":-2.5392112731933594,"212":2.4741272926330566,"213":-4.776873588562012,"214":0.9428954720497131,"215":-1.3629693984985352,"216":-1.1109676361083984,"217":3.1186912059783936,"218":-5.351284503936768,"219":4.336446762084961,"220":2.803745985031128,"221":-1.9615644216537476,"222":1.3059914112091064,"223":2.162186622619629,"224":-2.6753549575805664,"225":-0.16392476856708527,"226":-0.934138834476471,"227":0.11205531656742096,"228":4.35017728805542,"229":1.988914132118225,"230":4.358737468719482,"231":4.5288262367248535,"232":-8.234748840332031,"233":-2.7795891761779785,"234":-4.562234878540039,"235":-2.0663599967956543,"236":-4.667974472045898,"237":-6.742178440093994,"238":1.2265177965164185,"239":-0.6280060410499573,"240":24.111047744750977,"241":-2.42465877532959,"242":3.8856024742126465,"243":-2.5300745964050293,"244":19.69116973876953,"245":-0.9591417908668518,"246":6.215316295623779,"247":-3.7992441654205322,"248":5.747392177581787,"249":2.1147501468658447,"250":-0.11220575124025345,"251":10.216198921203613,"252":4.250654220581055,"253":-0.8575419783592224,"254":12.300779342651367,"255":-1.0606417655944824,"256":-1.4824165105819702,"257":-0.5978613495826721,"258":9.441462516784668,"259":-0.4877365529537201,"260":3.42352294921875,"261":4.353188991546631,"262":0.9925381541252136,"263":0.7301757335662842,"264":3.6067421436309814,"265":6.0044779777526855,"266":6.568807601928711,"267":-3.2818281650543213,"268":-7.969615459442139,"269":-1.4129738807678223,"270":4.6087775230407715,"271":9.431137084960938,"272":4.846834659576416,"273":4.096859455108643,"274":10.303773880004883,"275":-7.520157814025879,"276":-5.956903457641602,"277":1.5154527425765991,"278":-3.1876442432403564,"279":-3.594521999359131,"280":0.16391032934188843,"281":5.880753040313721,"282":6.068709850311279,"283":-1.4740002155303955,"284":6.710017681121826,"285":-1.77668035030365,"286":1.4839437007904053,"287":2.3421237468719482,"288":-6.777211666107178,"289":-2.6520237922668457,"290":-2.7779204845428467,"291":-5.55396842956543,"292":-5.800811290740967,"293":-2.9455673694610596,"294":-2.1624934673309326,"295":-3.6114447116851807,"296":-2.5667426586151123,"297":-2.3828725814819336,"298":5.048450469970703,"299":-5.6318583488464355,"300":-4.162015438079834,"301":1.0251166820526123,"302":0.8521309494972229,"303":-3.099860429763794,"304":1.9420979022979736,"305":0.3765900135040283,"306":-0.7944414019584656,"307":2.03090500831604,"308":-2.2971932888031006,"309":1.866105318069458,"310":-3.8646795749664307,"311":2.5325732231140137,"312":-0.9160183668136597,"313":1.04953134059906,"314":-2.0732269287109375,"315":-1.0143941640853882,"316":1.4269120693206787,"317":-1.759599208831787,"318":0.9610669612884521,"319":2.0139994621276855,"320":3.0338547229766846,"321":2.3073225021362305,"322":-4.751627445220947,"323":14.697502136230469,"324":-9.191520690917969,"325":-6.455408096313477,"326":-6.51292085647583,"327":-14.960341453552246,"328":14.659102439880371,"329":7.592770099639893,"330":-10.850523948669434,"331":4.378710746765137,"332":5.626915454864502,"333":7.280666351318359,"334":-7.271142959594727,"335":0.5888498425483704,"336":-3.9681684970855713,"337":-1.3335257768630981,"338":-0.6967035531997681,"339":-0.6726653575897217,"340":0.06092151254415512,"341":-7.007190227508545,"342":-2.656428098678589,"343":-3.802737236022949,"344":-9.293557167053223,"345":0.6614869236946106,"346":-1.9473905563354492,"347":3.9830873012542725,"348":6.836604595184326,"349":5.127704620361328,"350":12.674718856811523,"351":-2.8878395557403564,"352":-5.657896518707275,"353":-5.9509358406066895,"354":-1.1006172895431519,"355":-1.9721906185150146,"356":-6.111727714538574,"357":4.746676445007324,"358":-1.1100374460220337,"359":-10.602283477783203,"360":-8.611221313476562,"361":-1.498094081878662,"362":9.756439208984375,"363":-3.9956352710723877,"364":-2.3669686317443848,"365":-4.197943210601807,"366":7.072052478790283,"367":-1.761671543121338,"368":-2.3857414722442627,"369":5.646687030792236,"370":-7.753318786621094,"371":-6.296924114227295,"372":-7.976274490356445,"373":4.251875400543213,"374":7.071013450622559,"375":1.5584399700164795,"376":-0.9301832318305969,"377":-4.755192756652832,"378":-6.297751426696777,"379":2.7055625915527344,"380":0.23610477149486542,"381":0.12129639089107513,"382":-3.893808603286743,"383":3.447589635848999,"384":7.496996879577637,"385":-18.028657913208008,"386":-9.464436531066895,"387":7.864634990692139,"388":11.30429744720459,"389":17.927139282226562,"390":-8.7173433303833,"391":-6.51896858215332,"392":-10.532628059387207,"393":-5.16384220123291,"394":-10.961494445800781,"395":4.643044471740723,"396":-20.522998809814453,"397":-5.590983867645264,"398":10.281806945800781,"399":11.85241985321045}},"forgetBias":{"rows":20,"columns":1,"weights":{"0":0,"1":0,"2":0,"3":0,"4":0,"5":0,"6":0,"7":0,"8":0,"9":0,"10":0,"11":0,"12":0,"13":0,"14":0,"15":0,"16":0,"17":0,"18":0,"19":0}},"outputMatrix":{"rows":20,"columns":31,"weights":{"0":1.21061110496521,"1":-0.7522167563438416,"2":2.416745662689209,"3":-0.8321525454521179,"4":3.8587613105773926,"5":0.3536883294582367,"6":-1.5680134296417236,"7":-0.009621916338801384,"8":-1.2927619218826294,"9":3.51292085647583,"10":-0.5098384022712708,"11":-1.5176926851272583,"12":0.7750911712646484,"13":1.0849528312683105,"14":0.5629679560661316,"15":0.0632510632276535,"16":0.43224695324897766,"17":1.5828077793121338,"18":0.1580120325088501,"19":0.2292575240135193,"20":-3.1166672706604004,"21":-1.5729191303253174,"22":1.5942468643188477,"23":-1.4094370603561401,"24":-0.567909836769104,"25":0.1943746656179428,"26":2.189621686935425,"27":-2.6964433193206787,"28":1.2626675367355347,"29":-2.089719533920288,"30":0.06695350259542465,"31":4.643863677978516,"32":1.8859823942184448,"33":-5.815576553344727,"34":0.5878748297691345,"35":-0.8148896098136902,"36":-0.058834899216890335,"37":-0.49996837973594666,"38":-0.6798387169837952,"39":4.159440517425537,"40":-2.1393396854400635,"41":2.8238632678985596,"42":3.862431764602661,"43":2.293562650680542,"44":1.6863703727722168,"45":-3.8310608863830566,"46":2.273507595062256,"47":1.4218027591705322,"48":-0.6151061058044434,"49":-0.41360828280448914,"50":2.9264097213745117,"51":3.027933120727539,"52":-3.0603463649749756,"53":1.6035181283950806,"54":-1.7985608577728271,"55":-1.6465307474136353,"56":-2.3531949520111084,"57":0.4105629026889801,"58":0.5447534322738647,"59":-1.6136964559555054,"60":1.3988981246948242,"61":0.02612924389541149,"62":3.179180860519409,"63":0.2602488398551941,"64":-1.2016104459762573,"65":1.0948485136032104,"66":2.0689167976379395,"67":-1.2732796669006348,"68":2.478386640548706,"69":1.755661964416504,"70":-0.7294818758964539,"71":-1.4692054986953735,"72":0.9872022867202759,"73":-2.9398999214172363,"74":-4.83870792388916,"75":-4.11375617980957,"76":-3.26222562789917,"77":1.6355897188186646,"78":-2.325465679168701,"79":-2.054553270339966,"80":1.484752893447876,"81":-1.906658411026001,"82":-0.05222851037979126,"83":0.6777282953262329,"84":2.8200883865356445,"85":-3.930593729019165,"86":-1.0724490880966187,"87":-1.840824007987976,"88":-2.5368690490722656,"89":-1.2665390968322754,"90":-3.3182427883148193,"91":2.2181711196899414,"92":1.578487515449524,"93":2.1847643852233887,"94":-2.9649245738983154,"95":-3.1714916229248047,"96":1.9221233129501343,"97":-3.1619021892547607,"98":2.6724421977996826,"99":-2.2279436588287354,"100":-1.878713607788086,"101":0.5709282755851746,"102":5.686580181121826,"103":3.4209489822387695,"104":2.399134397506714,"105":1.476837158203125,"106":-0.7353209853172302,"107":0.9331355094909668,"108":2.677666664123535,"109":-1.2710587978363037,"110":-0.555380642414093,"111":-2.6243762969970703,"112":0.7164615988731384,"113":1.1400328874588013,"114":-3.8386499881744385,"115":0.07167211174964905,"116":0.5888971090316772,"117":-8.087409019470215,"118":-3.9485952854156494,"119":5.249969959259033,"120":-4.837396144866943,"121":0.62127685546875,"122":8.034041404724121,"123":1.0874955654144287,"124":-4.806790828704834,"125":-4.011337757110596,"126":0.3721763491630554,"127":-9.18407154083252,"128":-6.16445779800415,"129":-2.2139711380004883,"130":-6.237040996551514,"131":-4.838039875030518,"132":-2.470992088317871,"133":-3.351285696029663,"134":-2.2611331939697266,"135":1.7180451154708862,"136":-0.2982408404350281,"137":0.5146421194076538,"138":1.7313318252563477,"139":1.9325205087661743,"140":5.237904071807861,"141":2.943190097808838,"142":-0.6109365224838257,"143":0.8336260318756104,"144":6.144486904144287,"145":-0.29397138953208923,"146":3.4863228797912598,"147":-1.1796021461486816,"148":-2.3691189289093018,"149":4.218273639678955,"150":4.120798587799072,"151":1.8871806859970093,"152":-4.137761116027832,"153":2.177837610244751,"154":-2.8099565505981445,"155":-2.9530508518218994,"156":0.4996028542518616,"157":3.477945327758789,"158":-2.862149477005005,"159":4.890952110290527,"160":-3.816727876663208,"161":2.293407678604126,"162":3.2724311351776123,"163":2.7319469451904297,"164":-2.8341832160949707,"165":-0.16170385479927063,"166":-1.7929956912994385,"167":-2.6703503131866455,"168":-7.89847469329834,"169":2.3671929836273193,"170":-7.759346008300781,"171":0.7877873182296753,"172":5.235352993011475,"173":-2.1705162525177,"174":-0.20838098227977753,"175":3.613219738006592,"176":-0.8406858444213867,"177":-5.255820274353027,"178":0.3205971121788025,"179":0.03952602669596672,"180":-7.353825569152832,"181":-0.9587091207504272,"182":-0.22213047742843628,"183":0.1922105848789215,"184":3.1118149757385254,"185":5.466644763946533,"186":-3.5758635997772217,"187":-1.2798309326171875,"188":3.221989631652832,"189":0.08637788891792297,"190":-1.185898780822754,"191":-0.019397618249058723,"192":4.725405216217041,"193":1.0061311721801758,"194":1.4544732570648193,"195":0.2705672085285187,"196":-0.48998314142227173,"197":-0.6188673377037048,"198":0.9686858654022217,"199":-4.282464981079102,"200":-2.2556416988372803,"201":-2.219169855117798,"202":-5.504715442657471,"203":6.162137508392334,"204":1.4438873529434204,"205":4.524959564208984,"206":2.8847508430480957,"207":-0.046938151121139526,"208":-2.717512607574463,"209":4.982826232910156,"210":-3.7319390773773193,"211":0.667853057384491,"212":1.1218650341033936,"213":1.4111181497573853,"214":4.5528035163879395,"215":-6.795700550079346,"216":-4.557161331176758,"217":0.15566682815551758,"218":3.683549642562866,"219":-3.227066993713379,"220":0.9814125895500183,"221":-3.848647356033325,"222":-0.3678039312362671,"223":-6.176321029663086,"224":-1.2902578115463257,"225":3.891751289367676,"226":3.0145792961120605,"227":-1.0610466003417969,"228":3.179109573364258,"229":-1.2655086517333984,"230":0.16093289852142334,"231":-3.838489055633545,"232":0.5053247809410095,"233":-0.09415406733751297,"234":0.24845391511917114,"235":-4.750737190246582,"236":-0.5528448820114136,"237":-3.152362108230591,"238":-3.448481798171997,"239":-2.262319564819336,"240":3.13452410697937,"241":1.36270272731781,"242":2.7338967323303223,"243":0.013930787332355976,"244":4.023805141448975,"245":-2.868459939956665,"246":6.0448527336120605,"247":3.046444892883301,"248":0.1454649269580841,"249":-0.5194917917251587,"250":-1.7420332431793213,"251":-1.399544596672058,"252":0.9438913464546204,"253":8.616281509399414,"254":-0.17332172393798828,"255":-0.37990835309028625,"256":4.495572090148926,"257":1.6837974786758423,"258":4.244389533996582,"259":2.0040841102600098,"260":-2.879544734954834,"261":-4.734566688537598,"262":1.8712406158447266,"263":-2.599058151245117,"264":9.257169723510742,"265":-2.371748685836792,"266":3.748319387435913,"267":2.1517274379730225,"268":0.8976163268089294,"269":-1.5227582454681396,"270":7.472214698791504,"271":0.36927029490470886,"272":2.5404162406921387,"273":-2.673849582672119,"274":-4.904258728027344,"275":0.7728227972984314,"276":-1.8782520294189453,"277":7.841030597686768,"278":0.2560748755931854,"279":3.0383336544036865,"280":0.702461302280426,"281":-2.5263609886169434,"282":2.9489028453826904,"283":-3.456515073776245,"284":-5.465177536010742,"285":3.28489089012146,"286":0.378011554479599,"287":2.509272336959839,"288":-2.2535791397094727,"289":4.808529376983643,"290":3.513000726699829,"291":1.123050332069397,"292":0.4382673501968384,"293":-2.4968936443328857,"294":-4.8311591148376465,"295":-2.963554859161377,"296":1.277530550956726,"297":-0.224670872092247,"298":2.0957579612731934,"299":0.012140238657593727,"300":1.4262324571609497,"301":-0.6017610430717468,"302":1.0016173124313354,"303":4.40772819519043,"304":-0.1271434873342514,"305":-2.697384834289551,"306":4.225281238555908,"307":0.49168410897254944,"308":4.579199314117432,"309":-1.6323518753051758,"310":-2.797154188156128,"311":0.7437921762466431,"312":-5.911660194396973,"313":-4.56787633895874,"314":1.081275224685669,"315":1.027559757232666,"316":6.801241397857666,"317":4.230043411254883,"318":-3.0933268070220947,"319":6.797987461090088,"320":-2.4120514392852783,"321":1.182373285293579,"322":1.5759952068328857,"323":4.213386058807373,"324":-5.109438419342041,"325":-2.764310121536255,"326":-5.512741565704346,"327":-1.8343353271484375,"328":2.0267465114593506,"329":0.574498176574707,"330":3.4309661388397217,"331":0.20960994064807892,"332":-0.2515023350715637,"333":-1.4802284240722656,"334":2.823587656021118,"335":0.43404754996299744,"336":-0.5425704121589661,"337":-1.4960815906524658,"338":-4.070695877075195,"339":1.1793057918548584,"340":-0.44392675161361694,"341":3.7447638511657715,"342":1.3503001928329468,"343":-1.520155668258667,"344":0.05760222673416138,"345":0.4048044681549072,"346":-1.408862829208374,"347":0.10029731690883636,"348":-1.2879208326339722,"349":-1.4115253686904907,"350":-4.348653793334961,"351":1.197342872619629,"352":-3.1496291160583496,"353":-0.5179770588874817,"354":-1.6786880493164062,"355":2.0416650772094727,"356":3.7909791469573975,"357":2.535413980484009,"358":0.11923350393772125,"359":0.746665358543396,"360":-1.847609281539917,"361":-0.3055678904056549,"362":-2.586721181869507,"363":-2.9424996376037598,"364":-0.08389470726251602,"365":-0.9684000015258789,"366":0.25299033522605896,"367":-5.0397047996521,"368":1.3346796035766602,"369":-4.346339225769043,"370":0.7724673748016357,"371":-0.029622534289956093,"372":0.06733749806880951,"373":-1.6929292678833008,"374":-1.960174322128296,"375":-0.4115246534347534,"376":0.029839228838682175,"377":-5.754058361053467,"378":2.5663750171661377,"379":1.4055976867675781,"380":-1.0966874361038208,"381":-5.706656455993652,"382":3.514617443084717,"383":-1.6211167573928833,"384":0.14953748881816864,"385":-1.2522386312484741,"386":-4.999421119689941,"387":5.334273815155029,"388":3.2606658935546875,"389":-0.7271491289138794,"390":-4.05359411239624,"391":-0.39736348390579224,"392":3.038486957550049,"393":0.7603782415390015,"394":0.19494545459747314,"395":0.569239616394043,"396":1.1276919841766357,"397":-0.011126728728413582,"398":-0.4963572025299072,"399":-1.5864306688308716,"400":-9.1522798538208,"401":-0.5768563151359558,"402":5.872666835784912,"403":-2.7686896324157715,"404":1.5658211708068848,"405":-4.497162818908691,"406":-2.9501583576202393,"407":-0.5119021534919739,"408":2.1854803562164307,"409":-2.8530426025390625,"410":-2.1984853744506836,"411":-4.0075273513793945,"412":3.070819139480591,"413":4.385475158691406,"414":0.241403728723526,"415":-2.412773847579956,"416":0.5093960762023926,"417":0.3089448809623718,"418":-0.8424389362335205,"419":-0.6501340270042419,"420":2.0494000911712646,"421":-2.406524896621704,"422":-0.09669740498065948,"423":5.79062557220459,"424":2.1852333545684814,"425":4.279300212860107,"426":-4.552565097808838,"427":-5.706508636474609,"428":2.1657261848449707,"429":1.4660181999206543,"430":-10.30730152130127,"431":7.386826992034912,"432":-2.362109422683716,"433":-0.7191511988639832,"434":2.506618022918701,"435":5.115091800689697,"436":-1.49117910861969,"437":1.3801796436309814,"438":1.0760530233383179,"439":-2.1410439014434814,"440":0.20876748859882355,"441":2.245338201522827,"442":2.2910807132720947,"443":0.23796892166137695,"444":-2.4225194454193115,"445":0.11531566083431244,"446":-1.585774302482605,"447":1.0917104482650757,"448":-0.4543229937553406,"449":-5.67012357711792,"450":-2.2080321311950684,"451":0.09588617086410522,"452":2.490817070007324,"453":1.2697203159332275,"454":3.953890323638916,"455":-0.5547100305557251,"456":1.0560331344604492,"457":-3.4861843585968018,"458":3.465993642807007,"459":-1.6139408349990845,"460":-2.008690118789673,"461":-0.029764583334326744,"462":-8.301685333251953,"463":7.718661308288574,"464":2.112546682357788,"465":0.3203215003013611,"466":-0.6334583163261414,"467":1.0993893146514893,"468":-0.11373341083526611,"469":-0.7467461824417114,"470":-5.524991989135742,"471":3.3716793060302734,"472":-1.0835161209106445,"473":3.7921998500823975,"474":-4.296374320983887,"475":-0.3366030752658844,"476":-9.037103652954102,"477":2.8805713653564453,"478":-0.19561031460762024,"479":1.0077052116394043,"480":-4.972090721130371,"481":-1.600332260131836,"482":-4.015864372253418,"483":3.2076826095581055,"484":-4.1918439865112305,"485":3.978018283843994,"486":3.4780495166778564,"487":1.7377903461456299,"488":1.7246832847595215,"489":1.4265472888946533,"490":-0.2590828239917755,"491":1.150707721710205,"492":2.7917263507843018,"493":-3.0527117252349854,"494":-3.9073705673217773,"495":-0.6451779007911682,"496":7.599757194519043,"497":1.463623285293579,"498":-1.1090233325958252,"499":6.965737819671631,"500":0.14458264410495758,"501":-0.20973770320415497,"502":-3.8292336463928223,"503":-1.5407955646514893,"504":-2.489346742630005,"505":-0.9347090125083923,"506":-2.7410314083099365,"507":4.93623161315918,"508":-3.112454652786255,"509":-2.2055206298828125,"510":4.131791114807129,"511":1.4841409921646118,"512":-2.960047721862793,"513":3.944406032562256,"514":-4.427553176879883,"515":4.227046012878418,"516":-4.222415924072266,"517":1.2552770376205444,"518":-4.2209978103637695,"519":7.309729099273682,"520":2.0380284786224365,"521":6.5860395431518555,"522":-2.416726589202881,"523":-0.19812394678592682,"524":-2.247936487197876,"525":0.2741858959197998,"526":1.8703281879425049,"527":1.1731425523757935,"528":2.4358458518981934,"529":-3.106513500213623,"530":4.202099800109863,"531":1.123107671737671,"532":6.011796474456787,"533":-5.152782440185547,"534":2.1101319789886475,"535":-0.7527315020561218,"536":5.540476322174072,"537":1.722368836402893,"538":4.473217487335205,"539":0.9381700158119202,"540":-0.42440474033355713,"541":0.9657243490219116,"542":3.6947402954101562,"543":4.399878978729248,"544":0.7118921875953674,"545":2.7521884441375732,"546":-4.917200088500977,"547":2.859205722808838,"548":-1.3616182804107666,"549":-7.978003978729248,"550":-3.6034531593322754,"551":-4.447094440460205,"552":2.180553436279297,"553":-8.335310935974121,"554":-0.892154335975647,"555":-3.6681673526763916,"556":-1.0160433053970337,"557":4.457672595977783,"558":3.9308788776397705,"559":-5.111517906188965,"560":0.7061915993690491,"561":0.7921411991119385,"562":2.8034634590148926,"563":2.8239266872406006,"564":-4.8111114501953125,"565":-0.30062830448150635,"566":2.7428431510925293,"567":-0.5067921876907349,"568":1.6986322402954102,"569":4.237402439117432,"570":2.289118528366089,"571":-1.9132946729660034,"572":-2.5328550338745117,"573":2.473912000656128,"574":5.7665324211120605,"575":-0.31372973322868347,"576":-5.740589141845703,"577":2.3945069313049316,"578":-5.172640800476074,"579":0.10859490185976028,"580":0.5470070838928223,"581":1.6309669017791748,"582":5.338408946990967,"583":-2.08242130279541,"584":0.8447312116622925,"585":0.4812844693660736,"586":-3.7238967418670654,"587":5.402200698852539,"588":4.720765590667725,"589":2.873142957687378,"590":-1.5290733575820923,"591":-1.4942104816436768,"592":-2.2570722103118896,"593":2.413328170776367,"594":0.8704928159713745,"595":2.858191728591919,"596":-1.2605509757995605,"597":3.0765879154205322,"598":6.0025458335876465,"599":5.935792922973633,"600":1.2694165706634521,"601":-1.3524600267410278,"602":-4.923905372619629,"603":-2.8040928840637207,"604":-2.83376145362854,"605":4.493011474609375,"606":1.4865388870239258,"607":4.868415355682373,"608":4.1678080558776855,"609":0.333953857421875,"610":1.8642051219940186,"611":1.3666282892227173,"612":2.2100632190704346,"613":3.4493210315704346,"614":0.6601231098175049,"615":-0.007008031476289034,"616":-5.650129318237305,"617":1.8858424425125122,"618":2.9382052421569824,"619":0.5747302770614624}},"outputHidden":{"rows":20,"columns":20,"weights":{"0":1.179996371269226,"1":5.418315887451172,"2":6.833425521850586,"3":3.4066388607025146,"4":-4.143178939819336,"5":-19.028261184692383,"6":10.036011695861816,"7":-15.69096851348877,"8":12.823075294494629,"9":4.535056114196777,"10":-7.106662750244141,"11":5.425449371337891,"12":5.443622589111328,"13":-25.89304542541504,"14":-7.580057144165039,"15":11.958488464355469,"16":19.777366638183594,"17":-12.117756843566895,"18":13.33828353881836,"19":-2.215132713317871,"20":-4.05764627456665,"21":-4.3907060623168945,"22":-2.9476306438446045,"23":3.630746841430664,"24":9.094901084899902,"25":3.98227858543396,"26":-2.0768816471099854,"27":-3.2505502700805664,"28":-7.006321430206299,"29":4.715583801269531,"30":-4.000476360321045,"31":-0.18179115653038025,"32":2.3514578342437744,"33":-2.990335464477539,"34":-3.013329029083252,"35":-4.34458065032959,"36":-8.203316688537598,"37":-2.4264073371887207,"38":1.2428781986236572,"39":-10.477982521057129,"40":-18.15182113647461,"41":-4.145850658416748,"42":16.787166595458984,"43":-20.052223205566406,"44":-8.467085838317871,"45":8.600759506225586,"46":17.989429473876953,"47":-3.3332996368408203,"48":-6.341575622558594,"49":-11.891101837158203,"50":3.480058193206787,"51":-5.9353132247924805,"52":2.120133638381958,"53":-21.169189453125,"54":0.3082631826400757,"55":5.523473262786865,"56":0.18657398223876953,"57":-14.382877349853516,"58":0.5623689889907837,"59":4.891846656799316,"60":-1.5829061269760132,"61":-23.450477600097656,"62":-4.227499485015869,"63":-3.3634064197540283,"64":6.101405143737793,"65":15.25698184967041,"66":-9.72365665435791,"67":12.467986106872559,"68":4.081972599029541,"69":3.208081007003784,"70":3.061901569366455,"71":6.670593738555908,"72":3.3938937187194824,"73":6.3182549476623535,"74":13.383946418762207,"75":-3.954864978790283,"76":-1.8080822229385376,"77":-8.686787605285645,"78":2.062199354171753,"79":-14.504098892211914,"80":3.8624114990234375,"81":-12.407881736755371,"82":-22.304784774780273,"83":1.654578685760498,"84":-10.650270462036133,"85":5.412200450897217,"86":-3.263507127761841,"87":-7.5870208740234375,"88":-24.026731491088867,"89":-12.604303359985352,"90":-12.649062156677246,"91":0.2444697469472885,"92":11.185110092163086,"93":-7.96781063079834,"94":0.07851850241422653,"95":-3.746978998184204,"96":-6.167408466339111,"97":-16.981149673461914,"98":0.10333549976348877,"99":-17.172945022583008,"100":7.788271903991699,"101":-3.725454092025757,"102":-4.8637518882751465,"103":-9.310931205749512,"104":-8.964324951171875,"105":7.318770885467529,"106":-3.3741343021392822,"107":7.17095422744751,"108":4.548696041107178,"109":-6.061793804168701,"110":-10.44085693359375,"111":-4.260610580444336,"112":-2.0343878269195557,"113":-12.898967742919922,"114":14.321993827819824,"115":0.7197558879852295,"116":2.351717948913574,"117":-4.804393291473389,"118":-3.5530200004577637,"119":10.158943176269531,"120":1.635870337486267,"121":-7.18623161315918,"122":-2.4636948108673096,"123":-10.368062019348145,"124":3.934925079345703,"125":-5.560375213623047,"126":-13.326723098754883,"127":-3.4971249103546143,"128":-8.022355079650879,"129":10.433049201965332,"130":-3.8092989921569824,"131":-6.341780185699463,"132":12.174948692321777,"133":5.339458465576172,"134":-0.662322461605072,"135":-1.2436386346817017,"136":2.691518545150757,"137":5.801264762878418,"138":7.832088947296143,"139":-0.8171203136444092,"140":3.5813677310943604,"141":10.902649879455566,"142":0.25470852851867676,"143":-3.377511501312256,"144":5.2667975425720215,"145":6.245229721069336,"146":3.3107569217681885,"147":4.191514492034912,"148":-5.350071907043457,"149":-4.853049278259277,"150":2.158179759979248,"151":-1.8023860454559326,"152":-3.2971177101135254,"153":0.4106137156486511,"154":-4.547060012817383,"155":3.3796701431274414,"156":-1.758795142173767,"157":3.015496253967285,"158":2.0466806888580322,"159":0.8747572898864746,"160":0.5569496750831604,"161":4.690664768218994,"162":-1.1674281358718872,"163":3.767857074737549,"164":4.841283798217773,"165":-2.0302469730377197,"166":0.8605009317398071,"167":-5.954421043395996,"168":11.217047691345215,"169":-4.517899513244629,"170":6.428158283233643,"171":6.173407077789307,"172":11.448080062866211,"173":0.5665704607963562,"174":-3.584259510040283,"175":-11.487314224243164,"176":0.06233631819486618,"177":3.0620415210723877,"178":0.5859516263008118,"179":7.7672882080078125,"180":8.576560020446777,"181":-5.022073745727539,"182":-3.5450527667999268,"183":-6.198312282562256,"184":3.9513955116271973,"185":-1.5976883172988892,"186":5.378488063812256,"187":0.3256884813308716,"188":-10.09260082244873,"189":-0.39380985498428345,"190":10.527169227600098,"191":-3.0619935989379883,"192":11.226027488708496,"193":-0.626304566860199,"194":3.0769851207733154,"195":14.318283081054688,"196":-2.9358599185943604,"197":-7.669643402099609,"198":4.474040508270264,"199":-5.209856033325195,"200":-0.03965524211525917,"201":-8.237634658813477,"202":-11.289395332336426,"203":4.845541954040527,"204":2.4549713134765625,"205":2.9630327224731445,"206":-1.296363353729248,"207":7.582789897918701,"208":-3.935743570327759,"209":6.6152777671813965,"210":8.253135681152344,"211":-11.30984115600586,"212":-1.6285418272018433,"213":-5.48031759262085,"214":2.241786241531372,"215":-3.145298957824707,"216":1.8331180810928345,"217":-2.807828426361084,"218":1.1922253370285034,"219":3.0058300495147705,"220":-11.586990356445312,"221":1.2490249872207642,"222":0.34917768836021423,"223":6.457605838775635,"224":9.830183982849121,"225":20.68842887878418,"226":3.061903715133667,"227":10.09772777557373,"228":-12.341883659362793,"229":10.63961410522461,"230":-14.056079864501953,"231":-1.8153895139694214,"232":2.5812649726867676,"233":-6.761714458465576,"234":-11.393658638000488,"235":0.3476887345314026,"236":-10.618701934814453,"237":1.6239694356918335,"238":-7.133508205413818,"239":-20.299325942993164,"240":7.114407062530518,"241":-20.738691329956055,"242":-11.849809646606445,"243":-18.23821258544922,"244":9.161552429199219,"245":-10.817294120788574,"246":-16.398515701293945,"247":15.799642562866211,"248":-9.75179672241211,"249":4.369459629058838,"250":13.56763744354248,"251":-15.538583755493164,"252":6.435184001922607,"253":13.844411849975586,"254":-12.469290733337402,"255":-6.528039455413818,"256":4.014407634735107,"257":-6.942744255065918,"258":-5.806381702423096,"259":6.446990013122559,"260":-7.9149250984191895,"261":1.835059404373169,"262":-3.7897872924804688,"263":5.082596778869629,"264":-6.440997123718262,"265":-5.177017688751221,"266":-7.511297225952148,"267":-2.667015314102173,"268":-4.323281764984131,"269":-6.1965508460998535,"270":3.4653961658477783,"271":-0.24855533242225647,"272":0.5218149423599243,"273":11.172348022460938,