{"type":"LSTM","options":{"inputSize":41,"inputRange":41,"hiddenLayers":[20,20],"outputSize":41,"decayRate":0.999,"smoothEps":1e-8,"regc":0.000001,"clipval":5,"maxPredictionLength":100,"dataFormatter":{"indexTable":{"A":0,"n":1,"d":2," ":3,"H":4,"u":5,"s":6,"h":7,"a":8,"i":9,"c":10,"o":11,"m":12,"e":13,"t":14,"b":15,"l":16,",":17,"p":18,"k":19,"y":20,"g":21,"'":22,"r":23,"w":24,";":25,"?":26,"f":27,"-":28,".":29,"N":30,"T":31,"v":32,"I":33,"S":34,":":35,"L":36,"D":37,"B":38,"Y":39,"Z":40},"characterTable":{"0":"A","1":"n","2":"d","3":" ","4":"H","5":"u","6":"s","7":"h","8":"a","9":"i","10":"c","11":"o","12":"m","13":"e","14":"t","15":"b","16":"l","17":",","18":"p","19":"k","20":"y","21":"g","22":"'","23":"r","24":"w","25":";","26":"?","27":"f","28":"-","29":".","30":"N","31":"T","32":"v","33":"I","34":"S","35":":","36":"L","37":"D","38":"B","39":"Y","40":"Z"},"values":["And Hushai cometh in unto Absalom, and Absalom speaketh unto him, saying, 'According to this word hath Ahithophel spoken; do we do his word? if not, thou -- speak thou.'","And Hushai saith unto Absalom, 'Not good  the counsel that Ahithophel hath counselled at this time.'","And Hushai saith, 'Thou hast known thy father and his men, that they 'are' heroes, and they are bitter in soul as a bereaved bear in a field, and thy father  a man of war, and doth not lodge with the people;","lo, now, he is hidden in one of the pits, or in one of the places, and it hath been, at the falling among them at the commencement, that the hearer hath heard, and said, There hath been a slaughter among the people who 'are' after Absalom;","and he also, the son of valour, whose heart  as the heart of the lion, doth utterly melt, for all Israel doth know that thy father is a hero, and sons of valour 'are' those with him.","'So that I have counselled: Let all Israel be diligently gathered unto thee, from Dan even unto Beer-Sheba, as the sand that  by the sea for multitude, and thou thyself art going in the midst;","and we have come in unto him in one of the places where he is found, and we 'are' upon him as the dew falleth on the ground, and there hath not been left of him and of all the men who 'are' with him even one.","And if unto a city he is gathered, then they have caused all Israel to bear unto that city ropes, and we have drawn it unto the brook till that there hath not been found there even a stone.'","And Absalom saith -- and all the men of Israel -- 'Better  the counsel of Hushai the Archite than the counsel of Ahithophel;' and Yahweh willed to make void the good counsel of Ahithophel for the sake of Yahweh's bringing unto Absalom the evil.","And Hushai saith unto Zadok and unto Abiathar the priests, 'Thus and thus hath Ahithophel counselled Absalom and the elders of Israel, and thus and thus I have counselled;"],"characters":["A","n","d"," ","H","u","s","h","a","i","c","o","m","e","t","b","l",",","p","k","y","g","'","r","w",";","?","f","-",".","N","T","v","I","S",":","L","D","B","Y","Z"],"specialIndexes":[]}},"input":{"rows":42,"columns":41,"weights":{"0":-1.5610976219177246,"1":2.3999006748199463,"2":1.1557084321975708,"3":0.8039045929908752,"4":-1.9173314571380615,"5":1.2810217142105103,"6":3.0320215225219727,"7":-1.3419312238693237,"8":2.220229387283325,"9":0.23430289328098297,"10":0.4999256730079651,"11":-0.6041903495788574,"12":0.44045931100845337,"13":1.3408178091049194,"14":-1.4870842695236206,"15":-1.9450618028640747,"16":0.7310851812362671,"17":-0.3677231967449188,"18":2.765580415725708,"19":0.9105947017669678,"20":0.6488720774650574,"21":1.0783156156539917,"22":0.5492917895317078,"23":0.6234531402587891,"24":-1.5636329650878906,"25":-1.6183483600616455,"26":2.942250967025757,"27":1.6145830154418945,"28":-0.3976545035839081,"29":1.2520971298217773,"30":2.570105791091919,"31":-0.17306993901729584,"32":2.959671974182129,"33":0.7390790581703186,"34":-0.1887434720993042,"35":3.0102150440216064,"36":1.921762228012085,"37":1.6947429180145264,"38":2.8331005573272705,"39":-0.062336865812540054,"40":0.6203256845474243,"41":-5.3369317054748535,"42":3.572993040084839,"43":5.094402313232422,"44":2.6667895317077637,"45":-3.575099229812622,"46":-4.55906867980957,"47":4.758174896240234,"48":-8.129220008850098,"49":4.858401775360107,"50":-8.618353843688965,"51":-4.7507805824279785,"52":-7.1261515617370605,"53":-4.758241176605225,"54":0.883968710899353,"55":-7.136281490325928,"56":-8.796623229980469,"57":-2.792440176010132,"58":2.5357327461242676,"59":4.118950843811035,"60":1.9667177200317383,"61":2.0579683780670166,"62":-3.8292157649993896,"63":9.167413711547852,"64":4.125912666320801,"65":0.23919345438480377,"66":4.954562187194824,"67":-5.30467414855957,"68":-2.3183071613311768,"69":-2.0945940017700195,"70":0.29633188247680664,"71":4.329584121704102,"72":-3.6539735794067383,"73":-0.3704827129840851,"74":-5.741513252258301,"75":-3.9223296642303467,"76":-3.2233026027679443,"77":-2.2566306591033936,"78":7.744412422180176,"79":6.349335670471191,"80":-0.15504629909992218,"81":4.6762261390686035,"82":-1.5303711891174316,"83":-2.1878364086151123,"84":0.3315761387348175,"85":1.2076696157455444,"86":-1.0172274112701416,"87":1.6469731330871582,"88":0.4224783182144165,"89":0.6762606501579285,"90":-2.8041415214538574,"91":3.691462755203247,"92":1.2344505786895752,"93":1.3953849077224731,"94":-0.611151397228241,"95":0.7392950654029846,"96":-1.0556858777999878,"97":-0.7471684217453003,"98":1.6470016241073608,"99":-2.316704511642456,"100":-0.059628985822200775,"101":0.30713319778442383,"102":5.344941139221191,"103":-3.0374670028686523,"104":0.9464856386184692,"105":3.5897490978240967,"106":-0.7050482034683228,"107":-3.271754503250122,"108":-0.2818818986415863,"109":2.0621566772460938,"110":2.9061667919158936,"111":1.9713144302368164,"112":2.556730270385742,"113":1.4520868062973022,"114":-0.164668470621109,"115":0.6602100133895874,"116":-0.5656734108924866,"117":-2.1415321826934814,"118":-0.47866570949554443,"119":1.0310665369033813,"120":-3.559790849685669,"121":-1.3365199565887451,"122":0.06256093829870224,"123":5.523378372192383,"124":-2.7690722942352295,"125":-3.2171406745910645,"126":-2.5366482734680176,"127":5.101019382476807,"128":2.7492504119873047,"129":0.49045300483703613,"130":-0.26099351048469543,"131":-3.2293152809143066,"132":1.7078382968902588,"133":-0.4293246269226074,"134":1.9661518335342407,"135":3.155543327331543,"136":-4.050853252410889,"137":3.5453999042510986,"138":0.8842756152153015,"139":0.9363372325897217,"140":-1.3174887895584106,"141":1.1759449243545532,"142":-1.3118884563446045,"143":-1.1909207105636597,"144":-2.228217601776123,"145":-0.7716927528381348,"146":0.3311549723148346,"147":-1.4567068815231323,"148":0.7024571895599365,"149":1.314065933227539,"150":-0.8898937702178955,"151":-1.9045640230178833,"152":1.0045498609542847,"153":-1.4717530012130737,"154":-0.5201286673545837,"155":3.7252354621887207,"156":-3.496687173843384,"157":0.9741971492767334,"158":-1.649702548980713,"159":-5.038796424865723,"160":0.46763432025909424,"161":0.06282857805490494,"162":2.161097288131714,"163":1.4174498319625854,"164":0.2670842111110687,"165":0.2232765257358551,"166":1.5416985750198364,"167":0.8940019011497498,"168":-0.04165123403072357,"169":2.1484267711639404,"170":1.6107275485992432,"171":-2.629549980163574,"172":-2.050197124481201,"173":-0.791196346282959,"174":-0.21358639001846313,"175":-0.5291815400123596,"176":0.2737269103527069,"177":-0.8432488441467285,"178":0.34200528264045715,"179":-1.6662777662277222,"180":0.7789855003356934,"181":-4.444410800933838,"182":0.7339203357696533,"183":2.5019116401672363,"184":-1.97999107837677,"185":0.8047590255737305,"186":0.9118416905403137,"187":0.7897443175315857,"188":-0.7353464961051941,"189":0.43478643894195557,"190":0.5156424045562744,"191":-3.574502468109131,"192":-4.215566635131836,"193":0.763766884803772,"194":1.9257125854492188,"195":3.1568219661712646,"196":3.151724100112915,"197":-1.1521129608154297,"198":-4.300301551818848,"199":-0.7611355185508728,"200":-1.2462290525436401,"201":-1.997751235961914,"202":1.1214120388031006,"203":2.3443565368652344,"204":0.023566491901874542,"205":1.4498717784881592,"206":-2.3103272914886475,"207":1.2232657670974731,"208":-2.8605356216430664,"209":1.4672973155975342,"210":0.899463415145874,"211":-1.8510396480560303,"212":2.135650873184204,"213":0.3815401792526245,"214":0.14521367847919464,"215":-1.3336737155914307,"216":0.4950277507305145,"217":0.3987937271595001,"218":-1.0537469387054443,"219":0.7275944948196411,"220":1.445115327835083,"221":0.14276055991649628,"222":0.262793630361557,"223":1.2432453632354736,"224":-0.3346995711326599,"225":-1.9269016981124878,"226":0.21463537216186523,"227":-0.9186643958091736,"228":-0.004307336173951626,"229":-1.4320839643478394,"230":0.2533175051212311,"231":-0.5427926182746887,"232":0.06418287009000778,"233":0.8990406394004822,"234":0.013721676543354988,"235":0.16258296370506287,"236":0.4375187158584595,"237":-2.3855178356170654,"238":-0.025378119200468063,"239":-2.103180408477783,"240":-0.31028756499290466,"241":1.1279860734939575,"242":0.8387691974639893,"243":-1.7118455171585083,"244":-1.8252043724060059,"245":-2.5259296894073486,"246":-2.97468900680542,"247":2.7354612350463867,"248":3.449084997177124,"249":2.78458571434021,"250":-4.166414737701416,"251":0.11649741232395172,"252":1.00896155834198,"253":-2.5438451766967773,"254":0.565987229347229,"255":-2.0382251739501953,"256":1.1834920644760132,"257":-4.246883869171143,"258":-1.0626130104064941,"259":2.3085479736328125,"260":-3.3307113647460938,"261":-2.1508240699768066,"262":-2.0273807048797607,"263":1.1479040384292603,"264":1.090667486190796,"265":1.25319504737854,"266":3.072906494140625,"267":2.9590704441070557,"268":0.6651671528816223,"269":2.934964179992676,"270":1.8304368257522583,"271":-0.6462552547454834,"272":0.8490729928016663,"273":-3.07623553276062,"274":0.2614499628543854,"275":1.3856475353240967,"276":1.0880126953125,"277":-0.025545237585902214,"278":-1.1414988040924072,"279":3.243685722351074,"280":3.7523107528686523,"281":3.7842915058135986,"282":-2.2912375926971436,"283":1.4305163621902466,"284":2.9505114555358887,"285":2.789790391921997,"286":-0.7266759276390076,"287":0.0009448525379411876,"288":-0.5479372143745422,"289":-2.9837424755096436,"290":3.203582286834717,"291":-0.07517454028129578,"292":-0.07353312522172928,"293":-0.09893921762704849,"294":-0.8741873502731323,"295":-1.8846542835235596,"296":-4.34616756439209,"297":-0.7919048070907593,"298":-1.2480090856552124,"299":-2.9197983741760254,"300":-0.5648421049118042,"301":2.6195480823516846,"302":0.1568172425031662,"303":3.1729471683502197,"304":2.011779546737671,"305":-1.3342779874801636,"306":-0.7357199788093567,"307":-0.6980081796646118,"308":-2.683770179748535,"309":0.34253859519958496,"310":-2.1364009380340576,"311":2.9973816871643066,"312":2.3795523643493652,"313":-0.5978350639343262,"314":-0.5277585387229919,"315":-1.866344928741455,"316":-1.055363655090332,"317":2.023848533630371,"318":-2.7166476249694824,"319":2.976820945739746,"320":-1.429474949836731,"321":0.4627517759799957,"322":2.2213613986968994,"323":-5.920913219451904,"324":-3.4948177337646484,"325":-2.228983163833618,"326":0.6370216608047485,"327":0.6773406267166138,"328":-2.1097259521484375,"329":1.4495576620101929,"330":-0.07516487687826157,"331":2.092625141143799,"332":1.043806791305542,"333":2.113290548324585,"334":2.274909496307373,"335":0.20088516175746918,"336":0.7719730138778687,"337":-0.672522246837616,"338":-0.7140613198280334,"339":0.811417818069458,"340":0.6704841256141663,"341":1.6347473859786987,"342":-1.086511254310608,"343":0.595779299736023,"344":0.3252263069152832,"345":1.9141660928726196,"346":4.4625420570373535,"347":1.2234203815460205,"348":-3.2134616374969482,"349":0.6280035376548767,"350":-0.17299526929855347,"351":-0.06436029076576233,"352":-5.130794525146484,"353":-1.9617280960083008,"354":-0.7732488512992859,"355":1.5205310583114624,"356":0.689486563205719,"357":1.47865891456604,"358":8.18758773803711,"359":3.068932294845581,"360":2.329286575317383,"361":0.7726638913154602,"362":-2.1670360565185547,"363":-1.8457943201065063,"364":0.6397993564605713,"365":3.8039186000823975,"366":1.364050030708313,"367":2.351956605911255,"368":-4.174734592437744,"369":-1.9257185459136963,"370":-3.016122341156006,"371":0.2985409200191498,"372":-1.1653372049331665,"373":1.43723726272583,"374":0.9974631667137146,"375":-1.059314489364624,"376":-1.3140679597854614,"377":-2.636622190475464,"378":0.5001175999641418,"379":-1.9546204805374146,"380":3.7270443439483643,"381":3.744887351989746,"382":1.534380316734314,"383":1.9313081502914429,"384":1.866098165512085,"385":-0.5234637260437012,"386":-0.4848739802837372,"387":0.946678638458252,"388":-2.198511838912964,"389":-0.09965594112873077,"390":-2.526149034500122,"391":0.9649777412414551,"392":-0.07387406378984451,"393":0.03592883050441742,"394":1.3888115882873535,"395":-0.20097781717777252,"396":4.8521809577941895,"397":1.0028069019317627,"398":-0.9319788813591003,"399":-0.37800851464271545,"400":0.6251636147499084,"401":-0.6552965044975281,"402":4.51981258392334,"403":-0.741887629032135,"404":-1.217734694480896,"405":1.553169846534729,"406":1.6578471660614014,"407":-2.6864235401153564,"408":-4.4135847091674805,"409":0.6161506175994873,"410":1.5948790311813354,"411":-3.365936040878296,"412":-0.9580813646316528,"413":-4.5821757316589355,"414":2.7454044818878174,"415":6.114623069763184,"416":-0.9800049662590027,"417":2.6833910942077637,"418":0.9996377825737,"419":1.0454399585723877,"420":-2.4372358322143555,"421":-0.4016108512878418,"422":0.423347532749176,"423":-6.3125152587890625,"424":1.20455002784729,"425":3.4272847175598145,"426":-1.924078106880188,"427":0.4172493517398834,"428":2.84907865524292,"429":-1.491060733795166,"430":0.30464890599250793,"431":0.04436977207660675,"432":2.800964593887329,"433":-0.18178978562355042,"434":-2.1665916442871094,"435":-1.2292295694351196,"436":1.164343237876892,"437":1.237926721572876,"438":0.9686940312385559,"439":0.1627463698387146,"440":2.7364330291748047,"441":-3.411651849746704,"442":2.420795440673828,"443":-2.041593551635742,"444":1.347070574760437,"445":1.1607625484466553,"446":0.8034563660621643,"447":3.5140750408172607,"448":-1.7255011796951294,"449":-0.3403986692428589,"450":-0.31517109274864197,"451":-2.571945905685425,"452":0.86054527759552,"453":3.562453269958496,"454":-0.2968406677246094,"455":-3.295376777648926,"456":-0.4495380222797394,"457":-2.444650173187256,"458":1.9372745752334595,"459":4.130323886871338,"460":-0.07512716203927994,"461":-0.44507285952568054,"462":3.4292311668395996,"463":0.47247275710105896,"464":-0.8820355534553528,"465":3.0561156272888184,"466":-2.04109525680542,"467":-2.644789695739746,"468":1.7517656087875366,"469":0.817592978477478,"470":-1.908651351928711,"471":-1.7004919052124023,"472":5.1557722091674805,"473":-4.523914337158203,"474":-6.75633430480957,"475":2.25439715385437,"476":0.6869732141494751,"477":0.8431225419044495,"478":2.6547694206237793,"479":-0.3325120806694031,"480":-1.008210301399231,"481":-5.99137544631958,"482":-3.6359174251556396,"483":-2.3907246589660645,"484":-3.0667707920074463,"485":-2.3607912063598633,"486":5.3232502937316895,"487":-1.61921226978302,"488":-2.7566704750061035,"489":0.17397478222846985,"490":-2.346799612045288,"491":2.2298293113708496,"492":4.4506072998046875,"493":-2.4967305660247803,"494":-4.357667446136475,"495":-1.9677298069000244,"496":2.0581960678100586,"497":2.412008762359619,"498":-0.6055929064750671,"499":3.6034276485443115,"500":0.12238733470439911,"501":6.404173851013184,"502":-1.7514820098876953,"503":1.4685221910476685,"504":1.198480248451233,"505":-3.1194941997528076,"506":2.130568265914917,"507":1.6638447046279907,"508":0.8569871187210083,"509":-0.17601120471954346,"510":-0.23918214440345764,"511":-2.4843225479125977,"512":1.837492823600769,"513":0.32064521312713623,"514":-0.7546967267990112,"515":-2.078125,"516":0.3556883931159973,"517":-0.7927599549293518,"518":2.0771007537841797,"519":2.6539554595947266,"520":2.0435638427734375,"521":0.022196542471647263,"522":-2.1157021522521973,"523":-1.5002959966659546,"524":-0.11382275074720383,"525":-0.50388103723526,"526":1.2851771116256714,"527":-1.4054656028747559,"528":1.721557855606079,"529":-0.3623920679092407,"530":-3.2322275638580322,"531":-1.8734875917434692,"532":0.6346118450164795,"533":-1.6881155967712402,"534":1.0405468940734863,"535":0.009454550221562386,"536":-1.5871819257736206,"537":-0.06589797139167786,"538":1.3527839183807373,"539":-3.259817123413086,"540":2.790050983428955,"541":-5.056399345397949,"542":-0.025908833369612694,"543":3.4696202278137207,"544":0.024868126958608627,"545":0.6788621544837952,"546":0.6377637982368469,"547":0.9882891774177551,"548":1.5253692865371704,"549":-0.26560527086257935,"550":-7.318204879760742,"551":3.4623281955718994,"552":-1.9268089532852173,"553":-5.115212440490723,"554":-1.234863519668579,"555":-3.7697455883026123,"556":-2.692169666290283,"557":-1.2900968790054321,"558":-3.5061588287353516,"559":0.3398282527923584,"560":-0.9694163799285889,"561":-2.706387519836426,"562":3.7648627758026123,"563":2.2362842559814453,"564":-0.9748933911323547,"565":0.7605984807014465,"566":0.5193573832511902,"567":-3.084467887878418,"568":2.584541082382202,"569":0.6677687168121338,"570":3.131497383117676,"571":-1.311980128288269,"572":2.3001186847686768,"573":-4.47945499420166,"574":-2.8108696937561035,"575":1.1856995820999146,"576":0.10469871014356613,"577":0.36496949195861816,"578":-0.3948996365070343,"579":-2.4167120456695557,"580":-2.1091673374176025,"581":2.2633843421936035,"582":1.167222261428833,"583":-2.1377484798431396,"584":1.8723739385604858,"585":-1.4177783727645874,"586":0.580082356929779,"587":-0.9339061975479126,"588":-1.8491086959838867,"589":-0.31616538763046265,"590":1.0120824575424194,"591":1.082558035850525,"592":0.7785876989364624,"593":-0.950096070766449,"594":-0.62954181432724,"595":2.1847147941589355,"596":2.0840396881103516,"597":-1.7488819360733032,"598":-2.1722252368927,"599":-1.2148096561431885,"600":-0.3956974148750305,"601":-1.0933388471603394,"602":-0.943604052066803,"603":2.127211093902588,"604":2.6132800579071045,"605":1.2123496532440186,"606":0.4049144387245178,"607":2.066978693008423,"608":-0.6160223484039307,"609":-1.0448827743530273,"610":5.607024669647217,"611":-0.563107967376709,"612":2.9392216205596924,"613":-0.10596255958080292,"614":0.24136099219322205,"615":-1.0556682348251343,"616":-1.9848154783248901,"617":0.20963026583194733,"618":-1.441780686378479,"619":3.2220358848571777,"620":-1.6036394834518433,"621":-2.5863916873931885,"622":1.2661083936691284,"623":-4.234631538391113,"624":0.6911870241165161,"625":0.3136231303215027,"626":1.939822793006897,"627":3.016144037246704,"628":-1.023484706878662,"629":1.2027466297149658,"630":4.664331436157227,"631":-0.15864665806293488,"632":-2.516268014907837,"633":0.41734033823013306,"634":-1.4483866691589355,"635":-0.41109365224838257,"636":-0.8038047552108765,"637":-2.525482177734375,"638":-2.2414162158966064,"639":-1.1357072591781616,"640":-2.54335618019104,"641":0.8799634575843811,"642":2.842998743057251,"643":-1.3044649362564087,"644":0.162944957613945,"645":-0.6534013748168945,"646":1.7585303783416748,"647":-1.6090103387832642,"648":1.770376205444336,"649":-1.3284560441970825,"650":-2.0320115089416504,"651":2.1754114627838135,"652":-0.6551533341407776,"653":-4.419921398162842,"654":-1.200663447380066,"655":-2.1261446475982666,"656":-1.1301779747009277,"657":-0.1014804020524025,"658":4.763973236083984,"659":2.25862979888916,"660":0.9287712574005127,"661":3.083848237991333,"662":-0.7125313878059387,"663":1.7721726894378662,"664":7.51154899597168,"665":2.861304998397827,"666":-3.8069019317626953,"667":1.2700456380844116,"668":1.121602177619934,"669":-2.568453550338745,"670":-1.1114282608032227,"671":-2.9251387119293213,"672":2.7738661766052246,"673":5.192992687225342,"674":3.252807855606079,"675":-1.460640549659729,"676":1.1884814500808716,"677":-0.8127849698066711,"678":1.2022150754928589,"679":-1.2122666835784912,"680":-4.449219226837158,"681":-0.11093293130397797,"682":-0.511725902557373,"683":4.527287483215332,"684":-0.9428680539131165,"685":-1.230494737625122,"686":4.855647087097168,"687":-3.2408878803253174,"688":1.2257094383239746,"689":1.2542327642440796,"690":1.786849021911621,"691":-0.1539861112833023,"692":5.24163293838501,"693":3.829007387161255,"694":3.2384867668151855,"695":-2.0548348426818848,"696":6.363858222961426,"697":-2.492523193359375,"698":-3.488093852996826,"699":-1.448944091796875,"700":-1.9746885299682617,"701":7.157477378845215,"702":4.867025375366211,"703":4.674184799194336,"704":-2.139288902282715,"705":-6.433263301849365,"706":-1.7006433010101318,"707":-1.0695668458938599,"708":1.8626877069473267,"709":1.9791240692138672,"710":-2.314694881439209,"711":-1.4517838954925537,"712":5.407480716705322,"713":-3.2368972301483154,"714":-0.4433203935623169,"715":4.371277809143066,"716":2.7207295894622803,"717":-2.595003843307495,"718":-1.1471059322357178,"719":-3.2379186153411865,"720":-0.012287193909287453,"721":0.5039944648742676,"722":-0.1270148903131485,"723":-2.401280403137207,"724":-0.915244996547699,"725":-0.5129021406173706,"726":-3.3363711833953857,"727":1.7967097759246826,"728":1.2236639261245728,"729":2.5210273265838623,"730":0.9759635925292969,"731":-2.5042834281921387,"732":-0.08461610227823257,"733":0.7721841335296631,"734":7.143930435180664,"735":-0.4714050889015198,"736":3.6725480556488037,"737":-5.006148815155029,"738":-4.7784223556518555,"739":5.273493766784668,"740":-3.2590856552124023,"741":-2.165546417236328,"742":2.7893805503845215,"743":0.7008248567581177,"744":-4.957845211029053,"745":-0.17783908545970917,"746":-8.895995140075684,"747":-1.270363211631775,"748":7.011897087097168,"749":0.060058820992708206,"750":-1.7300918102264404,"751":-0.21633805334568024,"752":-0.3840406835079193,"753":-1.8864532709121704,"754":4.715784549713135,"755":-4.223443508148193,"756":0.13702593743801117,"757":3.7160754203796387,"758":-7.015573501586914,"759":-2.8556768894195557,"760":3.233325481414795,"761":-0.7992556095123291,"762":-8.097634315490723,"763":-3.0590949058532715,"764":-4.107090473175049,"765":2.7206125259399414,"766":-5.639669895172119,"767":1.6315292119979858,"768":6.576043605804443,"769":0.05076257884502411,"770":5.985881805419922,"771":2.4077389240264893,"772":-5.986804962158203,"773":0.44444525241851807,"774":-4.530533790588379,"775":0.9618541598320007,"776":4.286098003387451,"777":0.08355826139450073,"778":-3.597008466720581,"779":-4.4940996170043945,"780":-0.9834174513816833,"781":1.2760056257247925,"782":3.5154008865356445,"783":6.0541863441467285,"784":8.794027328491211,"785":8.731608390808105,"786":-11.422386169433594,"787":-2.915492057800293,"788":0.7669795155525208,"789":0.7830922603607178,"790":-1.486526608467102,"791":4.538261413574219,"792":5.804458141326904,"793":-0.6182138323783875,"794":4.156460285186768,"795":6.308367729187012,"796":-8.323205947875977,"797":6.266967296600342,"798":9.481508255004883,"799":1.0630406141281128,"800":-5.13455057144165,"801":7.664653778076172,"802":-0.7754058837890625,"803":-3.537944793701172,"804":-4.11149787902832,"805":2.271481990814209,"806":3.4384660720825195,"807":-8.154388427734375,"808":0.8036578297615051,"809":7.18066930770874,"810":-1.150713324546814,"811":9.956228256225586,"812":4.0640764236450195,"813":-8.795351028442383,"814":0.37511736154556274,"815":-4.4973225593566895,"816":1.625870943069458,"817":2.815075397491455,"818":2.548790454864502,"819":0.385506808757782,"820":-7.027655601501465,"821":2.3612060546875,"822":-5.6761040687561035,"823":-0.2806684374809265,"824":-0.5873996615409851,"825":-0.4702991247177124,"826":7.312162399291992,"827":-10.960956573486328,"828":-3.591702938079834,"829":1.4153207540512085,"830":9.308300018310547,"831":-4.6505327224731445,"832":-8.515504837036133,"833":-3.109276294708252,"834":-0.4669609069824219,"835":-1.0924441814422607,"836":1.6598840951919556,"837":-7.54868745803833,"838":8.764667510986328,"839":3.142155885696411,"840":1.2857204675674438,"841":-5.102926254272461,"842":7.828287601470947,"843":1.9896819591522217,"844":-8.122747421264648,"845":-2.6792221069335938,"846":6.831605434417725,"847":5.803683757781982,"848":1.6252259016036987,"849":6.862985610961914,"850":4.518805503845215,"851":5.4742512702941895,"852":8.485749244689941,"853":6.8399224281311035,"854":0.7473294138908386,"855":-2.842862844467163,"856":6.012257099151611,"857":5.234415054321289,"858":-0.8082224726676941,"859":7.033928871154785,"860":0.497180700302124,"861":1.5273386240005493,"862":-2.5436465740203857,"863":0.5359287261962891,"864":-2.8038487434387207,"865":-1.2196320295333862,"866":0.9000882506370544,"867":-2.4410910606384277,"868":3.1849725246429443,"869":-0.2639539837837219,"870":-1.8079811334609985,"871":-3.1732523441314697,"872":2.000312089920044,"873":0.374234139919281,"874":-1.6341242790222168,"875":1.1905081272125244,"876":0.8200728893280029,"877":4.3230791091918945,"878":-0.8523958921432495,"879":0.8692041635513306,"880":-2.524005651473999,"881":-0.6783357858657837,"882":-1.0023367404937744,"883":4.4326605796813965,"884":2.499048948287964,"885":-3.5906684398651123,"886":-4.715864658355713,"887":3.2069878578186035,"888":6.5618062019348145,"889":-0.5335076451301575,"890":4.533044815063477,"891":4.004086971282959,"892":3.618516683578491,"893":8.409090042114258,"894":4.327675819396973,"895":6.019741535186768,"896":-0.2233881950378418,"897":6.287670135498047,"898":3.0573902130126953,"899":-1.3188450336456299,"900":-1.268774151802063,"901":3.533970355987549,"902":4.296773910522461,"903":2.5892977714538574,"904":-2.8161637783050537,"905":-9.78821086883545,"906":2.1869280338287354,"907":6.295039653778076,"908":0.7571408748626709,"909":0.25901830196380615,"910":-2.612107276916504,"911":-0.060968223959207535,"912":0.021105114370584488,"913":-2.5772364139556885,"914":0.2616707682609558,"915":-7.395835876464844,"916":1.6424943208694458,"917":4.673619270324707,"918":1.5238542556762695,"919":-5.350574970245361,"920":4.372066974639893,"921":1.7855675220489502,"922":-3.436129331588745,"923":-0.2983519434928894,"924":0.1247270405292511,"925":-2.8518121242523193,"926":-9.088338851928711,"927":-1.109747290611267,"928":4.908577919006348,"929":0.8306001424789429,"930":-9.340298652648926,"931":4.569580078125,"932":2.92587947845459,"933":0.15191158652305603,"934":4.732688903808594,"935":-1.0330355167388916,"936":0.8024638295173645,"937":-0.7191499471664429,"938":1.8561081886291504,"939":-0.21003107726573944,"940":-0.8880524635314941,"941":2.152181625366211,"942":-3.7198359966278076,"943":-1.822293758392334,"944":5.8282470703125,"945":-0.1441640704870224,"946":-2.662435293197632,"947":3.7750792503356934,"948":4.208433151245117,"949":2.312013864517212,"950":0.7583431601524353,"951":5.419483184814453,"952":7.262149810791016,"953":0.28081053495407104,"954":-3.9939911365509033,"955":1.3218780755996704,"956":-0.9266384243965149,"957":-4.857978343963623,"958":-1.7600536346435547,"959":4.384400844573975,"960":4.581487655639648,"961":2.3476369380950928,"962":4.499697208404541,"963":4.752857208251953,"964":5.7851338386535645,"965":5.016797065734863,"966":4.145177841186523,"967":-2.35933780670166,"968":-10.780057907104492,"969":5.467676162719727,"970":9.94111442565918,"971":2.8655753135681152,"972":2.955843210220337,"973":8.760398864746094,"974":0.2252054363489151,"975":1.90207839012146,"976":2.270421028137207,"977":0.9577096700668335,"978":2.053510904312134,"979":2.805784225463867,"980":1.6284927129745483,"981":-4.780783653259277,"982":-8.165121078491211,"983":-4.995614528656006,"984":-2.9791598320007324,"985":1.8465675115585327,"986":-7.529984951019287,"987":0.3464691638946533,"988":1.2364177703857422,"989":4.2479329109191895,"990":2.611769199371338,"991":-2.1871602535247803,"992":-8.959734916687012,"993":4.562743186950684,"994":5.494194030761719,"995":-1.520002007484436,"996":-1.2375078201293945,"997":-2.398360013961792,"998":2.7726454734802246,"999":0.8797312378883362,"1000":1.7733845710754395,"1001":-2.3812038898468018,"1002":1.7261759042739868,"1003":-1.2086066007614136,"1004":-1.9537243843078613,"1005":-4.789810657501221,"1006":-1.8994642496109009,"1007":-3.614227056503296,"1008":-3.1690478324890137,"1009":2.8457624912261963,"1010":-0.3183053731918335,"1011":1.3504581451416016,"1012":-0.860192060470581,"1013":-1.0791807174682617,"1014":-0.9524030089378357,"1015":-4.4409027099609375,"1016":0.6208584904670715,"1017":-1.1841400861740112,"1018":-2.59427809715271,"1019":-5.2177510261535645,"1020":-1.8941881656646729,"1021":0.2555099427700043,"1022":-1.0381380319595337,"1023":1.172649621963501,"1024":0.7559064626693726,"1025":-1.3502874374389648,"1026":3.1455185413360596,"1027":0.9931241869926453,"1028":-1.2720634937286377,"1029":-3.929840087890625,"1030":2.3869454860687256,"1031":1.3029650449752808,"1032":-2.110163927078247,"1033":-0.5367419123649597,"1034":-5.797489643096924,"1035":-0.0638839527964592,"1036":-3.6311709880828857,"1037":2.383671522140503,"1038":-1.7474311590194702,"1039":-0.4268529415130615,"1040":0.5155814290046692,"1041":-3.301410675048828,"1042":-5.288919925689697,"1043":1.3093677759170532,"1044":0.5320126414299011,"1045":-3.3334975242614746,"1046":2.529355764389038,"1047":2.3991620540618896,"1048":-1.10597562789917,"1049":-1.975947380065918,"1050":-3.6641428470611572,"1051":3.8419947624206543,"1052":-1.854000449180603,"1053":-6.026112079620361,"1054":1.4856339693069458,"1055":-0.6997231841087341,"1056":-0.5027971267700195,"1057":3.063734531402588,"1058":-3.919053316116333,"1059":2.764852285385132,"1060":4.300536632537842,"1061":2.809704065322876,"1062":0.7719260454177856,"1063":5.459681987762451,"1064":1.217161774635315,"1065":3.3772220611572266,"1066":-2.108309268951416,"1067":-1.0144994258880615,"1068":-0.05867864936590195,"1069":0.26275119185447693,"1070":-0.4387003481388092,"1071":-2.7426915168762207,"1072":5.171020030975342,"1073":-2.9400713443756104,"1074":-0.7728262543678284,"1075":2.8133676052093506,"1076":2.9565892219543457,"1077":1.3787195682525635,"1078":-0.28099876642227173,"1079":0.154277965426445,"1080":-1.943339467048645,"1081":-1.603661298751831,"1082":-0.7548162937164307,"1083":2.788027286529541,"1084":-6.410935878753662,"1085":3.2753617763519287,"1086":2.3300158977508545,"1087":-1.9846742153167725,"1088":0.8420000076293945,"1089":-1.2916580438613892,"1090":-0.02890714257955551,"1091":1.6773546934127808,"1092":-2.613243341445923,"1093":1.6558067798614502,"1094":1.648921251296997,"1095":-2.2974636554718018,"1096":-2.299910545349121,"1097":-1.7384929656982422,"1098":0.0311675276607275,"1099":-1.1009975671768188,"1100":0.45251521468162537,"1101":0.3857443332672119,"1102":-3.907323122024536,"1103":-3.9676737785339355,"1104":-2.0862252712249756,"1105":-1.8121894598007202,"1106":3.0986268520355225,"1107":-0.963053822517395,"1108":-1.8931492567062378,"1109":2.60921573638916,"1110":4.183994770050049,"1111":2.761306047439575,"1112":1.2119441032409668,"1113":6.545151233673096,"1114":-0.9991946816444397,"1115":2.1486899852752686,"1116":-0.5690192580223083,"1117":1.5015286207199097,"1118":1.7824175357818604,"1119":1.719359040260315,"1120":0.6293845176696777,"1121":-2.093616247177124,"1122":-1.31277596950531,"1123":-0.3255798816680908,"1124":-0.25826388597488403,"1125":-3.520327568054199,"1126":3.4909448623657227,"1127":2.3600945472717285,"1128":2.910111427307129,"1129":2.446671962738037,"1130":-0.557023286819458,"1131":-1.2904112339019775,"1132":-1.508911371231079,"1133":3.5797312259674072,"1134":1.9692497253417969,"1135":-5.348177433013916,"1136":-1.1919939517974854,"1137":1.613097906112671,"1138":-4.8810834884643555,"1139":2.7830538749694824,"1140":-0.9901190996170044,"1141":1.2640024423599243,"1142":4.625773906707764,"1143":-0.4839237332344055,"1144":-2.484096050262451,"1145":1.812761902809143,"1146":0.5207205414772034,"1147":0.05461156368255615,"1148":2.5965001583099365,"1149":1.1535178422927856,"1150":0.2580101788043976,"1151":-1.2602423429489136,"1152":-2.291476249694824,"1153":-0.024668144062161446,"1154":-0.05562646687030792,"1155":3.6458699703216553,"1156":0.3671126961708069,"1157":3.3810293674468994,"1158":-0.20626811683177948,"1159":-1.6772446632385254,"1160":-3.952911853790283,"1161":-0.886944055557251,"1162":-0.15537914633750916,"1163":-2.031308650970459,"1164":3.9189231395721436,"1165":-0.2692621648311615,"1166":-3.424528121948242,"1167":-2.4269731044769287,"1168":-0.5244539976119995,"1169":1.7972419261932373,"1170":0.32127267122268677,"1171":1.024622917175293,"1172":2.059475898742676,"1173":0.5285453200340271,"1174":0.8370555639266968,"1175":-0.3108709454536438,"1176":-2.7306175231933594,"1177":-2.547708749771118,"1178":-4.966763973236084,"1179":-2.661750316619873,"1180":4.358107566833496,"1181":-4.18414831161499,"1182":1.6548364162445068,"1183":3.4741878509521484,"1184":0.30327099561691284,"1185":-3.729034662246704,"1186":2.307185649871826,"1187":-0.9564722776412964,"1188":1.4665272235870361,"1189":-2.6275320053100586,"1190":6.067620277404785,"1191":2.598842144012451,"1192":7.376012802124023,"1193":-4.635751247406006,"1194":-9.614256858825684,"1195":10.14330005645752,"1196":2.9411563873291016,"1197":-0.6782983541488647,"1198":-3.6716301441192627,"1199":-0.7214550375938416,"1200":-4.441376209259033,"1201":3.1625328063964844,"1202":14.32168197631836,"1203":-10.706146240234375,"1204":-2.0049045085906982,"1205":0.11306507885456085,"1206":9.202592849731445,"1207":-0.961314857006073,"1208":6.670383930206299,"1209":5.475378513336182,"1210":-4.483744144439697,"1211":0.6290838718414307,"1212":7.849665641784668,"1213":-1.816100835800171,"1214":-1.0092792510986328,"1215":-4.271477222442627,"1216":-3.6722373962402344,"1217":3.8873844146728516,"1218":2.2853407859802246,"1219":6.7359161376953125,"1220":6.270153999328613,"1221":-7.868438243865967,"1222":6.2400288581848145,"1223":8.377724647521973,"1224":-2.307758092880249,"1225":-1.2157968282699585,"1226":-2.757887601852417,"1227":-1.909172534942627,"1228":3.320053815841675,"1229":-1.8324838876724243,"1230":-6.655954837799072,"1231":5.558999538421631,"1232":1.6856614351272583,"1233":2.781724452972412,"1234":-3.4320857524871826,"1235":-3.341273307800293,"1236":2.296929121017456,"1237":-4.252379417419434,"1238":6.172136306762695,"1239":-4.657254219055176,"1240":-0.8854315280914307,"1241":2.143399953842163,"1242":-3.5155293941497803,"1243":5.156924247741699,"1244":-4.983654975891113,"1245":-3.0375936031341553,"1246":-7.844160079956055,"1247":5.534756660461426,"1248":-0.31886962056159973,"1249":4.385435581207275,"1250":0.986996054649353,"1251":2.0826690196990967,"1252":1.3365752696990967,"1253":3.364250421524048,"1254":4.97309684753418,"1255":0.9486628770828247,"1256":-5.546807289123535,"1257":-2.9261891841888428,"1258":5.550917625427246,"1259":1.5245670080184937,"1260":1.318608283996582,"1261":0.8563498258590698,"1262":-7.043333053588867,"1263":-2.9306960105895996,"1264":4.290761470794678,"1265":-1.7496765851974487,"1266":-0.4071718156337738,"1267":-2.0414249897003174,"1268":4.186102390289307,"1269":-1.3868985176086426,"1270":3.2898716926574707,"1271":0.07073219120502472,"1272":-2.0158159732818604,"1273":1.024949312210083,"1274":-3.1975185871124268,"1275":1.3979830741882324,"1276":-0.9143193364143372,"1277":-3.1417429447174072,"1278":6.1118011474609375,"1279":-1.269700527191162,"1280":-0.11392790824174881,"1281":-0.869309663772583,"1282":0.5854886174201965,"1283":3.159363031387329,"1284":-3.068748950958252,"1285":0.5666362643241882,"1286":0.28527313470840454,"1287":1.6573913097381592,"1288":-2.270441770553589,"1289":0.5253790616989136,"1290":-1.8317394256591797,"1291":-1.8258979320526123,"1292":4.171063423156738,"1293":-0.11823336780071259,"1294":2.010328769683838,"1295":-1.8645305633544922,"1296":-4.330504894256592,"1297":3.610372304916382,"1298":2.072418689727783,"1299":-1.9862682819366455,"1300":3.760277271270752,"1301":0.14735989272594452,"1302":1.1145251989364624,"1303":0.8823761940002441,"1304":1.6856900453567505,"1305":-2.9566946029663086,"1306":-0.18584083020687103,"1307":2.606471300125122,"1308":0.0443306528031826,"1309":-0.43513306975364685,"1310":-1.5835251808166504,"1311":-0.36443614959716797,"1312":0.826353907585144,"1313":-0.9475841522216797,"1314":0.23569366335868835,"1315":-0.8236864805221558,"1316":0.8586791753768921,"1317":1.2117186784744263,"1318":0.5765032172203064,"1319":-0.30808866024017334,"1320":-2.5145559310913086,"1321":1.5753446817398071,"1322":-0.8523603677749634,"1323":1.709419846534729,"1324":1.411558747291565,"1325":-1.0533066987991333,"1326":0.4025712311267853,"1327":1.5152528285980225,"1328":1.3445069789886475,"1329":-3.809338331222534,"1330":-0.3350459933280945,"1331":0.7903209328651428,"1332":-0.9299761652946472,"1333":-1.1209380626678467,"1334":1.8207529783248901,"1335":1.6265658140182495,"1336":-1.2745792865753174,"1337":1.7133524417877197,"1338":1.4190796613693237,"1339":1.0755378007888794,"1340":-3.4315929412841797,"1341":-0.012626035138964653,"1342":-1.0369892120361328,"1343":2.6084682941436768,"1344":2.3046205043792725,"1345":0.22166094183921814,"1346":-0.023544903844594955,"1347":-1.5150046348571777,"1348":-0.3959880769252777,"1349":-0.1725108027458191,"1350":-2.0407559871673584,"1351":-0.5945358276367188,"1352":0.43276867270469666,"1353":4.620429039001465,"1354":1.9434657096862793,"1355":-3.0439889430999756,"1356":5.261343479156494,"1357":0.3477603793144226,"1358":-3.310925245285034,"1359":2.8423526287078857,"1360":2.3445403575897217,"1361":-0.8916822671890259,"1362":-1.8997879028320312,"1363":5.332765579223633,"1364":-3.2836265563964844,"1365":-2.0560824871063232,"1366":-2.7466928958892822,"1367":3.321901321411133,"1368":0.18281005322933197,"1369":2.954204797744751,"1370":0.6366157531738281,"1371":-4.987597942352295,"1372":-3.2068052291870117,"1373":-1.2734019756317139,"1374":1.4191803932189941,"1375":-2.4874978065490723,"1376":-2.9972639083862305,"1377":1.8623098134994507,"1378":3.4641976356506348,"1379":2.34236216545105,"1380":-4.32977819442749,"1381":-4.670166969299316,"1382":-6.228701114654541,"1383":-0.437221884727478,"1384":-5.156487941741943,"1385":2.3618526458740234,"1386":-2.782264232635498,"1387":6.095078945159912,"1388":1.9975110292434692,"1389":0.8709873557090759,"1390":-3.212434768676758,"1391":-1.3984301090240479,"1392":1.0790454149246216,"1393":-2.3513810634613037,"1394":1.145277976989746,"1395":-3.660468101501465,"1396":-3.2123382091522217,"1397":-0.7110595703125,"1398":1.905997633934021,"1399":-0.4939998388290405,"1400":-0.4625810980796814,"1401":-0.3112594783306122,"1402":-3.996229887008667,"1403":2.224560260772705,"1404":0.6378219723701477,"1405":1.416038990020752,"1406":0.2171364724636078,"1407":0.2528036832809448,"1408":0.341600626707077,"1409":1.7570693492889404,"1410":0.8617202639579773,"1411":-0.9865780472755432,"1412":-0.2061690390110016,"1413":-1.1488673686981201,"1414":0.03082236833870411,"1415":-4.503518104553223,"1416":-1.126726508140564,"1417":-1.8995722532272339,"1418":-0.49511098861694336,"1419":0.60923171043396,"1420":1.3497987985610962,"1421":1.1357054710388184,"1422":1.078674077987671,"1423":-0.2495209276676178,"1424":0.6854156255722046,"1425":0.3356080651283264,"1426":-1.504164218902588,"1427":1.0559380054473877,"1428":-0.3303717374801636,"1429":-3.7838962078094482,"1430":-1.3438135385513306,"1431":-0.012629787437617779,"1432":-3.8502862453460693,"1433":-2.684901714324951,"1434":-0.8007545471191406,"1435":-0.7911924719810486,"1436":-0.45206335186958313,"1437":1.0854741334915161,"1438":-0.12530046701431274,"1439":1.4293689727783203,"1440":0.08016325533390045,"1441":-1.9236539602279663,"1442":1.1998189687728882,"1443":-2.7471563816070557,"1444":-1.6325381994247437,"1445":-0.19130030274391174,"1446":0.8672907948493958,"1447":1.457963466644287,"1448":0.22585345804691315,"1449":1.2105042934417725,"1450":1.5282490253448486,"1451":0.1713152974843979,"1452":-2.1045403480529785,"1453":0.7063801288604736,"1454":-0.7870916128158569,"1455":-3.1302640438079834,"1456":0.34126392006874084,"1457":-0.9230377078056335,"1458":-2.137690782546997,"1459":0.24990211427211761,"1460":-1.6989147663116455,"1461":1.386077880859375,"1462":0.6111514568328857,"1463":-2.4820556640625,"1464":-0.39377665519714355,"1465":0.9248045086860657,"1466":1.930389404296875,"1467":2.0807788372039795,"1468":0.5953478217124939,"1469":0.532069206237793,"1470":0.9492254257202148,"1471":2.559072256088257,"1472":0.43036019802093506,"1473":0.6462908983230591,"1474":1.1911976337432861,"1475":-2.0699939727783203,"1476":-2.349512815475464,"1477":-0.9646317958831787,"1478":-0.4045809209346771,"1479":1.8437427282333374,"1480":2.7891554832458496,"1481":3.6054327487945557,"1482":3.0980618000030518,"1483":-1.775620698928833,"1484":0.07419716566801071,"1485":-2.389267921447754,"1486":1.6115176677703857,"1487":-0.5129985213279724,"1488":2.1235718727111816,"1489":2.016018867492676,"1490":-1.4427754878997803,"1491":2.911705493927002,"1492":1.8385798931121826,"1493":0.9116970896720886,"1494":3.424185037612915,"1495":1.2726027965545654,"1496":0.8203151822090149,"1497":-3.0765223503112793,"1498":4.487549781799316,"1499":4.035830497741699,"1500":-2.407777786254883,"1501":-3.955961227416992,"1502":5.899913311004639,"1503":3.083956480026245,"1504":-0.2785012722015381,"1505":1.3203186988830566,"1506":6.409602642059326,"1507":2.9401960372924805,"1508":3.342318058013916,"1509":7.155032157897949,"1510":4.884004592895508,"1511":2.991781711578369,"1512":3.7359259128570557,"1513":3.759197473526001,"1514":-3.982316017150879,"1515":-0.10158607363700867,"1516":-0.6168724894523621,"1517":1.5787138938903809,"1518":-1.5105276107788086,"1519":-1.3499332666397095,"1520":-1.3388458490371704,"1521":1.431353211402893,"1522":1.338011384010315,"1523":-1.695664882659912,"1524":2.4639194011688232,"1525":-0.792766273021698,"1526":1.5213123559951782,"1527":2.673954725265503,"1528":1.4709519147872925,"1529":1.5117937326431274,"1530":-1.4779330492019653,"1531":1.6551371812820435,"1532":1.1121366024017334,"1533":1.0603606700897217,"1534":-0.5859190225601196,"1535":1.3278980255126953,"1536":-1.946263074874878,"1537":-1.2484025955200195,"1538":-1.1674349308013916,"1539":-2.653458595275879,"1540":-2.289381980895996,"1541":-1.2942653894424438,"1542":-1.3938761949539185,"1543":1.5953009128570557,"1544":1.0122594833374023,"1545":-1.275113821029663,"1546":1.4409409761428833,"1547":1.3671214580535889,"1548":-4.632636547088623,"1549":1.6413041353225708,"1550":0.9381720423698425,"1551":2.0698068141937256,"1552":-0.6191565990447998,"1553":1.7091856002807617,"1554":1.2889575958251953,"1555":-1.1658693552017212,"1556":2.165140151977539,"1557":-1.1981971263885498,"1558":-0.8756713271141052,"1559":-2.228933095932007,"1560":2.2947680950164795,"1561":-1.9457085132598877,"1562":2.0471954345703125,"1563":-1.0944583415985107,"1564":-2.858410596847534,"1565":-0.06428977847099304,"1566":-3.8667168617248535,"1567":0.9646841287612915,"1568":-1.848177194595337,"1569":2.2680671215057373,"1570":1.9165735244750977,"1571":0.7436938881874084,"1572":1.7984552383422852,"1573":1.8783612251281738,"1574":3.2216594219207764,"1575":-2.8135523796081543,"1576":-0.5761359333992004,"1577":0.011214181780815125,"1578":-3.0167651176452637,"1579":-1.9171537160873413,"1580":0.5013000965118408,"1581":-1.109029769897461,"1582":-1.493080496788025,"1583":-2.4512646198272705,"1584":1.7352004051208496,"1585":1.7800281047821045,"1586":-2.4594039916992188,"1587":2.8061394691467285,"1588":-0.5287208557128906,"1589":3.214538812637329,"1590":4.283670425415039,"1591":0.4139847457408905,"1592":3.5152487754821777,"1593":2.1119258403778076,"1594":3.4927587509155273,"1595":-0.7808953523635864,"1596":-1.849117636680603,"1597":1.374758005142212,"1598":-2.205265998840332,"1599":1.3012586832046509,"1600":-1.3339667320251465,"1601":-0.9334100484848022,"1602":-1.1928110122680664,"1603":1.514556884765625,"1604":0.8045955896377563,"1605":-2.2997689247131348,"1606":0.942020833492279,"1607":-0.40358966588974,"1608":1.1508281230926514,"1609":1.573259949684143,"1610":2.722161293029785,"1611":2.0951015949249268,"1612":-0.6018170714378357,"1613":2.772825241088867,"1614":1.5502064228057861,"1615":-1.2689260244369507,"1616":-0.12826372683048248,"1617":1.0735188722610474,"1618":-2.1424620151519775,"1619":-0.8940048813819885,"1620":-0.7531748414039612,"1621":-1.743406057357788,"1622":-2.612215995788574,"1623":1.1717665195465088,"1624":-1.8070679903030396,"1625":-0.4267648756504059,"1626":-0.47781291604042053,"1627":-1.1047261953353882,"1628":1.2936550378799438,"1629":0.7067664265632629,"1630":-0.47622427344322205,"1631":-0.9929805994033813,"1632":-0.8553855419158936,"1633":1.1033878326416016,"1634":-0.11319590359926224,"1635":2.366637706756592,"1636":0.2516061067581177,"1637":-1.5645115375518799,"1638":2.1938791275024414,"1639":-1.5392954349517822,"1640":-3.8997223377227783,"1641":4.208467960357666,"1642":3.7491891384124756,"1643":2.3293018341064453,"1644":-0.2532002925872803,"1645":0.3000761568546295,"1646":0.17710475623607635,"1647":0.7923935055732727,"1648":-1.420987844467163,"1649":-1.4898191690444946,"1650":-1.517516016960144,"1651":0.736739456653595,"1652":-0.04157630354166031,"1653":2.1733248233795166,"1654":-5.008594512939453,"1655":-4.077652454376221,"1656":8.396361351013184,"1657":-1.5738143920898438,"1658":2.9235777854919434,"1659":3.729198694229126,"1660":1.7638229131698608,"1661":-2.4600815773010254,"1662":0.39628422260284424,"1663":3.4891932010650635,"1664":-5.616849899291992,"1665":-9.597417831420898,"1666":7.7654128074646,"1667":2.053717613220215,"1668":-1.26829993724823,"1669":4.260839939117432,"1670":5.56864595413208,"1671":4.549375057220459,"1672":2.2296509742736816,"1673":8.909829139709473,"1674":-0.23878324031829834,"1675":0.7152736783027649,"1676":3.2698814868927,"1677":4.0657877922058105,"1678":0.723823070526123,"1679":0.6042699813842773,"1680":0.8633468747138977,"1681":-3.391028881072998,"1682":3.100832462310791,"1683":-0.1847400963306427,"1684":3.2607338428497314,"1685":-3.838700771331787,"1686":-2.881589651107788,"1687":3.455239772796631,"1688":-3.4569625854492188,"1689":1.6411241292953491,"1690":-3.1008002758026123,"1691":1.6355546712875366,"1692":-2.614993095397949,"1693":-3.049699306488037,"1694":3.8011584281921387,"1695":-2.6785120964050293,"1696":-4.055257320404053,"1697":-2.2274436950683594,"1698":3.65517258644104,"1699":-3.1983656883239746,"1700":2.9916903972625732,"1701":3.297222852706909,"1702":2.308511972427368,"1703":-2.8307924270629883,"1704":-2.125133514404297,"1705":3.3283963203430176,"1706":3.4164164066314697,"1707":-2.9078238010406494,"1708":-3.0213046073913574,"1709":1.239163875579834,"1710":-3.2688982486724854,"1711":-3.032573699951172,"1712":-2.0394163131713867,"1713":-2.1332154273986816,"1714":-0.2806243300437927,"1715":-2.203782796859741,"1716":1.9087501764297485,"1717":-3.023206949234009,"1718":-3.4551684856414795,"1719":3.8533775806427,"1720":2.1997501850128174,"1721":2.0930111408233643}},"hiddenLayers":[{"inputMatrix":{"rows":20,"columns":41,"weights":{"0":-0.07907460629940033,"1":-1.0551153421401978,"2":1.6182953119277954,"3":0.4590519666671753,"4":1.0959664583206177,"5":3.661766290664673,"6":-0.0056643360294401646,"7":0.0205991230905056,"8":0.6213619709014893,"9":1.8917651176452637,"10":-0.20663446187973022,"11":2.2091803550720215,"12":3.17108416557312,"13":0.49801698327064514,"14":0.4960028827190399,"15":2.5625009536743164,"16":-1.7706800699234009,"17":-0.705651581287384,"18":1.8487859964370728,"19":-0.9162426590919495,"20":0.27475059032440186,"21":-1.0642753839492798,"22":2.151242256164551,"23":-0.6477102637290955,"24":-1.1362862586975098,"25":-2.2142958641052246,"26":5.796311855316162,"27":1.9216722249984741,"28":1.028354525566101,"29":-0.41925927996635437,"30":0.5346276164054871,"31":-1.1900361776351929,"32":0.8796474933624268,"33":0.7458618879318237,"34":1.2737562656402588,"35":1.4593992233276367,"36":0.7558250427246094,"37":1.044674277305603,"38":-2.7710986137390137,"39":-0.36701178550720215,"40":-0.30869755148887634,"41":-0.39614641666412354,"42":-0.17686940729618073,"43":-0.7175143957138062,"44":-0.08932763338088989,"45":0.8256304860115051,"46":1.5915333032608032,"47":1.8824433088302612,"48":-0.4613041281700134,"49":1.1113613843917847,"50":1.600135326385498,"51":-0.261851966381073,"52":0.22966268658638,"53":-0.6781476140022278,"54":-1.0388189554214478,"55":-1.4300822019577026,"56":1.0821141004562378,"57":-2.3214712142944336,"58":-1.5762404203414917,"59":2.3607497215270996,"60":0.9012900590896606,"61":3.375828504562378,"62":-1.5663158893585205,"63":1.5216703414916992,"64":-1.3890380859375,"65":-2.159254550933838,"66":0.7082202434539795,"67":-0.5409889817237854,"68":2.1418986320495605,"69":2.7856082916259766,"70":-1.7480370998382568,"71":1.459699034690857,"72":-0.7526044249534607,"73":-0.424632728099823,"74":1.1650198698043823,"75":-1.902353286743164,"76":-1.053959846496582,"77":3.0610127449035645,"78":1.6856950521469116,"79":-2.893784523010254,"80":-2.165147066116333,"81":0.7326099276542664,"82":-0.5790191292762756,"83":2.3920280933380127,"84":2.536614418029785,"85":0.2470187544822693,"86":-3.9412481784820557,"87":-2.16843318939209,"88":1.6167083978652954,"89":0.24707487225532532,"90":3.178892135620117,"91":0.2873457074165344,"92":-0.6957902908325195,"93":-0.6271292567253113,"94":-0.7561275959014893,"95":0.43187251687049866,"96":-1.6600193977355957,"97":-3.803830146789551,"98":-0.8781775832176208,"99":0.8658010959625244,"100":-0.42157870531082153,"101":1.0712517499923706,"102":1.8762578964233398,"103":3.196485996246338,"104":-0.30841007828712463,"105":1.6372194290161133,"106":0.703931450843811,"107":-0.007876011542975903,"108":-0.0954798087477684,"109":1.1035962104797363,"110":0.9623171091079712,"111":-0.06226058304309845,"112":-1.4126801490783691,"113":0.03489035740494728,"114":-1.268517255783081,"115":-1.1203501224517822,"116":0.40686604380607605,"117":1.6517612934112549,"118":1.7138841152191162,"119":-0.6980081796646118,"120":2.077134609222412,"121":-1.280752420425415,"122":2.4984960556030273,"123":2.1526665687561035,"124":-0.5306519865989685,"125":1.6468931436538696,"126":-1.0508898496627808,"127":0.5520055890083313,"128":0.7222935557365417,"129":-3.9691858291625977,"130":2.296203851699829,"131":1.7687766551971436,"132":-0.4399789273738861,"133":-2.3768763542175293,"134":0.5846971869468689,"135":0.10681881755590439,"136":0.09169808775186539,"137":0.6027885675430298,"138":-0.24114029109477997,"139":-0.6202220916748047,"140":-1.414448857307434,"141":0.4043338894844055,"142":-0.29932841658592224,"143":2.219008684158325,"144":-1.0202667713165283,"145":1.2544434070587158,"146":1.2042369842529297,"147":-3.3987667560577393,"148":-4.731618404388428,"149":1.3157763481140137,"150":1.6573628187179565,"151":0.5707302689552307,"152":1.959012746810913,"153":2.8732550144195557,"154":2.6478419303894043,"155":-1.81779146194458,"156":1.7250670194625854,"157":-0.1948729008436203,"158":0.321035772562027,"159":1.5402389764785767,"160":-0.07962914556264877,"161":-1.5284132957458496,"162":-3.4090774059295654,"163":0.5366612076759338,"164":0.1509595364332199,"165":-1.0293225049972534,"166":-2.800825595855713,"167":-0.13265831768512726,"168":0.005500512197613716,"169":-1.007053017616272,"170":2.0834546089172363,"171":-1.477510929107666,"172":-2.1976683139801025,"173":0.5778465867042542,"174":2.4222898483276367,"175":-0.03467043116688728,"176":-1.3984163999557495,"177":0.3818208575248718,"178":0.5921622514724731,"179":0.9207838177680969,"180":-2.0986275672912598,"181":-1.140678882598877,"182":-0.25285661220550537,"183":-0.6502430438995361,"184":4.117570877075195,"185":-1.9659744501113892,"186":0.24944840371608734,"187":0.13729456067085266,"188":0.4336093068122864,"189":0.7578897476196289,"190":0.46269944310188293,"191":-0.1512802541255951,"192":4.550450801849365,"193":-2.613510847091675,"194":-2.0328054428100586,"195":0.3513398766517639,"196":-3.428419351577759,"197":3.978095293045044,"198":0.10599164664745331,"199":-1.3082627058029175,"200":1.3919166326522827,"201":0.0002814998442772776,"202":-1.7661142349243164,"203":0.039460670202970505,"204":-0.000543961941730231,"205":1.6255950927734375,"206":-1.817373275756836,"207":1.1107780933380127,"208":1.2929209470748901,"209":-0.36617276072502136,"210":0.6039234399795532,"211":-1.7679364681243896,"212":1.0143060684204102,"213":-2.107238292694092,"214":-1.66452157497406,"215":-1.7888143062591553,"216":0.5967916250228882,"217":2.6857194900512695,"218":-2.751004695892334,"219":3.5825371742248535,"220":0.9705948829650879,"221":-0.10744844377040863,"222":0.18213298916816711,"223":0.5910758972167969,"224":-2.38919734954834,"225":-3.6135165691375732,"226":0.13497671484947205,"227":-1.3629447221755981,"228":-2.494532823562622,"229":1.0780012607574463,"230":0.26231735944747925,"231":1.3478078842163086,"232":-1.9796591997146606,"233":-2.065389394760132,"234":-1.0520265102386475,"235":-2.314091682434082,"236":0.07512964308261871,"237":1.0217150449752808,"238":-1.904250144958496,"239":0.9816184639930725,"240":-0.2614704966545105,"241":0.6706702709197998,"242":-0.941537082195282,"243":-0.21903185546398163,"244":0.8953480124473572,"245":1.7790191173553467,"246":-0.8186565041542053,"247":-3.0246164798736572,"248":-0.9625310301780701,"249":-3.505751848220825,"250":1.1907871961593628,"251":0.6662811636924744,"252":-1.0466710329055786,"253":-0.09696877747774124,"254":-1.9406976699829102,"255":1.2010968923568726,"256":1.7477773427963257,"257":-0.22176383435726166,"258":0.19575288891792297,"259":-1.950134515762329,"260":0.5007157325744629,"261":0.7992973923683167,"262":-1.6403114795684814,"263":-2.851653814315796,"264":0.6309247016906738,"265":-0.08433347940444946,"266":-3.5941460132598877,"267":-1.4360874891281128,"268":0.7114312648773193,"269":0.11166698485612869,"270":-1.4217416048049927,"271":-1.8270819187164307,"272":1.3219233751296997,"273":1.2356842756271362,"274":-0.2989976108074188,"275":3.8282454013824463,"276":-0.33699488639831543,"277":2.2580268383026123,"278":2.310560464859009,"279":3.3664231300354004,"280":-0.0893726721405983,"281":-1.4583543539047241,"282":2.0236876010894775,"283":1.8890081644058228,"284":-0.13983966410160065,"285":1.2323757410049438,"286":-1.4384764432907104,"287":0.8478109240531921,"288":-3.2683310508728027,"289":-2.742741823196411,"290":2.3151473999023438,"291":2.3347113132476807,"292":-0.8145958781242371,"293":-2.000567674636841,"294":2.8790628910064697,"295":-1.1627737283706665,"296":0.23475848138332367,"297":1.3535844087600708,"298":2.1484954357147217,"299":-0.7573823928833008,"300":0.4589965343475342,"301":2.859591007232666,"302":1.4163243770599365,"303":0.3968528211116791,"304":1.6552826166152954,"305":0.04122885689139366,"306":-4.2740583419799805,"307":-3.6268951892852783,"308":-1.8886053562164307,"309":-2.326037645339966,"310":-3.4640815258026123,"311":0.19332700967788696,"312":-0.027052944526076317,"313":-1.44677734375,"314":1.0012322664260864,"315":1.6645241975784302,"316":-0.7513414025306702,"317":1.6501045227050781,"318":-1.910104513168335,"319":0.1482110172510147,"320":1.1723976135253906,"321":0.38414397835731506,"322":0.006731720641255379,"323":1.0448516607284546,"324":0.49063485860824585,"325":0.3702751696109772,"326":-0.2664821743965149,"327":-3.1853678226470947,"328":0.2389502078294754,"329":1.2662428617477417,"330":-2.808091163635254,"331":-1.4887527227401733,"332":1.5131516456604004,"333":1.7945250272750854,"334":1.500949740409851,"335":-2.205925226211548,"336":-0.7314138412475586,"337":-1.1156998872756958,"338":1.5656540393829346,"339":-2.449248790740967,"340":0.05110432207584381,"341":-0.7386279106140137,"342":0.5771157741546631,"343":0.559483528137207,"344":-2.9403984546661377,"345":-1.0738909244537354,"346":0.9794377088546753,"347":1.4690876007080078,"348":-1.4351332187652588,"349":-0.3552020490169525,"350":-0.8852600455284119,"351":-0.16727112233638763,"352":-0.8880984783172607,"353":0.8123545050621033,"354":-0.3019108772277832,"355":-0.7668032646179199,"356":-1.853731393814087,"357":-1.058521032333374,"358":0.9742188453674316,"359":-2.7332799434661865,"360":2.9187216758728027,"361":-2.7669992446899414,"362":-0.8679612874984741,"363":0.5074398517608643,"364":-0.8465118408203125,"365":1.339094638824463,"366":0.9555057883262634,"367":0.9496688842773438,"368":-1.5929834842681885,"369":-0.9843702912330627,"370":0.45343539118766785,"371":0.46155011653900146,"372":-0.5985510945320129,"373":1.595941185951233,"374":1.1658635139465332,"375":-2.1792802810668945,"376":1.295331597328186,"377":-0.08733204007148743,"378":0.8100515007972717,"379":0.41615745425224304,"380":2.590400457382202,"381":2.1397998332977295,"382":-1.8276851177215576,"383":-0.17959262430667877,"384":0.19810223579406738,"385":2.7486908435821533,"386":-0.5915265083312988,"387":4.4213409423828125,"388":-1.5846138000488281,"389":-1.8379648923873901,"390":-0.6720506548881531,"391":-0.25431644916534424,"392":-1.0401298999786377,"393":-2.97603702545166,"394":-2.81596302986145,"395":1.6306025981903076,"396":2.0450167655944824,"397":-0.99359530210495,"398":1.746550440788269,"399":3.1129889488220215,"400":1.4885634183883667,"401":1.636004090309143,"402":0.5598870515823364,"403":-1.5570244789123535,"404":-3.0100066661834717,"405":0.8602304458618164,"406":2.4542202949523926,"407":0.4628911316394806,"408":-0.6886500716209412,"409":1.3713313341140747,"410":0.2849506437778473,"411":-0.5792602896690369,"412":-0.5558796525001526,"413":0.13948827981948853,"414":3.1738030910491943,"415":1.7050366401672363,"416":0.03603338450193405,"417":-1.511789083480835,"418":-1.0005027055740356,"419":1.5341721773147583,"420":-0.4907275438308716,"421":0.7003220319747925,"422":0.24170419573783875,"423":-1.5130243301391602,"424":-0.028447343036532402,"425":2.430788516998291,"426":-1.0192753076553345,"427":-2.6145832538604736,"428":1.408746361732483,"429":0.9288442730903625,"430":-0.1348758041858673,"431":-3.0144622325897217,"432":0.9028533697128296,"433":-0.3549787700176239,"434":-0.7341210842132568,"435":-0.6114325523376465,"436":0.2711210250854492,"437":0.44219955801963806,"438":0.9112991690635681,"439":2.289536714553833,"440":1.2523462772369385,"441":1.841762900352478,"442":0.02519979700446129,"443":-0.12737153470516205,"444":-3.6798315048217773,"445":-5.539425849914551,"446":-1.8285679817199707,"447":0.6150063276290894,"448":-0.6537052989006042,"449":0.375141441822052,"450":-2.172898530960083,"451":0.9850790500640869,"452":-0.08256075531244278,"453":-3.4347639083862305,"454":-1.9962263107299805,"455":0.4177934229373932,"456":0.2026507556438446,"457":-0.6803483366966248,"458":1.3423038721084595,"459":-1.0195790529251099,"460":2.419719934463501,"461":3.1633212566375732,"462":0.656298041343689,"463":-0.49110496044158936,"464":-1.046546459197998,"465":2.525428056716919,"466":2.453677177429199,"467":0.6217849850654602,"468":-0.7590759992599487,"469":-0.9331944584846497,"470":-0.750811755657196,"471":-0.29248830676078796,"472":-0.18128323554992676,"473":-0.08617261797189713,"474":-1.7952854633331299,"475":-1.266851782798767,"476":-0.2507587671279907,"477":2.359375238418579,"478":1.225818395614624,"479":0.2541762888431549,"480":2.3257555961608887,"481":-0.298056036233902,"482":-0.41823452711105347,"483":0.20406872034072876,"484":0.5514969825744629,"485":0.7841553092002869,"486":0.9729726314544678,"487":0.3254503905773163,"488":-1.111833930015564,"489":-3.983365297317505,"490":-1.9899448156356812,"491":-1.4261300563812256,"492":0.27396947145462036,"493":-0.8372039794921875,"494":-1.9330971240997314,"495":-0.8185056447982788,"496":0.7492382526397705,"497":-0.5742137432098389,"498":-3.122572183609009,"499":1.6936893463134766,"500":-2.1432108879089355,"501":1.8092478513717651,"502":1.934182047843933,"503":2.1980340480804443,"504":-0.8409603834152222,"505":-0.7566649913787842,"506":5.265347003936768,"507":-1.0931540727615356,"508":0.19322828948497772,"509":0.1605304479598999,"510":-2.59267258644104,"511":-1.1743098497390747,"512":-1.7565628290176392,"513":-2.2027902603149414,"514":0.33524075150489807,"515":-2.3542215824127197,"516":0.694257915019989,"517":2.335153579711914,"518":-1.6380521059036255,"519":1.6714191436767578,"520":-1.121641755104065,"521":-2.5707242488861084,"522":-1.8510702848434448,"523":-1.1815297603607178,"524":1.0748761892318726,"525":-1.5395042896270752,"526":-0.9192793965339661,"527":1.2175698280334473,"528":-2.1124515533447266,"529":-1.6442118883132935,"530":-0.08674857020378113,"531":-2.5723910331726074,"532":1.3917324542999268,"533":2.0754003524780273,"534":0.027313753962516785,"535":-2.687575578689575,"536":-0.6952373385429382,"537":0.6941139101982117,"538":4.057092666625977,"539":1.4037352800369263,"540":-0.4181315302848816,"541":-0.3752288520336151,"542":3.4181466102600098,"543":1.386808156967163,"544":0.108652763068676,"545":-0.25752004981040955,"546":-0.3911658525466919,"547":0.031235506758093834,"548":0.7678241729736328,"549":1.8367164134979248,"550":-1.465591311454773,"551":0.4924483001232147,"552":0.0439099557697773,"553":1.5424396991729736,"554":-0.8393131494522095,"555":1.2469865083694458,"556":2.2689290046691895,"557":-1.5000419616699219,"558":0.3048153519630432,"559":-0.05977651849389076,"560":1.5511943101882935,"561":2.565642833709717,"562":-0.057207901030778885,"563":-1.6893856525421143,"564":-1.4562069177627563,"565":2.0646135807037354,"566":-0.742495596408844,"567":-0.7628567814826965,"568":-2.2462143898010254,"569":-0.24733464419841766,"570":1.9968273639678955,"571":1.5760154724121094,"572":-3.141005754470825,"573":1.5301345586776733,"574":-0.6979225873947144,"575":1.3169227838516235,"576":0.10117587447166443,"577":-4.041451930999756,"578":0.22801657021045685,"579":0.3595244288444519,"580":-1.9650993347167969,"581":-1.0921859741210938,"582":-0.44362205266952515,"583":-1.4895877838134766,"584":-2.835527181625366,"585":-1.9512792825698853,"586":0.9638969302177429,"587":-2.571636915206909,"588":0.05373319610953331,"589":2.65498948097229,"590":-0.9494569301605225,"591":-0.985084593296051,"592":-0.1052139401435852,"593":2.9116451740264893,"594":-1.763056993484497,"595":1.5354456901550293,"596":1.9973262548446655,"597":0.7591607570648193,"598":-2.2422869205474854,"599":-0.2176763266324997,"600":0.86784827709198,"601":1.5240737199783325,"602":-0.9182246923446655,"603":0.363781601190567,"604":1.6247268915176392,"605":1.5712120532989502,"606":1.0175620317459106,"607":3.0102217197418213,"608":-4.9152913093566895,"609":0.6717437505722046,"610":4.047445297241211,"611":2.4425370693206787,"612":0.5238816142082214,"613":-0.6239079833030701,"614":-1.3599244356155396,"615":0.8299488425254822,"616":-0.8390836715698242,"617":2.718062400817871,"618":-3.1314337253570557,"619":2.0175931453704834,"620":5.693493843078613,"621":0.7571743726730347,"622":-2.502383232116699,"623":1.7125242948532104,"624":-2.1559388637542725,"625":-5.309732437133789,"626":0.13737984001636505,"627":3.086758852005005,"628":-0.631930410861969,"629":0.6100514531135559,"630":2.743195056915283,"631":1.4697431325912476,"632":1.5943584442138672,"633":-0.3008749783039093,"634":2.3783676624298096,"635":-0.8794409036636353,"636":0.38986533880233765,"637":2.6631758213043213,"638":-0.107780821621418,"639":-0.04776259511709213,"640":0.2857356667518616,"641":1.9766074419021606,"642":0.052333224564790726,"643":0.25557011365890503,"644":0.1842729151248932,"645":-0.10079492628574371,"646":-0.3686990737915039,"647":1.8459604978561401,"648":-1.4952421188354492,"649":-1.133829951286316,"650":1.445677399635315,"651":-0.17723970115184784,"652":2.4578757286071777,"653":-0.31220197677612305,"654":0.04114881530404091,"655":2.2136518955230713,"656":-0.041448332369327545,"657":0.26141273975372314,"658":0.22675549983978271,"659":1.612107753753662,"660":-1.0444217920303345,"661":-0.6039693355560303,"662":-0.19087421894073486,"663":0.3911668658256531,"664":3.5155982971191406,"665":0.6084526181221008,"666":-0.08772644400596619,"667":-1.9431090354919434,"668":-1.4398787021636963,"669":0.8686536550521851,"670":0.16010171175003052,"671":0.31774580478668213,"672":1.4184703826904297,"673":3.1957831382751465,"674":-1.1365079879760742,"675":-1.0292266607284546,"676":1.4297726154327393,"677":-0.3539978861808777,"678":-1.4287937879562378,"679":-0.5977053642272949,"680":2.2899069786071777,"681":0.5165752172470093,"682":-1.7431153059005737,"683":-0.8853781223297119,"684":1.351932168006897,"685":-3.492753505706787,"686":-1.119547963142395,"687":-0.6792970895767212,"688":-1.0854541063308716,"689":-0.6813111901283264,"690":0.3923284411430359,"691":-0.08433543145656586,"692":-1.1770559549331665,"693":-0.5047212243080139,"694":1.0667695999145508,"695":-1.2885059118270874,"696":1.884206771850586,"697":-1.5632545948028564,"698":0.8652638792991638,"699":0.083463154733181,"700":0.507740318775177,"701":0.19889716804027557,"702":-1.5664173364639282,"703":-0.02952183596789837,"704":1.0872671604156494,"705":-1.3833222389221191,"706":-1.8977906703948975,"707":-3.7998046875,"708":0.5172334313392639,"709":-0.02362014167010784,"710":1.0427615642547607,"711":-0.06831668317317963,"712":0.7385025024414062,"713":-0.04029969498515129,"714":-3.45735239982605,"715":-0.6614791750907898,"716":1.4987775087356567,"717":-0.7518076300621033,"718":-1.5639309883117676,"719":0.005387900397181511,"720":1.4919815063476562,"721":-1.0783504247665405,"722":-1.2581863403320312,"723":-0.6808426380157471,"724":1.7443349361419678,"725":-0.2676600217819214,"726":1.4458014965057373,"727":2.9788427352905273,"728":5.683270454406738,"729":-2.6979527473449707,"730":2.088472366333008,"731":-2.5341551303863525,"732":-0.7519985437393188,"733":0.6781905889511108,"734":0.05696215108036995,"735":-0.66591876745224,"736":-0.07348138093948364,"737":-3.585254192352295,"738":0.4654557406902313,"739":-2.614078998565674,"740":-0.7103117108345032,"741":-0.027241194620728493,"742":3.2289998531341553,"743":0.8239818215370178,"744":1.4186490774154663,"745":-0.2339392602443695,"746":-1.6315727233886719,"747":1.3525876998901367,"748":0.7429075241088867,"749":1.0750256776809692,"750":2.3050127029418945,"751":-0.7376341819763184,"752":1.3278526067733765,"753":2.176377296447754,"754":-0.11756687611341476,"755":-3.689851999282837,"756":1.6022456884384155,"757":1.3878337144851685,"758":1.3127045631408691,"759":-2.6407344341278076,"760":0.5486952066421509,"761":1.5931669473648071,"762":0.30731749534606934,"763":-1.134594202041626,"764":0.2168319821357727,"765":0.7884378433227539,"766":-0.010666606947779655,"767":-0.2922143042087555,"768":1.1962945461273193,"769":0.1061062216758728,"770":1.6361929178237915,"771":2.8706600666046143,"772":-2.709120988845825,"773":-2.93666934967041,"774":0.5604156255722046,"775":1.485545039176941,"776":-1.2624878883361816,"777":0.24171499907970428,"778":-0.7759053111076355,"779":0.381294310092926,"780":0.08408263325691223,"781":-1.0433541536331177,"782":-1.8270608186721802,"783":1.03494131565094,"784":1.9629064798355103,"785":-0.09493225067853928,"786":1.86200749874115,"787":-0.2863645851612091,"788":0.8741161823272705,"789":3.1658804416656494,"790":0.46238183975219727,"791":1.9027544260025024,"792":-3.1532132625579834,"793":-0.4110674560070038,"794":1.1742963790893555,"795":0.9290109872817993,"796":-0.027812005952000618,"797":-1.6935707330703735,"798":0.2586123049259186,"799":-4.5743408203125,"800":3.0265183448791504,"801":-3.163374423980713,"802":-1.2263623476028442,"803":-2.1760218143463135,"804":-3.642273187637329,"805":2.8364458084106445,"806":-0.2721749544143677,"807":-2.906956672668457,"808":2.2716760635375977,"809":-0.5463860034942627,"810":1.2535017728805542,"811":2.0072429180145264,"812":0.8221463561058044,"813":-0.5345632433891296,"814":0.1792229413986206,"815":0.9577860832214355,"816":-3.0948450565338135,"817":0.9332183003425598,"818":2.462808132171631,"819":-4.213518142700195}},"inputHidden":{"rows":20,"columns":20,"weights":{"0":2.6911838054656982,"1":1.0794181823730469,"2":0.5525490641593933,"3":-0.2693137228488922,"4":1.6431280374526978,"5":2.011213541030884,"6":1.8505046367645264,"7":0.983020544052124,"8":1.930245041847229,"9":4.309442520141602,"10":-0.7329431772232056,"11":0.8358900547027588,"12":0.1575193852186203,"13":1.6800665855407715,"14":-0.8714380264282227,"15":0.730231523513794,"16":-0.12754152715206146,"17":0.14880326390266418,"18":-1.9861069917678833,"19":2.2972559928894043,"20":-0.27796000242233276,"21":-0.20645971596240997,"22":0.3422706127166748,"23":1.6422946453094482,"24":1.7560369968414307,"25":-4.28739595413208,"26":0.10058997571468353,"27":5.909977912902832,"28":3.4642891883850098,"29":4.139864921569824,"30":-1.1047056913375854,"31":-2.283311605453491,"32":4.304782867431641,"33":-0.2378583699464798,"34":-0.5807138681411743,"35":-2.215554714202881,"36":-0.6058195233345032,"37":-2.68428635597229,"38":-2.4710261821746826,"39":2.269956350326538,"40":0.12225980311632156,"41":0.637133002281189,"42":-1.8113532066345215,"43":-1.0839296579360962,"44":-0.6583284735679626,"45":0.8485572934150696,"46":-1.4519022703170776,"47":-2.3759005069732666,"48":-1.2352590560913086,"49":-0.7823671698570251,"50":1.1705104112625122,"51":0.2473035752773285,"52":-1.7857778072357178,"53":0.003506660694256425,"54":0.6898278594017029,"55":-0.7476034760475159,"56":-1.2432904243469238,"57":-2.478623867034912,"58":-0.6633773446083069,"59":-1.0022412538528442,"60":-1.6787458658218384,"61":-1.82527494430542,"62":-0.3788609504699707,"63":0.19262152910232544,"64":1.5514832735061646,"65":-4.228715896606445,"66":0.6170228123664856,"67":1.379399299621582,"68":-0.37901365756988525,"69":-0.9085803031921387,"70":-0.8829371929168701,"71":-1.6398003101348877,"72":0.22957225143909454,"73":1.3460348844528198,"74":1.733023762702942,"75":-0.34220170974731445,"76":-1.3668763637542725,"77":-1.6386593580245972,"78":-2.024965524673462,"79":1.2404004335403442,"80":0.7672615051269531,"81":1.7318798303604126,"82":-0.7412607669830322,"83":-0.19048945605754852,"84":0.6471293568611145,"85":-3.0133512020111084,"86":1.8103392124176025,"87":2.3326737880706787,"88":-0.331582635641098,"89":1.3304805755615234,"90":-1.7111555337905884,"91":-2.112023115158081,"92":2.3155980110168457,"93":1.6586369276046753,"94":-3.195662260055542,"95":-3.4413063526153564,"96":-1.9413466453552246,"97":-0.03770881146192551,"98":-0.7373456358909607,"99":-0.6220717430114746,"100":-0.10070662945508957,"101":2.312631368637085,"102":1.694401502609253,"103":-2.0396368503570557,"104":-0.9754717350006104,"105":1.5770920515060425,"106":-0.1894141137599945,"107":-0.9617367386817932,"108":-0.3839723467826843,"109":-2.159339427947998,"110":4.301877975463867,"111":3.8165574073791504,"112":-2.4966046810150146,"113":-2.596035957336426,"114":2.0729708671569824,"115":2.6639740467071533,"116":-0.2842738926410675,"117":0.03969287872314453,"118":3.3942034244537354,"119":2.3277504444122314,"120":0.2403237670660019,"121":2.0103919506073,"122":0.4367596507072449,"123":-2.368478298187256,"124":-0.25074413418769836,"125":0.23888084292411804,"126":0.820158839225769,"127":-0.8225727677345276,"128":-1.7697362899780273,"129":-1.0660508871078491,"130":-0.4118187129497528,"131":0.3637610375881195,"132":-1.5201826095581055,"133":-2.380228281021118,"134":-0.07026145607233047,"135":0.8057370781898499,"136":-0.5098615288734436,"137":1.1429407596588135,"138":0.7774510383605957,"139":-0.3864477276802063,"140":-0.4179539680480957,"141":-2.7887935638427734,"142":1.2572858333587646,"143":1.2060785293579102,"144":1.0090488195419312,"145":-0.4255380630493164,"146":-0.9162039160728455,"147":-0.10802651941776276,"148":-0.5567406415939331,"149":0.5380773544311523,"150":-0.04799307882785797,"151":1.539422631263733,"152":0.20172268152236938,"153":-0.30606114864349365,"154":2.0878853797912598,"155":0.51792311668396,"156":0.6151348948478699,"157":-1.4026719331741333,"158":-0.6978033185005188,"159":0.5671154260635376,"160":1.7341039180755615,"161":-1.586405634880066,"162":1.4223511219024658,"163":-0.18597690761089325,"164":0.07504604011774063,"165":-1.9109588861465454,"166":2.287529468536377,"167":-2.022784948348999,"168":-0.8630770444869995,"169":4.818977355957031,"170":-3.3228096961975098,"171":-3.1340014934539795,"172":1.6595457792282104,"173":-0.5241138339042664,"174":-1.481622576713562,"175":-3.442563772201538,"176":0.09991200268268585,"177":-1.4677338600158691,"178":-0.7844187021255493,"179":-0.032062772661447525,"180":0.8630654215812683,"181":2.2538530826568604,"182":1.1191108226776123,"183":-1.0954811573028564,"184":-0.1121659129858017,"185":1.400971531867981,"186":-0.44376087188720703,"187":-1.3331174850463867,"188":-2.0970523357391357,"189":-0.7060331702232361,"190":2.181788921356201,"191":2.114218235015869,"192":-2.8600587844848633,"193":0.8789722323417664,"194":-1.5820465087890625,"195":2.0461924076080322,"196":-1.4066262245178223,"197":1.5517654418945312,"198":0.14045049250125885,"199":1.323486328125,"200":-1.254831314086914,"201":-1.9432870149612427,"202":-0.006905125454068184,"203":1.4420030117034912,"204":0.6339797973632812,"205":0.06249444559216499,"206":-0.7195196151733398,"207":1.8898967504501343,"208":-1.7655800580978394,"209":1.6864893436431885,"210":1.3772841691970825,"211":-3.932669162750244,"212":1.0928634405136108,"213":-0.6717748045921326,"214":-4.8376874923706055,"215":-2.3802683353424072,"216":0.9842469096183777,"217":1.9136897325515747,"218":-3.074542760848999,"219":2.8296899795532227,"220":-0.7740796208381653,"221":0.8484662175178528,"222":-1.830162525177002,"223":-0.046365100890398026,"224":-0.056311871856451035,"225":-0.6882234215736389,"226":-1.8799186944961548,"227":-2.3295462131500244,"228":1.3576833009719849,"229":0.5699307322502136,"230":-0.3552510738372803,"231":-1.4195916652679443,"232":0.5863134264945984,"233":1.5301566123962402,"234":-1.09774649143219,"235":0.326415091753006,"236":1.6734801530838013,"237":2.7324883937835693,"238":-1.1777915954589844,"239":1.4344127178192139,"240":-3.8832955360412598,"241":-1.248830795288086,"242":1.406778335571289,"243":0.8786960244178772,"244":1.4775866270065308,"245":-0.7906981706619263,"246":-0.2740206718444824,"247":-1.8639545440673828,"248":2.7330729961395264,"249":-0.25665438175201416,"250":0.20114721357822418,"251":-0.012718506157398224,"252":1.4375660419464111,"253":-0.399541437625885,"254":-0.42961806058883667,"255":-0.2752240002155304,"256":0.08270493894815445,"257":-0.21682733297348022,"258":1.3895447254180908,"259":0.2964286208152771,"260":-0.39794737100601196,"261":-0.1938311606645584,"262":-1.8237700462341309,"263":-1.135353922843933,"264":-0.1474108248949051,"265":-2.3407509326934814,"266":2.1190764904022217,"267":3.899643659591675,"268":0.1727265566587448,"269":3.981231451034546,"270":-2.1783201694488525,"271":-2.047703742980957,"272":2.599851131439209,"273":2.975393056869507,"274":-1.3764629364013672,"275":-0.8789495825767517,"276":-1.4976742267608643,"277":2.2451913356781006,"278":-1.452998399734497,"279":2.717691421508789,"280":-0.8706830143928528,"281":-1.4830517768859863,"282":-2.3791487216949463,"283":0.7415019869804382,"284":1.1640264987945557,"285":1.5107924938201904,"286":-0.06157377362251282,"287":-4.0864715576171875,"288":1.3003753423690796,"289":-1.942642331123352,"290":1.0515037775039673,"291":-0.39480727910995483,"292":0.821005642414093,"293":-0.11805413663387299,"294":-2.153154134750366,"295":0.4704201817512512,"296":0.4285987913608551,"297":-2.0669143199920654,"298":-0.9866677522659302,"299":-2.4167702198028564,"300":-0.06325040012598038,"301":0.9290415048599243,"302":1.2357321977615356,"303":0.9953550696372986,"304":-0.9649341702461243,"305":-1.0428498983383179,"306":0.3259916305541992,"307":-3.0009889602661133,"308":1.1043431758880615,"309":0.11900585144758224,"310":-0.7966496348381042,"311":-1.2267200946807861,"312":1.8654402494430542,"313":-0.9354695081710815,"314":-1.235594391822815,"315":-0.44871145486831665,"316":0.8057103753089905,"317":-0.036412931978702545,"318":-1.0510172843933105,"319":1.678745150566101,"320":-2.1059117317199707,"321":-1.4732519388198853,"322":-2.3332152366638184,"323":1.3488510847091675,"324":0.5627400279045105,"325":-2.5252749919891357,"326":1.0899794101715088,"327":1.917605996131897,"328":0.7229313850402832,"329":4.554948806762695,"330":-1.7678239345550537,"331":-2.419764518737793,"332":3.296118974685669,"333":1.202762246131897,"334":-3.451399803161621,"335":-2.2683663368225098,"336":0.011644980870187283,"337":1.7233134508132935,"338":-3.466752052307129,"339":1.6473597288131714,"340":-0.863906979560852,"341":0.625432014465332,"342":-0.8548197746276855,"343":-1.889377236366272,"344":-0.714914083480835,"345":-1.642039179801941,"346":2.7157483100891113,"347":0.5697422027587891,"348":-0.28079113364219666,"349":-0.6351930499076843,"350":2.3496036529541016,"351":0.7224744558334351,"352":0.5425930023193359,"353":-0.5883781909942627,"354":0.4403330683708191,"355":1.1519508361816406,"356":-0.3526064157485962,"357":1.7660150527954102,"358":0.8285800218582153,"359":0.9395323991775513,"360":-1.3412506580352783,"361":-0.3535916209220886,"362":1.2154911756515503,"363":0.6558667421340942,"364":-0.6584023833274841,"365":-2.0660762786865234,"366":1.8111785650253296,"367":0.6097055077552795,"368":1.4938503503799438,"369":1.48521888256073,"370":-2.3942978382110596,"371":-0.3517666459083557,"372":0.6942021250724792,"373":-1.0712541341781616,"374":-2.9690537452697754,"375":-2.6883950233459473,"376":-0.04245058819651604,"377":2.953925609588623,"378":1.7235915660858154,"379":-1.4551893472671509,"380":-0.06188581511378288,"381":-0.6604153513908386,"382":1.5835154056549072,"383":-2.747921943664551,"384":1.0991952419281006,"385":-0.4269086718559265,"386":1.8242970705032349,"387":1.3405674695968628,"388":-2.782440662384033,"389":-1.9772813320159912,"390":0.4060998260974884,"391":1.108181357383728,"392":-1.6072105169296265,"393":-1.7726085186004639,"394":2.399287462234497,"395":0.13377800583839417,"396":0.7546051740646362,"397":4.1322922706604,"398":3.301693916320801,"399":-1.708310842514038}},"inputBias":{"rows":20,"columns":1,"weights":{"0":0.3182177245616913,"1":1.9383747577667236,"2":-0.9588214159011841,"3":-0.5849372148513794,"4":-0.043932218104600906,"5":0.19386374950408936,"6":1.3455755710601807,"7":-0.0449814610183239,"8":-1.3358029127120972,"9":0.4046226739883423,"10":-0.4940754771232605,"11":1.3803856372833252,"12":-0.23347872495651245,"13":-0.850923478603363,"14":0.5799115300178528,"15":0.35653892159461975,"16":0.8927915692329407,"17":0.2694251239299774,"18":0.5990942716598511,"19":-0.5827757120132446}},"forgetMatrix":{"rows":20,"columns":41,"weights":{"0":0.20875248312950134,"1":2.666882038116455,"2":1.8184083700180054,"3":-0.9728775024414062,"4":-2.1571991443634033,"5":1.0663777589797974,"6":1.8758183717727661,"7":-0.7817984819412231,"8":2.915968418121338,"9":0.018032144755125046,"10":-1.9578032493591309,"11":-2.8454530239105225,"12":0.5669956803321838,"13":-0.4917732775211334,"14":0.08888992667198181,"15":-2.330812454223633,"16":-1.4903547763824463,"17":1.1979420185089111,"18":-0.5298911333084106,"19":1.4282135963439941,"20":2.7127201557159424,"21":0.6532090306282043,"22":0.19365179538726807,"23":1.442773699760437,"24":-0.4234423041343689,"25":1.3570858240127563,"26":-0.7197959423065186,"27":0.7501548528671265,"28":0.7686092257499695,"29":-0.29163187742233276,"30":-1.7062206268310547,"31":-0.7956343293190002,"32":-1.7821682691574097,"33":-3.1593739986419678,"34":1.129765510559082,"35":1.2294492721557617,"36":-0.6130505800247192,"37":0.23537279665470123,"38":-0.2697690427303314,"39":-2.200550079345703,"40":0.6077103018760681,"41":-2.01057767868042,"42":1.5061324834823608,"43":-0.5813183188438416,"44":0.5609971284866333,"45":-0.1702190786600113,"46":-1.0903352499008179,"47":2.1047980785369873,"48":-3.138511896133423,"49":-1.0228253602981567,"50":-2.3319520950317383,"51":-1.4842814207077026,"52":-1.7903170585632324,"53":-1.0051405429840088,"54":0.009457778185606003,"55":-1.5112628936767578,"56":0.2761959731578827,"57":-0.5989797115325928,"58":1.2751295566558838,"59":0.06750618666410446,"60":1.5513883829116821,"61":-1.2509616613388062,"62":0.08353297412395477,"63":-1.773911476135254,"64":0.282717764377594,"65":1.7753087282180786,"66":1.0868569612503052,"67":-0.7156012654304504,"68":-0.8320069909095764,"69":-0.6502296328544617,"70":-1.4821947813034058,"71":2.6275529861450195,"72":-0.07413554936647415,"73":1.6820389032363892,"74":-0.19097594916820526,"75":-3.2539937496185303,"76":0.22368335723876953,"77":-0.4612337350845337,"78":0.4267125725746155,"79":0.4017479419708252,"80":2.0462632179260254,"81":0.7564078569412231,"82":0.3830711245536804,"83":2.547773838043213,"84":0.40427714586257935,"85":-1.2274532318115234,"86":0.4554368257522583,"87":-0.11283617466688156,"88":0.4882524609565735,"89":-1.2810838222503662,"90":-2.410954475402832,"91":-1.6196773052215576,"92":-0.666530191898346,"93":-1.3374565839767456,"94":0.8826914429664612,"95":0.4688745141029358,"96":-2.1663851737976074,"97":0.5663021206855774,"98":0.44465744495391846,"99":-1.8306950330734253,"100":0.752324640750885,"101":3.0067195892333984,"102":-1.5845338106155396,"103":-0.1592557281255722,"104":-0.8269173502922058,"105":2.3189783096313477,"106":-1.5234568119049072,"107":-0.6607387065887451,"108":1.141131043434143,"109":1.3044321537017822,"110":-1.3704214096069336,"111":1.484598994255066,"112":0.9767925143241882,"113":1.2810425758361816,"114":-0.2852115035057068,"115":2.698626756668091,"116":0.32065436244010925,"117":-0.817096471786499,"118":0.1539599597454071,"119":0.6823944449424744,"120":1.067099690437317,"121":1.276261806488037,"122":-1.1302943229675293,"123":1.4113420248031616,"124":-1.2040600776672363,"125":-1.2310423851013184,"126":-0.31432044506073,"127":0.2593607008457184,"128":-0.12374010682106018,"129":0.42350202798843384,"130":2.230656147003174,"131":-1.8854773044586182,"132":1.1493685245513916,"133":1.1925241947174072,"134":-0.3434312343597412,"135":-0.6592202186584473,"136":-1.0051251649856567,"137":1.3459945917129517,"138":-0.02291877567768097,"139":1.1963200569152832,"140":-1.8587411642074585,"141":-1.60592782497406,"142":-1.050721287727356,"143":0.26496464014053345,"144":-0.369370698928833,"145":-2.431016445159912,"146":-1.3159170150756836,"147":-1.2470898628234863,"148":0.7143727540969849,"149":0.9496127963066101,"150":1.4845457077026367,"151":-1.49272620677948,"152":-1.2287490367889404,"153":-0.1625954508781433,"154":-0.38316237926483154,"155":1.546342134475708,"156":0.4858280420303345,"157":-0.5955507755279541,"158":-0.027163278311491013,"159":-0.744714617729187,"160":-0.9653489589691162,"161":0.5305721759796143,"162":1.6729918718338013,"163":-0.7705269455909729,"164":0.5589237809181213,"165":0.5987470746040344,"166":-1.0809792280197144,"167":0.51630699634552,"168":0.2714519500732422,"169":0.5957399606704712,"170":1.7037198543548584,"171":-1.521008849143982,"172":-0.21916913986206055,"173":-0.6214942932128906,"174":0.26666590571403503,"175":-1.0990307331085205,"176":0.02695501036942005,"177":-0.24471014738082886,"178":1.0433515310287476,"179":-0.4636673927307129,"180":-0.023641312494874,"181":-0.1337348222732544,"182":-1.5340906381607056,"183":1.0142171382904053,"184":-0.04682476818561554,"185":-0.3865453600883484,"186":-0.7554473280906677,"187":-1.5140725374221802,"188":0.8755975961685181,"189":0.570242166519165,"190":0.4124663174152374,"191":-1.8520984649658203,"192":-1.146254301071167,"193":-0.6107800602912903,"194":-1.96975839138031,"195":0.13824959099292755,"196":1.5262116193771362,"197":-1.4532736539840698,"198":-0.043793242424726486,"199":-0.15249799191951752,"200":-1.0604312419891357,"201":-2.2596278190612793,"202":1.4747790098190308,"203":2.0113391876220703,"204":1.6312425136566162,"205":-0.3719508945941925,"206":-3.4321491718292236,"207":0.02521415613591671,"208":-0.27401676774024963,"209":0.49104228615760803,"210":1.2971669435501099,"211":0.06496130675077438,"212":-3.3451921939849854,"213":-2.853330135345459,"214":-0.5037168860435486,"215":0.1354251354932785,"216":0.8807361721992493,"217":2.201761484146118,"218":-0.1861400455236435,"219":1.0957585573196411,"220":2.047459363937378,"221":-0.38410478830337524,"222":-0.4810073971748352,"223":0.26000237464904785,"224":0.11865881085395813,"225":0.42729899287223816,"226":-1.4972856044769287,"227":2.700878381729126,"228":-1.6990307569503784,"229":-0.011878076009452343,"230":-2.5879592895507812,"231":0.06929069012403488,"232":0.14028307795524597,"233":-0.629830002784729,"234":0.3749229907989502,"235":0.961658239364624,"236":1.2841322422027588,"237":2.5481815338134766,"238":-0.9249562621116638,"239":0.45247843861579895,"240":0.4668642580509186,"241":-0.16661357879638672,"242":-1.343239426612854,"243":-2.404956579208374,"244":0.1818048506975174,"245":1.0661646127700806,"246":2.050520181655884,"247":-0.7279465198516846,"248":-1.2128489017486572,"249":-3.212531089782715,"250":0.020616929978132248,"251":-0.7536837458610535,"252":-3.9712588787078857,"253":4.766476631164551,"254":-0.521477222442627,"255":3.1862096786499023,"256":0.40528440475463867,"257":1.8028405904769897,"258":0.5585386157035828,"259":-1.4506027698516846,"260":2.665735960006714,"261":-0.2004421502351761,"262":0.27116918563842773,"263":-1.375196099281311,"264":-0.6195008754730225,"265":-2.8236148357391357,"266":-0.21783281862735748,"267":0.2813382148742676,"268":0.052464649081230164,"269":-0.6732248663902283,"270":-0.7036254405975342,"271":0.1221754178404808,"272":-0.9159700274467468,"273":0.06197860464453697,"274":-0.3054603636264801,"275":-0.34759005904197693,"276":-2.263004779815674,"277":0.5352539420127869,"278":0.44959670305252075,"279":-0.7811635136604309,"280":-0.3668118715286255,"281":-0.25673505663871765,"282":3.352112054824829,"283":0.7899183034896851,"284":0.9794584512710571,"285":-1.3426826000213623,"286":-0.08216764777898788,"287":-2.063114881515503,"288":0.5912549495697021,"289":0.4988332688808441,"290":-3.8642160892486572,"291":-0.7924718856811523,"292":-4.094395160675049,"293":-3.6566154956817627,"294":3.3490302562713623,"295":0.25623783469200134,"296":0.06622941792011261,"297":1.155680775642395,"298":0.09640377759933472,"299":0.5907304883003235,"300":1.736574649810791,"301":0.7035280466079712,"302":0.7044438123703003,"303":-1.3902541399002075,"304":0.08670339733362198,"305":-0.2973845899105072,"306":-2.8511931896209717,"307":-0.40194979310035706,"308":1.8894193172454834,"309":-3.4387431144714355,"310":-2.555551052093506,"311":0.5253692865371704,"312":-1.171242117881775,"313":-0.4690067172050476,"314":1.4116594791412354,"315":0.28586840629577637,"316":1.2521134614944458,"317":-1.2150379419326782,"318":-0.08189023286104202,"319":-3.2740464210510254,"320":1.5739368200302124,"321":-2.322713851928711,"322":2.307657480239868,"323":2.384438991546631,"324":1.4033209085464478,"325":-1.1611708402633667,"326":-1.1811420917510986,"327":-0.4822620749473572,"328":-1.2392624616622925,"329":2.951066732406616,"330":1.700108528137207,"331":0.716291606426239,"332":-1.7321327924728394,"333":-1.241289496421814,"334":-0.4030161201953888,"335":0.6145753264427185,"336":2.6954233646392822,"337":-0.40308278799057007,"338":0.11487257480621338,"339":-4.701242446899414,"340":0.31831181049346924,"341":0.8392493724822998,"342":-0.86686772108078,"343":-1.3154691457748413,"344":-1.5208666324615479,"345":0.8600450754165649,"346":-0.48199573159217834,"347":0.9697587490081787,"348":1.67549467086792,"349":3.2533273696899414,"350":0.7968345880508423,"351":0.570719301700592,"352":0.7059528231620789,"353":-0.04687250778079033,"354":-0.8121601939201355,"355":-2.4118270874023438,"356":0.8527408242225647,"357":-0.6475405097007751,"358":-1.680199384689331,"359":-0.8263366222381592,"360":-1.1635433435440063,"361":0.04797302186489105,"362":0.9463936686515808,"363":1.1615960597991943,"364":1.139676809310913,"365":-0.5152310729026794,"366":1.9740420579910278,"367":-0.4331475794315338,"368":0.3275757133960724,"369":1.1151551008224487,"370":0.17310930788516998,"371":0.6874721646308899,"372":0.15470147132873535,"373":-0.7042023539543152,"374":-2.734020471572876,"375":-0.7048454284667969,"376":-0.7937230467796326,"377":0.10501731187105179,"378":-0.5785670280456543,"379":-1.8839449882507324,"380":-0.7496280670166016,"381":-1.4822369813919067,"382":2.9310240745544434,"383":-1.2233142852783203,"384":-0.3748331069946289,"385":-3.3951027393341064,"386":-1.2379499673843384,"387":-1.869197964668274,"388":0.5691505074501038,"389":2.1830320358276367,"390":-0.26333296298980713,"391":-1.6854199171066284,"392":2.555344581604004,"393":3.0705368518829346,"394":0.25839489698410034,"395":-3.017835855484009,"396":-2.855117082595825,"397":1.1876440048217773,"398":-1.3170267343521118,"399":-3.7222206592559814,"400":-1.630167841911316,"401":-2.953672170639038,"402":-1.644953966140747,"403":0.07468528300523758,"404":0.9956788420677185,"405":-0.7575976848602295,"406":-1.257041335105896,"407":0.3401835262775421,"408":1.2116451263427734,"409":-0.5765543580055237,"410":-0.9706991910934448,"411":1.3245776891708374,"412":-1.5838791131973267,"413":2.3872718811035156,"414":-2.146522283554077,"415":-2.1570451259613037,"416":-0.5889887809753418,"417":0.08014043420553207,"418":-0.05194957181811333,"419":-1.9237041473388672,"420":0.8874044418334961,"421":-0.23435422778129578,"422":-1.4993822574615479,"423":0.17832720279693604,"424":-0.8696470856666565,"425":0.5625205039978027,"426":-1.5841891765594482,"427":1.1851072311401367,"428":0.2100321352481842,"429":1.3412710428237915,"430":-0.7920945286750793,"431":2.2159082889556885,"432":-1.078737497329712,"433":-1.4156097173690796,"434":3.7483081817626953,"435":-0.11400201171636581,"436":-0.21726416051387787,"437":-1.836389183998108,"438":-1.9390040636062622,"439":-1.498907208442688,"440":-1.166991114616394,"441":-0.11831523478031158,"442":0.6154217720031738,"443":-0.05229094624519348,"444":1.5808695554733276,"445":0.33334317803382874,"446":1.2612051963806152,"447":-1.1622170209884644,"448":3.2624361515045166,"449":0.7457817792892456,"450":0.23945008218288422,"451":0.9039161205291748,"452":-1.1518079042434692,"453":-1.2868472337722778,"454":-0.8823792338371277,"455":1.1873984336853027,"456":2.2821407318115234,"457":0.08034031838178635,"458":1.6423085927963257,"459":-1.4313892126083374,"460":1.9686312675476074,"461":-0.311140775680542,"462":1.4461997747421265,"463":1.3898591995239258,"464":-1.3073304891586304,"465":1.725792646408081,"466":0.9148359894752502,"467":1.870643138885498,"468":-0.9833807349205017,"469":2.3063275814056396,"470":-1.1856406927108765,"471":-1.5608505010604858,"472":-1.2087912559509277,"473":0.8147305250167847,"474":-1.6242622137069702,"475":0.0046671670861542225,"476":-1.485910177230835,"477":0.8276565074920654,"478":-0.49741387367248535,"479":-0.7153642177581787,"480":0.4143906533718109,"481":2.051755905151367,"482":0.8500431776046753,"483":3.111680269241333,"484":0.7436662912368774,"485":-0.3661923110485077,"486":-1.8468440771102905,"487":0.6975279450416565,"488":2.155913829803467,"489":0.5201032757759094,"490":1.5387344360351562,"491":-0.8989085555076599,"492":-0.2466583251953125,"493":-0.5288535952568054,"494":0.8144593238830566,"495":2.258930206298828,"496":0.1330317109823227,"497":1.8466986417770386,"498":2.4806020259857178,"499":-2.386348247528076,"500":-0.32318800687789917,"501":-2.1307191848754883,"502":-1.4055328369140625,"503":-0.10997181385755539,"504":-0.20756670832633972,"505":2.749389886856079,"506":0.4018076956272125,"507":0.9503749012947083,"508":-2.201336145401001,"509":0.7935782074928284,"510":-1.2382723093032837,"511":0.5562140345573425,"512":-0.18849152326583862,"513":0.4086695909500122,"514":-0.24027250707149506,"515":-0.7480281591415405,"516":2.14739727973938,"517":0.7661234736442566,"518":1.567728042602539,"519":-2.1557040214538574,"520":-0.2006608247756958,"521":-2.9598257541656494,"522":-1.1783615350723267,"523":-0.5243626236915588,"524":0.07756996899843216,"525":-0.4355872869491577,"526":0.41606202721595764,"527":3.952096462249756,"528":-1.6485085487365723,"529":-0.8423463702201843,"530":1.004772663116455,"531":0.9690297842025757,"532":-0.7974511384963989,"533":2.3618292808532715,"534":-1.1598695516586304,"535":-0.9105933904647827,"536":-1.0294464826583862,"537":0.9956426620483398,"538":1.032484769821167,"539":-0.11354739218950272,"540":1.9006716012954712,"541":-1.4776052236557007,"542":2.490933418273926,"543":0.13983328640460968,"544":0.565714418888092,"545":0.4490443170070648,"546":-0.9374268651008606,"547":1.319401741027832,"548":-1.0502220392227173,"549":2.657881259918213,"550":-1.9325790405273438,"551":1.1047836542129517,"552":-2.0845813751220703,"553":-0.6222967505455017,"554":0.23289074003696442,"555":1.0202441215515137,"556":0.7932870984077454,"557":-1.815834879875183,"558":0.296196848154068,"559":0.350617915391922,"560":0.8468063473701477,"561":-2.288313865661621,"562":1.411574363708496,"563":-0.5407055020332336,"564":2.1780667304992676,"565":1.273996353149414,"566":1.6728858947753906,"567":1.1999623775482178,"568":-1.2903846502304077,"569":1.461932897567749,"570":0.20049284398555756,"571":0.08640886098146439,"572":-2.2288436889648438,"573":-0.487236887216568,"574":-3.8038158416748047,"575":1.7943967580795288,"576":1.4627832174301147,"577":-0.2426980435848236,"578":-0.6684898138046265,"579":-1.5910600423812866,"580":-0.0671897754073143,"581":-0.7007116079330444,"582":-1.949257731437683,"583":-1.8906829357147217,"584":2.7145445346832275,"585":-0.4540463984012604,"586":-0.8469212055206299,"587":-0.19309060275554657,"588":-2.889524459838867,"589":-0.8590816855430603,"590":-0.27854230999946594,"591":-2.0556206703186035,"592":1.659421682357788,"593":1.824379801750183,"594":0.04165559262037277,"595":1.6351194381713867,"596":-2.252500057220459,"597":0.45659393072128296,"598":-0.5751616954803467,"599":-2.3998239040374756,"600":-0.33697712421417236,"601":-0.03982934728264809,"602":-1.5962879657745361,"603":1.6415435075759888,"604":1.277259111404419,"605":2.2725770473480225,"606":-1.031935214996338,"607":0.5412637591362,"608":-4.811878681182861,"609":-0.6595198512077332,"610":-1.0945160388946533,"611":0.5445644855499268,"612":1.3032712936401367,"613":2.2451415061950684,"614":-0.4991040825843811,"615":-1.3339990377426147,"616":2.0916504859924316,"617":1.6358916759490967,"618":-1.471107006072998,"619":-1.9065375328063965,"620":0.5170791149139404,"621":0.8324039578437805,"622":1.0363729000091553,"623":1.5995856523513794,"624":-0.5177722573280334,"625":-0.9721062183380127,"626":-1.584368348121643,"627":-2.009159803390503,"628":-1.1166688203811646,"629":-1.7616451978683472,"630":-1.7211084365844727,"631":0.18464209139347076,"632":-0.5805109739303589,"633":2.2349631786346436,"634":1.6515460014343262,"635":-0.4300590455532074,"636":1.2070006132125854,"637":1.4804651737213135,"638":2.431286334991455,"639":-2.6060471534729004,"640":-1.2015397548675537,"641":0.14369776844978333,"642":-0.21301807463169098,"643":-0.10842776298522949,"644":2.0327186584472656,"645":3.1316592693328857,"646":3.572514057159424,"647":1.2363061904907227,"648":1.3909322023391724,"649":0.47636350989341736,"650":1.036644697189331,"651":2.715108633041382,"652":3.2034709453582764,"653":2.3451478481292725,"654":0.6378760933876038,"655":-1.6754393577575684,"656":-0.40505003929138184,"657":-1.8029087781906128,"658":-0.7277708649635315,"659":0.1122034341096878,"660":1.5227320194244385,"661":0.7655616998672485,"662":1.6856746673583984,"663":-2.296785354614258,"664":-3.4281389713287354,"665":-0.16097687184810638,"666":1.52607262134552,"667":0.5067828297615051,"668":1.6579169034957886,"669":0.6744990348815918,"670":0.7062270641326904,"671":1.2554631233215332,"672":0.6585331559181213,"673":-3.0415103435516357,"674":-0.9005290269851685,"675":0.24717245995998383,"676":-0.04747282713651657,"677":-3.4255454540252686,"678":0.6628609895706177,"679":-0.7561435699462891,"680":0.14321599900722504,"681":1.9059364795684814,"682":-0.7812252640724182,"683":1.2956665754318237,"684":-0.8350252509117126,"685":-2.699970245361328,"686":-1.548180103302002,"687":0.26483967900276184,"688":-0.14283707737922668,"689":1.5529812574386597,"690":-1.0204517841339111,"691":-2.576416492462158,"692":-1.6373541355133057,"693":-0.1025899201631546,"694":-1.8458967208862305,"695":-0.250117689371109,"696":0.267740935087204,"697":-1.0624514818191528,"698":2.4172794818878174,"699":1.5460389852523804,"700":0.4995959997177124,"701":-3.475118637084961,"702":-1.7991461753845215,"703":-0.6612560749053955,"704":0.7678446769714355,"705":1.3388020992279053,"706":-0.7993296384811401,"707":1.7649568319320679,"708":-1.699339747428894,"709":-1.0316754579544067,"710":0.6734806895256042,"711":-0.08347324281930923,"712":-2.2079999446868896,"713":0.26034948229789734,"714":0.4315505921840668,"715":-2.908475160598755,"716":-1.0484180450439453,"717":0.5943523645401001,"718":3.003793954849243,"719":-0.40632522106170654,"720":-0.4996480643749237,"721":0.5339491367340088,"722":2.4796199798583984,"723":-0.031568389385938644,"724":-0.9621057510375977,"725":-2.2836599349975586,"726":-1.7454183101654053,"727":0.25083473324775696,"728":-0.7074844241142273,"729":0.3734159469604492,"730":-0.6147844195365906,"731":0.7435792088508606,"732":1.3628487586975098,"733":-0.06779366731643677,"734":-1.8795384168624878,"735":1.7766668796539307,"736":-0.6953375935554504,"737":2.2530503273010254,"738":-0.7994221448898315,"739":1.3049206733703613,"740":2.142198324203491,"741":1.594307541847229,"742":-2.167283535003662,"743":-0.7058473229408264,"744":0.4430661201477051,"745":-0.5301041603088379,"746":0.8242916464805603,"747":0.2923652231693268,"748":0.03407975286245346,"749":-0.716452956199646,"750":-1.1149652004241943,"751":0.4198262691497803,"752":-1.3132458925247192,"753":-2.495152711868286,"754":-1.4513884782791138,"755":0.12092126905918121,"756":-0.7419664859771729,"757":0.7211290001869202,"758":0.80610191822052,"759":1.1258034706115723,"760":0.37858766317367554,"761":2.6368985176086426,"762":1.1756181716918945,"763":-1.102132797241211,"764":0.052922215312719345,"765":-0.7360103130340576,"766":-1.1428357362747192,"767":-0.07799568772315979,"768":-0.27994218468666077,"769":-0.006922929082065821,"770":0.07128680497407913,"771":-0.677078366279602,"772":0.48954033851623535,"773":0.295661062002182,"774":-1.0873717069625854,"775":-1.3279099464416504,"776":2.8442881107330322,"777":0.8988432884216309,"778":2.052722692489624,"779":-0.5539200901985168,"780":0.8667133450508118,"781":3.0248875617980957,"782":1.231708288192749,"783":-1.6808669567108154,"784":-0.845080554485321,"785":-0.4972592890262604,"786":1.1741859912872314,"787":3.163275718688965,"788":-0.2396850436925888,"789":1.7987351417541504,"790":-1.335264801979065,"791":-0.356164813041687,"792":0.6574295163154602,"793":-1.7488316297531128,"794":-1.7224695682525635,"795":-3.368846893310547,"796":2.1081745624542236,"797":1.6262861490249634,"798":0.07744654268026352,"799":0.5742195844650269,"800":1.3524971008300781,"801":1.7546749114990234,"802":-0.4520045518875122,"803":1.1155831813812256,"804":-2.1578176021575928,"805":-0.4879688322544098,"806":-1.1240534782409668,"807":-1.0363014936447144,"808":-0.1476544290781021,"809":-3.942136287689209,"810":-0.20289751887321472,"811":-2.2110230922698975,"812":-3.244004726409912,"813":4.64215087890625,"814":1.7555532455444336,"815":1.636084794998169,"816":-1.6407827138900757,"817":2.195183515548706,"818":2.6665055751800537,"819":-0.3892921209335327}},"forgetHidden":{"rows":20,"columns":20,"weights":{"0":-0.04330860823392868,"1":-0.41297951340675354,"2":-2.264763832092285,"3":-0.3435433804988861,"4":-0.3328142464160919,"5":-1.2523846626281738,"6":-0.36695221066474915,"7":0.6877753138542175,"8":0.1523725688457489,"9":0.4586392939090729,"10":-0.7364645004272461,"11":-1.5314021110534668,"12":0.9055061936378479,"13":0.11655387282371521,"14":0.9317461252212524,"15":-0.44448500871658325,"16":-1.366244912147522,"17":0.818291962146759,"18":-0.10086744278669357,"19":-0.3140409588813782,"20":0.7916767597198486,"21":0.7933096885681152,"22":-0.3218454122543335,"23":-0.3329349756240845,"24":-0.6371418237686157,"25":-1.1114596128463745,