{"type":"LSTM","options":{"inputSize":31,"inputRange":31,"hiddenLayers":[20,20],"outputSize":31,"decayRate":0.999,"smoothEps":1e-8,"regc":0.000001,"clipval":5,"maxPredictionLength":100,"dataFormatter":{"indexTable":{"a":0,"n":1,"d":2," ":3,"E":4,"z":5,"r":6,"b":7,"l":8,"e":9,"s":10,"t":11,"h":12,"Y":13,"w":14,",":15,"g":16,"G":17,"o":18,"p":19,"'":20,"A":21,"m":22,"i":23,"f":24,"u":25,"y":26,"c":27,"-":28,".":29,"unrecognized":30},"characterTable":{"0":"a","1":"n","2":"d","3":" ","4":"E","5":"z","6":"r","7":"b","8":"l","9":"e","10":"s","11":"t","12":"h","13":"Y","14":"w","15":",","16":"g","17":"G","18":"o","19":"p","20":"'","21":"A","22":"m","23":"i","24":"f","25":"u","26":"y","27":"c","28":"-","29":".","30":null},"values":["and Ezra blesseth","Yahweh, the great","God, and all","the people answer,","'Amen, Amen,' with","lifting up of","their hands, and","they bow and","do obeisance to","Yahweh -- faces","to the earth."],"characters":["a","n","d"," ","E","z","r","b","l","e","s","t","h","Y","w",",","g","G","o","p","'","A","m","i","f","u","y","c","-",".","unrecognized"],"specialIndexes":[30]}},"input":{"rows":32,"columns":31,"weights":{"0":0.09738308936357498,"1":0.06387923657894135,"2":2.3439133167266846,"3":3.8279879093170166,"4":5.920750141143799,"5":2.7605793476104736,"6":-1.18202805519104,"7":-3.4633851051330566,"8":-1.2905296087265015,"9":-2.0080277919769287,"10":-0.5515959858894348,"11":0.3080117702484131,"12":-0.547593891620636,"13":-0.637018620967865,"14":2.407942295074463,"15":-0.8452947735786438,"16":-2.8213493824005127,"17":-0.02128012664616108,"18":3.3782806396484375,"19":-2.4078145027160645,"20":-1.3869258165359497,"21":2.868494987487793,"22":-0.5417126417160034,"23":-1.2236006259918213,"24":-3.812513828277588,"25":1.3564016819000244,"26":-0.5930020809173584,"27":-2.5650601387023926,"28":1.2355833053588867,"29":0.624966025352478,"30":-0.43162181973457336,"31":-0.8619959354400635,"32":-0.16301780939102173,"33":1.2260993719100952,"34":-0.9661330580711365,"35":-2.200094699859619,"36":-5.8854289054870605,"37":5.272708415985107,"38":1.0916961431503296,"39":3.0690181255340576,"40":-4.663940906524658,"41":4.556952476501465,"42":1.1375470161437988,"43":-4.280836582183838,"44":-2.3562710285186768,"45":-3.3290293216705322,"46":-0.4942976236343384,"47":4.259092330932617,"48":6.305431365966797,"49":-1.329379916191101,"50":-1.4812167882919312,"51":-6.582046985626221,"52":4.3987345695495605,"53":3.825434684753418,"54":3.587756872177124,"55":1.802437424659729,"56":-0.3188563883304596,"57":-4.857585430145264,"58":5.542077541351318,"59":1.5367974042892456,"60":-4.096333980560303,"61":-0.9519756436347961,"62":-0.9167322516441345,"63":0.13173450529575348,"64":1.8989310264587402,"65":-5.1276469230651855,"66":-2.7483444213867188,"67":-4.750730991363525,"68":-6.691013336181641,"69":0.08323534578084946,"70":-2.951166868209839,"71":0.6694851517677307,"72":-8.594009399414062,"73":-3.8425133228302,"74":-2.3767127990722656,"75":1.4231104850769043,"76":-3.9086570739746094,"77":4.081385612487793,"78":-4.71995210647583,"79":-2.1888582706451416,"80":-1.5009902715682983,"81":-4.098634719848633,"82":-0.360377699136734,"83":3.195427417755127,"84":2.7276642322540283,"85":1.9040265083312988,"86":1.8525367975234985,"87":-7.143286228179932,"88":-0.2975451350212097,"89":4.289666652679443,"90":-0.468675822019577,"91":-1.0338443517684937,"92":-0.007813428528606892,"93":1.105939507484436,"94":2.6898350715637207,"95":-6.81630802154541,"96":1.4352375268936157,"97":0.9699894189834595,"98":-0.6655950546264648,"99":2.90859317779541,"100":4.0470662117004395,"101":5.379895210266113,"102":-0.836542546749115,"103":0.13353848457336426,"104":-0.3398520350456238,"105":0.23967641592025757,"106":4.3849968910217285,"107":2.2657508850097656,"108":0.3314797282218933,"109":-3.565338373184204,"110":2.350146770477295,"111":-0.003970093093812466,"112":0.8591086268424988,"113":-2.8066375255584717,"114":-1.6172113418579102,"115":2.4021520614624023,"116":4.995602130889893,"117":2.4819464683532715,"118":-4.369144916534424,"119":-4.939446449279785,"120":5.2865824699401855,"121":7.466318130493164,"122":-0.667466938495636,"123":-1.0137684345245361,"124":-1.6966208219528198,"125":0.3370499312877655,"126":-2.365631103515625,"127":0.8919046521186829,"128":-1.299147129058838,"129":-1.9827935695648193,"130":0.7897979021072388,"131":1.8823840618133545,"132":0.38969433307647705,"133":1.1918188333511353,"134":-0.5112797021865845,"135":-1.7782496213912964,"136":1.5923348665237427,"137":-2.30904483795166,"138":3.8203330039978027,"139":-0.2625836133956909,"140":-5.547895908355713,"141":1.6734853982925415,"142":-1.185097336769104,"143":-1.3583844900131226,"144":-4.998180866241455,"145":0.23046502470970154,"146":-0.24305447936058044,"147":3.3982186317443848,"148":2.7084176540374756,"149":2.7751822471618652,"150":-0.08879789710044861,"151":-2.1102824211120605,"152":1.1625115871429443,"153":0.589156985282898,"154":2.7488839626312256,"155":0.7865852117538452,"156":35.52203369140625,"157":-21.540082931518555,"158":28.060476303100586,"159":5.418267250061035,"160":-11.705119132995605,"161":-28.0579776763916,"162":17.076723098754883,"163":-3.2871453762054443,"164":-10.898321151733398,"165":1.4657894372940063,"166":6.562796592712402,"167":-25.168161392211914,"168":1.218733310699463,"169":-13.907917022705078,"170":-1.4768178462982178,"171":-15.197932243347168,"172":19.26820182800293,"173":11.36034107208252,"174":-17.92140007019043,"175":-36.35676193237305,"176":20.000511169433594,"177":-11.13124942779541,"178":19.64784049987793,"179":12.857513427734375,"180":-12.242687225341797,"181":-4.742790699005127,"182":17.49160385131836,"183":24.835716247558594,"184":1.6994438171386719,"185":-28.881855010986328,"186":-2.373166561126709,"187":3.6167774200439453,"188":2.6674723625183105,"189":14.323651313781738,"190":-4.633533000946045,"191":-2.666212320327759,"192":8.456888198852539,"193":-4.351022720336914,"194":-0.4671355187892914,"195":-6.362238883972168,"196":-7.761999607086182,"197":3.5791022777557373,"198":6.641970634460449,"199":-8.302331924438477,"200":-2.0883874893188477,"201":0.3095352053642273,"202":3.5668749809265137,"203":0.22650790214538574,"204":-3.026259660720825,"205":6.625792980194092,"206":-0.5897859930992126,"207":-1.0260076522827148,"208":-4.71329927444458,"209":3.4536807537078857,"210":7.503058910369873,"211":0.31082403659820557,"212":3.7559573650360107,"213":-6.039139747619629,"214":-4.704084396362305,"215":-0.695178210735321,"216":5.046429634094238,"217":0.5150100588798523,"218":-9.865482330322266,"219":-0.36309289932250977,"220":-19.597211837768555,"221":0.459613174200058,"222":-3.80409574508667,"223":-1.8788729906082153,"224":2.558980703353882,"225":-5.734391689300537,"226":-2.6677238941192627,"227":-3.5602402687072754,"228":-5.059114456176758,"229":4.125942707061768,"230":4.5696539878845215,"231":4.205132484436035,"232":-1.3656755685806274,"233":1.7662053108215332,"234":-5.344357967376709,"235":-0.22294436395168304,"236":-3.102674722671509,"237":2.3545725345611572,"238":-3.805462598800659,"239":1.8234953880310059,"240":-3.2689104080200195,"241":-1.0919185876846313,"242":0.06863508373498917,"243":8.26939582824707,"244":-4.2594828605651855,"245":2.7309188842773438,"246":0.9195013642311096,"247":-5.841485023498535,"248":1.10544753074646,"249":6.61986780166626,"250":1.2391289472579956,"251":16.798818588256836,"252":-9.604074478149414,"253":10.913908004760742,"254":3.1788525581359863,"255":10.092791557312012,"256":-1.7720472812652588,"257":-2.4809482097625732,"258":-7.521873474121094,"259":-1.6408545970916748,"260":-0.9935554265975952,"261":-6.846309661865234,"262":-3.2512595653533936,"263":7.249907493591309,"264":-2.1189229488372803,"265":7.564568519592285,"266":8.28954792022705,"267":-8.68150806427002,"268":-18.210376739501953,"269":7.497079849243164,"270":-25.85239028930664,"271":6.928216457366943,"272":7.68560266494751,"273":5.606452465057373,"274":-9.514546394348145,"275":-2.3140809535980225,"276":4.211395740509033,"277":-10.179795265197754,"278":-4.533552169799805,"279":-3.0433409214019775,"280":-4.293397426605225,"281":-7.212704658508301,"282":-1.294991374015808,"283":-6.700874328613281,"284":14.350449562072754,"285":-3.8863041400909424,"286":-3.358703136444092,"287":2.92034912109375,"288":2.4031758308410645,"289":-2.652869939804077,"290":-0.3773078918457031,"291":12.684882164001465,"292":4.87364387512207,"293":0.37452390789985657,"294":-0.14712511003017426,"295":-5.599949359893799,"296":-19.459524154663086,"297":-9.650490760803223,"298":-2.9669101238250732,"299":-2.987281322479248,"300":-3.3839402198791504,"301":-3.4701809883117676,"302":3.264392375946045,"303":1.542697787284851,"304":14.224190711975098,"305":-14.161164283752441,"306":1.9634290933609009,"307":2.2096009254455566,"308":-0.21349184215068817,"309":-3.9460208415985107,"310":-1.7902346849441528,"311":2.343278408050537,"312":1.7240221500396729,"313":1.5008456707000732,"314":-1.0408927202224731,"315":1.0859848260879517,"316":1.7185438871383667,"317":-0.9886255264282227,"318":-3.249014377593994,"319":1.162273645401001,"320":-0.809967577457428,"321":0.9395682215690613,"322":-2.4740073680877686,"323":0.10825697332620621,"324":3.12954044342041,"325":1.3288041353225708,"326":-1.9449228048324585,"327":1.354720115661621,"328":1.636038064956665,"329":-0.6727643609046936,"330":-1.734753966331482,"331":3.4582555294036865,"332":-0.6557583808898926,"333":7.9028167724609375,"334":3.3197827339172363,"335":1.0582475662231445,"336":-2.2717700004577637,"337":3.4934489727020264,"338":2.9854273796081543,"339":-0.6787663698196411,"340":1.4574213027954102,"341":5.048539161682129,"342":-5.53037691116333,"343":6.476438999176025,"344":-1.9259145259857178,"345":1.3619966506958008,"346":-2.231311082839966,"347":1.9299923181533813,"348":5.930028438568115,"349":-0.5693720579147339,"350":0.3982504904270172,"351":1.5240360498428345,"352":4.68900728225708,"353":-3.5178444385528564,"354":5.294795989990234,"355":1.0963505506515503,"356":1.1491845846176147,"357":4.768460273742676,"358":-0.310335636138916,"359":2.7391271591186523,"360":-2.8345248699188232,"361":-3.7117764949798584,"362":3.71872878074646,"363":-1.7244294881820679,"364":-1.2479134798049927,"365":7.405693054199219,"366":-7.791423320770264,"367":-4.583305358886719,"368":-7.110964298248291,"369":5.467706203460693,"370":3.797100067138672,"371":-2.80993914604187,"372":0.9382878541946411,"373":0.3475785553455353,"374":8.882841110229492,"375":3.614193916320801,"376":0.9657791256904602,"377":-1.2648416757583618,"378":-2.3065085411071777,"379":7.9622697830200195,"380":-2.4234719276428223,"381":3.388012170791626,"382":-8.258393287658691,"383":-0.8647119998931885,"384":3.4850001335144043,"385":-3.987311840057373,"386":1.904692530632019,"387":0.710884690284729,"388":1.0288820266723633,"389":4.275883674621582,"390":0.5436803102493286,"391":-3.4175174236297607,"392":-9.049745559692383,"393":3.56551456451416,"394":-4.731297016143799,"395":5.999783039093018,"396":1.2225700616836548,"397":0.18902316689491272,"398":-0.22222337126731873,"399":-2.0841803550720215,"400":2.936450481414795,"401":1.5551868677139282,"402":6.33582067489624,"403":5.239895343780518,"404":1.2253762483596802,"405":1.56663978099823,"406":-1.5094109773635864,"407":0.6545528769493103,"408":0.9382598400115967,"409":0.9242315292358398,"410":-2.1215243339538574,"411":10.450313568115234,"412":0.9797458052635193,"413":2.688218593597412,"414":6.356581211090088,"415":-7.204935550689697,"416":3.161027431488037,"417":-1.3849749565124512,"418":-7.175525188446045,"419":2.3229470252990723,"420":-3.3565285205841064,"421":1.7918610572814941,"422":1.6639662981033325,"423":2.5372023582458496,"424":-0.18653970956802368,"425":-1.135326623916626,"426":-0.9070298075675964,"427":1.9034675359725952,"428":-2.294154405593872,"429":-3.4243414402008057,"430":-4.476865291595459,"431":2.4690444469451904,"432":3.813034772872925,"433":-2.188448905944824,"434":1.404179334640503,"435":1.303755760192871,"436":17.751670837402344,"437":11.046762466430664,"438":-4.3538641929626465,"439":1.5350929498672485,"440":5.261651992797852,"441":-16.213869094848633,"442":-14.393434524536133,"443":1.5767568349838257,"444":-3.142030954360962,"445":-6.948322296142578,"446":-18.642780303955078,"447":1.541455626487732,"448":13.731836318969727,"449":-4.897905349731445,"450":-8.585208892822266,"451":3.0586776733398438,"452":-2.639484405517578,"453":1.8341678380966187,"454":2.029026508331299,"455":6.811249732971191,"456":-28.468597412109375,"457":15.965587615966797,"458":3.857553243637085,"459":3.1390044689178467,"460":6.343484878540039,"461":-16.505126953125,"462":-0.31730517745018005,"463":-4.551891326904297,"464":23.97541046142578,"465":-4.214361667633057,"466":-1.8046809434890747,"467":7.347947597503662,"468":-10.824636459350586,"469":12.739930152893066,"470":-6.641226768493652,"471":1.6133332252502441,"472":-0.3723437488079071,"473":-1.9271596670150757,"474":-0.447172611951828,"475":-4.530418872833252,"476":-0.5441433191299438,"477":8.590428352355957,"478":8.079347610473633,"479":-3.072273015975952,"480":-2.0447590351104736,"481":0.4180549681186676,"482":-7.283947944641113,"483":-7.166217803955078,"484":-3.165924310684204,"485":0.03560992702841759,"486":-4.775917053222656,"487":1.742749571800232,"488":8.228595733642578,"489":-1.1997723579406738,"490":-3.834824800491333,"491":-4.420289993286133,"492":1.2609411478042603,"493":-11.050475120544434,"494":12.281129837036133,"495":-16.314069747924805,"496":-4.3348469734191895,"497":0.33424368500709534,"498":-2.200624465942383,"499":5.344838619232178,"500":-7.996383190155029,"501":0.6133497357368469,"502":3.732415199279785,"503":2.1369776725769043,"504":6.763558387756348,"505":1.3350944519042969,"506":11.7391996383667,"507":5.353047847747803,"508":-5.25247859954834,"509":-3.6990487575531006,"510":-4.29185152053833,"511":-1.5364075899124146,"512":5.774358749389648,"513":-10.177172660827637,"514":4.849266529083252,"515":-6.061470985412598,"516":0.3229575455188751,"517":-4.026646137237549,"518":2.6492934226989746,"519":-11.890753746032715,"520":-1.738835096359253,"521":-4.0502400398254395,"522":-4.931653022766113,"523":-1.5691672563552856,"524":1.9564003944396973,"525":4.26295804977417,"526":4.408448219299316,"527":-2.9451608657836914,"528":1.267593264579773,"529":1.987106204032898,"530":2.7982208728790283,"531":2.2073328495025635,"532":9.24637222290039,"533":9.804706573486328,"534":1.5665677785873413,"535":-6.470455169677734,"536":-5.900597095489502,"537":-8.958139419555664,"538":-3.220545530319214,"539":5.451903343200684,"540":-0.11248885840177536,"541":7.187687397003174,"542":9.175352096557617,"543":3.753018856048584,"544":-5.393771171569824,"545":5.246382236480713,"546":-4.835001468658447,"547":-8.017474174499512,"548":5.770665645599365,"549":5.11980676651001,"550":0.5588319897651672,"551":2.010143756866455,"552":-6.50496768951416,"553":2.273033857345581,"554":6.668210983276367,"555":-8.388572692871094,"556":-10.297518730163574,"557":2.9717490673065186,"558":57.73501968383789,"559":13.888319969177246,"560":37.971771240234375,"561":-54.484710693359375,"562":-14.405411720275879,"563":-24.07924461364746,"564":44.29670715332031,"565":-4.740310192108154,"566":-8.337848663330078,"567":31.082054138183594,"568":5.800500869750977,"569":-19.717039108276367,"570":35.244503021240234,"571":-77.01006317138672,"572":30.9771728515625,"573":-51.16195297241211,"574":26.09855842590332,"575":-62.27271270751953,"576":38.84318542480469,"577":-18.337650299072266,"578":-20.357662200927734,"579":-36.757022857666016,"580":-19.936721801757812,"581":-35.222843170166016,"582":15.058893203735352,"583":-23.854827880859375,"584":-7.954251766204834,"585":13.737674713134766,"586":6.934858322143555,"587":-27.268508911132812,"588":-19.711666107177734,"589":-0.80146723985672,"590":1.8771584033966064,"591":-7.79180383682251,"592":-1.6996828317642212,"593":0.6403369307518005,"594":-1.4173083305358887,"595":-3.4061942100524902,"596":-5.248135566711426,"597":0.5585318803787231,"598":0.09049244225025177,"599":1.2516920566558838,"600":-0.20459192991256714,"601":0.8841055035591125,"602":7.087501525878906,"603":0.6556102633476257,"604":-0.3848550021648407,"605":-0.10957282036542892,"606":2.266472101211548,"607":-0.799654483795166,"608":0.6311355233192444,"609":0.43292948603630066,"610":0.6041920781135559,"611":-0.10224653035402298,"612":-4.3512749671936035,"613":-1.5325126647949219,"614":-2.1602039337158203,"615":0.9861107468605042,"616":-0.1489098072052002,"617":-0.11541508138179779,"618":1.201371669769287,"619":-0.3417063057422638,"620":17.014320373535156,"621":-1.3801007270812988,"622":14.308359146118164,"623":-7.4085235595703125,"624":9.714282989501953,"625":-6.61897611618042,"626":2.1529197692871094,"627":-0.017704695463180542,"628":-20.883699417114258,"629":6.708408355712891,"630":-17.729093551635742,"631":-5.675030708312988,"632":-1.8277952671051025,"633":1.2889705896377563,"634":7.50656795501709,"635":3.794524908065796,"636":6.437920093536377,"637":-2.368570327758789,"638":8.619759559631348,"639":4.246123790740967,"640":3.768956422805786,"641":7.661604404449463,"642":-2.7381248474121094,"643":-7.289525032043457,"644":-1.6820886135101318,"645":-1.046250820159912,"646":-2.0399632453918457,"647":-4.733896255493164,"648":-4.1023430824279785,"649":-11.273151397705078,"650":8.75899887084961,"651":-5.866918087005615,"652":-7.103024005889893,"653":20.007822036743164,"654":5.940741539001465,"655":13.875168800354004,"656":-8.476591110229492,"657":-3.035309314727783,"658":-8.235554695129395,"659":-14.328608512878418,"660":-3.1617331504821777,"661":7.092681407928467,"662":4.7416863441467285,"663":16.103769302368164,"664":-2.014716863632202,"665":32.719364166259766,"666":-30.103866577148438,"667":-11.682905197143555,"668":-17.511117935180664,"669":9.482575416564941,"670":6.336883068084717,"671":-0.6885902881622314,"672":8.754495620727539,"673":10.671504020690918,"674":1.3054288625717163,"675":-5.456197738647461,"676":-9.65174388885498,"677":-16.88396644592285,"678":-5.074151039123535,"679":-20.542308807373047,"680":21.117280960083008,"681":-2.7883358001708984,"682":1.129592776298523,"683":2.0005409717559814,"684":-4.448295593261719,"685":-4.8990159034729,"686":-1.334850549697876,"687":-2.649862766265869,"688":-14.641307830810547,"689":-10.229843139648438,"690":1.9518020153045654,"691":4.0562052726745605,"692":0.47963622212409973,"693":-12.621476173400879,"694":-8.192269325256348,"695":-1.3585829734802246,"696":-25.796850204467773,"697":9.922833442687988,"698":4.823541641235352,"699":-2.459329605102539,"700":-5.479233264923096,"701":0.81919926404953,"702":-8.978289604187012,"703":3.755951166152954,"704":6.524603366851807,"705":-16.90175437927246,"706":2.934159994125366,"707":-9.905839920043945,"708":-1.4102116823196411,"709":-2.561594247817993,"710":-6.640821933746338,"711":5.104246139526367,"712":-6.315924167633057,"713":-5.746118068695068,"714":12.136784553527832,"715":-3.9684603214263916,"716":3.9039573669433594,"717":-4.743699550628662,"718":1.2179412841796875,"719":5.760267734527588,"720":4.880158424377441,"721":-6.784984588623047,"722":-0.1932837963104248,"723":-5.501163959503174,"724":12.291827201843262,"725":-0.036197222769260406,"726":2.34464168548584,"727":8.748922348022461,"728":9.919334411621094,"729":-6.611310958862305,"730":0.10745803266763687,"731":-0.6451757550239563,"732":-6.672219753265381,"733":-0.2555939555168152,"734":13.964332580566406,"735":0.41573914885520935,"736":9.995697975158691,"737":-6.630550861358643,"738":-1.3771690130233765,"739":7.098091125488281,"740":2.5257887840270996,"741":10.175963401794434,"742":-1.7333528995513916,"743":-2.0735769271850586,"744":8.049187660217285,"745":-3.2604072093963623,"746":-0.16028866171836853,"747":-2.0110645294189453,"748":6.419473648071289,"749":3.7048749923706055,"750":0.9317295551300049,"751":2.516126871109009,"752":-0.33764782547950745,"753":4.326988220214844,"754":1.3104102611541748,"755":2.4266839027404785,"756":-0.6898695230484009,"757":-1.2740046977996826,"758":2.4726338386535645,"759":1.7618358135223389,"760":-2.128812313079834,"761":0.30029958486557007,"762":-0.6991419792175293,"763":4.699188232421875,"764":6.900976657867432,"765":-6.268975257873535,"766":5.492472171783447,"767":3.7605011463165283,"768":-0.283554345369339,"769":1.232418417930603,"770":3.0423390865325928,"771":-7.243738174438477,"772":-1.9756509065628052,"773":-4.827018737792969,"774":3.665720224380493,"775":9.911660194396973,"776":-0.40029460191726685,"777":-1.3947621583938599,"778":0.8715714812278748,"779":-0.6971515417098999,"780":5.928496360778809,"781":7.417957305908203,"782":3.172145128250122,"783":10.220283508300781,"784":1.9848082065582275,"785":1.7971010208129883,"786":-6.455662727355957,"787":5.136859893798828,"788":4.3666205406188965,"789":-0.9402576684951782,"790":4.579184055328369,"791":-1.1371724605560303,"792":-2.621913194656372,"793":-2.810084104537964,"794":-4.680028915405273,"795":-2.001987934112549,"796":-8.612333297729492,"797":2.813483953475952,"798":-2.5089166164398193,"799":0.5140805244445801,"800":-4.196472644805908,"801":-3.2639918327331543,"802":-4.174847602844238,"803":0.3820871412754059,"804":-3.434419870376587,"805":-3.701014995574951,"806":-0.28853195905685425,"807":0.7770214676856995,"808":10.10310173034668,"809":-10.519287109375,"810":-6.453802108764648,"811":-0.1539766490459442,"812":-7.138740062713623,"813":-3.5170345306396484,"814":-7.879833698272705,"815":9.487383842468262,"816":4.0543975830078125,"817":7.766746520996094,"818":-10.497729301452637,"819":-8.98928165435791,"820":-2.6318581104278564,"821":-6.286858558654785,"822":6.543525695800781,"823":5.254123210906982,"824":0.5112285017967224,"825":3.763446092605591,"826":-4.673092365264893,"827":-4.538211822509766,"828":1.5040974617004395,"829":-7.155551910400391,"830":-1.0332293510437012,"831":1.602239727973938,"832":-2.45206618309021,"833":-2.6663339138031006,"834":-6.498783588409424,"835":-0.9406203627586365,"836":-5.965426921844482,"837":-2.278113842010498,"838":-3.2424521446228027,"839":7.502073287963867,"840":-12.659588813781738,"841":5.065035343170166,"842":11.117989540100098,"843":-1.252272367477417,"844":2.4879343509674072,"845":7.449087142944336,"846":-13.034449577331543,"847":-19.571025848388672,"848":-2.9785759449005127,"849":-8.097221374511719,"850":1.2525337934494019,"851":-3.7211754322052,"852":-2.906266927719116,"853":4.115945816040039,"854":-9.838714599609375,"855":-3.4142370223999023,"856":5.179433345794678,"857":7.365322589874268,"858":-2.8272488117218018,"859":1.6099144220352173,"860":-1.5230720043182373,"861":0.8652223944664001,"862":-0.6152577996253967,"863":-1.0022913217544556,"864":-4.138256072998047,"865":10.204758644104004,"866":0.639580488204956,"867":-13.517647743225098,"868":-2.7538859844207764,"869":-1.7885257005691528,"870":-2.5517489910125732,"871":-1.5886787176132202,"872":13.35554027557373,"873":-6.842446804046631,"874":6.09980583190918,"875":-0.09313161671161652,"876":0.10307607054710388,"877":10.955076217651367,"878":5.493243217468262,"879":-16.3868350982666,"880":-0.9558901786804199,"881":3.4730777740478516,"882":2.6529176235198975,"883":-5.003878593444824,"884":2.3588573932647705,"885":-2.06138014793396,"886":12.08371353149414,"887":0.8312174081802368,"888":0.7696452140808105,"889":-0.38615474104881287,"890":-1.662563443183899,"891":3.5514636039733887,"892":6.1741042137146,"893":-8.75379467010498,"894":6.461962699890137,"895":-4.29110860824585,"896":-5.787848472595215,"897":-1.911651372909546,"898":17.423734664916992,"899":-20.742774963378906,"900":15.220232009887695,"901":18.285280227661133,"902":3.1985788345336914,"903":-12.698379516601562,"904":7.453883647918701,"905":-18.4388484954834,"906":0.474368691444397,"907":7.355043888092041,"908":-5.604702949523926,"909":2.713841199874878,"910":-7.728093147277832,"911":-0.37884506583213806,"912":24.970186233520508,"913":-0.10019320249557495,"914":17.775171279907227,"915":-18.156417846679688,"916":-3.4381442070007324,"917":-2.801283836364746,"918":8.237478256225586,"919":15.605060577392578,"920":-15.502634048461914,"921":-3.2818682193756104,"922":-5.598163604736328,"923":3.4198200702667236,"924":-10.531254768371582,"925":-5.661684513092041,"926":-0.65283203125,"927":-8.451391220092773,"928":2.525347948074341,"929":-4.2699174880981445,"930":3.2941277027130127,"931":8.688340187072754,"932":-2.311173677444458,"933":-11.842942237854004,"934":22.523664474487305,"935":-16.856643676757812,"936":3.498690366744995,"937":-1.3808292150497437,"938":11.3148832321167,"939":2.0163395404815674,"940":16.426855087280273,"941":-11.008973121643066,"942":7.718267440795898,"943":1.0058788061141968,"944":10.000746726989746,"945":-5.697269916534424,"946":-7.720567226409912,"947":1.3099496364593506,"948":-2.4560189247131348,"949":-20.590070724487305,"950":14.574383735656738,"951":-9.168193817138672,"952":12.953006744384766,"953":0.4815514087677002,"954":-3.594573736190796,"955":1.1081218719482422,"956":2.4198482036590576,"957":0.03154164180159569,"958":-0.6781308650970459,"959":-4.910696506500244,"960":-2.4124817848205566,"961":1.975525975227356,"962":0.7372613549232483,"963":-4.851675033569336,"964":-4.2766547203063965,"965":-1.1181929111480713,"966":-0.7072951197624207,"967":-1.0717501640319824,"968":-6.308111190795898,"969":-0.06517575681209564,"970":-1.9815853834152222,"971":4.282524585723877,"972":3.2488889694213867,"973":-2.3979995250701904,"974":1.3341749906539917,"975":1.110191822052002,"976":0.8099583983421326,"977":4.620735168457031,"978":0.09984441101551056,"979":0.9231303334236145,"980":-0.9455334544181824,"981":-1.7137749195098877,"982":0.4141697287559509,"983":12.54008960723877,"984":-9.066421508789062,"985":1.784493088722229,"986":-3.0032997131347656,"987":0.5947578549385071,"988":-0.4484178125858307,"989":1.8537821769714355,"990":1.159067988395691,"991":-3.8108649253845215}},"hiddenLayers":[{"inputMatrix":{"rows":20,"columns":31,"weights":{"0":2.897623300552368,"1":0.9939975738525391,"2":-2.6369714736938477,"3":0.6105441451072693,"4":2.602773904800415,"5":1.8870930671691895,"6":-3.9329428672790527,"7":-1.4762873649597168,"8":-3.5049829483032227,"9":1.6028931140899658,"10":-1.0358152389526367,"11":0.6007053852081299,"12":2.200376510620117,"13":0.5662886500358582,"14":0.7406632900238037,"15":1.3505126237869263,"16":-1.13741934299469,"17":-0.21532680094242096,"18":-1.259265661239624,"19":3.2968266010284424,"20":-0.6317267417907715,"21":0.423500657081604,"22":0.6357048749923706,"23":1.9760372638702393,"24":0.33894363045692444,"25":-1.0825731754302979,"26":1.5437428951263428,"27":1.8102794885635376,"28":0.5238267183303833,"29":-0.7618574500083923,"30":4.220500946044922,"31":0.6683960556983948,"32":-0.7859947085380554,"33":0.7839585542678833,"34":-1.566588044166565,"35":2.1619348526000977,"36":0.43085920810699463,"37":0.027582015842199326,"38":0.8864448666572571,"39":0.07741223275661469,"40":2.459937334060669,"41":-1.154215693473816,"42":-0.47958993911743164,"43":-0.06111092120409012,"44":-2.3212461471557617,"45":-1.4771569967269897,"46":0.2343718409538269,"47":1.1991618871688843,"48":-3.855316638946533,"49":-0.71192866563797,"50":-0.6437989473342896,"51":0.04891863092780113,"52":-0.2713177800178528,"53":-0.41063112020492554,"54":-0.676203727722168,"55":-0.17238964140415192,"56":-1.069645881652832,"57":0.9076101183891296,"58":2.063425064086914,"59":-0.4906217157840729,"60":-0.7753848433494568,"61":0.9635247588157654,"62":-0.676364004611969,"63":0.6264829635620117,"64":0.5403918623924255,"65":-0.37422215938568115,"66":-2.774857521057129,"67":-1.0403070449829102,"68":-1.16411554813385,"69":-0.2660500109195709,"70":-1.245502233505249,"71":-2.3245906829833984,"72":-3.8718161582946777,"73":-1.7920310497283936,"74":0.7485452890396118,"75":-1.7845746278762817,"76":-0.7282503843307495,"77":1.6597877740859985,"78":0.26129889488220215,"79":0.38210922479629517,"80":-0.9552241563796997,"81":1.4785420894622803,"82":0.30957427620887756,"83":0.6604487895965576,"84":-1.9355229139328003,"85":-0.630161464214325,"86":1.4735429286956787,"87":-0.9920448064804077,"88":1.9412310123443604,"89":0.8525155186653137,"90":-0.6674269437789917,"91":-2.6138689517974854,"92":0.0445842444896698,"93":-1.8037338256835938,"94":1.2799543142318726,"95":3.4530277252197266,"96":-0.19661934673786163,"97":3.880401372909546,"98":1.5097635984420776,"99":1.49045729637146,"100":-1.247969627380371,"101":-0.8183174729347229,"102":1.0292104482650757,"103":-1.0953633785247803,"104":0.5213911533355713,"105":-0.35918810963630676,"106":-1.7790213823318481,"107":1.318774700164795,"108":2.40891170501709,"109":2.0663716793060303,"110":1.5964925289154053,"111":2.4403154850006104,"112":0.9096634387969971,"113":0.9955240488052368,"114":0.45997077226638794,"115":-2.326841354370117,"116":-1.1536304950714111,"117":0.10632775723934174,"118":0.2913788855075836,"119":2.3384995460510254,"120":-1.5460621118545532,"121":0.4498331546783447,"122":-2.0736184120178223,"123":0.9782658219337463,"124":0.36877739429473877,"125":1.5697225332260132,"126":-4.829391956329346,"127":-1.4056681394577026,"128":-1.641312599182129,"129":-1.6937141418457031,"130":-1.5093482732772827,"131":-0.24942156672477722,"132":-0.15548354387283325,"133":0.4818892776966095,"134":0.6114769577980042,"135":-2.264868974685669,"136":0.08327031880617142,"137":0.9788724184036255,"138":-1.174764633178711,"139":-2.7464842796325684,"140":-4.238933086395264,"141":-0.8676192760467529,"142":-1.5256342887878418,"143":-2.8703577518463135,"144":-1.2611178159713745,"145":-1.2132179737091064,"146":1.1751328706741333,"147":2.66703462600708,"148":0.21021318435668945,"149":-4.860755920410156,"150":-0.7100726962089539,"151":0.9709389209747314,"152":0.6705183386802673,"153":3.539487361907959,"154":-1.4696799516677856,"155":4.892683029174805,"156":1.0068838596343994,"157":-0.13127264380455017,"158":-0.7480435371398926,"159":1.4020473957061768,"160":-3.6300253868103027,"161":-4.485579013824463,"162":-0.45159515738487244,"163":-3.7048821449279785,"164":4.394632339477539,"165":0.9706133604049683,"166":-4.890890121459961,"167":-1.1111958026885986,"168":-1.5796284675598145,"169":0.23303215205669403,"170":-2.7917206287384033,"171":-3.5264294147491455,"172":0.08583273738622665,"173":3.30344557762146,"174":-1.8601688146591187,"175":-1.0920894145965576,"176":-1.285880208015442,"177":-0.31268325448036194,"178":3.351140022277832,"179":-0.48961180448532104,"180":1.3191159963607788,"181":1.3311090469360352,"182":-2.707270383834839,"183":-0.06769225001335144,"184":0.2003168761730194,"185":4.377782344818115,"186":-2.7522976398468018,"187":-0.26994791626930237,"188":1.4326870441436768,"189":4.375263690948486,"190":-1.9022475481033325,"191":-1.2297643423080444,"192":1.391299843788147,"193":-0.10913728922605515,"194":0.08590076863765717,"195":-0.35607093572616577,"196":-0.5238329172134399,"197":-3.698620557785034,"198":3.2564780712127686,"199":-2.022784948348999,"200":-1.90961754322052,"201":0.7312264442443848,"202":3.0948140621185303,"203":-5.707836627960205,"204":-1.2474822998046875,"205":1.0034621953964233,"206":-3.6993536949157715,"207":0.9987411499023438,"208":0.12094652652740479,"209":-2.5852699279785156,"210":4.460270881652832,"211":0.16431310772895813,"212":0.49772971868515015,"213":0.5478278994560242,"214":-2.6681528091430664,"215":-4.247405529022217,"216":2.750393867492676,"217":1.7459255456924438,"218":-1.2902735471725464,"219":0.0955250933766365,"220":-0.2145644575357437,"221":0.02873208187520504,"222":-4.931127071380615,"223":0.3488364517688751,"224":-3.0630173683166504,"225":1.0413569211959839,"226":-1.9835854768753052,"227":-1.3484171628952026,"228":2.3330066204071045,"229":-1.5578277111053467,"230":-1.7362922430038452,"231":-1.441632866859436,"232":0.9543271660804749,"233":2.8411355018615723,"234":-3.8738698959350586,"235":-1.7810451984405518,"236":0.00042894817306660116,"237":-0.0217958465218544,"238":1.859419584274292,"239":1.199500560760498,"240":-2.667268991470337,"241":-0.4703880846500397,"242":-1.3134665489196777,"243":1.2135014533996582,"244":0.48817092180252075,"245":1.2018353939056396,"246":-3.4871106147766113,"247":-0.19723738729953766,"248":0.1851399689912796,"249":0.6435906887054443,"250":-0.7628979086875916,"251":2.289130687713623,"252":-0.2592719793319702,"253":1.1828988790512085,"254":-3.008352756500244,"255":2.7119369506835938,"256":-1.2381547689437866,"257":-1.701501727104187,"258":-0.512161910533905,"259":-4.073292255401611,"260":0.15574665367603302,"261":0.9748108983039856,"262":2.9699349403381348,"263":-1.1426506042480469,"264":-4.5022292137146,"265":0.8602047562599182,"266":-0.3272935748100281,"267":-1.5618597269058228,"268":-0.8298443555831909,"269":3.2801668643951416,"270":-2.135432481765747,"271":1.2830919027328491,"272":-0.30293363332748413,"273":2.4193131923675537,"274":-0.005056279245764017,"275":1.2113909721374512,"276":0.5137776732444763,"277":-0.8451207280158997,"278":2.115729570388794,"279":0.9458242654800415,"280":0.31206220388412476,"281":0.1313551366329193,"282":-0.0006670535076409578,"283":-0.1843196153640747,"284":1.3777538537979126,"285":1.2118511199951172,"286":-1.554625391960144,"287":-0.8793351054191589,"288":0.3883359134197235,"289":-1.2424358129501343,"290":-0.6620017886161804,"291":0.9245451092720032,"292":-2.5888442993164062,"293":-3.490586042404175,"294":1.1130743026733398,"295":2.006223201751709,"296":-1.1913715600967407,"297":-0.4372622072696686,"298":0.9961360096931458,"299":0.8386170268058777,"300":-0.07282039523124695,"301":0.47421368956565857,"302":-3.1323864459991455,"303":-0.7176694273948669,"304":-1.9341247081756592,"305":2.6754496097564697,"306":-0.5293400883674622,"307":-1.2328565120697021,"308":-4.037632465362549,"309":1.8210079669952393,"310":2.2731385231018066,"311":-0.5336242914199829,"312":1.157930612564087,"313":-0.021948371082544327,"314":4.2651753425598145,"315":-1.2219746112823486,"316":0.5769519805908203,"317":-1.7072570323944092,"318":0.016832439228892326,"319":-1.849543571472168,"320":1.2440105676651,"321":3.067112445831299,"322":0.2849059998989105,"323":-2.1765263080596924,"324":0.36623910069465637,"325":0.6933971643447876,"326":1.954521894454956,"327":-0.8375487327575684,"328":2.624856948852539,"329":-0.20396222174167633,"330":-1.739175796508789,"331":0.7532494068145752,"332":0.8303722739219666,"333":-0.6472393870353699,"334":0.5561966896057129,"335":0.3316841423511505,"336":1.9568735361099243,"337":-0.6667705178260803,"338":1.1483653783798218,"339":-0.26608264446258545,"340":2.945147752761841,"341":-0.16295938193798065,"342":-1.087648630142212,"343":-1.104504942893982,"344":-2.205639362335205,"345":-0.26225125789642334,"346":-0.14609992504119873,"347":-0.41431471705436707,"348":-2.325688362121582,"349":2.2314765453338623,"350":-0.20414181053638458,"351":-0.4599451720714569,"352":-1.7207436561584473,"353":3.7577154636383057,"354":-0.8932321667671204,"355":-1.5425630807876587,"356":-1.2956444025039673,"357":-1.1286499500274658,"358":0.6752893328666687,"359":0.4246099591255188,"360":2.3443217277526855,"361":4.359317302703857,"362":-2.7921500205993652,"363":0.9155011773109436,"364":-1.3544204235076904,"365":-0.692383885383606,"366":1.921053171157837,"367":1.4059386253356934,"368":3.439028024673462,"369":1.9771267175674438,"370":-1.7307274341583252,"371":-0.13428865373134613,"372":-1.4783425331115723,"373":-0.840737521648407,"374":-3.7729010581970215,"375":-2.7529091835021973,"376":-1.7636942863464355,"377":-0.41744139790534973,"378":0.28812018036842346,"379":-0.5627335906028748,"380":1.292182445526123,"381":1.8609609603881836,"382":-0.656834602355957,"383":0.8671959638595581,"384":2.465583562850952,"385":0.8893819451332092,"386":-0.91477370262146,"387":2.403907537460327,"388":-0.39172402024269104,"389":-0.16899609565734863,"390":-3.170872211456299,"391":-0.6142838597297668,"392":4.6508283615112305,"393":-2.6872308254241943,"394":1.8400787115097046,"395":-1.4774471521377563,"396":-1.4030201435089111,"397":-0.059401217848062515,"398":3.1175482273101807,"399":-0.10912997275590897,"400":0.8039220571517944,"401":1.4034755229949951,"402":1.0725468397140503,"403":0.5390491485595703,"404":0.17460520565509796,"405":0.14790377020835876,"406":3.05629563331604,"407":-1.0697252750396729,"408":-1.4826745986938477,"409":3.0504648685455322,"410":1.2803314924240112,"411":2.442708969116211,"412":0.04414072632789612,"413":-1.2837235927581787,"414":-0.269807904958725,"415":1.1393985748291016,"416":-1.9253013134002686,"417":-1.9008240699768066,"418":-1.3624343872070312,"419":0.7251964211463928,"420":0.056839458644390106,"421":-0.08766919374465942,"422":-1.6094794273376465,"423":-0.318105548620224,"424":-1.0982545614242554,"425":-1.599520206451416,"426":-1.404966950416565,"427":2.0126311779022217,"428":0.22513332962989807,"429":1.408058762550354,"430":-2.585785150527954,"431":-3.605637311935425,"432":-1.8175454139709473,"433":3.8937251567840576,"434":1.5793706178665161,"435":-0.4976359009742737,"436":1.5915099382400513,"437":1.4065889120101929,"438":-1.6343845129013062,"439":1.2014660835266113,"440":1.1362183094024658,"441":-0.6263484954833984,"442":-0.6147599220275879,"443":-0.5886049866676331,"444":-3.497091770172119,"445":-0.8393234610557556,"446":-0.6722392439842224,"447":3.5639562606811523,"448":-0.49523791670799255,"449":5.684744358062744,"450":-0.8854913115501404,"451":-0.28604766726493835,"452":0.16258028149604797,"453":-3.182659864425659,"454":-3.9583051204681396,"455":1.1739963293075562,"456":0.5051546096801758,"457":-2.688861608505249,"458":-1.6357029676437378,"459":-1.3656494617462158,"460":-2.2911128997802734,"461":1.467065453529358,"462":4.125606060028076,"463":-2.417843818664551,"464":-1.1421661376953125,"465":5.983985424041748,"466":0.2670961320400238,"467":2.4271152019500732,"468":-1.536537766456604,"469":2.1068975925445557,"470":-2.5395936965942383,"471":-2.2324483394622803,"472":-1.8759353160858154,"473":-3.458710193634033,"474":3.9829275608062744,"475":0.5650272369384766,"476":-0.9504995942115784,"477":-0.5911659598350525,"478":-1.5176417827606201,"479":-1.978621006011963,"480":-0.2604660093784332,"481":1.2546180486679077,"482":0.46035143733024597,"483":1.705660343170166,"484":1.3766372203826904,"485":0.6751043200492859,"486":-0.09684975445270538,"487":2.727933168411255,"488":3.4599039554595947,"489":0.6615047454833984,"490":0.246344193816185,"491":0.9714293479919434,"492":1.2023600339889526,"493":4.270031929016113,"494":-3.9232449531555176,"495":-0.5878828763961792,"496":-1.1375396251678467,"497":-1.5530402660369873,"498":1.2381236553192139,"499":1.054429054260254,"500":-1.3761595487594604,"501":0.060587793588638306,"502":-5.783127784729004,"503":1.2629889249801636,"504":-5.055408477783203,"505":-2.540257453918457,"506":-2.8795886039733887,"507":-1.5403581857681274,"508":-0.8841240406036377,"509":1.6697022914886475,"510":0.4255830943584442,"511":3.039980173110962,"512":1.5113303661346436,"513":-6.167728424072266,"514":-0.5817459225654602,"515":-2.6907029151916504,"516":-0.08790011703968048,"517":4.509968280792236,"518":-0.1822969913482666,"519":0.45322558283805847,"520":1.912737250328064,"521":0.36566272377967834,"522":-0.12002332508563995,"523":1.2156097888946533,"524":2.025301694869995,"525":0.3666979670524597,"526":-0.8882700800895691,"527":-2.4822885990142822,"528":2.2566535472869873,"529":-3.1895506381988525,"530":3.2499451637268066,"531":1.8919445276260376,"532":-2.0772290229797363,"533":0.6653904318809509,"534":-0.934797465801239,"535":-0.740507960319519,"536":1.4290324449539185,"537":2.9897024631500244,"538":0.5980721116065979,"539":2.0268194675445557,"540":-0.6551083922386169,"541":0.9636572003364563,"542":-2.9189090728759766,"543":-0.9611742496490479,"544":2.439709424972534,"545":3.918736219406128,"546":-1.4141356945037842,"547":0.3453045189380646,"548":0.6765680909156799,"549":3.9702820777893066,"550":1.4134700298309326,"551":-1.6185262203216553,"552":-0.03326304256916046,"553":-2.4457342624664307,"554":1.2938157320022583,"555":4.428889274597168,"556":-0.2873302698135376,"557":2.803525447845459,"558":-0.21929502487182617,"559":0.7386893630027771,"560":0.007993348874151707,"561":-1.006391167640686,"562":-1.4444760084152222,"563":1.8825979232788086,"564":-1.0412003993988037,"565":-2.149515390396118,"566":2.346196174621582,"567":1.1883437633514404,"568":0.49784794449806213,"569":0.917124330997467,"570":0.6656976938247681,"571":1.1523936986923218,"572":-1.2662972211837769,"573":-0.774560809135437,"574":1.1634432077407837,"575":-1.7608369588851929,"576":0.21735183894634247,"577":-0.14885668456554413,"578":2.444180727005005,"579":-2.285693645477295,"580":0.6111088991165161,"581":-0.5838781595230103,"582":-1.602728009223938,"583":2.091010093688965,"584":0.2524280250072479,"585":-2.0712764263153076,"586":0.2227192521095276,"587":-1.6709078550338745,"588":-0.8963709473609924,"589":0.7079051733016968,"590":0.8723889589309692,"591":0.9854980707168579,"592":2.48425030708313,"593":0.9002567529678345,"594":-1.2060281038284302,"595":0.20163927972316742,"596":1.6011531352996826,"597":0.11992132663726807,"598":3.32572078704834,"599":-0.0821300595998764,"600":-3.353574275970459,"601":0.27448800206184387,"602":-0.3089529573917389,"603":2.9291727542877197,"604":-0.5412643551826477,"605":-3.980639934539795,"606":-0.15576645731925964,"607":0.5681657195091248,"608":-1.7692887783050537,"609":-0.07317271083593369,"610":1.0614513158798218,"611":0.760662317276001,"612":1.5324513912200928,"613":-2.1838436126708984,"614":-2.459399700164795,"615":0.33075183629989624,"616":-0.18676672875881195,"617":-1.5267277956008911,"618":-3.8158793449401855,"619":0.40838778018951416}},"inputHidden":{"rows":20,"columns":20,"weights":{"0":5.389867782592773,"1":-1.2141133546829224,"2":5.0617475509643555,"3":2.6981353759765625,"4":13.963296890258789,"5":-1.4619323015213013,"6":-2.262281656265259,"7":-7.149603366851807,"8":-2.6653823852539062,"9":13.21166706085205,"10":10.634215354919434,"11":11.362067222595215,"12":0.7696048021316528,"13":0.30563807487487793,"14":-1.2296366691589355,"15":-8.073674201965332,"16":-1.0742013454437256,"17":5.837968826293945,"18":-1.207337737083435,"19":-7.335813999176025,"20":-1.8229774236679077,"21":-2.2608213424682617,"22":1.9631654024124146,"23":1.3254468441009521,"24":1.622865080833435,"25":2.750166177749634,"26":-0.142074853181839,"27":-0.9200312495231628,"28":-0.6571304202079773,"29":-0.4469236135482788,"30":-0.8932453989982605,"31":-1.274428129196167,"32":-3.8386080265045166,"33":-1.1326135396957397,"34":-0.6275752186775208,"35":0.98445063829422,"36":-1.2169468402862549,"37":-2.6434073448181152,"38":0.14831094443798065,"39":-2.8640241622924805,"40":-4.084259986877441,"41":1.2596144676208496,"42":2.3313424587249756,"43":-1.140326738357544,"44":-4.502842903137207,"45":2.9314279556274414,"46":1.6283361911773682,"47":-6.175090312957764,"48":2.2170588970184326,"49":-1.2894842624664307,"50":0.3162144720554352,"51":2.5764572620391846,"52":-3.5122129917144775,"53":-2.640730381011963,"54":0.060785841196775436,"55":7.842430114746094,"56":-0.28680258989334106,"57":4.138398170471191,"58":2.531022071838379,"59":-4.267808437347412,"60":0.44854027032852173,"61":-0.34428536891937256,"62":-0.6369125843048096,"63":-2.6306700706481934,"64":0.7164642810821533,"65":-0.4684050977230072,"66":1.7698079347610474,"67":-3.876235008239746,"68":-2.5154404640197754,"69":1.9994022846221924,"70":-2.416548013687134,"71":1.5039794445037842,"72":-2.6285669803619385,"73":1.656654953956604,"74":-0.8559943437576294,"75":0.6063888669013977,"76":-2.3594985008239746,"77":-1.516553282737732,"78":1.9250373840332031,"79":4.959046840667725,"80":-0.5514526963233948,"81":1.41311514377594,"82":-0.9793590307235718,"83":0.5786184072494507,"84":-0.4882306456565857,"85":-2.3492112159729004,"86":3.1240804195404053,"87":-1.236914038658142,"88":-2.794543504714966,"89":1.823745846748352,"90":0.40763235092163086,"91":1.729819893836975,"92":-1.0804110765457153,"93":4.423676013946533,"94":-1.2045626640319824,"95":-1.9874157905578613,"96":5.129740238189697,"97":2.980963706970215,"98":-4.683094501495361,"99":-2.6019678115844727,"100":8.067447662353516,"101":-3.589656114578247,"102":-11.245526313781738,"103":10.726961135864258,"104":10.281935691833496,"105":-0.5690224170684814,"106":-8.789904594421387,"107":0.4429904818534851,"108":-12.660370826721191,"109":0.5616244077682495,"110":-12.116503715515137,"111":-4.463053226470947,"112":3.757659673690796,"113":-2.6440064907073975,"114":-2.5205392837524414,"115":3.0527658462524414,"116":-5.471978664398193,"117":-4.97222900390625,"118":7.228520393371582,"119":-2.1589717864990234,"120":-2.3896851539611816,"121":-6.130982398986816,"122":1.3221466541290283,"123":5.198160171508789,"124":1.1590914726257324,"125":-1.6212071180343628,"126":-0.3785604238510132,"127":1.7516521215438843,"128":0.10010232776403427,"129":2.3830230236053467,"130":2.0639660358428955,"131":3.556060314178467,"132":-6.87683629989624,"133":-5.5123491287231445,"134":-0.863438606262207,"135":2.300853967666626,"136":-4.646575450897217,"137":-1.5676127672195435,"138":0.1717332899570465,"139":-1.5598623752593994,"140":4.340348243713379,"141":0.7045916318893433,"142":-3.8129656314849854,"143":0.570115327835083,"144":5.218554496765137,"145":2.268862724304199,"146":0.21493251621723175,"147":-4.2068281173706055,"148":1.7680312395095825,"149":-0.9005918502807617,"150":1.0655198097229004,"151":0.4739570915699005,"152":-6.712019443511963,"153":0.3048990070819855,"154":-0.021945063024759293,"155":6.267313480377197,"156":6.307565689086914,"157":-1.6535544395446777,"158":2.0834829807281494,"159":3.7842888832092285,"160":-4.044211387634277,"161":0.29099220037460327,"162":1.995841145515442,"163":-4.828150272369385,"164":-1.2317306995391846,"165":-0.3131001591682434,"166":5.153507232666016,"167":2.741201162338257,"168":1.110647201538086,"169":1.4935623407363892,"170":-7.797696590423584,"171":0.45096293091773987,"172":-0.6163100004196167,"173":-1.4890539646148682,"174":-1.9774930477142334,"175":-3.644096851348877,"176":1.622721791267395,"177":-0.3447708487510681,"178":-2.46934175491333,"179":-2.5404176712036133,"180":-0.9412772059440613,"181":-1.6946500539779663,"182":0.5514646768569946,"183":-0.3345392048358917,"184":0.41003507375717163,"185":-2.0926032066345215,"186":-0.04275566339492798,"187":-0.969532310962677,"188":-0.7413542866706848,"189":0.8336955904960632,"190":-0.4030335247516632,"191":0.756737470626831,"192":-1.0094877481460571,"193":-1.665467381477356,"194":-0.4341470003128052,"195":0.7909372448921204,"196":2.6127333641052246,"197":-1.6810933351516724,"198":-1.313401460647583,"199":-2.1840298175811768,"200":-0.20717251300811768,"201":-0.3091689944267273,"202":9.370247840881348,"203":5.1818132400512695,"204":3.1902971267700195,"205":-1.6205509901046753,"206":13.14854621887207,"207":-6.074950218200684,"208":24.211713790893555,"209":-8.188077926635742,"210":-0.15633323788642883,"211":4.196089744567871,"212":4.3066864013671875,"213":6.049581050872803,"214":-5.700613975524902,"215":-2.350006103515625,"216":-4.882440567016602,"217":-0.8158060908317566,"218":-1.5620020627975464,"219":-17.212627410888672,"220":1.555557370185852,"221":0.3261585235595703,"222":-0.4636017084121704,"223":-0.22460387647151947,"224":1.7856709957122803,"225":0.2406149059534073,"226":1.5483566522598267,"227":-0.0854896754026413,"228":1.0806424617767334,"229":-0.42173030972480774,"230":3.082239866256714,"231":-2.015477418899536,"232":1.7087533473968506,"233":-1.0472204685211182,"234":-0.8192725777626038,"235":0.13727471232414246,"236":0.6255642175674438,"237":-1.4010794162750244,"238":-1.7087265253067017,"239":-1.7505782842636108,"240":1.9477825164794922,"241":-0.26568764448165894,"242":1.490106225013733,"243":-5.340249538421631,"244":-2.066591262817383,"245":0.049357037991285324,"246":-4.460630416870117,"247":0.3350974917411804,"248":0.5043304562568665,"249":-0.31633704900741577,"250":-1.5104434490203857,"251":0.18218138813972473,"252":-0.6951842904090881,"253":-1.5175917148590088,"254":-4.62583589553833,"255":-1.5223380327224731,"256":-1.5632026195526123,"257":4.560478210449219,"258":-3.9997713565826416,"259":-3.8052990436553955,"260":6.079507827758789,"261":-3.335820198059082,"262":2.8890364170074463,"263":-5.421498775482178,"264":2.039665699005127,"265":-1.7166097164154053,"266":-1.2982404232025146,"267":0.8925532102584839,"268":1.742752194404602,"269":2.360260009765625,"270":-1.2889459133148193,"271":2.665867567062378,"272":0.1579575538635254,"273":-3.5646133422851562,"274":-1.2839815616607666,"275":-1.2015012502670288,"276":-1.5366448163986206,"277":-1.4935641288757324,"278":-1.395039677619934,"279":-2.8968427181243896,"280":3.313772439956665,"281":6.709808826446533,"282":10.145074844360352,"283":-7.663233280181885,"284":-2.141843318939209,"285":-3.0147557258605957,"286":-1.1914526224136353,"287":3.107032060623169,"288":-6.995301723480225,"289":4.118643760681152,"290":1.468522310256958,"291":-5.946391582489014,"292":1.4317286014556885,"293":-2.540271282196045,"294":-13.493025779724121,"295":6.550907611846924,"296":-0.09432557970285416,"297":-8.64220142364502,"298":-16.87795639038086,"299":1.0376619100570679,"300":-0.4203365743160248,"301":1.5550134181976318,"302":-2.293675422668457,"303":-6.283526420593262,"304":-2.297212839126587,"305":-0.8268362283706665,"306":5.635075569152832,"307":-2.8681182861328125,"308":-0.16033658385276794,"309":6.917315483093262,"310":4.977546691894531,"311":5.939711570739746,"312":-4.179854869842529,"313":-2.2304370403289795,"314":-0.6438239216804504,"315":1.4086216688156128,"316":-2.844467878341675,"317":8.68667221069336,"318":4.655496120452881,"319":4.5468339920043945,"320":8.094592094421387,"321":0.15599274635314941,"322":2.6461527347564697,"323":3.0007121562957764,"324":-0.020843448117375374,"325":-4.049196243286133,"326":-1.5478986501693726,"327":-1.117485523223877,"328":3.066272258758545,"329":2.261164903640747,"330":-1.3653734922409058,"331":-2.2475647926330566,"332":4.608748912811279,"333":-6.04802131652832,"334":-3.5019924640655518,"335":-1.1773375272750854,"336":-3.61602520942688,"337":-3.277010679244995,"338":-2.520162343978882,"339":-4.028042793273926,"340":-3.125173807144165,"341":2.5580894947052,"342":-1.842227816581726,"343":1.743851900100708,"344":3.9427106380462646,"345":-2.9161453247070312,"346":-2.062199354171753,"347":-1.4519599676132202,"348":-0.38571450114250183,"349":-0.6631398797035217,"350":3.955439567565918,"351":0.289167195558548,"352":0.5307355523109436,"353":-1.3341397047042847,"354":0.4960486590862274,"355":1.1552201509475708,"356":-0.7249478697776794,"357":0.14141273498535156,"358":-1.371998906135559,"359":0.529466450214386,"360":-5.211297035217285,"361":-7.780642986297607,"362":-1.4620968103408813,"363":-2.028231143951416,"364":-2.6647071838378906,"365":-5.7818284034729,"366":-2.3293488025665283,"367":-9.328174591064453,"368":11.021794319152832,"369":-2.8500516414642334,"370":-3.5497865676879883,"371":-6.818898677825928,"372":-4.443776607513428,"373":-26.417131423950195,"374":-1.580285668373108,"375":0.5164082050323486,"376":-1.8442391157150269,"377":-8.072912216186523,"378":-9.64913272857666,"379":4.368946075439453,"380":-0.868424117565155,"381":1.5943323373794556,"382":2.4405157566070557,"383":0.4758705198764801,"384":-2.035322427749634,"385":0.11173919588327408,"386":-1.0714349746704102,"387":-1.7163898944854736,"388":2.3405091762542725,"389":-0.7980493307113647,"390":-6.096482753753662,"391":2.2735564708709717,"392":-0.2395656406879425,"393":0.8823161125183105,"394":-1.1847859621047974,"395":2.1321873664855957,"396":1.8070729970932007,"397":-0.6995975375175476,"398":3.059861421585083,"399":0.6597947478294373}},"inputBias":{"rows":20,"columns":1,"weights":{"0":-0.10631195455789566,"1":0.22981779277324677,"2":-0.10102751106023788,"3":-1.02717125415802,"4":-0.2659740746021271,"5":1.3452686071395874,"6":0.11898019164800644,"7":-0.9835278391838074,"8":0.5031864643096924,"9":-0.2507058084011078,"10":0.6319246888160706,"11":-0.2700660228729248,"12":2.2120234966278076,"13":-0.8294498324394226,"14":-0.18267865478992462,"15":-0.26035168766975403,"16":0.4283958971500397,"17":0.27352771162986755,"18":1.2528256177902222,"19":-0.8877392411231995}},"forgetMatrix":{"rows":20,"columns":31,"weights":{"0":0.08289729803800583,"1":-0.4261082410812378,"2":2.090134859085083,"3":-0.03138406202197075,"4":1.1297357082366943,"5":2.8353116512298584,"6":1.4259909391403198,"7":0.937688410282135,"8":3.892509698867798,"9":-1.613308310508728,"10":-0.48167192935943604,"11":-2.2226996421813965,"12":0.6075536608695984,"13":-0.6286159753799438,"14":3.054793357849121,"15":1.8882637023925781,"16":0.4364309310913086,"17":1.3214190006256104,"18":0.5241506695747375,"19":1.4348232746124268,"20":0.89249187707901,"21":0.48008856177330017,"22":-1.3211442232131958,"23":0.9022008180618286,"24":5.800752639770508,"25":1.616044044494629,"26":-3.0520434379577637,"27":-2.9041125774383545,"28":1.0105626583099365,"29":-3.608321189880371,"30":-1.610350251197815,"31":0.05354265868663788,"32":0.8787932991981506,"33":1.3765439987182617,"34":-2.208211898803711,"35":-0.453935831785202,"36":-1.7489495277404785,"37":-2.197763442993164,"38":-0.4787071943283081,"39":-2.427694797515869,"40":0.7467416524887085,"41":1.1839954853057861,"42":-1.8802833557128906,"43":-0.18848921358585358,"44":1.5109385251998901,"45":-0.08890780061483383,"46":-0.2483723759651184,"47":-0.3186912536621094,"48":2.4928858280181885,"49":0.48318368196487427,"50":-0.1407156139612198,"51":0.9194552898406982,"52":-1.2558037042617798,"53":0.3129161596298218,"54":0.008563915267586708,"55":-1.730076789855957,"56":0.36643439531326294,"57":0.9942159652709961,"58":-0.6522032022476196,"59":1.7305508852005005,"60":-0.5835323929786682,"61":-0.293109655380249,"62":0.0632648691534996,"63":0.34316858649253845,"64":-2.7568767070770264,"65":0.9922531247138977,"66":-1.9832127094268799,"67":2.278118371963501,"68":0.8992858529090881,"69":-1.2984182834625244,"70":0.6398957967758179,"71":0.004167117644101381,"72":0.7295894622802734,"73":-0.6736442446708679,"74":1.7528373003005981,"75":0.44950243830680847,"76":-0.2552390694618225,"77":0.5146864056587219,"78":-0.6922448873519897,"79":0.7457631826400757,"80":-0.6280727982521057,"81":0.23797406256198883,"82":-0.5636131763458252,"83":1.6384668350219727,"84":-1.8422495126724243,"85":0.5901452302932739,"86":-1.4421724081039429,"87":0.5066868662834167,"88":0.822056233882904,"89":0.06723328679800034,"90":-0.5432411432266235,"91":-1.3736255168914795,"92":-0.174515038728714,"93":-1.243453860282898,"94":-1.6500425338745117,"95":1.7887351512908936,"96":0.31365254521369934,"97":1.0389477014541626,"98":-0.2211352288722992,"99":0.6476874947547913,"100":-1.6175271272659302,"101":0.8606376051902771,"102":-3.0108203887939453,"103":-0.010827042162418365,"104":2.6564924716949463,"105":0.15318730473518372,"106":-0.7526370286941528,"107":-0.1005987599492073,"108":0.26997101306915283,"109":2.777956485748291,"110":-1.725644826889038,"111":0.278957337141037,"112":1.3968321084976196,"113":-0.32112202048301697,"114":0.2913990914821625,"115":-1.37055504322052,"116":-1.7746803760528564,"117":-0.2511660158634186,"118":0.3214241862297058,"119":1.2300488948822021,"120":-0.05199003219604492,"121":0.9769077897071838,"122":1.7771648168563843,"123":-2.1325104236602783,"124":-0.11469946056604385,"125":1.8244013786315918,"126":1.090961217880249,"127":3.3836770057678223,"128":-1.7603169679641724,"129":1.0738710165023804,"130":-1.7148290872573853,"131":-0.8641461730003357,"132":-0.6243415474891663,"133":-0.32521194219589233,"134":-1.7957165241241455,"135":-0.24166308343410492,"136":0.09273787587881088,"137":-1.180097222328186,"138":2.2075016498565674,"139":-1.4006396532058716,"140":0.5819687247276306,"141":-0.4416925013065338,"142":2.2244391441345215,"143":-0.09113770723342896,"144":-2.0696496963500977,"145":-0.6949689984321594,"146":-1.7664968967437744,"147":-1.1707106828689575,"148":-1.0269770622253418,"149":1.0118852853775024,"150":-2.24749755859375,"151":-0.751248300075531,"152":0.5138556361198425,"153":-0.18435044586658478,"154":1.2226223945617676,"155":-1.9965740442276,"156":3.408775806427002,"157":-2.122772455215454,"158":-2.238535165786743,"159":-3.185063362121582,"160":-0.742376983165741,"161":-0.926935613155365,"162":-0.9872461557388306,"163":-3.1817798614501953,"164":-4.235264778137207,"165":-1.4161369800567627,"166":-0.09387406706809998,"167":-2.922032594680786,"168":0.9098920226097107,"169":1.2776014804840088,"170":1.060655951499939,"171":-1.0179764032363892,"172":0.05960666760802269,"173":-0.20177194476127625,"174":0.8515886664390564,"175":0.8662055134773254,"176":2.5535402297973633,"177":-0.5320094227790833,"178":0.04155775159597397,"179":3.333681106567383,"180":0.11254967749118805,"181":0.515312671661377,"182":0.07955360412597656,"183":1.5169204473495483,"184":-0.795245885848999,"185":1.528098702430725,"186":1.9572645425796509,"187":-0.8449357748031616,"188":2.036760091781616,"189":4.011690139770508,"190":-2.0198419094085693,"191":3.4226739406585693,"192":-1.584743857383728,"193":-0.3835752010345459,"194":3.480309247970581,"195":-1.4187583923339844,"196":-1.9067741632461548,"197":1.9008145332336426,"198":0.34954217076301575,"199":-1.5331027507781982,"200":-1.909149408340454,"201":-3.124959707260132,"202":0.8974685668945312,"203":-2.172299385070801,"204":-1.47208833694458,"205":1.1630492210388184,"206":0.00991698820143938,"207":-1.2911834716796875,"208":3.177602767944336,"209":-0.7593502998352051,"210":0.7210139632225037,"211":1.1768521070480347,"212":-0.15174950659275055,"213":-2.202622413635254,"214":-1.9009921550750732,"215":0.805673360824585,"216":-1.702561855316162,"217":-0.31591513752937317,"218":-0.21691076457500458,"219":-0.7278059720993042,"220":-1.4908109903335571,"221":1.2643150091171265,"222":0.7716372013092041,"223":3.3146913051605225,"224":-2.2538387775421143,"225":1.7780455350875854,"226":-0.1726403534412384,"227":2.2487857341766357,"228":1.9835277795791626,"229":2.3289995193481445,"230":-0.9431962966918945,"231":0.319029837846756,"232":0.4644543528556824,"233":3.5671963691711426,"234":0.9664801955223083,"235":-0.9181002378463745,"236":2.582453966140747,"237":0.42221304774284363,"238":-1.4630011320114136,"239":-0.8044926524162292,"240":-0.8284449577331543,"241":0.5307336449623108,"242":-2.183730125427246,"243":-0.8140131235122681,"244":1.2787405252456665,"245":-3.131688117980957,"246":0.6097793579101562,"247":-0.8090801239013672,"248":0.24677018821239471,"249":1.74981689453125,"250":-0.5918197631835938,"251":4.0248026847839355,"252":-0.764828085899353,"253":2.2016761302948,"254":-0.1303485780954361,"255":2.351240634918213,"256":-1.0531175136566162,"257":-3.256546974182129,"258":-1.1886451244354248,"259":-0.9050858020782471,"260":1.7187151908874512,"261":0.3231930434703827,"262":2.907223701477051,"263":-1.5888017416000366,"264":-3.101543426513672,"265":-0.737589418888092,"266":-1.702659010887146,"267":-1.6570008993148804,"268":-1.0071403980255127,"269":0.447304904460907,"270":-0.5003190040588379,"271":1.830135703086853,"272":-2.1265406608581543,"273":3.108175039291382,"274":-1.8437881469726562,"275":0.49885785579681396,"276":-1.4698814153671265,"277":0.5717839002609253,"278":0.6536344885826111,"279":-0.7711014747619629,"280":0.9626451134681702,"281":0.47138166427612305,"282":-1.3661741018295288,"283":-0.18490324914455414,"284":-1.2443149089813232,"285":0.043460678309202194,"286":-1.0668390989303589,"287":-0.6791519522666931,"288":1.8055769205093384,"289":1.467471718788147,"290":-0.3844098448753357,"291":-2.9594624042510986,"292":-0.8522005081176758,"293":-0.20583178102970123,"294":-0.9914476275444031,"295":-0.6941403150558472,"296":-0.3472451865673065,"297":1.584177017211914,"298":-1.3311505317687988,"299":0.39600181579589844,"300":0.6709820628166199,"301":0.8488453030586243,"302":-0.9669882655143738,"303":1.0519206523895264,"304":-1.0043424367904663,"305":0.36024999618530273,"306":-0.5059098601341248,"307":0.2686094343662262,"308":-0.400515615940094,"309":0.1454034447669983,"310":1.28996741771698,"311":0.4261327087879181,"312":0.17143051326274872,"313":1.9690648317337036,"314":-2.337190866470337,"315":-0.4267173707485199,"316":0.8828282952308655,"317":-0.5574920773506165,"318":-1.0245643854141235,"319":-1.1338757276535034,"320":-0.17000994086265564,"321":2.2856123447418213,"322":-2.133453607559204,"323":-1.7482616901397705,"324":-1.996098518371582,"325":3.298955202102661,"326":1.1465449333190918,"327":-0.10533099621534348,"328":0.32961609959602356,"329":-3.223126173019409,"330":-1.2744840383529663,"331":4.078907012939453,"332":-3.1307122707366943,"333":-1.3268442153930664,"334":2.0064446926116943,"335":-2.054640531539917,"336":1.2141368389129639,"337":3.0835611820220947,"338":0.2975997030735016,"339":-0.1812499612569809,"340":0.38036254048347473,"341":0.987561821937561,"342":0.298978328704834,"343":-1.7280763387680054,"344":1.0396885871887207,"345":2.936811685562134,"346":-1.1638151407241821,"347":-0.13254204392433167,"348":0.6217467188835144,"349":-1.4121520519256592,"350":3.621077299118042,"351":0.11172981560230255,"352":1.108198642730713,"353":1.2396824359893799,"354":1.4935580492019653,"355":0.08512087166309357,"356":0.8649939298629761,"357":-1.2014312744140625,"358":1.8019917011260986,"359":2.7039968967437744,"360":2.6038575172424316,"361":1.7976847887039185,"362":1.1948214769363403,"363":-0.37680843472480774,"364":-0.13461296260356903,"365":-1.3038915395736694,"366":-2.368770122528076,"367":-0.6954137086868286,"368":-0.326900452375412,"369":1.1897382736206055,"370":-0.09893123805522919,"371":3.3857641220092773,"372":0.666685163974762,"373":-0.38586661219596863,"374":1.8001986742019653,"375":0.4174331724643707,"376":0.07186567783355713,"377":3.6485724449157715,"378":0.3627973794937134,"379":-1.5956048965454102,"380":-0.08367138355970383,"381":-0.6819648742675781,"382":0.4049469232559204,"383":0.7517342567443848,"384":0.2838345170021057,"385":0.49385136365890503,"386":-2.3949296474456787,"387":1.251293659210205,"388":-1.49519681930542,"389":-0.12930671870708466,"390":-1.6769882440567017,"391":1.2270041704177856,"392":1.053242802619934,"393":0.35670870542526245,"394":2.3908157348632812,"395":0.6009838581085205,"396":0.4889344871044159,"397":-0.46745339035987854,"398":-2.995415210723877,"399":1.5870634317398071,"400":-0.5437767505645752,"401":-1.1283355951309204,"402":0.3827947974205017,"403":0.7057657241821289,"404":0.11143525689840317,"405":-0.7812129855155945,"406":-0.21345342695713043,"407":1.1768712997436523,"408":1.8353830575942993,"409":0.13602441549301147,"410":-0.5390712022781372,"411":-0.2516854405403137,"412":0.9964785575866699,"413":0.8744584918022156,"414":0.6902837753295898,"415":2.9743716716766357,"416":2.363593339920044,"417":-0.014954105950891972,"418":-1.25913405418396,"419":-1.5923490524291992,"420":-2.237666130065918,"421":-0.2925274968147278,"422":2.541240930557251,"423":1.4996771812438965,"424":-1.2882004976272583,"425":1.3484529256820679,"426":1.978856086730957,"427":-5.421037673950195,"428":-1.6719621419906616,"429":-1.0767381191253662,"430":-0.5649001002311707,"431":1.5787427425384521,"432":1.1980323791503906,"433":-1.4086312055587769,"434":-0.8609892129898071,"435":2.356968402862549,"436":0.5591120719909668,"437":2.903430938720703,"438":0.4440336227416992,"439":-1.4957305192947388,"440":0.8162167072296143,"441":0.7715058326721191,"442":-0.3768806457519531,"443":1.786805272102356,"444":-2.035900831222534,"445":-1.6047472953796387,"446":-0.20652419328689575,"447":-1.8203572034835815,"448":2.261813163757324,"449":-2.8484647274017334,"450":-1.7259403467178345,"451":0.9274458885192871,"452":-0.7942137718200684,"453":-0.6769065856933594,"454":-0.1482790857553482,"455":1.896383285522461,"456":0.5761929750442505,"457":3.7247068881988525,"458":0.10441046208143234,"459":1.0896021127700806,"460":-1.4843943119049072,"461":1.18235182762146,"462":0.38308823108673096,"463":-3.7507922649383545,"464":-1.0016748905181885,"465":0.4800887703895569,"466":1.029901146888733,"467":0.15666645765304565,"468":-0.6218264102935791,"469":0.9325592517852783,"470":1.8815289735794067,"471":0.28386062383651733,"472":-0.02875981293618679,"473":-0.560324490070343,"474":1.3508161306381226,"475":0.41135039925575256,"476":3.4000442028045654,"477":-1.4390363693237305,"478":1.6883937120437622,"479":-1.7740771770477295,"480":-0.17947787046432495,"481":0.7105902433395386,"482":0.1965377777814865,"483":-0.49454277753829956,"484":-3.941436290740967,"485":-0.2794210612773895,"486":0.6133780479431152,"487":0.8236210346221924,"488":-3.9076921939849854,"489":-0.41871199011802673,"490":-1.60178542137146,"491":-2.1825764179229736,"492":2.572605609893799,"493":-0.16005347669124603,"494":-2.830566167831421,"495":-0.8409005403518677,"496":-0.16604973375797272,"497":2.277585029602051,"498":-3.7497715950012207,"499":-1.375306487083435,"500":-0.5826669931411743,"501":0.681688666343689,"502":-2.4960405826568604,"503":0.18484558165073395,"504":2.6330344676971436,"505":-0.9772953391075134,"506":-0.5690531134605408,"507":-0.19622868299484253,"508":0.9839540719985962,"509":2.0510571002960205,"510":-1.7503920793533325,"511":2.193249464035034,"512":0.029400406405329704,"513":-0.5729392170906067,"514":-0.72087562084198,"515":1.9204046726226807,"516":1.2173945903778076,"517":-0.10373954474925995,"518":0.40323376655578613,"519":-0.328383207321167,"520":0.004406331572681665,"521":-1.345035433769226,"522":2.055837392807007,"523":1.2344255447387695,"524":2.259694814682007,"525":0.46102356910705566,"526":0.1947116106748581,"527":0.9089848399162292,"528":1.2044565677642822,"529":-1.789095163345337,"530":-2.3576300144195557,"531":-0.5831832885742188,"532":-1.3800417184829712,"533":-0.3733213245868683,"534":-4.567720890045166,"535":-0.8024266958236694,"536":4.23056697845459,"537":1.9138718843460083,"538":0.27997761964797974,"539":-1.7302634716033936,"540":-1.4562723636627197,"541":-1.7943826913833618,"542":0.06558221578598022,"543":1.610287070274353,"544":-0.25515472888946533,"545":-0.147650808095932,"546":1.6479119062423706,"547":2.7399141788482666,"548":-0.3894787132740021,"549":2.3105809688568115,"550":-4.136416435241699,"551":-1.0668611526489258,"552":1.9716930389404297,"553":2.4841465950012207,"554":1.2365078926086426,"555":1.2005538940429688,"556":-1.5275065898895264,"557":2.465876817703247,"558":2.6203665733337402,"559":-3.7820887565612793,"560":-0.7260007858276367,"561":0.820334792137146,"562":-1.0740373134613037,"563":0.3953937888145447,"564":1.7291635274887085,"565":0.25793027877807617,"566":0.7542668581008911,"567":1.6098726987838745,"568":-1.8229906558990479,"569":-0.4008944630622864,"570":0.2899417579174042,"571":-0.939807116985321,"572":-3.8356146812438965,"573":-0.784325897693634,"574":2.6984164714813232,"575":-4.153770923614502,"576":-0.9792011380195618,"577":-2.0148444175720215,"578":-1.1808515787124634,"579":1.3611894845962524,"580":-2.914386749267578,"581":-1.7103581428527832,"582":-0.9832190871238708,"583":-1.6320353746414185,"584":2.155153512954712,"585":-0.9052587151527405,"586":-0.08307452499866486,"587":-1.8314086198806763,"588":0.36973097920417786,"589":-0.2945236265659332,"590":-2.055659055709839,"591":2.244267702102661,"592":-1.8985048532485962,"593":0.9199983477592468,"594":-0.007403949275612831,"595":0.5165708661079407,"596":-2.531608819961548,"597":-1.0568830966949463,"598":-1.2406280040740967,"599":-1.9326300621032715,"600":1.103622317314148,"601":-3.9097611904144287,"602":1.4957890510559082,"603":1.3274506330490112,"604":-2.4901928901672363,"605":-1.2891263961791992,"606":-1.7312861680984497,"607":3.5298750400543213,"608":-0.8966609835624695,"609":0.4602852165699005,"610":-0.9383280277252197,"611":3.150761604309082,"612":1.8867117166519165,"613":1.4173905849456787,"614":0.18197302520275116,"615":-0.09283043444156647,"616":-2.4035613536834717,"617":-1.2043519020080566,"618":-2.241086959838867,"619":1.2890167236328125}},"forgetHidden":{"rows":20,"columns":20,"weights":{"0":-4.530148983001709,"1":-4.461288928985596,"2":-3.211444854736328,"3":4.288223743438721,"4":-3.421536922454834,"5":1.749850869178772,"6":-1.0938278436660767,"7":2.9018685817718506,"8":0.1103578433394432,"9":-2.7469069957733154,"10":-4.437926292419434,"11":1.2379459142684937,"12":-2.48401141166687,"13":-1.9043043851852417,"14":0.24593639373779297,"15":1.8417659997940063,"16":1.6635938882827759,"17":-0.5601511597633362,"18":-1.028998851776123,"19":2.66611909866333,"20":-0.5387670397758484,"21":3.061924457550049,"22":1.2218337059020996,"23":-0.5904161930084229,"24":-3.4660167694091797,"25":1.86403489112854,"26":-0.5583714246749878,"27":2.3993031978607178,"28":2.2456798553466797,"29":1.602425456047058,"30":1.3638360500335693,"31":1.6011297702789307,"32":1.2814241647720337,"33":1.144556999206543,"34":-1.3851182460784912,"35":-2.7990882396698,"36":-1.2365739345550537,"37":-1.762610673904419,"38":-1.5382344722747803,"39":-1.5737665891647339,"40":0.4572032392024994,"41":0.1529642790555954,"42":0.12957298755645752,"43":0.606506884098053,"44":0.9805858135223389,"45":-0.605701208114624,"46":0.7294633984565735,"47":0.013064715079963207,"48":-0.06862235069274902,"49":1.4020264148712158,"50":-0.8595390915870667,"51":0.17583464086055756,"52":0.9766091704368591,"53":-0.7798111438751221,"54":-0.8454656600952148,"55":1.3730382919311523,"56":0.6658706665039062,"57":1.383481740951538,"58":0.4094162881374359,"59":-0.22304561734199524,"60":-3.322617292404175,"61":0.17803740501403809,"62":-1.287452220916748,"63":-4.053104400634766,"64":-0.5305114984512329,"65":-1.3716036081314087,"66":-0.08254086971282959,"67":0.8864486217498779,"68":1.345150351524353,"69":0.68178790807724,"70":0.1358000934123993,"71":-3.3684792518615723,"72":-1.7102410793304443,"73":-2.159318685531616,"74":1.9944655895233154,"75":2.826577663421631,"76":-0.542962908744812,"77":0.8242003917694092,"78":-4.862847328186035,"79":-1.6899834871292114,"80":-1.5490857362747192,"81":-0.7835869789123535,"82":1.6010758876800537,"83":3.191206932067871,"84":-3.231494188308716,"85":-0.3539191782474518,"86":-0.681542694568634,"87":-1.3468161821365356,"88":-1.1031818389892578,"89":0.2564682066440582,"90":-0.3448045551776886,"91":1.3595805168151855,"92":-1.6618413925170898,"93":-0.7317959070205688,"94":-0.528640627861023,"95":1.102903962135315,"96":-0.14692048728466034,"97":-0.11855146288871765,"98":-2.0168633460998535,"99":0.37164124846458435,"100":0.8355648517608643,"101":0.10560065507888794,"102":-2.4514591693878174,"103":1.1233129501342773,"104":-0.9803600907325745,"105":-5.252465724945068,"106":0.18105435371398926,"107":1.1424614191055298,"108":-1.3824106454849243,"109":0.1707165688276291,"110":4.4212965965271,"111":-1.1518096923828125,"112":-0.2766565978527069,"113":-1.2495237588882446,"114":0.4927927553653717,"115":1.8380354642868042,"116":1.206283688545227,"117":3.0862765312194824,"118":-0.6560431718826294,"119":2.0112531185150146,"120":4.919469356536865,"121":-1.3343793153762817,"122":1.1753548383712769,"123":-1.346034288406372,"124":0.8237453699111938,"125":-2.801206350326538,"126":-1.5013091564178467,"127":0.532572865486145,"128":-1.2637927532196045,"129":3.4072680473327637,"130":-1.53645920753479,"131":2.8598742485046387,"132":-0.17942894995212555,"133":2.7461276054382324,"134":-2.5188443660736084,"135":-2.9923996925354004,"136":1.7588444948196411,"137":-4.276281356811523,"138":-2.3298792839050293,"139":-3.2554731369018555,"140":-0.12615866959095,"141":0.9525172114372253,"142":-1.3335245847702026,"143":1.7328263521194458,"144":1.6282627582550049,"145":-0.4111652970314026,"146":0.4101504683494568,"147":-1.0312249660491943,"148":-2.111696243286133,"149":-0.48985567688941956,"150":0.646746814250946,"151":0.04257970303297043,"152":-0.5491277575492859,"153":0.24677105247974396,"154":0.2484884262084961,"155":1.3815168142318726,"156":0.5221043825149536,"157":0.4324847459793091,"158":-1.0400995016098022,"159":0.7313467860221863,"160":-0.17391705513000488,"161":0.1027824655175209,"162":-0.009760747663676739,"163":0.003837655996903777,"164":-0.5488471984863281,"165":-1.8789262771606445,"166":-3.5181386470794678,"167":-0.34606191515922546,"168":-0.1336023509502411,"169":0.7923999428749084,"170":0.3781382739543915,"171":-2.772277355194092,"172":1.0981196165084839,"173":1.1300114393234253,"174":-0.23105104267597198,"175":1.0710312128067017,"176":-2.153651237487793,"177":-0.7200422883033752,"178":0.9109144806861877,"179":3.072228193283081,"180":-2.8373661041259766,"181":-2.6796700954437256,"182":6.713347434997559,"183":0.2582898736000061,"184":-0.31993699073791504,"185":-0.12086711823940277,"186":-2.1331746578216553,"187":-1.1345938444137573,"188":-0.48392340540885925,"189":5.034589767456055,"190":-0.46587562561035156,"191":1.153989315032959,"192":-3.6423020362854004,"193":-2.017444610595703,"194":-0.23762761056423187,"195":-1.6603144407272339,"196":-1.2043402194976807,"197":-5.886355400085449,"198":0.000693456968292594,"199":1.2469497919082642,"200":1.2710623741149902,"201":-1.2178901433944702,"202":-0.3145923912525177,"203":0.07871564477682114,"204":-0.017135078087449074,"205":2.2897493839263916,"206":1.4104952812194824,"207":-2.3273072242736816,"208":4.010799884796143,"209":-0.4844869077205658,"210":5.372890472412109,"211":-1.7978768348693848,"212":0.9612605571746826,"213":-1.1892297267913818,"214":0.2980428636074066,"215":1.0882591009140015,"216":-0.20601673424243927,"217":0.8166369795799255,"218":-3.9119656085968018,"219":1.7528945207595825,"220":0.595369815826416,"221":-6.79742956161499,"222":1.5866409540176392,"223":-0.7457612752914429,"224":0.3956400156021118,"225":-0.09498640894889832,"226":-2.330993890762329,"227":-0.19623970985412598,"228":1.5455985069274902,"229":4.469742298126221,"230":2.4536643028259277,"231":4.922528266906738,"232":-5.954015254974365,"233":-1.8067922592163086,"234":-2.87038516998291,"235":-0.10290929675102234,"236":-4.418883800506592,"237":-2.7008864879608154,"238":4.098199367523193,"239":-2.5978403091430664,"240":-0.35960084199905396,"241":2.421532154083252,"242":2.2204599380493164,"243":4.386717319488525,"244":-0.3015561103820801,"245":-3.4279696941375732,"246":-0.16004835069179535,"247":1.185371994972229,"248":-0.6900005340576172,"249":-6.356369972229004,"250":2.125685453414917,"251":-1.7395755052566528,"252":5.450162410736084,"253":-0.9432902932167053,"254":3.857028007507324,"255":0.057465020567178726,"256":3.22452712059021,"257":-1.5625063180923462,"258":10.051615715026855,"259":3.9417645931243896,"260":-4.92832612991333,"261":0.7145324945449829,"262":-4.640529155731201,"263":-4.878016471862793,"264":1.143335223197937,"265":-0.2689618170261383,"266":0.6876315474510193,"267":-3.0878407955169678,"268":-0.9917831420898438,"269":-0.5158123970031738,"270":2.2144112586975098,"271":3.78493332862854,"272":-3.6978111267089844,"273":5.865234851837158,"274":-1.9936435222625732,"275":0.15367980301380157,"276":-1.0348529815673828,"277":3.768352746963501,"278":1.022409439086914,"279":2.9667599201202393,"280":0.14732828736305237,"281":-0.27152562141418457,"282":1.6338359117507935,"283":-1.458475112915039,"284":2.725409984588623,"285":-1.7768504619598389,"286":1.6596533060073853,"287":-0.744160532951355,"288":-0.48469385504722595,"289":0.29609131813049316,"290":0.5614005923271179,"291":-0.7690556049346924,"292":0.2474646121263504,"293":0.5652548670768738,"294":0.8185850381851196,"295":-1.8059989213943481,"296":1.0195119380950928,"297":-0.6400939226150513,"298":1.0307457447052002,"299":-1.0933117866516113,"300":-4.610058784484863,"301":1.825377106666565,"302":2.0164806842803955,"303":-3.2718653678894043,"304":2.2673685550689697,"305":0.9142585396766663,"306":-2.1577343940734863,"307":2.663869857788086,"308":-1.7643579244613647,"309":1.4951292276382446,"310":-3.148743152618408,"311":0.7227367162704468,"312":-3.2650418281555176,"313":-0.1897708922624588,"314":-3.4675705432891846,"315":-1.5558432340621948,"316":0.3682015538215637,"317":-1.2091574668884277,"318":1.1484644412994385,"319":-0.16988500952720642,"320":-0.831847071647644,"321":0.07120440155267715,"322":3.9072577953338623,"323":-1.5518592596054077,"324":-1.679632544517517,"325":-0.5918035507202148,"326":0.7451975345611572,"327":-0.8504161238670349,"328":6.623324871063232,"329":2.099292039871216,"330":-1.9273866415023804,"331":2.5633654594421387,"332":-2.9638290405273438,"333":-1.1732999086380005,"334":-3.324249267578125,"335":2.529582977294922,"336":-4.079189777374268,"337":3.6371562480926514,"338":-1.9361640214920044,"339":0.6097396612167358,"340":-1.8565654754638672,"341":2.071629524230957,"342":-0.8032285571098328,"343":-0.9944502115249634,"344":1.8423596620559692,"345":-5.497520923614502,"346":2.413296699523926,"347":-1.5960291624069214,"348":5.590632438659668,"349":-0.34056663513183594,"350":1.72263503074646,"351":2.1986870765686035,"352":-3.660658836364746,"353":-1.2260987758636475,"354":3.4395978450775146,"355":5.308291435241699,"356":-4.240641117095947,"357":4.056236267089844,"358":1.7575944662094116,"359":-2.598905324935913,"360":-1.6334599256515503,"361":0.027796965092420578,"362":2.8746871948242188,"363":-0.9984572529792786,"364":0.6543411016464233,"365":0.24312424659729004,"366":-0.7536265850067139,"367":-2.8223748207092285,"368":-0.5268913507461548,"369":-1.2678097486495972,"370":-0.7490440607070923,"371":1.4971444606781006,"372":-3.3623342514038086,"373":1.0197882652282715,"374":2.699620008468628,"375":3.1550841331481934,"376":1.4891674518585205,"377":-0.46072283387184143,"378":-1.5715080499649048,"379":1.7073765993118286,"380":1.4985321760177612,"381":-2.61283278465271,"382":0.774415910243988,"383":0.6565311551094055,"384":1.4447249174118042,"385":-0.6189714074134827,"386":4.281793594360352,"387":1.0994775295257568,"388":-4.732755184173584,"389":-0.2621823847293854,"390":1.1739656925201416,"391":1.0252723693847656,"392":-1.3814359903335571,"393":3.574033260345459,"394":2.188098192214966,"395":1.1438356637954712,"396":-4.497147083282471,"397":-4.109569549560547,"398":-1.0670229196548462,"399":3.0128653049468994}},"forgetBias":{"rows":20,"columns":1,"weights":{"0":0,"1":0,"2":0,"3":0,"4":0,"5":0,"6":0,"7":0,"8":0,"9":0,"10":0,"11":0,"12":0,"13":0,"14":0,"15":0,"16":0,"17":0,"18":0,"19":0}},"outputMatrix":{"rows":20,"columns":31,"weights":{"0":3.0145270824432373,"1":-3.7034547328948975,"2":-0.0645175650715828,"3":0.13353541493415833,"4":-1.6112743616104126,"5":-1.64924156665802,"6":1.2170101404190063,"7":1.2974615097045898,"8":0.6147159337997437,"9":-0.5456028580665588,"10":-4.133016586303711,"11":0.8334802389144897,"12":1.0116993188858032,"13":-0.9435639977455139,"14":0.007966844365000725,"15":-0.29851457476615906,"16":1.08146071434021,"17":0.3095000982284546,"18":-3.8273186683654785,"19":2.721040964126587,"20":-0.1014697328209877,"21":-3.6510329246520996,"22":-1.4700229167938232,"23":2.8778369426727295,"24":1.0085417032241821,"25":1.4650616645812988,"26":-0.01160597987473011,"27":-5.576418399810791,"28":-0.8361490964889526,"29":0.8275309801101685,"30":-1.255435585975647,"31":0.06747652590274811,"32":1.8829478025436401,"33":-5.882284164428711,"34":2.121168613433838,"35":-1.5602508783340454,"36":-1.304808497428894,"37":-0.6142176985740662,"38":-1.0322802066802979,"39":0.4338166117668152,"40":-0.14427368342876434,"41":0.352762907743454,"42":0.6810122728347778,"43":-0.7062031626701355,"44":1.0915803909301758,"45":-1.2586357593536377,"46":-0.6034416556358337,"47":0.8101584911346436,"48":-0.8612326979637146,"49":0.13691994547843933,"50":2.5251379013061523,"51":1.2053632736206055,"52":-0.1369577795267105,"53":-0.1904141902923584,"54":-2.5287907123565674,"55":1.0158820152282715,"56":-0.8389565944671631,"57":2.660853624343872,"58":1.1256625652313232,"59":0.9122999906539917,"60":2.1607110500335693,"61":2.784851312637329,"62":0.7931109666824341,"63":-3.204291582107544,"64":0.9376779794692993,"65":-1.3952085971832275,"66":2.3419582843780518,"67":0.00010979807848343626,"68":3.335697650909424,"69":0.38820233941078186,"70":0.3663060665130615,"71":1.0601414442062378,"72":-1.495846152305603,"73":-1.7227519750595093,"74":0.3443530797958374,"75":-0.9955706000328064,"76":-1.2242869138717651,"77":0.6411041617393494,"78":1.92130446434021,"79":-4.399120807647705,"80":0.4762713611125946,"81":-0.6144010424613953,"82":3.7234232425689697,"83":0.6445919275283813,"84":0.6788526177406311,"85":-2.410836696624756,"86":-1.7068214416503906,"87":-4.433144569396973,"88":2.9313998222351074,"89":-0.06540469825267792,"90":-0.3898138701915741,"91":0.02514161355793476,"92":0.318283349275589,"93":4.620582580566406,"94":-1.892166256904602,"95":-1.8068101406097412,"96":0.7718769907951355,"97":-1.6758828163146973,"98":0.9232193231582642,"99":-2.5701823234558105,"100":-1.3106741905212402,"101":0.23920267820358276,"102":4.98252010345459,"103":-0.1979081779718399,"104":-1.071468472480774,"105":3.2042155265808105,"106":-4.264272689819336,"107":-3.407883644104004,"108":0.5630471110343933,"109":-0.02098213881254196,"110":0.9844209551811218,"111":-0.49778375029563904,"112":2.7539448738098145,"113":-0.6663346886634827,"114":0.3068363666534424,"115":-3.424100399017334,"116":0.35660338401794434,"117":0.5294435024261475,"118":-0.2055457979440689,"119":0.5074817538261414,"120":-0.4226144552230835,"121":-0.6521325707435608,"122":-3.609501600265503,"123":1.0032780170440674,"124":-1.0420540571212769,"125":0.0900767594575882,"126":-0.8705222606658936,"127":-2.374542236328125,"128":-1.3711521625518799,"129":0.06997654587030411,"130":-4.646498680114746,"131":-4.502355098724365,"132":-0.8595411777496338,"133":0.8986361622810364,"134":-2.4723637104034424,"135":1.1084402799606323,"136":2.2277417182922363,"137":-0.03824055939912796,"138":-0.0035064895637333393,"139":0.8864452242851257,"140":0.953534722328186,"141":-0.06095670163631439,"142":-0.5318520665168762,"143":2.642016887664795,"144":3.081353187561035,"145":-0.7566432356834412,"146":0.6325638890266418,"147":-1.9518277645111084,"148":-0.7876991629600525,"149":0.9759771823883057,"150":1.9675754308700562,"151":-0.1106734424829483,"152":-3.698812961578369,"153":-0.6889225244522095,"154":-0.7706493735313416,"155":-3.4101569652557373,"156":1.8284389972686768,"157":1.8793874979019165,"158":0.054437946528196335,"159":3.5590739250183105,"160":-1.2030733823776245,"161":2.5276706218719482,"162":-1.1401491165161133,"163":-0.92093825340271,"164":2.5006542205810547,"165":-0.4135803282260895,"166":-3.7642743587493896,"167":0.7141402363777161,"168":-1.3446252346038818,"169":3.1287734508514404,"170":1.4183416366577148,"171":-0.24824899435043335,"172":-0.8015729784965515,"173":3.9117159843444824,"174":1.8214502334594727,"175":2.2429590225219727,"176":3.315765380859375,"177":0.12077214568853378,"178":0.8961250185966492,"179":1.0855704545974731,"180":4.519284725189209,"181":1.4749265909194946,"182":1.5622018575668335,"183":1.749069333076477,"184":-1.2995145320892334,"185":5.142579555511475,"186":2.257143259048462,"187":-0.5359687209129333,"188":-2.4780712127685547,"189":-1.4871076345443726,"190":3.19350004196167,"191":0.46441593766212463,"192":2.128122329711914,"193":-2.401554584503174,"194":1.682254433631897,"195":1.071201205253601,"196":3.441129684448242,"197":0.8870145678520203,"198":-2.4850680828094482,"199":-2.6969785690307617,"200":-2.2502923011779785,"201":-1.7645459175109863,"202":0.767892599105835,"203":0.8845509886741638,"204":2.1808035373687744,"205":1.3673717975616455,"206":-2.626011848449707,"207":-0.7004342675209045,"208":2.1474616527557373,"209":-0.6180133819580078,"210":-1.9804750680923462,"211":-1.6210516691207886,"212":1.9887415170669556,"213":-0.42178890109062195,"214":-0.9568626880645752,"215":-1.3615115880966187,"216":-0.4966880977153778,"217":-1.7517387866973877,"218":-2.337661027908325,"219":2.9244513511657715,"220":-1.9953426122665405,"221":-4.370016098022461,"222":-1.7823418378829956,"223":-3.62241530418396,"224":-1.7195558547973633,"225":0.783981442451477,"226":-0.6768901944160461,"227":-1.8377363681793213,"228":-0.5294697880744934,"229":3.037806510925293,"230":-0.1290075033903122,"231":-4.454624652862549,"232":-0.8379004597663879,"233":0.042217690497636795,"234":2.4491705894470215,"235":-4.154703140258789,"236":0.11223568022251129,"237":1.0568879842758179,"238":-1.4640388488769531,"239":-1.6757630109786987,"240":2.792846441268921,"241":2.1482412815093994,"242":6.090760707855225,"243":-1.8617768287658691,"244":3.7174832820892334,"245":-1.4827816486358643,"246":2.2910962104797363,"247":-0.9343730211257935,"248":0.15374653041362762,"249":-0.5202259421348572,"250":1.027106761932373,"251":3.268890857696533,"252":-0.45796528458595276,"253":-1.0102096796035767,"254":-2.5187246799468994,"255":0.949528157711029,"256":0.9434201121330261,"257":-2.44104266166687,"258":-0.668364405632019,"259":-2.640969753265381,"260":-4.123598575592041,"261":-5.301894187927246,"262":-0.9641029834747314,"263":-1.1456626653671265,"264":-1.3866902589797974,"265":0.901639997959137,"266":-0.5923051238059998,"267":-0.05364397168159485,"268":-2.8863906860351562,"269":2.4829909801483154,"270":-2.005558729171753,"271":3.1156387329101562,"272":1.1362518072128296,"273":-1.6844571828842163,"274":-4.9261016845703125,"275":-0.9968586564064026,"276":0.6046154499053955,"277":0.6966679692268372,"278":-0.5365800261497498,"279":-0.737762451171875,"280":-0.7565512657165527,"281":-0.4372195303440094,"282":1.5053720474243164,"283":-1.000260353088379,"284":0.16751570999622345,"285":0.7699008584022522,"286":-1.4838221073150635,"287":1.7826356887817383,"288":-1.9108530282974243,"289":0.48987090587615967,"290":3.5632076263427734,"291":-0.8648275136947632,"292":-3.1899936199188232,"293":-4.21992301940918,"294":-0.6894322037696838,"295":1.6526498794555664,"296":-1.7308510541915894,"297":-3.080904960632324,"298":2.068822145462036,"299":-0.7193343639373779,"300":-0.005546524655073881,"301":-0.05233234167098999,"302":-1.3611105680465698,"303":1.4744495153427124,"304":1.5681846141815186,"305":-0.25580519437789917,"306":1.2582385540008545,"307":-1.9443776607513428,"308":1.583483338356018,"309":-2.3618969917297363,"310":2.220215320587158,"311":-1.1142643690109253,"312":-4.49753999710083,"313":-2.1150600910186768,"314":-0.4656938314437866,"315":0.6490378379821777,"316":-3.285015821456909,"317":0.8698713183403015,"318":-0.8284891247749329,"319":-2.903149366378784,"320":1.4160451889038086,"321":-3.0484213829040527,"322":-0.7851938605308533,"323":0.971742570400238,"324":-0.047760944813489914,"325":1.1526901721954346,"326":-2.343388319015503,"327":-0.3014299273490906,"328":-3.3299856185913086,"329":0.20101232826709747,"330":3.2576611042022705,"331":-0.8144050240516663,"332":2.652299642562866,"333":0.7264507412910461,"334":-2.6471688747406006,"335":0.9741638898849487,"336":1.6733918190002441,"337":1.5931710004806519,"338":-0.05359338968992233,"339":-1.2436978816986084,"340":-3.367971658706665,"341":-0.619110107421875,"342":0.3347722887992859,"343":-0.7118051052093506,"344":-1.7056246995925903,"345":-0.6408511996269226,"346":-0.412250280380249,"347":-1.0588449239730835,"348":0.3289283514022827,"349":-1.1159130334854126,"350":-0.9877299070358276,"351":2.3053395748138428,"352":0.21862341463565826,"353":0.5454516410827637,"354":-1.6327383518218994,"355":4.970414161682129,"356":-1.3504446744918823,"357":1.2270376682281494,"358":1.0792794227600098,"359":1.997943639755249,"360":4.696834564208984,"361":3.0707662105560303,"362":-1.9212592840194702,"363":1.1465901136398315,"364":-3.373729705810547,"365":-2.3444011211395264,"366":2.433089256286621,"367":2.10068941116333,"368":0.5554656982421875,"369":-1.1927428245544434,"370":-1.1507240533828735,"371":1.7076929807662964,"372":0.5681983232498169,"373":-1.6448272466659546,"374":0.5217246413230896,"375":-0.5909045338630676,"376":0.7516418099403381,"377":1.259763479232788,"378":3.069390296936035,"379":1.645480751991272,"380":-2.7522034645080566,"381":-3.401028871536255,"382":-1.1499446630477905,"383":-1.2349190711975098,"384":4.938628673553467,"385":-1.674072504043579,"386":1.8797833919525146,"387":-0.05927713215351105,"388":-2.121119499206543,"389":-1.2407993078231812,"390":-0.31557443737983704,"391":0.05012958124279976,"392":1.3487077951431274,"393":-0.8218609094619751,"394":0.6505466103553772,"395":2.5458860397338867,"396":-0.7064841985702515,"397":1.7325501441955566,"398":1.8095176219940186,"399":-1.7953091859817505,"400":-1.8871917724609375,"401":-1.1575613021850586,"402":-3.5557868480682373,"403":-3.0142154693603516,"404":1.4615521430969238,"405":-0.842704713344574,"406":1.224819302558899,"407":-1.8121708631515503,"408":1.1780911684036255,"409":-1.8645111322402954,"410":-2.0641937255859375,"411":-3.582521677017212,"412":0.2500833570957184,"413":0.3086998760700226,"414":-0.9876481294631958,"415":-0.1615527719259262,"416":2.6132612228393555,"417":1.810153603553772,"418":0.1870335042476654,"419":-3.0521819591522217,"420":-1.8671133518218994,"421":0.9026318788528442,"422":-0.034383732825517654,"423":-1.4701799154281616,"424":3.4279532432556152,"425":-3.8208470344543457,"426":2.082477331161499,"427":0.3802325427532196,"428":2.4325478076934814,"429":0.9746425151824951,"430":-0.34243273735046387,"431":-0.3009911775588989,"432":-0.3588829040527344,"433":2.35076642036438,"434":1.6937685012817383,"435":2.016528606414795,"436":-1.6670340299606323,"437":2.545396089553833,"438":0.57517409324646,"439":1.1163939237594604,"440":-2.3968989849090576,"441":-0.622867226600647,"442":1.77387273311615,"443":3.2027158737182617,"444":0.9404565095901489,"445":-4.563952445983887,"446":0.38951626420021057,"447":-3.5258195400238037,"448":1.4984691143035889,"449":-0.9814527034759521,"450":0.652843713760376,"451":4.483456611633301,"452":-0.5787334442138672,"453":1.4031214714050293,"454":0.04013867303729057,"455":-1.4259788990020752,"456":-1.3628569841384888,"457":-1.2433419227600098,"458":-1.3515305519104004,"459":1.182814121246338,"460":1.886000394821167,"461":-5.00653600692749,"462":-4.26074743270874,"463":-0.3424699306488037,"464":1.4409434795379639,"465":-0.043738916516304016,"466":-1.6004443168640137,"467":0.6235355734825134,"468":-0.15911145508289337,"469":0.9713305234909058,"470":-4.6987996101379395,"471":0.51019287109375,"472":-0.8345454335212708,"473":-0.5127970576286316,"474":0.6726264953613281,"475":-0.9117516279220581,"476":-5.030539035797119,"477":1.5862160921096802,"478":-2.62821888923645,"479":-3.260047197341919,"480":-1.7231839895248413,"481":1.7810161113739014,"482":-0.6072295904159546,"483":-1.3161749839782715,"484":1.5302014350891113,"485":0.6505749821662903,"486":-0.14053916931152344,"487":-0.5177240967750549,"488":-3.0936195850372314,"489":-0.2967451214790344,"490":0.5433570742607117,"491":1.9279687404632568,"492":3.216940402984619,"493":-3.5145528316497803,"494":-4.71929931640625,"495":-0.23424294590950012,"496":0.3968854248523712,"497":0.7709229588508606,"498":1.1794685125350952,"499":0.7249043583869934,"500":1.3132898807525635,"501":-1.235059142112732,"502":1.263034701347351,"503":0.7687709927558899,"504":-2.985126256942749,"505":-1.683946132659912,"506":-1.3083786964416504,"507":0.9545900225639343,"508":-0.5911487340927124,"509":-1.4213756322860718,"510":3.8842508792877197,"511":0.4585407078266144,"512":-2.4139068126678467,"513":-1.0080522298812866,"514":1.026698350906372,"515":0.9693790078163147,"516":-3.9858107566833496,"517":3.9271857738494873,"518":0.15295574069023132,"519":2.584730863571167,"520":2.7454757690429688,"521":-1.8412972688674927,"522":-1.8648715019226074,"523":1.3065119981765747,"524":-0.2954166829586029,"525":1.0497267246246338,"526":-0.950465738773346,"527":-1.7376724481582642,"528":2.5460100173950195,"529":-2.004387378692627,"530":1.222941279411316,"531":3.831899404525757,"532":2.76601505279541,"533":-2.5114073753356934,"534":-3.0888235569000244,"535":3.1614413261413574,"536":-2.2258107662200928,"537":0.8316574096679688,"538":-0.2982232868671417,"539":0.2735176980495453,"540":-0.012760445475578308,"541":-0.8743177056312561,"542":-2.2572367191314697,"543":-0.5283707976341248,"544":-1.0070158243179321,"545":-2.8836071491241455,"546":-1.949259877204895,"547":0.186489075422287,"548":2.205078125,"549":0.323487788438797,"550":-3.8525376319885254,"551":-3.6271417140960693,"552":-1.3108843564987183,"553":-1.558798909187317,"554":0.03165219724178314,"555":-2.307954788208008,"556":2.027541399002075,"557":-1.4552550315856934,"558":2.04115629196167,"559":-1.7370387315750122,"560":0.7272328734397888,"561":1.6193883419036865,"562":-2.3616909980773926,"563":1.9458348751068115,"564":1.2978829145431519,"565":1.540597915649414,"566":3.3442976474761963,"567":-1.1875848770141602,"568":0.1355936974287033,"569":0.48612844944000244,"570":-0.11330462247133255,"571":-2.8206961154937744,"572":-0.08420295268297195,"573":-0.05590900778770447,"574":1.4182530641555786,"575":-0.4326472878456116,"576":-5.477451324462891,"577":-0.22799427807331085,"578":-3.1439566612243652,"579":2.0559966564178467,"580":-3.6416590213775635,"581":1.5616743564605713,"582":2.817274570465088,"583":1.3970345258712769,"584":-3.061377763748169,"585":0.4477911591529846,"586":2.855520009994507,"587":2.2157700061798096,"588":0.344350129365921,"589":2.099456310272217,"590":-4.70529842376709,"591":2.030989170074463,"592":0.7388453483581543,"593":4.202715873718262,"594":0.4768352210521698,"595":-0.8064808249473572,"596":-2.2629194259643555,"597":-3.0322065353393555,"598":2.0058066844940186,"599":-1.8599460124969482,"600":3.6984050273895264,"601":3.3312222957611084,"602":-1.6269334554672241,"603":2.1351442337036133,"604":1.3267425298690796,"605":4.209352016448975,"606":-0.9591259956359863,"607":-0.2877432107925415,"608":0.5298276543617249,"609":-1.5844980478286743,"610":1.9762707948684692,"611":-1.1295490264892578,"612":-4.035644054412842,"613":-1.9865226745605469,"614":-1.3909635543823242,"615":2.8818182945251465,"616":-0.5306050181388855,"617":0.036755193024873734,"618":-0.004235461354255676,"619":2.7690141201019287}},"outputHidden":{"rows":20,"columns":20,"weights":{"0":-0.8056224584579468,"1":-1.5663598775863647,"2":0.8662408590316772,"3":1.4726784229278564,"4":0.6276645064353943,"5":0.8047460317611694,"6":0.9078013896942139,"7":-0.4722146987915039,"8":0.5394921898841858,"9":-1.5556796789169312,"10":-1.02537202835083,"11":-0.31586986780166626,"12":2.063870906829834,"13":1.0344568490982056,"14":-0.8152624368667603,"15":1.3888325691223145,"16":-1.8895785808563232,"17":-3.9509878158569336,"18":2.6429898738861084,"19":2.5799741744995117,"20":1.9641410112380981,"21":-1.7618470191955566,"22":1.4741528034210205,"23":3.1094517707824707,"24":5.609222412109375,"25":-2.3126327991485596,"26":0.09324420243501663,"27":-0.3158257305622101,"28":-2.8551039695739746,"29":-1.3926479816436768,"30":1.2531570196151733,"31":-0.920073390007019,"32":3.2624351978302,"33":-3.80820631980896,"34":1.1228758096694946,"35":3.822129487991333,"36":2.6774580478668213,"37":-0.7284747362136841,"38":-3.3633363246917725,"39":-4.194548606872559,"40":1.1022295951843262,"41":0.7195418477058411,"42":6.152138710021973,"43":-1.1967298984527588,"44":1.037004828453064,"45":1.3755812644958496,"46":-1.892689824104309,"47":0.982241690158844,"48":0.4755127727985382,"49":3.245103597640991,"50":1.3540536165237427,"51":6.2286858558654785,"52":-0.5691111087799072,"53":-2.118598222732544,"54":-5.801576137542725,"55":0.3949807584285736,"56":-3.706937313079834,"57":-0.32957616448402405,"58":1.3850889205932617,"59":0.2729611098766327,"60":7.051120758056641,"61":-8.556385040283203,"62":6.2568039894104,"63":-5.374114036560059,"64":-7.828808784484863,"65":6.808076858520508,"66":1.3185476064682007,"67":2.53228759765625,"68":10.516160011291504,"69":-1.533703088760376,"70":4.9796013832092285,"71":-0.5694347620010376,"72":0.6850026845932007,"73":-0.02761276252567768,"74":9.095419883728027,"75":-3.1790716648101807,"76":0.3577194809913635,"77":-0.10693695396184921,"78":6.1768059730529785,"79":-1.1028530597686768,"80":3.9851479530334473,"81":3.049104690551758,"82":-3.614659547805786,"83":-4.531846523284912,"84":-0.4142913818359375,"85":-8.432979583740234,"86":-8.95490550994873,"87":-12.466139793395996,"88":-9.224578857421875,"89":-1.8829032182693481,"90":-2.3785526752471924,"91":6.148587703704834,"92":-3.368079900741577,"93":-5.722623825073242,"94":0.8924102783203125,"95":-4.639004230499268,"96":8.499406814575195,"97":-1.1974191665649414,"98":-3.9204976558685303,"99":-15.742384910583496,"100":-2.3623034954071045,"101":1.1663646697998047,"102":-3.9673972129821777,"103":1.5030090808868408,"104":-1.4138764142990112,"105":-1.7305642366409302,"106":-0.7419885993003845,"107":1.8171433210372925,"108":5.183629512786865,"109":-3.0846076011657715,"110":-0.7594954371452332,"111":-1.6132593154907227,"112":-3.433112621307373,"113":0.15296751260757446,"114":-1.5900832414627075,"115":4.156429290771484,"116":0.9418640732765198,"117":0.8371235728263855,"118":2.8540139198303223,"119":2.805389404296875,"120":3.250723123550415,"121":0.5108197927474976,"122":-1.5953912734985352,"123":0.2504608631134033,"124":2.2474920749664307,"125":5.963226318359375,"126":-4.322972297668457,"127":-2.2527379989624023,"128":-1.1865922212600708,"129":-3.1871018409729004,"130":1.257485032081604,"131":-4.491748332977295,"132":-1.5023010969161987,"133":-4.870389938354492,"134":-2.113039493560791,"135":4.6915740966796875,"136":-2.9108188152313232,"137":-1.3058120012283325,"138":-7.247688293457031,"139":-7.989344120025635,"140":-1.3993065357208252,"141":4.034389019012451,"142":2.137667655944824,"143":-3.774144411087036,"144":2.390686273574829,"145":3.3866090774536133,"146":3.5360419750213623,"147":-6.683199405670166,"148":-6.978457927703857,"149":-2.0628201961517334,"150":2.2209360599517822,"151":4.766592979431152,"152":2.3101933002471924,"153":-2.0189573764801025,"154":3.539713144302368,"155":2.0439999103546143,"156":0.9363320469856262,"157":-3.1549713611602783,"158":5.508060932159424,"159":-1.0898780822753906,"160":-2.867077350616455,"161":-0.3097017705440521,"162":10.89921760559082,"163":-0.783496618270874,"164":2.65594482421875,"165":-1.507784128189087,"166":-2.8543405532836914,"167":4.2691969871521,"168":4.069553852081299,"169":-1.9553461074829102,"170":4.280168533325195,"171":3.355178117752075,"172":-8.272560119628906,"173":-2.070507287979126,"174":-0.4338517487049103,"175":-8.798622131347656,"176":7.3177080154418945,"177":0.1307307332754135,"178":-0.03576342761516571,"179":3.568484306335449,"180":0.9834307432174683,"181":0.1874716728925705,"182":-0.4040950834751129,"183":-0.1505260169506073,"184":-0.08954394608736038,"185":-0.8502293229103088,"186":0.2572256922721863,"187":-0.744692325592041,"188":-0.04250084236264229,"189":0.8775785565376282,"190":2.649850368499756,"191":-0.9255849123001099,"192":1.5468868017196655,"193":-2.572585344314575,"194":0.3147640526294708,"195":-5.268186092376709,"196":1.4088646173477173,"197":-4.5347442626953125,"198":1.459621787071228,"199":-0.06752044707536697,"200":-1.6473217010498047,"201":-7.244836330413818,"202":-2.3143041133880615,"203":1.0791075229644775,"204":-4.9658918380737305,"205":7.149670124053955,"206":9.179880142211914,"207":7.384213924407959,"208":4.373565196990967,"209":2.1970932483673096,"210":6.918281078338623,"211":-5.77278470993042,"212":4.415861129760742,"213":-4.065577507019043,"214":-3.864983081817627,"215":-10.684093475341797,"216":-7.048682689666748,"217":-2.856311321258545,"218":-1.1279014348983765,"219":-2.6353607177734375,"220":-1.0420362949371338,"221":-0.9967391490936279,"222":4.062764644622803,"223":2.575698137283325,"224":2.898725748062134,"225":3.9339256286621094,"226":-3.9301741123199463,"227":1.534720540046692,"228":-11.929438591003418,"229":2.50030779838562,"230":3.3202617168426514,"231":3.3916738033294678,"232":-6.639763355255127,"233":-8.219145774841309,"234":-0.7834682464599609,"235":4.626857757568359,"236":0.7834187746047974,"237":5.25678014755249,"238":-5.0258307456970215,"239":-4.394246578216553,"240":6.9787492752075195,"241":3.462792158126831,"242":-1.7447123527526855,"243":-11.597772598266602,"244":-0.022112861275672913,"245":-4.463374614715576,"246":-8.456670761108398,"247":3.3752646446228027,"248":-2.4521291255950928,